tree
version=v4
num_class=1
num_tree_per_iteration=1
label_index=0
max_feature_idx=54
objective=binary sigmoid:1
feature_names=advance_final_count_90d age bike_class car_no dow good_track_race_ave good_track_race_best good_track_rate2_180d good_track_run_count_180d good_track_trial_ave graduation_code handicap handicap_diff_min is_absent log_place_odds_max log_place_odds_min log_win_odds month order1_count_90d order2_count_90d order3_count_90d order_other_count_90d place_code place_odds_max place_odds_min place_odds_min_rank player_place_code player_place_name race_dev_num race_handicap_max race_handicap_min race_n_absent race_n_cars race_no rain_expect_code rank_class rank_num rate2 rate3 run_count_90d st_ave_90d sunny_expect_code this_year_advance_final this_year_win_count total_win_count wet_track_rate2_180d wet_track_run_count_180d win_count_90d win_implied_prob win_odds win_odds_rank win_rate1 win_rate2 win_rate3 year
feature_infos=[0:12] [18:79] -1:0:1 -1:2:3:5:1:4:0:6:7 -1:5:6:4:0:3:2:1 [0:3.8420000000000001] [0:3.8420000000000001] [0:100] [0:91] [0:3.7200000000000002] -1:23:22:19:21:20:18:25:17:28:27:26:24:13:16:15:14:29:8:30:7:31:11:9:10:32:3:12:6:2:0:1:4 [0:90] [0:90] none [0.69314718055994529:8.4703112055161078] [0.69314718055994529:5.7474803299219204] [0.69314718055994529:6.7951463345994831] -1:4:6:5:9:11:10:8:7:3:0:2:1 [0:10] [0:8] [0:7] [0:10] -1:0:3:1:4:2 [1:4770] [1:312.39999999999998] [1:8] -1:1:0:3:4:2 -1:0:2:4:1:3 [0:217] [0:90] [0:10] [0:2] [5:8] -1:5:4:3:2:6:1:7:0:8:10:9:11 none -1:0:1:2 [1:232] [0:100] [0:100] [0:62] [0:0.42999999999999999] none [0:30] [0:17] [0:220] [0:100] [0:27] [0:6] [0.0011204481792717086:1] [1:892.5] [1:8] [0:100] [0:100] [0:100] -1:4:3:2:1:0
tree_sizes=6876 6932 6969 6927 6944 6969 6976 6942 6978 6987 6962 6983 6943 6991 6959 6989 6941 6975 6958 6955 6941 6915 7015 6943 6940 6959 6928 6944 6967 6933 6959 6910 6890 6972 6948 6932 6909 6907 6908 6915 6890 6885 6922 6922 6923 6905 6947 6898 6959 6864 6901 6904 6946 6896 6889 6864 6917 6889 6842 6934 6906 6857 6922 6919 6853 6890 6925 6892 6907 6950 6877 6874 6880 6890 6833 6875 6876 6873 6861 6863 6874 6912 6830 6896 6890 6903 6887 6866 6918 6878 6933 6869 6873 6883 6784 6883 6889 6835 6925 6880 6779 6894 6873 6806 6873 6905 6874 6881 6876 6878 6816 6802 6861 6804 6812 6801 6835 6812 6832 6842 6839 6865 6878 6862 6915 6800 6837 6778 6803 6902 6860 6838 6892 6737 6804 6864 6842 6832 6785 6844 6895 6838 6827 6847 6818 6828 6803 6881 6833 6778 6831 6821 6802 6797 6849 6775 6714 6787 6750 6763 6813 6829 6793 6795 6758 6832 6864 6849 6814 6792 6772 6812 6821 6786 6844 6801 6794 6801 6755 6834 6838 6795 6779 6756 6838 6770 6831 6830 6878 6787 6803 6753 6800 6797 6878 6821

Tree=0
num_leaves=63
num_cat=0
split_feature=50 48 16 25 16 16 16 16 16 25 25 25 50 25 25 50 24 16 50 24 24 11 48 32 16 50 50 25 16 25 53 25 48 25 16 14 32 5 24 1 24 16 5 24 53 53 14 1 16 32 24 51 1 53 32 53 53 53 25 25 32 48
split_gain=38778.9 5055.46 4805.66 926.253 834.553 626.269 600.783 354.936 295.559 264.22 230.821 224.81 162.999 161.973 104.607 101.051 98.9476 82.7604 68.4213 68.3079 67.3576 59.6707 55.8002 53.8083 53.1894 47.642 46.2114 48.2993 43.9047 39.1137 43.3527 38.1866 38.0153 36.401 35.9926 35.7298 35.0963 32.652 32.0971 31.9647 31.9061 30.1291 29.8299 29.7644 29.5023 29.1421 29.1405 27.9746 27.2257 26.8754 36.9835 26.7153 26.616 26.3766 25.8476 25.3219 24.1359 23.5814 23.443 22.6047 22.2065 21.982
threshold=3.5000000000000004 0.063492703378214957 1.2382692000587421 3.5000000000000004 3.3928277196600067 2.287458571408536 0.93590108845079578 1.599336558775341 1.6955735229043272 5.5000000000000009 5.5000000000000009 4.5000000000000009 4.5000000000000009 3.5000000000000004 4.5000000000000009 2.5000000000000004 1.3500000000000003 0.76519735254682386 5.5000000000000009 1.1500000000000001 1.3500000000000003 25.000000000000004 0.020512842091089646 7.5000000000000009 1.9670879050346399 5.5000000000000009 6.5000000000000009 3.5000000000000004 1.9242220118926376 6.5000000000000009 34.550000000000004 3.5000000000000004 0.10811126694717159 3.5000000000000004 1.9387157803292638 2.3272658077629083 7.5000000000000009 3.5425000000000004 1.2500000000000002 35.500000000000007 1.4500000000000002 1.011435595095721 3.5235000000000007 3.9500000000000006 32.45000000000001 31.650000000000002 3.3339870432574523 27.500000000000004 1.1472764606483909 7.5000000000000009 1.5500000000000003 12.950000000000001 48.500000000000007 31.850000000000005 7.5000000000000009 36.050000000000004 30.550000000000004 35.250000000000007 5.5000000000000009 5.5000000000000009 7.5000000000000009 0.049140345793489817
decision_type=8 10 10 8 8 10 10 10 10 8 8 8 8 8 10 10 10 10 10 10 10 2 10 2 10 8 10 10 10 10 2 10 10 10 10 10 2 2 10 2 10 10 2 10 2 2 10 2 10 2 10 2 2 2 2 2 2 2 10 10 2 10
left_child=2 4 6 7 10 13 17 19 20 12 26 18 33 24 32 38 23 -1 44 36 -5 34 -11 48 -3 -14 27 35 -15 30 -13 -18 -10 -6 52 -2 -4 43 54 -34 -19 -25 -24 61 -7 -30 -16 -26 -8 50 -21 -46 -17 -29 56 -36 -9 -38 -22 -47 -23 -12
right_child=1 5 3 8 9 11 16 15 14 22 37 29 25 28 46 21 31 40 -20 49 58 60 42 41 47 -27 -28 53 45 -31 -32 -33 39 -35 55 -37 57 -39 -40 -41 -42 -43 -44 -45 51 59 -48 -49 -50 -51 -52 -53 -54 -55 -56 -57 -58 -59 -60 -61 -62 -63
leaf_value=-0.24921290040351929 -0.38503584902874666 -0.33368560567759559 -0.2889754208026708 -0.31807775567244423 -0.3438908874172576 -0.38123253341558833 -0.27359265189641835 -0.36172238316245175 -0.36212734267118474 -0.43203377756137307 -0.40914041640580678 -0.39666812757088343 -0.39913712038234872 -0.3516030620709879 -0.36570170154189868 -0.33424975632259918 -0.29685471424948784 -0.26417698272810375 -0.38423956533299336 -0.30017846534086745 -0.33402420946837175 -0.31371921178684986 -0.4211658733565693 -0.2787404800766794 -0.3746140240837737 -0.41607963099320916 -0.40268275785896435 -0.40931484612137342 -0.38693280933879931 -0.40019389047767151 -0.38271421761948693 -0.3208754673815829 -0.35794174000300943 -0.38521883813654706 -0.35334786990715922 -0.3621487052140766 -0.31870561925254132 -0.42872285861104287 -0.32410010287116264 -0.339916047473595 -0.29057075498733942 -0.29346268291923633 -0.43424279325055704 -0.41675661721769297 -0.35774150443327574 -0.36283875802436433 -0.39315076242716518 -0.34863292962457065 -0.28799672375978042 -0.32095179452296974 -0.31712155490046484 -0.3687302305827449 -0.31787949247225261 -0.39157979238092055 -0.31309447082476738 -0.33646485944236026 -0.28907264729575111 -0.30036464374641153 -0.35479647446475526 -0.37673266587492793 -0.32860165045632028 -0.4006340467511646
leaf_weight=1183.3668839931488 887.04097032546997 687.31149420142174 649.78656232357025 820.94867095351219 88.607258498668671 301.8941293656826 1201.524109095335 12.1048167347908 370.40739208459854 3434.862796664238 1845.5003593862057 715.3946690261364 501.1394128203392 567.23171219229698 733.79399046301842 722.17336639761925 687.55359053611755 2045.7140281796455 683.92214551568031 711.03693500161171 890.67241534590721 570.37896454334259 2997.6368162035942 459.25674691796303 114.02737364172935 2412.0057825744152 781.48696839809418 237.0123116672039 173.34097564220428 553.9164137840271 2508.1180274486542 217.88670122623444 320.0513544678688 133.63717675209045 317.63039112091064 211.10800385475159 204.57140281796455 195.37174209952354 483.22428405284882 1062.076620310545 121.29026368260384 1428.3683747053146 510.33907353878021 745.17251819372177 881.71485096216202 1522.7859452366829 111.36431396007538 1133.7371353805065 451.2675678730011 560.45301482081413 588.77828598022461 1484.0505316853523 378.39657112956047 1815.9646065533161 628.23998853564262 738.39382082223892 205.78188449144363 1222.8285865485668 160.26777356863022 362.41821303963661 447.15193018317223 1290.6155602633953
leaf_count=4888 3664 2839 2684 3391 366 1247 4963 50 1530 14188 7623 2955 2070 2343 3031 2983 2840 8450 2825 2937 3679 2356 12382 1897 471 9963 3228 979 716 2288 10360 900 1322 552 1312 872 845 807 1996 4387 501 5900 2108 3078 3642 6290 460 4683 1864 2315 2432 6130 1563 7501 2595 3050 850 5051 662 1497 1847 5331
internal_value=-0.359384 -0.395927 -0.306833 -0.325551 -0.412489 -0.3703 -0.275836 -0.315806 -0.343956 -0.422063 -0.400441 -0.379557 -0.410016 -0.355831 -0.35487 -0.325393 -0.287885 -0.259847 -0.37013 -0.30484 -0.328809 -0.33024 -0.427504 -0.284113 -0.344855 -0.413165 -0.391799 -0.3891 -0.36392 -0.38792 -0.385811 -0.302635 -0.347902 -0.368742 -0.334949 -0.380636 -0.298608 -0.408778 -0.313819 -0.34409 -0.265654 -0.289881 -0.423068 -0.407774 -0.366513 -0.367314 -0.369319 -0.351007 -0.277525 -0.311799 -0.307853 -0.364635 -0.328621 -0.393627 -0.307948 -0.341543 -0.293109 -0.302993 -0.337192 -0.36551 -0.320259 -0.40564
internal_weight=50484.1 29777.4 20706.7 12910.5 18087.5 11689.9 7796.23 8440.93 4469.58 10078.2 8009.27 7129.01 3135.39 4560.85 2597.69 4503.48 4445.86 3350.37 3351.58 3937.45 1871.89 3174.13 6942.84 3540.42 1935.08 2913.15 3932.61 3151.13 2625.78 3777.43 3223.51 905.44 1752.54 222.244 2156.59 1098.15 2077.19 4076.66 1329.35 1382.13 2167 1887.63 3507.98 3881.29 2667.66 2058.55 845.158 1247.76 1652.79 1860.27 1299.82 2365.77 1100.57 2052.98 846.127 1056.02 217.887 1427.4 1050.94 1885.2 1017.53 3136.12
internal_count=208529 122998 85531 53328 74712 48286 32203 34866 18462 41629 33083 29447 12951 18839 10730 18602 18364 13839 13844 16264 7732 13111 28678 14624 7993 12033 16244 13016 10846 15603 13315 3740 7239 918 8908 4536 8580 16839 5491 5709 8951 7797 14490 16032 11019 8503 3491 5154 6827 7684 5369 9772 4546 8480 3495 4362 900 5896 4341 7787 4203 12954
is_linear=0
shrinkage=1


Tree=1
num_leaves=63
num_cat=6
split_feature=50 16 16 16 25 16 16 25 25 25 16 16 25 50 25 16 50 50 25 16 16 48 25 53 29 50 2 25 2 25 16 25 2 25 1 53 50 14 15 25 14 50 15 5 16 15 50 15 53 1 2 48 2 52 32 53 2 32 44 32 50 53
split_gain=34919.2 4658.97 4251.07 849.26 675.159 667.895 654.656 253.852 247.521 178.646 176.426 159.014 157.389 150.413 147.276 96.2975 91.7435 77.5478 77.1614 63.961 61.6637 52.572 50.7876 50.279 45.1091 44.3282 43.1376 45.1499 42.0496 35.2571 34.9348 34.4847 33.4829 32.9747 32.7234 32.702 31.7999 31.428 31.3463 30.8861 32.0102 30.5497 28.8432 28.0829 27.6415 27.5775 27.1069 26.9963 26.4759 26.1342 25.2723 24.5524 24.6063 24.0889 23.8061 23.6222 22.542 22.2034 22.0707 22.2175 21.9269 21.7815
threshold=3.5000000000000004 2.8819995850723745 1.3736354571277458 0.97438160901885995 3.5000000000000004 2.287458571408536 3.3928277196600067 4.5000000000000009 5.5000000000000009 5.5000000000000009 1.8000241202036604 1.6581827230727291 2.5000000000000004 4.5000000000000009 4.5000000000000009 0.76519735254682386 2.5000000000000004 4.5000000000000009 4.5000000000000009 1.9670879050346399 1.0816615128302691 0.020512842091089646 5.5000000000000009 34.650000000000013 35.000000000000007 5.5000000000000009 0 6.5000000000000009 1 1.5000000000000002 2.8003208578683441 3.5000000000000004 2 3.5000000000000004 23.500000000000004 16.750000000000004 6.5000000000000009 1.8325494627242667 0.76519735254682386 3.5000000000000004 2.4203582520096725 5.5000000000000009 0.71754226264466137 3.5235000000000007 1.9242220118926376 1.8945885877146502 1.5000000000000002 0.85418893014450203 34.550000000000004 27.500000000000004 3 0.10811126694717159 4 16.050000000000004 7.5000000000000009 30.550000000000004 5 6.5000000000000009 1.0000000180025095e-35 7.5000000000000009 5.5000000000000009 34.650000000000013
decision_type=8 8 10 10 8 10 8 8 8 8 10 10 10 8 8 10 10 10 10 10 10 10 10 2 2 8 1 10 1 10 10 10 1 10 2 2 10 10 10 10 10 10 10 2 10 10 10 8 2 2 1 10 1 2 2 2 1 2 2 2 10 2
left_child=2 5 3 15 11 14 9 17 13 35 22 29 20 33 19 -1 42 56 51 -2 50 -10 28 34 -25 -15 27 30 57 -4 48 -14 46 -8 -18 -3 39 44 54 40 -37 55 -13 -23 -16 53 -22 -48 -9 -21 -5 -12 -53 -11 -17 -19 -7 -6 -31 -60 -55 -27
right_child=1 6 4 12 10 7 8 26 21 45 18 16 31 25 37 38 23 41 -20 49 32 43 -24 24 -26 61 -28 -29 -30 58 -32 -33 -34 -35 -36 36 -38 -39 -40 -41 -42 -43 -44 -45 -46 -47 47 -49 -50 -51 -52 52 -54 60 -56 -57 -58 -59 59 -61 -62 -63
leaf_value=0.10293087185824079 0.02118622602246607 -0.069512914953581445 0.052139757451913661 0.075583108453613074 0.042161193499984956 -0.00087655699071486075 0.01472163917837708 -0.032790507336008537 -0.06998336787773321 -0.069624943529381131 -0.0025633289322949579 0.053901035886899651 0.051842632493278362 -0.038010375617938436 0.0104613916260189 0.093574384820516346 -0.030162538863125501 -0.038862958207256187 -0.011792689553060684 -0.013622066583236002 0.056814125118311146 -0.059368553030374221 -0.0018266796035224641 0.023706991067369561 0.037735890491972811 -0.061964075399859743 -0.054663182922342651 -0.040268073636722163 -0.013326408561148693 0.020723998697398896 -0.036988071809464389 0.0342692170343925 0.035978596405089776 -0.024618566899706443 0.01573758641370069 -0.025810229944813426 -0.040839397814470296 -0.018266858257367322 0.074702791222467368 -0.032842797147322987 -0.0012249527205187901 -0.024560283040502236 0.037091134342483657 -0.072147483536980458 -0.0074850662947132844 -0.061298577770183708 0.069647116802199316 0.056633340795838351 -0.021074005364021473 0.0070589806085004638 0.043756879559207547 0.013768291970055985 -0.030620214652455409 -0.038877518028772672 0.083318594108986843 -0.010819694058588123 -0.035368900072959106 0.024837891221570443 0.048065813641032157 0.035398944407490661 -0.048300236801286159 -0.05139405094900687
leaf_weight=1203.220978140831 942.3642995506525 57.397405281662941 1382.7209357321262 1336.1010257303715 212.21941535174847 1421.464196652174 88.847221344709396 605.85377812385559 3386.5014263391495 109.81394888460636 370.22917404770851 405.2851410806179 691.45469845831394 497.42436155676842 273.94580066204071 1142.9279635995626 42.48519641160965 79.556208848953247 697.59797245264053 168.07453814148903 1253.8495375812054 2962.1880132555962 188.87686322629452 1433.4447622448206 954.58985334634781 682.77053293585777 155.31236608326435 620.21444319188595 67.058679476380348 121.70634914934635 569.28519122302532 468.17758156359196 122.55856972932816 133.0044264793396 451.36769691109657 747.04463106393814 710.31381779909134 513.18785117566586 503.44429689645767 1728.0194547325373 160.91598741710186 810.76817274093628 689.01782876253128 502.91675245761871 989.71256811916828 353.60997147858143 1488.2299175262451 544.24262352287769 2361.7092355936766 1676.2814336419106 65.43022558093071 1019.3515883386135 32.207318633794785 839.78754840791225 1120.6344302147627 1338.7308273762465 49.001157820224762 1440.4729148745537 849.11537450551987 584.44817207753658 2331.4051399677992 1703.2143213748932
leaf_count=4888 3879 239 5659 5452 872 5880 366 2520 14188 459 1530 1660 2830 2070 1130 4653 175 330 2887 696 5124 12382 780 5893 3920 2851 646 2582 276 499 2368 1923 501 552 1858 3100 2958 2123 2053 7183 665 3365 2826 2108 4094 1477 6083 2228 9797 6917 267 4199 133 3500 4563 5538 203 5923 3479 2397 9720 7112
internal_value=3.25218e-05 -0.0349232 0.0495317 0.0732008 0.0280298 -0.0118512 -0.0519952 -0.0205478 -0.0602458 -0.0403233 0.0117577 0.0375096 0.0612826 -0.0485357 0.00341661 0.0911222 0.0309916 -0.0109388 0.0018274 0.010589 0.0652686 -0.0655531 0.0227845 0.0263116 0.0293149 -0.0515881 -0.0287912 -0.0278246 0.0254875 0.0463307 -0.0256425 0.0447477 0.0616387 -0.00886359 0.0117889 -0.0320917 -0.0314498 -0.00783216 0.0859872 -0.0289196 -0.021453 -0.0168184 0.0433168 -0.0612233 -0.00359449 -0.048032 0.0625957 0.0661624 -0.023466 0.00517433 0.0740973 0.00851007 0.0124088 -0.0466022 0.088497 -0.0123927 -0.00202597 0.0270623 0.0411662 0.0429017 -0.0458049 -0.0544188
internal_weight=50453.1 29570.6 20882.5 9940.27 10942.2 12575.5 16995.2 8011.9 9956.87 7038.31 4028.01 6914.18 5970.04 3105.26 4563.57 3970.23 3976.19 3699.52 2119.39 2786.72 4810.41 6851.61 1908.63 2881.89 2388.03 2883.41 4312.38 4157.06 1719.75 2937.99 3536.85 1159.63 3408.88 221.852 493.853 3403.69 3346.29 1776.85 2767.01 2635.98 907.961 2229.06 1094.3 3465.1 1263.66 3634.62 3286.32 2032.47 2967.56 1844.36 1401.53 1421.79 1051.56 3281.01 2263.56 1418.29 1470.47 1652.69 1555.27 1433.56 3171.19 2385.98
internal_count=208529 122998 85531 40565 44966 52068 70930 33229 41629 29301 16600 28366 24408 12951 18839 16157 16332 15316 8749 11492 19655 28678 7851 11846 9813 12033 17913 17267 7071 12034 14685 4753 13936 918 2033 14145 13906 7347 11269 10948 3765 9233 4486 14490 5224 15156 13435 8311 12317 7613 5719 5862 4332 13679 9216 5868 6083 6795 6375 5876 13220 9963
cat_boundaries=0 1 2 3 4 5 6
cat_threshold=1 1 1 1 1 1
is_linear=0
shrinkage=0.05


Tree=2
num_leaves=63
num_cat=10
split_feature=50 49 48 48 49 48 25 50 25 25 48 48 25 25 48 25 25 50 50 25 10 2 53 48 10 32 2 25 10 48 48 15 48 49 25 25 2 5 49 50 1 25 10 32 25 14 49 50 15 10 25 15 15 53 44 15 10 1 48 52 28 10
split_gain=31496.9 4300.59 3771.14 752.886 613.643 606.334 602.379 233.869 232.03 165.823 158.277 141.335 135.322 127.088 113.438 111.262 97.0419 81.6452 70.4024 69.6633 48.1361 44.9939 44.8997 43.0322 42.8985 42.8961 39.8974 41.6096 37.7838 36.7456 34.5725 34.173 32.7758 32.1298 31.9933 31.2663 31.1548 30.9862 30.5725 29.6373 29.5547 29.4478 29.0449 28.8992 28.1874 28.5749 28.1473 27.4014 27.0357 26.4346 26.0896 25.8949 25.8451 24.3056 24.2266 23.8486 23.7749 23.6466 22.6935 22.6162 22.4829 22.4813
threshold=3.5000000000000004 16.850000000000005 0.33908045977011497 0.57189542483660138 28.750000000000004 0.11299795709908071 3.5000000000000004 5.5000000000000009 4.5000000000000009 5.5000000000000009 0.19803921568627456 0.23532668881506094 3.5000000000000004 2.5000000000000004 0.7417582417582419 6.5000000000000009 3.5000000000000004 2.5000000000000004 4.5000000000000009 4.5000000000000009 0 1 34.650000000000013 0.16001024065540195 2 7.5000000000000009 3 6.5000000000000009 4 0.4446640316205534 0.9545454545454547 1.011435595095721 0.13423423423423425 15.450000000000001 5.5000000000000009 1.5000000000000002 5 3.5205000000000006 46.550000000000004 6.5000000000000009 23.500000000000004 3.5000000000000004 6 7.5000000000000009 3.5000000000000004 2.3174615720687197 11.450000000000001 4.5000000000000009 1.1785366391390579 7 5.5000000000000009 0.81068324164968719 1.8945885877146502 34.550000000000004 2.5000000000000004 1.1150072000796054 8 29.500000000000004 0.017937234158928724 16.050000000000004 96.500000000000014 9
decision_type=8 8 10 10 8 10 8 8 8 8 10 10 8 10 10 8 8 10 10 10 9 1 2 10 9 2 1 10 9 10 10 10 10 10 10 10 1 2 8 10 2 10 9 2 10 10 10 10 8 9 10 10 10 2 2 10 9 2 10 2 2 9
left_child=2 5 6 13 9 8 11 16 18 36 19 17 23 21 54 38 47 51 49 24 -12 29 40 57 -8 31 27 33 -14 -4 -16 -24 -30 53 -22 -13 39 58 -9 44 -19 -15 -25 -31 45 -3 61 -6 -18 -2 60 -1 59 -10 -5 -40 -27 -7 -17 -11 -34 -20
right_child=1 4 3 14 7 12 10 15 26 52 20 35 28 41 30 37 48 22 46 -21 34 -23 25 42 -26 56 -28 -29 32 43 -32 -33 50 -35 -36 -37 -38 -39 55 -41 -42 -43 -44 -45 -46 -47 -48 -49 -50 -51 -52 -53 -54 -55 -56 -57 -58 -59 -60 -61 -62 -63
leaf_value=0.046619955820133722 -0.013983906308750023 -0.024589703966939068 0.056719908607379778 0.067100634618584273 0.013950370453898254 -0.011462063175614969 -0.011802487131710018 -0.050355318051209075 -0.031365117665973614 -0.067209641426504735 0.0011419059795671567 0.049169180949781038 -0.021174043635844811 0.048080947389033617 0.087318052872193228 -0.068555330170662801 -0.030409578837102547 -0.028812010893070002 -0.019500075449692428 -0.011228260595943125 0.027086374457719321 0.034506327035516864 0.041009389057110789 0.00897581723151584 0.011764377180912838 0.029491648233268265 -0.052541395065303066 -0.03858406579591514 -0.0092060267936960212 0.071675637393386657 0.10023415022696931 0.022434135700802202 0.010385221098980537 -0.035412656585982236 0.0035925265358428384 0.038869341663895357 -0.057260474063553085 -0.073307980291463792 -0.050230797957882524 -0.038955715831680914 0.014911111965230714 0.031507783548646959 0.030481995170359311 0.059775586840842589 -0.031148427262275076 -0.0020753066493193121 -0.020058081241662896 -0.021793972661922456 -0.049230860689208941 0.0017749236967087457 -0.012608859500488732 0.030631827861387535 -0.059046215306238409 -0.02010451862017584 0.079031724342605233 -0.063261761156089794 0.014828648030060758 0.010029273465981717 -0.060628746816204983 -0.043950921366236753 -0.0048222691387571643 -0.0015077079607631327
leaf_weight=706.34893025457859 337.4191422611475 714.64552061259747 2156.9130404442549 566.60594336688519 89.065521597862244 145.50850117206573 223.02145367860794 2069.9063805490732 601.82167232036591 108.11532372236252 262.73196095228195 1392.6739593595266 280.6279174387455 657.96054005622864 1476.2936323285103 1485.8978260755539 262.00681738555431 42.2586610019207 266.83340020477772 696.07189862430096 1492.2485135346651 163.0762233287096 749.14792102575302 281.25404044985771 1200.7581093609333 549.29532676935196 153.55011959373951 615.05236086249352 948.72201423346996 1083.3588846474886 798.22222352027893 369.837118268013 819.15533611178398 564.99128803610802 160.49260550737381 1564.5527054667473 106.85401219129562 1089.172869682312 497.88090871274471 699.04241514205933 452.53525646030903 452.26691237092018 453.42837929725647 964.30572950839996 1685.49052067101 175.54901017248631 1469.3707274794579 134.71110247075558 702.05671656131744 1132.4843386560678 228.385029271245 394.81341874599457 348.86448088288307 2352.0671076029539 1708.1589497178793 1191.1142908781767 730.63298816978931 1063.1861038208008 2301.6379076242447 3140.5108769834042 345.56845834851265 485.67431126534939
leaf_count=2874 1398 2981 8749 2288 366 603 920 8755 2520 459 1079 5659 1162 2674 5948 6326 1099 175 1108 2887 6109 663 3062 1153 4942 2248 646 2582 3928 4383 3210 1512 3382 2368 663 6375 449 4638 2105 2936 1858 1848 1859 3907 7053 726 6109 565 2965 4685 947 1612 1477 9797 6895 5053 2991 4378 9757 13220 1427 2016
internal_value=2.06678e-05 -0.0334393 0.0467487 0.0689207 -0.0499778 -0.0112881 0.0265145 -0.0580318 -0.0196032 -0.0386415 0.0111479 0.0354339 0.00324342 0.0564351 0.0839549 -0.060893 -0.0372304 0.0293001 -0.0104147 0.00173498 0.0215652 0.0602748 0.0248907 0.0132427 0.00807259 0.0277193 -0.027515 -0.0265854 -0.00416659 0.0612742 0.0918508 0.0348701 -0.00202946 -0.0244883 0.0246558 0.0437199 -0.0306921 -0.0658757 -0.0544286 -0.0298252 0.0111769 0.0413296 0.022786 0.0660716 -0.0273471 -0.0201498 -0.0160307 -0.00756734 -0.0441157 -0.00192561 0.00284329 0.0408875 -0.0461138 -0.0223987 0.0760599 -0.0594205 0.0214677 0.00744204 -0.0637384 -0.044725 0.00587323 -0.00816683
internal_weight=50362.2 29347.6 21014.6 10027.2 16802.5 12545.1 10987.4 9823.45 7979.26 6979.07 4035.32 6952.1 4565.84 5477.88 4549.28 8635.61 1187.84 3994.87 3691.78 2119.85 1915.47 4367.65 2893.71 1943.38 1423.78 2398.91 4287.48 4133.93 2622.46 4204.58 2274.52 1118.99 2341.83 3518.88 1652.74 2957.23 3381.58 4876.71 3758.9 3274.73 494.794 1110.23 734.682 2047.66 2575.69 890.195 2221.88 223.777 964.064 1469.9 1393.11 1101.16 3597.49 2953.89 2274.76 1689 1279.93 1208.69 3787.54 3248.63 1164.72 752.508
internal_count=208529 122998 85531 40565 70930 52068 44966 41629 33229 29301 16600 28366 18839 22224 18341 36634 4995 16332 15316 8749 7851 17702 11846 7993 5862 9813 17913 17267 10846 17039 9158 4574 9684 14685 6772 12034 14145 20721 15913 13696 2033 4522 3012 8290 10760 3707 9233 931 4064 6083 5756 4486 15156 12317 9183 7158 5239 4981 16083 13679 4809 3124
cat_boundaries=0 2 3 5 6 8 9 11 13 14 16
cat_threshold=4026532160 1 1 4026667008 1 1 4026531840 1 1 3397953152 1 3892969600 1 1160602376 3850646144 1
is_linear=0
shrinkage=0.05


Tree=3
num_leaves=63
num_cat=12
split_feature=50 16 16 16 16 16 25 25 25 15 25 25 16 50 16 50 16 16 25 50 50 16 25 2 5 15 15 32 10 16 53 32 16 25 10 15 16 2 1 15 10 50 29 53 10 16 14 2 15 53 1 14 50 10 25 32 10 16 10 10 33 32
split_gain=28451.8 3982.1 3374.56 773.192 618.28 503.915 484.904 195.767 195.623 165.497 160.902 153.022 127.092 106.426 102.383 96.4907 82.651 70.6044 60.2131 45.7025 45.374 43.4023 42.554 41.8229 40.2306 40.0114 39.1837 41.2477 38.65 37.6677 37.2612 35.4002 34.7837 34.4582 33.0565 32.2527 31.3331 30.3131 29.8861 29.0877 28.1744 27.575 26.6767 25.7374 25.6616 25.6364 24.8585 23.5668 23.164 21.9959 21.9192 21.1216 20.9118 27.8824 20.3094 20.0733 19.4874 23.4072 19.0252 18.7058 18.5701 18.5486
threshold=3.5000000000000004 2.9258425522898488 1.4230357494997927 1.011435595095721 2.4379801953848275 3.5849059018974727 3.5000000000000004 4.5000000000000009 5.5000000000000009 1.1785366391390579 4.5000000000000009 2.5000000000000004 1.9530024665512917 5.5000000000000009 0.85418893014450203 2.5000000000000004 2.1341489346727696 1.8164190316151558 4.5000000000000009 5.5000000000000009 4.5000000000000009 2.1341489346727696 3.5000000000000004 0 3.5205000000000006 1.3736354571277458 0.81068324164968719 7.5000000000000009 1 3.2523087303165323 34.650000000000013 7.5000000000000009 1.2668484069787163 3.5000000000000004 2 1.8945885877146502 0.71754226264466137 3 29.500000000000004 0.81068324164968719 4 6.5000000000000009 35.000000000000007 31.750000000000004 5 2.8003208578683441 1.4230357494997927 6 1.0816615128302691 34.650000000000013 28.500000000000004 2.2772541355929321 6.5000000000000009 7 4.5000000000000009 7.5000000000000009 8 1.9670879050346399 9 10 11 6.5000000000000009
decision_type=8 8 10 10 10 8 8 8 8 8 8 8 10 10 10 10 10 10 10 10 10 10 10 1 2 10 10 2 9 10 2 2 10 10 9 10 10 1 2 10 9 8 2 2 9 10 10 1 10 2 2 10 10 9 10 2 9 10 9 9 1 2
left_child=2 4 3 14 7 8 15 16 19 13 20 23 18 -7 36 26 43 28 34 33 44 46 32 31 41 40 27 47 -17 -10 59 39 -13 51 -8 37 -1 45 -18 -5 -14 -11 -32 -2 -6 -12 -9 -4 -16 -21 -24 -3 53 -22 -42 -28 -45 60 -29 -19 -58 -30
right_child=1 5 6 11 10 9 12 21 29 24 35 22 25 -15 48 17 38 30 -20 49 52 -23 50 -25 -26 -27 55 58 61 -31 42 -33 -34 -35 -36 -37 -38 -39 -40 -41 54 -43 -44 56 -46 -47 -48 -49 -50 -51 -52 -53 -54 -55 -56 -57 57 -59 -60 -61 -62 -63
leaf_value=0.094750951789177695 -0.0063012289524414459 -0.021870254965817224 0.059579512681083441 0.067545935037552671 -0.021927244294398514 -0.017519319853815319 0.0099887821216911327 0.0043906509982021072 -0.042769854965367456 -0.054166390206183281 -0.024286556597989537 0.052463879444109567 -0.015114758377585663 -0.050302304883359385 0.072567641054004914 0.043330659131370512 -0.017554912272475489 0.016963343629359674 0.0041122774050813046 -0.045554332421858114 -0.025178039787488282 -0.016097845153036774 0.0069144648366222493 0.033413523079773834 -0.069806487210602022 -0.020020682948243218 0.036113827065057981 0.018470885940537113 0.046743537423184912 -0.051792071849181026 0.0188818627212382 0.054006230573317542 0.03659189086585319 -0.03089112716254518 0.026220085027930242 -0.046787394848053984 0.08248581974543033 -0.052621674850921091 0.0018339471938914585 0.054855350625132027 0.0092933786023173277 -0.06242805233360843 0.031516904015214529 0.0076676814704915615 -0.0010352738319429323 -0.033881059995468234 -0.011071383529848593 -0.0040399684111499792 0.037612598111198089 -0.034006746529133526 0.033472952436743302 -0.00014648879613256955 -0.033687349632827969 -0.01142372374431889 -0.0066316350902378782 0.019731803577719191 0.013400426861128828 0.012500468473265173 0.042072598779501702 -0.005360711782019704 0.033695755258531121 0.024826013300624242
leaf_weight=802.07476705312729 138.47147557139397 361.11096522212029 428.0880376547575 1341.1366414278746 169.9011190533638 315.53945443034172 477.78240978717804 542.83990623056889 2234.2608469128609 1470.4167350530624 2424.5778898149729 771.79868352413177 194.29545277357101 1149.2273949384689 2239.5516528487206 780.03123338520527 224.40501530468464 184.22423303127289 662.90329223871231 535.29565036296844 587.76137019693851 1618.7249452918768 93.033976688981056 172.39937996864319 1291.2536922842264 249.12986871600151 668.4123405367136 152.90811166167259 108.10225795209408 2399.0645301192999 1035.740305095911 2101.8228815495968 624.48704527318478 1031.8432571738958 1223.9483584165573 241.87935951352119 1484.4006315469742 119.89856448769569 1738.4018783569336 680.7075729817152 782.85699106752872 3225.5689160525799 700.14668060839176 528.0427071005106 825.60970635712147 976.68762803077698 498.80144910514355 15.069014087319372 48.419884130358696 1795.9285009205341 471.0012478530407 162.12638321518898 190.61177159845829 1163.7409477233887 268.99899561703205 259.62331788241863 227.41099359095097 550.42694972455502 1006.3453071564436 177.3486106544733 371.97661559283733 901.8593256175518
leaf_count=3210 570 1514 1729 5397 706 1325 1957 2242 9514 6318 10172 3113 804 4923 8988 3167 933 755 2730 2271 2454 6762 379 698 5592 1033 2712 619 439 10279 4227 8474 2529 4351 4997 1022 5948 511 7184 2745 3219 13923 2848 2169 3419 4132 2069 61 195 7600 1918 672 800 4854 1118 1055 930 2266 4073 729 1521 3665
internal_value=1.10778e-05 -0.0320354 0.0442077 0.0636823 -0.0116478 -0.0488087 0.0236853 -0.000584248 -0.0405025 -0.0583048 -0.0222802 0.052259 0.00968117 -0.0432402 0.0793057 0.0321077 0.0067303 0.0271614 0.0168959 -0.0322298 -0.0135109 -0.0109748 0.040683 0.0575412 -0.0619903 -0.0017282 0.0397066 0.0444416 0.0344556 -0.0474414 0.0209365 0.0585499 0.0453652 -0.025591 0.0218757 -0.0291259 0.0867883 -0.0279127 -0.000382754 0.0632733 0.00192882 -0.0598411 0.023978 0.014417 -0.00483151 -0.0270417 -0.00301351 0.0574162 0.0718279 -0.0366583 0.0290923 -0.0151391 -0.0179599 -0.0162483 0.00517159 0.0315309 0.0161268 0.019773 0.0394817 0.00633446 0.0267813 0.0269056
internal_weight=50220.5 29111.8 21108.6 10830.8 13140.2 15971.6 10277.8 6439.5 8519.63 7452.01 6700.67 6256.39 3859.92 1464.77 4574.45 6417.9 3779.14 3887.45 2364.63 3886.3 2937.62 2660.37 1960.32 4296.07 5987.24 1495.28 2530.45 1602.41 1789.99 4633.33 2097.46 4123.67 1396.29 1555.08 1701.73 3763.04 2286.48 3521.16 1962.81 2021.84 1246.15 4695.99 1735.89 1816.33 995.511 3401.27 1041.64 443.157 2287.97 2331.22 564.035 523.237 1942.11 1751.5 1051.86 928.036 1677.86 1149.81 1159.25 361.573 599.388 1009.96
internal_count=208529 122998 85531 43594 54716 68282 41937 26646 36201 32081 28070 25253 15858 6248 18341 26079 15573 15830 9684 16408 12233 11073 7939 17314 25833 6174 10249 6482 7271 19793 8559 16616 5642 6537 6954 15837 9158 14815 8117 8142 5141 20241 7075 7456 4125 14304 4311 1790 9183 9871 2297 2186 8108 7308 4337 3767 6886 4717 4692 1484 2451 4104
cat_boundaries=0 1 2 4 5 7 9 10 11 12 14 15 16
cat_threshold=1 53864768 4093821761 1 1 3892445184 1 3355590720 1 1 4186046592 2827534866 3758230593 1 258065536 1812
is_linear=0
shrinkage=0.05


Tree=4
num_leaves=63
num_cat=11
split_feature=50 16 16 25 16 16 16 16 25 25 16 25 25 50 25 16 15 16 5 50 10 25 50 2 16 50 16 50 16 16 15 2 25 15 1 53 14 1 25 10 16 50 15 14 10 51 53 25 10 25 2 53 51 29 50 25 17 47 10 14 26 10
split_gain=25733.4 3689.23 3047.4 586.015 562.886 480.429 380.553 234.622 214.473 177.043 165.745 148.867 147.401 126.94 124.408 74.5143 68.4174 54.0207 49.3634 49.0452 46.392 44.1147 41.2643 40.8306 39.4252 36.4426 34.0381 31.6397 31.4341 30.7024 30.647 29.9247 32.8147 28.6801 27.2027 26.693 26.3691 25.225 25.1581 25.023 24.6967 24.1351 24.0545 24.2514 23.9266 23.3981 23.1776 23.0719 23.0616 22.5307 20.631 20.5663 22.7932 20.4807 20.0126 20.8784 20.5052 19.9032 19.891 19.2464 19.1391 20.3257
threshold=3.5000000000000004 2.9258425522898488 1.2382692000587421 2.5000000000000004 2.4379801953848275 3.3928277196600067 0.93590108845079578 1.6581827230727291 5.5000000000000009 4.5000000000000009 1.5150668501356619 4.5000000000000009 4.5000000000000009 4.5000000000000009 5.5000000000000009 2.1341489346727696 0.85418893014450203 0.71754226264466137 3.5055000000000001 2.5000000000000004 0 3.5000000000000004 4.5000000000000009 1 2.1341489346727696 6.5000000000000009 1.0816615128302691 1.5000000000000002 3.9029817516527641 2.0346842880759621 1.1785366391390579 2 6.5000000000000009 1.1472764606483909 32.500000000000007 16.750000000000004 3.3339870432574523 24.500000000000004 3.5000000000000004 3 2.8003208578683441 6.5000000000000009 1.0816615128302691 2.3174615720687197 4 7.1500000000000012 31.750000000000004 3.5000000000000004 5 6.5000000000000009 6 32.350000000000001 12.850000000000003 35.000000000000007 4.5000000000000009 3.5000000000000004 7 1.0000000180025095e-35 8 1.8325494627242667 9 10
decision_type=8 8 10 8 10 8 10 10 8 8 10 10 8 8 8 10 10 10 2 10 9 10 10 1 10 8 10 10 8 10 8 1 10 10 2 2 10 2 10 9 10 10 10 10 9 2 2 10 9 10 1 2 2 2 10 10 1 2 9 10 1 9
left_child=2 4 6 10 9 14 17 21 13 15 50 20 22 38 35 46 23 -1 28 37 -9 58 48 26 44 42 -8 -28 -10 -22 -31 32 40 -19 -17 -3 -13 -12 -7 -21 -14 -37 43 -15 -11 -16 -2 -18 -6 -47 -4 -24 -53 -39 55 -36 -56 -23 -5 -46 -48 -62
right_child=1 5 3 7 12 8 16 11 18 24 19 36 31 25 45 34 47 33 -20 39 29 57 51 -25 -26 -27 27 -29 -30 30 -32 -33 -34 -35 54 41 -38 53 -40 -41 -42 -43 -44 -45 59 49 60 -49 -50 -51 -52 52 -54 -55 56 -57 -58 -59 -60 -61 61 -63
leaf_value=0.090017442445573762 -0.0059926834792944465 -0.064771711019016007 0.049204251192523321 0.038118602715243963 -0.023260098741303296 0.01411472905359859 0.065808246280206609 0.0032645147936998611 -0.052628975155006065 -0.023836415651926339 0.0094430317647377499 -0.0049085084028922506 -0.022094699581849078 -0.041437106909423399 -0.067458139205587117 -0.014088366867679806 0.048977984187154641 0.075639951654430548 -0.066087940286131755 0.032036085200688853 0.022462391729064432 0.022940549096329935 -0.03124203821911653 0.034919545247638135 -0.015345906266102882 -0.051658581758195848 0.049672031622456904 0.06319319721125613 -0.060836753627457774 0.018093179718598206 0.0015810964270746219 -0.051041203894103229 -0.038004967381641011 0.012251056819454481 0.012293415252815612 -0.02583948179012038 -0.030869897329445801 0.035269012295307121 -0.02036788457403162 0.020089017372648562 -0.032108377651403355 -0.036759951903271616 -0.045521292408245907 -0.020437044204102278 0.0042313583252316612 -0.039603452295549679 0.022462653765833798 0.030514630471770478 -0.0014619393342848019 -0.049007547496619452 0.023507545681096764 -0.0076217839685747526 -0.019627941856426915 0.048100860303217731 0.0073723648111082354 -0.0029571530904600246 -0.010547901507498935 0.0011489061207564063 0.025067231229189264 -0.011994573367789816 0.021919875722532144 0.0064341311307201934
leaf_weight=802.02430352568626 138.32477936148643 50.878923490643501 2421.3406633138657 1082.3441423326731 132.11782377958298 89.016943216323853 1749.0475854873657 718.50796939432621 2524.7696567326784 110.29187572002411 68.579412192106247 778.07246933877468 2174.4788220822811 310.71557722985744 94.954459369182587 304.94352903962135 707.33168604969978 2638.8107542991638 1837.797077730298 1169.4196561574936 1535.4187063723803 920.55024719238281 227.9943682551384 158.30396454036236 1613.2811574935913 1377.7696967869997 934.6046107262373 805.59116704761982 2168.3566796630621 732.46480023860931 455.93088202178478 134.2430752068758 570.0733834952116 17.965586751699448 620.26864005625248 2297.4469279199839 111.87205027043819 753.12421025335789 130.35319298505783 980.03842625021935 858.95562800765038 648.83598133921623 846.91566026210785 246.58082078397274 680.91416653990746 2250.0468923598528 609.12647578120232 222.40099275112152 862.49871321022511 888.38612599670887 80.713690489530563 621.90719790756702 1084.9485284388065 529.65277518332005 237.8023282289505 351.65648393332958 447.92290090024471 118.23980140686035 677.29743753373623 249.80066528916359 299.5146564245224 773.18472227454185
leaf_count=3210 570 220 9735 4374 552 366 7005 2943 11015 459 277 3226 9160 1337 415 1269 2840 10557 8110 4744 6251 3751 959 637 6762 5979 3751 3231 9553 2989 1871 580 2434 72 2556 9723 468 3037 552 3980 3663 2774 3661 1056 2813 9687 2494 900 3573 3834 326 2602 4547 2135 984 1454 1854 482 2739 1039 1225 3167
internal_value=4.16801e-06 -0.0307023 0.0418757 0.0270365 -0.0110982 -0.0469999 0.0661277 0.017346 -0.0540571 -0.000551776 0.0385477 0.0100567 -0.0212804 -0.0429938 -0.0362029 0.00639426 0.0566693 0.0786445 -0.0591414 0.0315239 0.0147694 0.0286307 -0.0128827 0.0597556 -0.0104509 -0.0458813 0.0608824 0.0559314 -0.0564212 0.0177271 0.0117583 -0.0278621 -0.0269986 0.0752113 -0.000363842 -0.0288645 -0.00817203 0.0389877 -0.00637538 0.0268314 -0.0249302 -0.0282444 -0.0402128 -0.0321454 -0.00286491 -0.0430053 0.0136812 0.0445614 -0.00460601 -0.0422654 0.0483753 -0.0171374 -0.0152534 0.0405672 0.00216094 0.00677554 -0.00437965 0.0204601 0.0334541 -0.000122312 0.0152994 0.0109205
internal_weight=50036.7 28867.1 21169.6 13133.6 13104.2 15762.8 8036.08 7130.7 9532.28 6437.03 6002.87 4332.27 6667.22 3001.35 6230.55 3782.74 4577.28 3458.8 6530.92 3500.81 3442.32 2798.43 2929.47 3647.55 2654.29 2781.98 3489.24 1740.2 4693.13 2723.81 1188.4 3737.75 3603.51 2656.78 1962.59 2997.16 889.945 1351.36 219.37 2149.46 3033.43 2946.28 1404.21 557.296 1041.01 3233.39 1820.15 929.733 994.617 3138.43 2502.05 1934.85 1706.86 1282.78 1657.65 971.925 685.725 1038.79 1759.64 930.715 1681.83 1072.7
internal_count=208529 122998 85531 53328 54716 68282 32203 29094 41629 26646 24234 17748 28070 12951 26653 15573 18364 13839 28678 14173 14054 11346 12233 14624 11073 12033 13987 6982 20568 11111 4860 15837 15257 10629 8117 12717 3694 5449 918 8724 12823 12497 6054 2393 4311 13936 7456 3740 4125 13521 10061 8108 7149 5172 6848 4010 2838 4233 7113 3852 6886 4392
cat_boundaries=0 2 3 4 5 7 9 10 11 12 13 14
cat_threshold=4026699968 1 1 1 97903872 4026531840 1 3355574272 1 1 706 129867976 12 621091144
is_linear=0
shrinkage=0.05


Tree=5
num_leaves=63
num_cat=11
split_feature=50 16 16 16 25 16 16 25 50 16 16 25 25 15 15 15 32 50 25 16 50 11 10 16 10 10 53 48 32 6 10 50 25 16 53 16 48 10 15 15 32 50 50 16 53 51 50 10 10 2 16 25 10 2 11 10 16 25 15 53 8 16
split_gain=23423.9 3412.99 2798.32 505.096 486.189 473.14 468.046 201.354 185.271 156.387 146.322 145.189 116.3 89.604 82.398 76.1095 65.2866 61.0546 59.3428 54.7475 52.6377 50.6774 38.1134 37.4345 36.5407 35.9273 33.4681 32.3319 31.7501 31.6447 30.0092 35.9721 28.9623 28.7916 27.9562 27.7648 26.8261 26.5411 26.14 25.535 25.3803 25.3326 25.3023 25.0426 26.2241 23.5204 22.9557 22.7938 22.6134 22.612 25.0477 22.4904 25.7977 22.4383 22.4264 22.1845 21.4183 21.1246 19.3951 18.6155 18.5228 18.1014
threshold=3.5000000000000004 2.9258425522898488 1.3216669431912595 2.2137389487888997 3.5000000000000004 0.93590108845079578 3.5070566484845265 4.5000000000000009 5.5000000000000009 1.9530024665512917 1.6581827230727291 5.5000000000000009 3.5000000000000004 0.81068324164968719 1.0816615128302691 1.5789255615152133 7.5000000000000009 5.5000000000000009 5.5000000000000009 0.76519735254682386 4.5000000000000009 25.000000000000004 0 1.1472764606483909 1 2 33.150000000000013 0.064309346567411094 6.5000000000000009 3.4765000000000001 3 2.5000000000000004 2.5000000000000004 3.1925297413228297 35.45000000000001 2.0081915103761951 0.014981281814182731 4 0.85418893014450203 0.89587973461402759 7.5000000000000009 5.5000000000000009 2.5000000000000004 1.4701097818118665 30.350000000000005 22.350000000000005 6.5000000000000009 5 6 7 1.0816615128302691 6.5000000000000009 8 9 25.000000000000004 10 1.8325494627242667 5.5000000000000009 0.71754226264466137 33.750000000000007 48.500000000000007 2.7376037666723927
decision_type=8 8 10 10 8 10 8 8 8 10 10 8 8 8 8 8 2 10 10 10 10 2 9 10 9 9 2 10 2 2 9 10 10 10 2 10 10 9 8 10 2 10 10 10 2 2 8 9 9 1 10 10 9 1 2 9 10 10 10 2 2 10
left_child=2 3 5 12 10 19 11 17 14 18 32 33 -2 16 48 46 54 25 28 -1 34 30 -11 -15 59 53 -22 -28 60 41 -12 58 43 -3 -9 -33 -17 -30 -39 -21 -23 -13 -24 -4 -45 -25 -10 -42 -8 50 -18 52 -36 61 -7 -35 -26 -44 -32 -14 -6 -5
right_child=1 6 4 7 9 13 8 20 15 22 21 29 24 23 -16 36 49 -19 -20 39 26 40 42 45 56 -27 27 -29 37 -31 31 35 -34 55 51 -37 -38 38 -40 -41 47 -43 57 44 -46 -47 -48 -49 -50 -51 -52 -53 -54 -55 -56 -57 -58 -59 -60 -61 -62 -63
leaf_value=0.083314568657927482 0.014952200295848123 -0.024652621682923564 0.045985246110805456 -0.0071087717316070222 0.019096129974221727 0.05833369655255375 0.0065043404135949508 -0.026939231668151559 -0.043094815349143056 -0.013687685577009398 0.0088025319494811523 -0.033042044354211063 -0.025503726011022777 0.050434911927519803 -0.042707409798301135 -0.066389996052339847 0.058559772634816813 -0.020316297537656892 -0.0047211054274300312 0.071463229252318447 -0.037975948877391266 0.03951804138224374 0.024800980468291028 0.039608486061412623 0.018387611868888196 -0.00085901132263017845 -0.033685639351763663 -0.021846783977969186 0.0041078284046908763 -0.053492709822829526 0.044536865801620161 0.025386259781389409 0.030803253228487277 -0.039938339872726207 -0.00020298609070188366 0.012344592605815578 -0.057893690326228237 0.044146672911355489 0.018464387413684138 0.047846723673372865 0.008975182189029117 -0.04334117960764914 0.0030387052255348079 -8.1028493103553579e-05 0.037670245981364286 0.016301681706602653 -0.052955569717042232 0.031939747317833611 -0.021372643243957573 0.026660121371957786 0.047506912198633462 -0.033448160235573135 -0.017798382643958551 -0.033904415318643376 0.070431461350585978 -0.026340873994078397 -7.4107250807022761e-05 -0.020209283865383423 0.026587846463509091 -0.0071342172460117318 0.043905770928390771 -0.020708278476442285
leaf_weight=1229.575914055109 1630.9340334385633 1853.5801657140255 1330.2617299854755 1283.016067892313 121.94653674960136 798.8318026214838 120.5093417018652 359.05159798264503 811.12222212553024 519.49963223934174 477.71256633102894 772.40796734392643 172.20418600738049 987.49311397969723 606.06644579768181 1395.0304287225008 838.53259336948395 938.29444344341755 277.53971706330776 2127.6595834046602 563.59818609058857 678.42097182571888 116.92763251066208 1003.7703330814838 185.51686501502991 1746.9619433581829 763.06955400109291 2361.2825532704592 338.15667144954205 595.99683909118176 242.28273585438728 890.83801534771919 914.79491101205349 854.42311224341393 484.48397724330425 753.10884073376656 2781.3036249577999 105.21509218215942 1698.6520050019026 120.96514484286308 185.67880131304264 2630.0383964180946 752.29458859562874 47.654939487576485 1326.3800098001957 121.33247010409832 2167.1550390571356 390.11660195887089 167.82812310755253 93.287101298570633 1318.6207424849272 96.241025000810623 362.00831863284111 101.92607575654984 736.05203723907471 812.32487940788269 1025.6960933804512 112.30075927078724 397.31674216687679 692.68473216891289 196.39289948344231 302.34505109488964
leaf_count=4938 6669 7916 5335 5334 495 3197 510 1528 3576 2151 1941 3363 717 3957 2658 6282 3355 3956 1145 8518 2417 2738 482 4032 762 7253 3286 10002 1381 2625 973 3611 3685 3675 2045 3061 12431 427 6906 484 751 11512 3097 192 5332 488 9624 1577 709 375 5282 412 1530 430 2945 3491 4246 469 1602 2869 796 1268
internal_value=1.34254e-05 -0.0294999 0.0397871 -0.0106608 0.0236634 0.0602055 -0.0453155 -0.016846 -0.0536947 0.010085 0.0312025 -0.0363454 0.0049602 0.05158 -0.0322397 -0.0563768 0.0561841 -0.00901292 0.0171959 0.0748314 -0.0237101 0.024631 -0.00288551 0.0433305 -0.00288927 -0.00592465 -0.0267612 -0.0247382 0.0196683 -0.0428648 0.0208453 0.0232244 0.0384937 -0.0289405 -0.0150664 0.0194117 -0.0607317 0.0174786 0.0198523 0.0701928 0.0329654 -0.0410031 0.00294134 0.0410952 0.0363609 0.0370951 -0.05027 0.0252449 -0.0102372 0.0507611 0.0518034 -0.0105445 -0.00794044 -0.0110986 0.0641352 -0.033709 0.00273106 1.90651e-05 0.033387 -0.0106683 0.0344019 -0.00970234
internal_weight=49886.7 28637.1 21249.6 13069.3 11873.5 9376.12 15567.8 9362.28 8049.02 4238.93 7634.57 7518.77 3707.04 5897.92 894.404 7154.61 3785.32 4372.54 2737.9 3478.2 4989.74 4015.48 1501.02 2112.6 2076.1 3434.25 3687.95 3124.35 2460.36 3998.44 2761.26 2283.55 3619.09 3520.33 1301.78 1643.95 4176.33 2142.02 1803.87 2248.62 1254.22 3402.45 981.523 2704.3 1374.03 1125.1 2978.28 575.795 288.337 2250.44 2157.15 942.733 846.492 1687.29 1534.88 1666.75 1211.21 864.595 639.599 864.889 318.339 1585.36
internal_count=208814 123096 85718 54724 48147 37571 68372 39461 35790 17349 30798 32582 15263 23631 3877 31913 15154 18241 11150 13940 21220 16254 6199 8477 8594 14285 15705 13288 10005 17500 11188 9247 14544 15082 5515 6672 18713 8714 7333 9002 5066 14875 4048 10859 5524 4520 13200 2328 1219 9012 8637 3987 3575 7032 6142 7166 5008 3566 2575 3586 1291 6602
cat_boundaries=0 2 4 6 8 10 11 12 13 14 15 17
cat_threshold=4169285632 1 4165634048 1 4186835584 1 3892445250 1 3825228040 1 3904897480 326124928 1 100277828 1 2093207680 1
is_linear=0
shrinkage=0.05


Tree=6
num_leaves=63
num_cat=7
split_feature=50 16 16 48 16 16 16 15 50 15 15 15 32 15 32 15 32 50 15 15 50 15 16 32 15 15 32 15 50 32 16 10 32 10 50 10 50 15 15 14 6 2 53 11 53 11 16 32 52 16 10 53 10 6 2 16 6 48 50 15 18 53
split_gain=21225.2 3169.46 2550.7 458.965 454.252 446.44 321.183 177.88 154.343 146.56 126.017 113.903 107.52 94.7893 76.8776 68.3084 66.6098 66.1846 66.1663 65.0607 58.4122 57.1604 52.7796 49.9592 49.5888 48.6214 47.3042 47.0192 44.9294 44.9229 40.2563 34.9826 34.4976 34.4466 32.0132 29.6306 28.5348 27.055 26.3449 26.2421 25.9258 25.766 25.6183 24.1817 23.8515 23.6107 23.1096 23.091 22.6231 22.5652 22.1925 22.2759 21.851 21.7777 21.1204 20.7612 20.4043 20.3891 20.2856 20.0887 19.9776 19.8719
threshold=3.5000000000000004 2.9258425522898488 1.2382692000587421 0.10811126694717159 1.6581827230727291 3.5849059018974727 0.93590108845079578 1.011435595095721 5.5000000000000009 1.2088489500472754 1.4230357494997927 0.81068324164968719 7.5000000000000009 0.89587973461402759 7.5000000000000009 1.0816615128302691 7.5000000000000009 4.5000000000000009 1.5789255615152133 0.81068324164968719 5.5000000000000009 0.85418893014450203 0.71754226264466137 7.5000000000000009 1.3986406674150766 1.2088489500472754 7.5000000000000009 1.1472764606483909 4.5000000000000009 7.5000000000000009 1.9387157803292638 0 7.5000000000000009 1 5.5000000000000009 2 2.5000000000000004 1.9387157803292638 0.89587973461402759 1.6193392260821904 3.5150000000000001 3 32.45000000000001 25.000000000000004 30.950000000000003 25.000000000000004 2.3369748506914587 6.5000000000000009 21.250000000000004 3.2047748432861245 4 38.150000000000013 5 3.5185000000000004 6 2.7245741281253104 3.4145000000000008 0.014981281814182731 6.5000000000000009 1.1785366391390579 3.5000000000000004 28.850000000000005
decision_type=8 8 10 10 10 8 10 8 8 8 8 8 2 8 2 8 2 10 8 10 10 8 10 2 10 8 2 10 10 2 10 9 2 9 10 9 10 10 10 10 2 1 2 2 2 2 10 2 2 10 9 2 9 2 1 10 2 10 8 10 2 2
left_child=2 3 6 10 11 9 22 12 15 34 17 26 43 30 24 -7 25 32 58 35 48 29 -1 27 33 -15 -4 61 -12 -8 -5 54 -2 45 -3 -14 -37 40 -24 -16 -22 -31 -27 -6 -18 -9 -21 -23 -11 -36 -34 -52 -44 55 -19 -30 -33 -20 -10 -46 -35 -13
right_child=1 5 4 13 7 8 21 14 18 20 28 23 19 16 39 -17 44 31 57 46 37 47 38 -25 -26 42 -28 -29 53 41 -32 56 50 60 49 36 -38 -39 -40 -41 -42 -43 52 -45 59 -47 -48 -49 -50 -51 51 -53 -54 -55 -56 -57 -58 -59 -60 -61 -62 -63
leaf_value=0.082674816682360694 0.0041542343895311787 -0.019847124187650847 0.050103343519223326 0.023298313389462227 0.028306986689188813 -0.010049784559175849 0.061636868046097498 -0.0023113166072785667 -0.04190350154519127 -0.044762699590755121 -0.015703343659274421 0.0086991492646175776 0.0069888399558298286 0.013827609851217962 0.00022071583738707181 -0.04210618534534602 -0.041666770478934578 -0.021157111842281324 -0.064586461236420895 0.010805161288083403 -0.041716625493286669 0.056335101759353849 0.069167194408928864 0.019003511427383043 -0.0059339493324487447 -0.019101985398278613 0.036634432336195163 0.017342257076334116 -0.024719383635516831 0.051070442089184834 0.0063237409622382825 -0.01919511464139512 -0.018978993665592071 0.022109598744420766 -0.024814951155561923 0.03587058152814309 0.020692200856878618 -0.056489457304309924 0.046218132592673662 -0.018525935771859531 -0.063500899521395371 0.023049218191618741 0.0085556611944077234 0.042310430429875125 -0.0068203222150756112 0.020192032460218712 -0.0063531782538855525 0.039511342068535599 -0.029073039478330804 -0.035602774293092956 -0.019808846626454824 0.0024798503142427555 -0.0055970903373057986 -0.062996384528177865 -0.045490908736190154 -0.035061219046249939 -0.0086176662808140469 -0.056916199331707953 -0.051960131191315276 -0.021574393415251948 -0.0079724836263984546 0.036599396400872439
leaf_weight=800.59219139814377 654.34264768660069 1033.9248068034649 958.69176906347275 499.45577970147133 828.30235335230827 248.76735678315163 1396.2697940468788 394.02680647373199 681.8601263910532 287.13636763393879 734.56742298603058 66.307400688529015 291.44403973221779 661.70519386231899 407.13608102500439 500.58319717645645 62.403798311948776 1495.6692985743284 1363.098788484931 894.75837980210781 3319.2587016820908 250.30042599141598 2530.4332125931978 1136.3782700300217 369.43472303450108 203.52095280587673 2037.028365150094 443.31643256545067 1089.3859985768795 1780.6901720166206 1161.6573556214571 700.6269608438015 433.09034059941769 914.68738269805908 884.96774587035179 454.53055477142334 971.4115147292614 390.92953366041183 131.5582318007946 344.74986654520035 142.44084560871124 85.99976421892643 451.64001502096653 491.05639524757862 1054.4151049554348 165.52823273837566 251.36667689681053 1101.5523287206888 1149.6993221193552 1071.8520523756742 156.04856556653976 398.03678876161575 656.47828722000122 49.228066682815552 94.824326410889626 875.12758122384548 1305.4571921080351 2377.666311904788 1895.1388449072838 295.33092558383942 58.734760195016861 1701.8661041557789
leaf_count=3242 2721 4429 3838 2030 3347 1054 5591 1610 3050 1261 3124 267 1181 2712 1671 2226 263 6350 6282 3644 14705 1002 10171 4593 1528 851 8165 1793 4650 7126 4773 2969 1819 3722 3832 1824 3932 1748 527 1434 644 345 1873 1974 4375 674 1030 4412 5015 4706 653 1662 2726 216 410 3784 5524 10848 8572 1239 239 6836
internal_value=6.21304e-06 -0.0282908 0.0377837 -0.0101587 0.0242255 -0.0436887 0.0599081 0.0152847 -0.0529194 -0.0358103 -0.0176174 0.033862 0.0217091 0.00164482 0.00516053 -0.0314642 -0.00315515 -0.013068 -0.0554642 0.0162677 -0.0408123 0.0512717 0.0714184 0.0275242 0.0105101 0.00277774 0.0409448 0.0319026 -0.0262883 0.0548534 0.0114276 -0.016865 -0.00474877 0.014473 -0.0269638 0.0224246 0.0253526 -0.0440211 0.068033 -0.00837488 -0.042613 0.0497795 -0.00279677 0.033519 -0.0114458 0.00426935 0.00704202 0.0426263 -0.0322085 -0.030724 -0.0106501 -0.00373006 0.0001979 -0.0301494 -0.0224666 -0.0293263 -0.0122508 -0.0597112 -0.0492992 -0.0100486 0.0200881 0.0355531
internal_weight=49638.5 28380.3 21258.2 13033 13180.8 15347.3 8077.4 6837.17 7067.11 8280.21 7986.41 6343.59 4182.87 5046.61 2654.3 749.351 3385.49 5238.1 6317.76 2863.51 5289.46 4614.81 3462.58 3347.87 1902.41 1973.34 2995.72 2211.49 2748.31 3262.96 1661.11 3596.58 1641.52 1532.98 2990.74 1717.39 1425.94 3852.63 2661.99 751.886 3461.7 1866.69 1311.64 1319.36 1412.15 559.555 1146.13 1351.85 1436.84 1956.82 987.176 554.085 1108.12 2013.74 1590.49 1964.51 2006.08 3740.77 2577 1349.75 973.422 1768.17
internal_count=208814 123096 85718 54724 53302 68372 32416 27810 32032 36340 33882 25492 16932 20842 10878 3280 14039 22108 28752 11611 23373 18476 13940 13489 7773 8162 12003 8896 11774 13062 6803 15253 6855 6245 12967 6937 5756 17097 10698 3105 15349 7471 5450 5321 5877 2284 4674 5414 6276 8538 4134 2315 4599 8650 6760 8434 8493 17130 11622 5614 3961 7103
cat_boundaries=0 2 4 6 7 9 11 12
cat_threshold=4253221504 1 3561181840 1 3892451329 1 1 4197090368 1 162553285 1 1
is_linear=0
shrinkage=0.05


Tree=7
num_leaves=63
num_cat=13
split_feature=50 16 16 16 16 25 25 16 16 25 50 25 25 16 25 16 16 15 25 11 53 11 16 14 10 5 10 50 5 50 25 14 10 16 10 10 51 16 1 5 10 2 50 16 2 17 18 53 15 15 10 14 33 25 15 10 15 10 40 5 39 53
split_gain=19245.5 2945.58 2331.49 463.167 432.286 422.274 273.322 267.271 209.648 154.071 123.634 117.277 90.5998 86.5325 73.0002 71.3349 60.5015 56.7737 52.5458 51.2456 42.1158 37.5411 37.1475 34.0012 34.9253 33.9405 33.6528 38.0983 33.4781 30.8324 30.7432 30.6159 28.9645 28.7864 27.5713 25.9804 25.7624 25.4402 25.1713 24.967 23.9032 23.8718 23.2492 22.9331 22.2195 21.0342 21.8411 20.7636 20.4771 20.4064 19.515 21.0639 18.9723 18.2307 17.8948 17.8147 17.7948 17.7099 17.9263 17.5545 17.2584 17.0141
threshold=3.5000000000000004 2.9365093959507509 1.2088489500472754 1.5580892133149293 2.4379801953848275 5.5000000000000009 3.5000000000000004 0.89587973461402759 3.5070566484845265 4.5000000000000009 5.5000000000000009 5.5000000000000009 2.5000000000000004 3.5189793199236452 5.5000000000000009 2.1341489346727696 2.0346842880759621 0.89587973461402759 3.5000000000000004 25.000000000000004 34.95000000000001 25.000000000000004 0.71754226264466137 1.8325494627242667 0 3.5205000000000006 1 2.5000000000000004 3.5425000000000004 5.5000000000000009 2.5000000000000004 2.4203582520096725 2 2.0081915103761951 3 4 21.650000000000002 3.9029817516527641 30.500000000000004 3.5315000000000007 5 6 5.5000000000000009 1.9095150692894911 7 8 4.5000000000000009 33.850000000000001 2.0979991079743008 1.4468497739944199 9 2.8819995850723745 10 3.5000000000000004 1.1150072000796054 11 1.9387157803292638 12 0.12500000000000003 3.5045000000000006 28.500000000000004 33.850000000000001
decision_type=8 8 10 10 10 8 8 10 8 8 8 8 8 8 10 10 10 10 10 2 2 2 10 10 9 2 9 10 2 10 10 10 9 10 9 9 2 8 2 2 9 1 10 10 1 1 2 2 10 10 9 10 1 10 10 9 10 9 2 2 2 2
left_child=2 4 7 12 9 10 19 22 28 15 18 20 41 61 16 -2 32 21 31 26 44 38 -1 24 43 37 52 -28 42 34 -24 -3 -8 -29 -22 -18 54 -10 -9 49 -17 47 -7 -11 53 -21 -47 -4 -20 -13 -16 -52 -5 -6 -14 -38 -44 -33 -59 -45 -54 -12
right_child=1 5 3 6 11 8 14 17 25 23 13 39 36 -15 50 40 35 -19 48 45 29 -23 30 -25 -26 -27 27 33 -30 -31 -32 57 -34 -35 -36 -37 55 -39 -40 -41 -42 -43 56 59 -46 46 -48 -49 -50 -51 51 -53 60 -55 -56 -57 -58 58 -60 -61 -62 -63
leaf_value=0.079417124475645903 0.012988864953452119 -0.017696683371736216 0.028876312635635577 0.021088257550408843 -0.012088411200279923 -0.031393311677023202 0.00046204529754588909 0.038871284844891191 -0.049088152331865219 0.0067939527331712561 -0.039535192970481248 -0.023374987787421742 0.031884081116521627 -0.044902085058163309 0.00027181043051715067 0.0043716469084559978 -0.0099867195952087536 0.036380048665790379 -0.025759490506795713 0.037622813213400698 -0.014952047408921101 0.058751669726628757 0.067960679639314611 -0.018268434877867643 0.00074605548903252522 -0.063098734824915653 0.030670807348263874 0.023181405868027829 -0.059904918672102195 -0.018372079368797502 0.037623356323101015 0.020687796972688036 0.016381955275721845 0.010837365015089629 -0.0033778378724807511 0.0055281482853359884 -0.0013265111032732726 -0.056801166636143624 0.051523539868800719 -0.048122751375783937 -0.0066660740182639955 0.01689450330071874 -0.03974858239364365 -0.01382625603593475 -0.048511518936416684 0.025709570220353441 -0.030891131182738091 0.042624925137981454 -0.054630104505358504 -0.034150775195945039 -0.016872750002029147 -0.053339572781270286 -0.018710348629124955 -0.027331660143190186 0.020461776359907684 0.024505158317308887 -0.05350341396666998 0.038101652838432878 -0.014651377306857994 -0.038194776499800388 0.0072824197337952494 -0.027631085608663643
leaf_weight=791.97400662302971 1827.6872909963131 422.06026077270508 305.04127806425095 175.15489883720875 350.61980345845222 808.42811079323292 366.48957857489586 489.41427062451839 1978.5600242167711 122.85418726503849 366.83764439821243 1951.3165169507265 1475.746243134141 1787.2020570933819 145.46952599287033 1047.750805363059 495.79922556877136 593.35885807871819 1228.8743202388287 748.17864836752415 803.07628969848156 1655.2217535972595 1976.6723751425743 824.4754900932312 937.89551268517971 1099.5174454003572 922.2999846637249 1212.5943896323442 199.52909030020237 934.35521356761456 87.193050041794777 92.262489140033722 1453.4396351575851 773.60703343153 1456.1317621618509 569.50476035475731 131.04154199361801 2325.7836655974388 1997.6632738858461 131.83097688853741 904.9480949640274 103.99836604297161 2561.5395758450031 675.37490279972553 78.419104725122452 814.87456849217415 17.408114612102509 2753.1561982929707 64.649117335677147 567.01187054812908 203.73790375888348 49.152055710554123 83.238336846232414 445.22918631136417 446.68077483773232 133.63085547089577 258.90364754199982 18.746514111757278 114.24871775507927 82.985051617026329 274.32306922972202 1651.4297703355551
leaf_count=3242 7453 1808 1221 708 1477 3591 1498 1963 9095 507 1620 8424 5929 8132 607 4328 2051 2376 5342 3006 3392 6645 7996 3483 3926 5190 3699 4886 919 3995 351 388 5903 3134 6121 2342 528 10890 8013 583 3757 417 11507 2840 342 3274 70 11018 284 2476 848 207 337 1903 1802 538 1182 79 481 352 1109 7229
internal_value=4.72779e-07 -0.0271355 0.0359166 0.0235665 -0.00985926 -0.0422934 0.016176 0.0581304 -0.0489166 -0.000585766 -0.0316521 -0.0187269 0.0350408 -0.0368898 0.00495895 0.0058895 0.00772911 0.050845 -0.0213825 0.0235107 -0.0133946 0.052917 0.0702115 -0.00984554 -0.00602803 -0.0552585 0.0200877 0.0221967 -0.0399649 -0.0107327 0.066679 -0.00975272 0.0132686 0.0183735 -0.00757323 -0.00173442 0.0272165 -0.0532558 0.0490338 -0.0269116 -0.000755364 0.0404524 -0.0388686 -0.0130977 -0.0231182 0.0309638 0.0242345 0.0412536 -0.0272024 -0.0258012 -0.0151047 -0.0230491 0.00800586 -0.0206161 0.0292301 0.0125914 -0.0410112 0.00513171 -0.00671091 -0.0164928 0.00119794 -0.0297948
internal_weight=49366.6 28120.5 21246.1 13654.6 13142 14978.6 8305.27 7591.5 9232.26 6423.97 5746.31 6717.99 5349.3 3805.47 3283.59 3780.39 2885.23 4735.66 1940.84 5021.68 4067.83 4142.3 2855.84 2643.59 1819.11 5403.86 3441.22 2908.5 3828.4 3193.56 2063.87 647.318 1819.93 1986.2 2259.21 1065.3 2187.1 4304.34 2487.08 2650.16 1952.7 3162.2 3628.87 881.214 874.268 1580.46 832.283 3058.2 1293.52 2518.33 398.359 252.89 532.716 795.849 1922.43 264.672 2820.44 225.258 132.995 758.36 357.561 2018.27
internal_count=208814 123096 85718 55132 55359 67737 33679 30586 42374 26646 25363 28713 21453 16981 13456 15538 11794 18997 8382 20223 17230 16621 11589 11108 7625 25175 13873 11719 17199 13508 8347 2756 7401 8020 9513 4393 8797 19985 9976 11483 8085 12656 16280 3699 3722 6350 3344 12239 5626 10900 1662 1055 2154 3380 7731 1066 12689 948 560 3192 1446 8849
cat_boundaries=0 2 4 6 7 9 10 11 12 13 14 15 16 17
cat_threshold=4216369160 1 2818703426 1 3825360004 1 3096052096 4253204608 1 49890651 1 1 3087 1199680512 2569 3364553216 844906496
is_linear=0
shrinkage=0.05


Tree=8
num_leaves=63
num_cat=10
split_feature=50 16 16 50 16 25 25 16 16 25 15 50 25 25 16 16 48 16 16 32 25 10 16 15 53 16 32 50 6 2 25 25 10 1 32 10 5 50 53 11 18 10 10 16 28 28 11 29 14 32 53 11 15 10 14 5 18 26 50 10 15 10
split_gain=17462.2 2748.25 2139.08 495.784 462.337 341.334 246.137 219.174 158.187 150.033 127.183 105.099 93.3447 65.9727 62.9804 61.0222 60.2997 54.5278 50.2396 48.1695 43.7709 40.6523 38.8875 37.7199 36.8024 36.0901 34.7535 34.5317 33.0997 29.077 28.4948 27.6874 26.9349 26.9061 27.3625 26.1556 26.111 24.7811 24.678 24.2539 24.058 23.8643 23.5214 23.1547 23.1353 22.5548 22.3616 21.81 21.6734 21.5097 21.4372 19.3994 18.2544 17.7643 19.4643 17.7028 17.5243 19.4718 23.6573 19.983 17.2182 17.0354
threshold=3.5000000000000004 3.037351072839019 1.1785366391390579 4.5000000000000009 1.5580892133149293 5.5000000000000009 3.5000000000000004 0.89587973461402759 3.6283320724249073 3.5000000000000004 1.4230357494997927 5.5000000000000009 2.5000000000000004 5.5000000000000009 3.5737481633217896 2.1341489346727696 0.078432578740157494 2.0346842880759621 2.7245741281253104 6.5000000000000009 3.5000000000000004 0 2.2137389487888997 0.89587973461402759 35.45000000000001 0.71754226264466137 7.5000000000000009 2.5000000000000004 3.4765000000000001 1 2.5000000000000004 6.5000000000000009 2 29.500000000000004 6.5000000000000009 3 3.5205000000000006 5.5000000000000009 24.150000000000002 35.000000000000007 3.5000000000000004 4 5 1.8000241202036604 105.50000000000001 93.500000000000014 25.000000000000004 35.000000000000007 2.1916379270371573 6.5000000000000009 35.050000000000004 25.000000000000004 1.5789255615152133 6 2.8819995850723745 3.4905000000000004 2.5000000000000004 7 6.5000000000000009 8 1.4701097818118665 9
decision_type=8 8 10 10 10 8 8 10 8 8 8 8 8 10 8 10 10 10 10 2 10 9 10 10 2 10 2 10 2 1 10 10 9 2 2 9 2 10 2 2 2 9 9 10 2 2 2 2 10 2 2 2 10 9 10 2 2 1 10 9 8 9
left_child=2 3 7 9 12 11 19 25 28 22 16 20 29 17 -13 40 38 35 -12 -6 48 -21 -2 26 52 -1 46 47 37 49 -27 41 -24 -14 -35 -8 60 -7 -5 45 44 51 -19 -29 61 -18 -9 -23 -3 -4 -45 -26 -17 -15 -55 -50 57 58 59 -40 -10 -11
right_child=1 5 4 10 6 8 13 23 36 15 18 14 33 53 -16 24 39 42 -20 21 -22 27 32 -25 31 30 -28 43 -30 -31 -32 -33 -34 34 -36 -37 -38 -39 56 -41 -42 -43 -44 50 -46 -47 -48 -49 55 -51 -52 -53 -54 54 -56 -57 -58 -59 -60 -61 -62 -63
leaf_value=0.076500945284214639 0.015156375987361085 -0.018354669577732127 0.051553140416155378 -0.053304902512122637 0.036196937323432328 -0.029938676084864474 0.0030620962885173023 0.050837915481361406 -0.046577468835943235 -0.0037325568658382645 -0.020852485305893065 -0.030466748234059163 0.013207083302577267 0.00025907998008085339 -0.044069517139240455 -0.018124365616959123 -0.0067351000041623484 -0.0095146380135443555 -0.033931225582383012 0.0055573229471699926 -0.027008049034308652 0.02357988053855167 -0.0066094144664649431 0.03667198047454797 -0.00531462547213255 0.065111822270609951 0.046388940667818838 0.025080185101029513 -0.051811462596956216 0.014432862652059036 0.035856309624838351 -0.031994500270101513 0.0088370045740509759 0.043440964797089643 0.025973365608411254 0.016413231696878562 -0.062128252484722195 -0.041169400543838004 0.0016593838844595702 0.0049801347927626236 -0.023851892379222146 -0.012031049995075035 0.0052517769317444694 0.0033779060668912872 -0.015337160089290834 -0.016992667261940392 0.061824369068273849 0.036877687279681777 0.0088351521620988697 0.03842316857267742 0.018077379723383535 0.010530319604218821 -0.042632208325816517 -0.016084773120687106 -0.051328923982105382 -0.027964412993290583 -0.029661641944878376 -0.022196795588944631 -0.027423266562746663 -0.01381786620370337 -0.054780668227336793 0.010694250142726909
leaf_weight=781.3221341073513 1328.2796116173267 281.4826625585556 347.93091966211796 52.778531685471535 555.40739193558693 600.19767357409 536.51278847455978 984.59552086889744 835.9843128323555 278.69979652762413 1498.6551114022732 1820.7613608688116 349.74262322485447 145.47750736773014 1597.5130823254585 542.68160855770111 1451.7552510797977 494.89872717857361 1439.5995302051306 434.58550341427326 1032.9085442870855 759.02737636864185 466.40292170643806 511.3324561715126 599.67364518344402 1960.405927926302 1898.9407822191715 1007.8784942924976 609.39705681800842 117.06518365442753 86.922376394271851 108.83069224655628 685.81227508187294 257.84144760668278 1718.1902879625559 1286.1722276508808 964.66209614276886 2704.3703508377075 292.8205384016037 283.39741623401642 81.186019241809845 824.93746227025986 570.01368954777718 299.06853306293488 132.76166382431984 849.49690067768097 874.54202894866467 519.30212303996086 187.2835635393858 3013.938791140914 1453.3828674852848 284.97033348679543 88.349393993616104 203.05078813433647 48.539231643080711 39.58957614004612 325.83805029094219 1126.0189357548952 225.80875015258789 743.91626767814159 2724.1081439107656 747.5603668987751
leaf_count=3242 5401 1212 1394 235 2233 2702 2188 3966 3942 1156 6434 8092 1407 607 7395 2320 6104 2051 6394 1754 4533 3041 1944 2048 2526 7996 7636 4047 2841 469 351 474 2841 1033 6899 5213 4676 12406 1258 1189 336 3492 2342 1212 551 3579 3531 2080 788 12067 5856 1199 382 848 207 168 1408 4867 988 3201 12978 3084
internal_value=-3.43561e-06 -0.0260317 0.0341738 -0.010915 0.0229165 -0.0423465 0.0153558 0.0565645 -0.0484646 -0.000183509 -0.0189023 -0.0319365 0.0337448 0.00471062 -0.0368239 -0.00657632 -0.0143135 0.00733829 -0.0272604 0.0223091 -0.0210968 0.0205847 0.00932558 0.049413 -0.0111518 0.0673587 0.0511465 0.0221332 -0.0411041 0.038929 0.0638697 -0.0075414 0.00260381 0.0259901 0.0282526 0.0125901 -0.0548315 -0.0391296 -0.0194428 -0.00882192 0.00246033 -0.00598473 -0.00165068 0.0190417 0.00430343 -0.0105216 0.056006 0.0289819 -0.00908604 0.039782 0.0155688 -0.000208141 -0.0215557 -0.0143986 -0.0220096 0.00241359 -0.0187844 -0.0173005 -0.0126576 -0.00956368 -0.0528544 0.00684422
internal_weight=49074.6 27858.5 21216.1 14460.2 14118 13398.3 8313.32 7098.06 8438.72 6170.15 8290.09 4959.54 5804.71 3284.66 3418.27 3689.65 5351.83 2887.6 2938.25 5028.65 1541.26 4473.24 2480.49 4269.41 2449.44 2828.65 3758.08 4038.66 3913.97 3478.93 2047.33 1818.41 1152.22 2325.77 1976.03 1822.69 4524.75 3304.57 2767.18 2584.65 1240.21 1709.58 1064.91 2760.33 1159.02 2301.25 1859.14 1278.33 508.356 3361.87 1752.45 884.644 631.031 397.068 251.59 226.873 2714.4 2388.56 1262.55 1036.74 3560.09 1026.26
internal_count=208814 123096 85718 61363 56948 61733 33679 28770 39545 25706 35657 22188 23269 13456 15487 15520 22829 11794 12828 20223 6701 17990 10186 17181 10393 11589 15133 16236 17949 13930 8347 7691 4785 9339 7932 7401 21596 15108 11957 10872 5127 7217 4393 11115 4791 9683 7497 5121 2168 13461 7068 3725 2702 1662 1055 956 11722 10314 5447 4459 16920 4240
cat_boundaries=0 2 3 5 7 9 11 12 13 15 17
cat_threshold=2684485632 1 1 3912105984 1 3959611012 1 99882836 1 4253204608 1 1199680512 28 101232911 1 4027449344 1
is_linear=0
shrinkage=0.05


Tree=9
num_leaves=63
num_cat=8
split_feature=50 16 16 16 25 25 16 16 16 25 25 50 16 32 16 25 2 16 16 15 25 50 25 32 50 53 50 53 53 5 25 16 10 15 5 10 32 10 32 53 50 10 15 10 14 15 16 10 15 53 32 28 52 50 16 50 50 15 50 15 10 45
split_gain=15851.6 2561.18 1971.35 458.873 353.188 326.328 274.384 159.73 153.783 129.182 126.806 98.3752 88.6258 63.6625 59.8641 52.5797 50.4132 47.7235 44.1767 44.0427 43.3568 42.5988 40.2223 36.4897 35.5351 35.2913 34.6164 33.1103 32.8849 31.1662 30.4045 29.7328 28.3961 26.4859 26.387 25.9296 25.4625 24.5153 24.2544 23.5758 22.702 22.6802 21.5479 20.8622 19.693 19.6787 19.4839 19.4709 18.742 18.641 18.2087 18.0295 17.3768 17.2701 17.2468 17.1781 16.8868 16.8308 16.6183 16.4837 18.4073 16.2562
threshold=3.5000000000000004 3.037351072839019 1.2382692000587421 2.4379801953848275 2.5000000000000004 5.5000000000000009 0.93590108845079578 1.8640500836336089 3.6493578504437103 3.5000000000000004 5.5000000000000009 5.5000000000000009 1.5150668501356619 6.5000000000000009 3.5737481633217896 5.5000000000000009 0 0.76519735254682386 1.8945885877146502 0.85418893014450203 4.5000000000000009 4.5000000000000009 3.5000000000000004 7.5000000000000009 4.5000000000000009 35.550000000000004 2.5000000000000004 32.850000000000001 33.45000000000001 3.5425000000000004 3.5000000000000004 1.5368094061055313 1 1.4701097818118665 3.5335000000000005 2 6.5000000000000009 3 7.5000000000000009 31.450000000000003 5.5000000000000009 4 1.5368094061055313 5 2.1916379270371573 0.89587973461402759 1.9670879050346399 6 1.9387157803292638 40.45000000000001 6.5000000000000009 96.500000000000014 19.550000000000004 4.5000000000000009 2.2772541355929321 2.5000000000000004 4.5000000000000009 2.0856528016791152 6.5000000000000009 1.7833559100698646 7 31.050000000000004
decision_type=8 8 10 10 8 8 10 10 8 8 8 8 10 2 8 10 1 10 10 8 10 10 10 2 10 2 10 2 2 2 8 10 9 8 2 9 2 9 2 2 10 9 10 9 10 10 10 9 10 2 2 2 2 10 10 10 10 10 10 10 9 2
left_child=2 3 6 9 12 11 17 13 29 24 21 22 -4 -6 -13 25 19 -1 -11 23 31 37 44 49 41 -9 39 -23 -20 40 -27 -15 -32 -10 42 51 -30 -5 -28 -14 -7 -2 56 -40 -3 -19 -43 -38 -42 -8 -21 -33 -16 -46 -49 -34 -12 -24 -29 60 -22 -39
right_child=1 5 4 10 7 8 16 15 33 18 34 14 26 20 52 -17 -18 45 28 50 59 27 57 -25 -26 30 38 58 36 -31 32 35 55 -35 -36 -37 47 61 43 -41 48 46 -44 -45 53 -47 -48 54 -50 -51 -52 -53 -54 -55 -56 -57 -58 -59 -60 -61 -62 -63
leaf_value=0.07114589964511174 0.0049400708230974977 -0.017525508852280738 0.036762795237331274 -0.016275888284229344 0.035646197650349619 -0.030451439791249243 0.049085501109993164 -0.0042127522465926536 -0.045727249173976373 0.0079770235058108444 -0.014220349316192739 -0.029235926703006804 0.002515438995703596 0.02486249106740664 -0.058112864760124429 -0.018137104303864345 0.02126718570965945 0.059807626129419769 -0.0200234909084306 0.050171669025098287 0.014474273592385132 -0.029189414243348595 -0.024351803992807137 0.043995891208966305 -0.0011686106243574215 0.016982157683296514 0.026407686656194675 -0.012960665256965584 0.0099890525480334086 -0.057858435347895726 -0.0049926258961130471 0.012769836334391899 0.029757814018444257 -0.055499452820383689 -0.046393497231124098 0.019858468019637934 -0.012332780777995826 0.0032913286310809263 0.0064286541656880351 0.032237640694927912 -0.039298175448384709 0.02570983957255886 -0.03365697617301313 0.020698101130367311 0.016822876166305005 0.038972150702464015 0.011733722190621741 0.0007307757858664003 -0.052220531401389672 0.061025497624785832 0.03480162214434112 -0.0049861319193608943 -0.040806463203806938 -0.010799526389493863 -0.010428739645527775 0.0075945121869523046 -0.024935292706832327 -0.052860671787346214 -0.024516782097083977 -0.028642366704881756 -0.0027469448346560533 -0.010029476006368977
leaf_weight=1177.8407179415226 749.98861533403397 280.09622220695019 2519.1902287751436 387.81469213962555 523.20045022666454 670.01475025713444 658.76573294401169 627.78343713283539 869.39273038506508 477.11211681365967 448.28398656845093 1803.0041423588991 70.336050853133202 1412.3727429360151 161.68073995411396 243.83750940859318 227.03341141343117 2074.6984762102365 506.43558765947819 236.33371959626675 355.38243335485458 430.12572656571865 969.81252659857273 1769.4573776721954 725.39011196792126 793.20848239958286 970.43459632992744 2602.7470999509096 223.88226214051247 227.35198219120502 483.39909999072552 431.38402377068996 101.60375493764877 3424.7768307775259 151.7719102203846 1051.527702242136 1176.9061567038298 631.59338513016701 430.90879125893116 1297.1004514545202 2774.8256728798151 381.27126263082027 586.99720473587513 758.1552098095417 107.55872924625874 119.87405793368816 720.81466703116894 884.20866557955742 312.15592564642429 648.870106741786 1043.5496024936438 213.83367547392845 1409.45123668015 119.40442092716694 569.03790146112442 626.59362657368183 2045.8483075946569 54.690249398350716 353.33490063250065 33.763862475752831 270.17694520950317 359.33979672193527
leaf_count=4938 3064 1212 10095 1650 2100 3055 2668 2570 4188 1962 1946 8092 282 5662 766 1031 910 8518 2154 951 1447 1880 4286 7126 2999 3193 3895 11173 937 1101 1994 1738 415 16788 694 4232 4949 2651 1736 5192 12931 1538 2633 3047 447 484 2950 3680 1482 2632 4189 863 6629 509 2413 2568 9039 247 1546 139 1103 1505
internal_value=-7.79955e-06 -0.0249753 0.0325388 -0.010407 0.0206995 -0.0409013 0.0522016 0.0131921 -0.0469567 -0.000445419 -0.0183971 -0.0306826 0.0296 0.0193026 -0.0354529 0.0040752 0.0442375 0.063027 -0.00626028 0.0454344 0.0170335 -0.0132113 -0.0201732 0.0486766 0.00821232 0.00613256 0.0244839 -0.0162279 -0.00828166 -0.039882 0.00937209 0.0195033 0.00438993 -0.053521 -0.0260405 0.0150422 -0.00619813 -0.00580236 0.0205421 0.0307088 -0.0387941 0.0118865 -0.0250379 0.0157551 -0.00865558 0.0586695 0.0164198 -0.007576 -0.0406049 0.0550103 0.0376397 0.00678019 -0.0425874 0.00229084 -0.00361401 0.0105421 -0.0230094 -0.0258737 -0.0143419 0.00538725 0.00722396 -0.00152379
internal_weight=48767.7 27597.1 21170.6 14412.9 13214.2 13184.2 7956.42 7168.07 8278.52 6415.05 7997.86 4905.7 6046.13 4291.64 3374.14 2876.43 4584.01 3372.41 3837.58 4356.98 3768.44 4764.96 1531.56 3077.09 2577.46 2632.59 3526.94 3386.21 3360.47 3984.35 2004.8 3109.12 1211.6 4294.17 3232.9 1696.75 2854.03 1378.75 2159.5 1367.44 3757 1852.07 3081.13 1189.06 507.059 2194.57 1102.09 2630.15 3086.98 1307.64 1279.88 645.218 1571.13 226.963 1453.25 728.197 2494.13 1024.5 2956.08 659.323 625.559 990.933
internal_count=208814 123096 85718 61363 53302 61733 32416 29055 39545 26646 34717 22188 24247 17284 15487 11771 18476 13940 16095 17566 15184 20405 6701 12426 10551 10740 14152 14599 14133 18569 8170 12495 4977 20976 14312 6833 11979 5806 8678 5474 17468 7552 13618 4783 2168 9002 4488 11042 14413 5300 5140 2601 7395 956 6093 2983 10985 4533 12719 2689 2550 4156
cat_boundaries=0 1 3 5 7 9 11 12 13
cat_threshold=1 4001514628 1 3763246273 1 4161404993 1 3934824592 1 3121223880 1 4115302912 183877632
is_linear=0
shrinkage=0.05


Tree=10
num_leaves=63
num_cat=7
split_feature=50 16 16 16 16 15 16 15 16 50 15 32 15 16 32 15 32 15 2 15 32 16 50 32 15 15 15 15 32 16 50 32 16 10 7 1 32 1 16 28 10 52 10 15 50 11 10 16 10 14 15 32 11 15 52 14 15 28 17 28 40 15
split_gain=14420.7 2377.09 1818.6 397.907 393.999 313.598 226.509 162.238 161.313 131.796 95.052 91.0267 82.6116 76.2578 62.1717 57.467 55.6991 42.6817 41.5241 40.5379 49.2705 40.4985 38.8966 37.994 37.1961 36.8466 35.5162 35.4793 31.4017 31.288 31.2402 31.0864 30.6351 29.765 29.2716 28.3243 25.7882 24.6584 22.3988 22.3826 22.1198 21.8321 21.7788 21.5544 21.3587 21.3577 22.0874 21.1048 21.0485 20.2204 20.1099 25.0628 20.0114 19.3461 19.0489 19.0377 18.3142 18.0978 17.6289 17.2558 17.0302 17.0272
threshold=3.5000000000000004 2.998226044309511 1.1785366391390579 1.599336558775341 2.4024201905583298 1.3479888099339705 0.89587973461402759 1.011435595095721 3.6493578504437103 6.5000000000000009 1.5580892133149293 7.5000000000000009 0.81068324164968719 1.9387157803292638 7.5000000000000009 0.85418893014450203 7.5000000000000009 1.3736354571277458 0 0.97438160901885995 7.5000000000000009 3.5070566484845265 6.5000000000000009 7.5000000000000009 1.011435595095721 1.0471650770867933 0.89587973461402759 1.0471650770867933 7.5000000000000009 1.011435595095721 4.5000000000000009 7.5000000000000009 0.71754226264466137 1 5.7500000000000009 29.500000000000004 7.5000000000000009 33.500000000000007 1.7664051342320239 101.50000000000001 2 21.050000000000004 3 0.71754226264466137 6.5000000000000009 25.000000000000004 4 2.8931418480839728 5 1.8325494627242667 0.85418893014450203 7.5000000000000009 25.000000000000004 1.5368094061055313 21.150000000000002 2.1459141833778665 1.8945885877146502 91.500000000000014 6 93.500000000000014 0.16500000000000004 2.2027494954295124
decision_type=8 8 10 10 10 8 10 8 8 8 8 2 8 10 2 10 2 10 1 8 2 8 10 2 10 10 10 10 2 10 10 2 10 9 2 2 2 2 10 2 9 2 9 8 8 2 9 10 9 8 8 2 2 10 2 10 10 2 1 2 2 10
left_child=2 4 6 12 13 9 32 11 22 25 14 54 36 50 40 42 27 18 23 31 33 -11 41 45 28 -3 37 35 43 -30 39 -15 -1 -21 -10 -14 -4 -16 -25 -12 -6 -7 -13 -8 -36 46 -9 49 -17 58 -2 -52 -34 -22 -5 -56 -32 -31 -39 -38 -51 -43
right_child=1 5 3 7 10 8 24 17 34 21 30 15 16 19 26 48 -18 -19 -20 20 53 -23 -24 38 -26 -27 -28 -29 29 57 56 -33 52 -35 44 -37 59 47 -40 -41 -42 61 -44 -45 -46 -47 -48 -49 -50 60 51 -53 -54 -55 55 -57 -58 -59 -60 -61 -62 -63
leaf_value=0.071572918064990471 0.020616814864167343 -0.016778101303838871 0.041941805526973852 0.012938201051419197 -0.013424365020219729 -0.043482199943919102 0.055986253105757867 -0.0029977865602825995 -0.061158614816319692 -0.030679039394170778 -0.010197058016789728 0.0097987542320327886 0.016231566821472788 0.01510013694792052 -0.025725134623360235 -0.01629172727045684 0.014724293392003896 -0.0097580620085284658 -0.028313517139443078 0.0042240506042035787 -0.012938042414386451 -0.044030799118641578 -0.043913448452552038 0.013169292821437762 0.024934473155207491 -0.028113009433665032 -0.020503665292084264 0.019172606560663802 0.049096627289346301 0.041862608384915657 -0.026375297241753144 -0.00044762459630345018 0.054697631778120787 -0.0089409126937827071 -0.044126566898494077 0.035796059355663462 0.035931320302403015 0.0064060907361291417 -0.0071654919461174764 -0.036744552880701796 -0.0017435328285587825 -0.030507761851328082 0.021267962249119865 0.045626643496841313 -0.052713785228748269 0.019868860092013572 0.012359096549933354 -0.024265547340973876 0.0062536947161665607 0.018532598183450211 0.013875492854928041 -0.003783751165370457 0.064674053833480447 -0.039796987345048274 0.027637437126804911 0.042250901755774124 -0.04103232216967783 0.029467909450536151 -0.012657449885515912 0.026654123333295761 -0.011616244957221147 -0.050920349232914774
leaf_weight=749.50277142226696 390.079808562994 1480.7834881693125 1053.9853558987379 171.08598591387272 606.05605472624302 487.84815065562725 858.33645497262478 334.72977495193481 727.51516887545586 995.61745902895927 458.36985974013805 635.06084369122982 215.87312538921833 413.74561329185963 210.83275815844536 108.41572004556656 1049.0724299252033 489.49067801237106 83.162405744194984 1029.9642117917538 1047.8267084062099 1322.138464525342 1687.6887045502663 181.52528412640095 229.14889270067215 1389.9727670103312 2443.9662460535765 670.11558662354946 742.1324608027935 622.29098434746265 1593.9473241120577 1441.9076184928417 996.6410139799118 721.72781889140606 1037.907536894083 1293.3728040754795 1306.3946598619223 154.19555902481079 533.19008529186249 96.030754029750824 1216.0389639884233 1829.1629588454962 1641.3116253912449 1209.7817588150501 2395.1255969703197 547.81393681466579 771.44085864722729 150.71831338107586 845.6994301378727 150.7824866771698 507.08375045657158 332.77676872909069 1014.1179661601782 71.626065611839294 1086.2942309975624 280.39516833424568 246.02186943590641 559.11025524139404 513.57486654818058 813.26996596157551 67.947872042655945 108.20510412752628
leaf_count=3215 1574 6570 4244 689 2602 2305 3515 1360 3687 4575 1992 2558 865 1695 905 443 4213 2030 344 4297 4433 6382 8036 738 919 6357 10672 2689 3031 2510 7104 5948 4147 3027 5079 5182 5240 652 2210 419 5174 8465 6592 4914 11977 2213 3122 656 3436 635 2070 1367 4225 309 4353 1124 1114 2254 2177 3262 287 510
internal_value=-0.000124388 -0.0240973 0.0309342 0.020608 -0.0095666 -0.0390633 0.051808 0.012957 -0.0451066 -0.0294266 -0.0168816 0.0186537 0.0298215 0.000145129 -0.0132694 0.0138874 0.0241902 0.00372203 0.0064132 -0.00274067 -0.0064632 -0.0382954 -0.0380846 0.00763242 0.0445247 -0.0222663 -0.0169992 0.0287467 0.0456493 0.0410509 -0.0252001 0.00301898 0.0629452 -0.00122707 -0.0520482 0.0329977 0.0355501 -0.0101367 -0.00200081 -0.0147955 -0.005712 -0.0340284 0.0182048 0.0499262 -0.0501176 0.0117951 0.0077967 -0.0069681 0.00358666 -0.00402727 0.0112356 0.0068784 0.0597292 -0.0146566 0.0286667 0.0306356 -0.0283351 0.0359967 -0.00834908 0.0323719 0.00916696 -0.0316478
internal_weight=48419.9 27327.2 21092.8 14111.7 13865.2 13462 6981.06 7709.62 8273.45 5188.51 7908.48 4768.26 6402.08 5956.74 5514.11 3230.49 3228.43 2941.35 2451.86 4726.8 2871.14 2317.76 4112.9 2368.7 4220.8 2870.76 3692.02 2179.36 3991.65 1923.53 2394.37 1855.65 2760.26 1751.69 4160.55 1509.25 3173.65 1248.05 714.715 554.401 1822.1 2425.22 2276.37 2068.12 3433.03 1653.98 1106.17 1037.22 954.115 886.501 1229.94 839.861 2010.76 1119.45 1537.78 1366.69 1839.97 1181.4 667.77 2119.66 218.73 1937.37
internal_count=208689 123052 85637 56907 59109 63943 28730 31212 40059 23884 34389 19195 25695 24720 23760 13029 12949 12017 9987 19709 12066 10957 19316 9643 17143 12927 15984 8736 16224 7795 10629 7643 11587 7324 20743 6047 12746 5312 2948 2411 7776 11280 9150 8429 17056 6695 4482 4407 3879 3751 5011 3437 8372 4742 6166 5477 8218 4764 2829 8502 922 8975
cat_boundaries=0 1 2 3 5 6 8 9
cat_threshold=1 163276609 3900918400 3926071365 1 1414139904 3758194880 1 515
is_linear=0
shrinkage=0.05


Tree=11
num_leaves=63
num_cat=5
split_feature=50 49 48 48 48 25 48 25 48 25 50 25 25 25 50 25 12 15 1 6 14 49 2 2 50 28 15 48 32 48 14 1 15 25 48 48 15 48 48 15 32 25 17 43 49 33 48 1 1 28 7 15 53 18 50 15 17 32 15 53 53 6
split_gain=13101 2215.16 1683.51 398.058 360.07 330.722 184.663 182.968 156.17 103.466 102.827 92.8212 77.8967 55.4626 45.2239 43.7843 35.7403 35.5723 34.7851 34.6263 33.1881 32.1575 31.7961 31.3165 31.107 31.0161 30.6113 30.4068 29.8334 28.8712 28.2048 26.5687 26.1571 23.7142 23.6572 23.574 22.4818 22.4521 21.8042 21.581 24.3189 21.4053 21.1085 20.2822 20.7561 20.1466 20.141 19.7376 19.0222 18.9288 18.4708 17.9475 17.7921 17.1494 17.0654 17.9305 16.9001 16.8417 23.8719 19.2313 16.3846 16.1764
threshold=3.5000000000000004 19.050000000000004 0.46536796536796537 0.25978407557354932 0.095695970695970703 5.5000000000000009 0.69047619047619058 3.5000000000000004 0.026702317290552589 4.5000000000000009 6.5000000000000009 4.5000000000000009 3.5000000000000004 4.5000000000000009 4.5000000000000009 3.5000000000000004 25.000000000000004 1.8945885877146502 29.500000000000004 3.4765000000000001 2.3841544616826362 46.550000000000004 0 1 5.5000000000000009 93.500000000000014 0.85418893014450203 0.9545454545454547 7.5000000000000009 0.10582306830907055 1.8325494627242667 40.500000000000007 1.4701097818118665 6.5000000000000009 0.18019480519480521 0.18693221523410206 1.7833559100698646 0.044543650793650802 0.16807909604519775 0.71754226264466137 7.5000000000000009 2.5000000000000004 2 1.0000000180025095e-35 14.250000000000002 3 0.57189542483660138 23.500000000000004 28.500000000000004 91.500000000000014 5.7500000000000009 0.97438160901885995 39.150000000000013 2.5000000000000004 2.5000000000000004 0.81068324164968719 4 7.5000000000000009 1.0471650770867933 31.750000000000004 44.650000000000013 3.4605000000000001
decision_type=8 8 10 10 10 8 10 8 10 8 8 8 10 10 10 10 2 10 2 2 10 8 1 1 10 2 10 10 2 10 10 2 8 10 10 10 10 10 10 8 2 10 1 2 10 1 10 2 2 2 2 10 2 2 10 10 1 2 10 2 2 2
left_child=2 4 3 7 9 10 26 16 32 24 15 14 18 23 38 20 31 22 -5 33 -3 -12 43 29 53 39 28 41 52 -9 35 45 -7 -10 54 47 -15 -17 57 -20 51 -8 -16 44 -11 56 49 -13 -14 -30 -34 -41 -4 -2 55 -33 -1 58 59 -6 -47 -56
right_child=1 5 6 12 11 8 27 13 19 17 21 30 48 36 42 37 -18 -19 25 -21 -22 -23 -24 -25 -26 -27 -28 -29 46 -31 -32 34 50 -35 -36 -37 -38 -39 -40 40 -42 -43 -44 -45 -46 60 -48 -49 -50 -51 -52 -53 -54 -55 61 -57 -58 -59 -60 -61 -62 -63
leaf_value=-0.013770496871338961 -0.0051852694751599029 -0.019502929074996692 0.043956417264236929 0.021634443473728025 -0.014122689088570402 -0.04293203428745767 0.058611466743577367 -0.0044895490146050886 -0.032279341881991545 -0.014063433452581282 -0.032821994972628957 -0.038101149757556088 -0.00097507147708751282 -0.004296502967435614 0.0054661324777575959 -0.029068427894703503 0.025075779274612971 -0.039156745382046554 0.041228680590458151 -0.047870432685233805 0.00054170613112191908 -0.047353322188810713 -0.044743316263786338 -0.026914477675542205 -0.017642512374328994 0.027677341824085801 0.033716770921830903 0.069387798159842959 0.042793987971883801 0.011351496426648693 -0.015365835217621332 0.034366982050556813 -0.060635556645528915 -0.041154293316133093 0.023978092857872391 0.013559143952251601 -0.032520533104853526 -0.017336994095064982 0.015193515599757646 0.039963406726905307 0.02471699966092317 0.033608848253410734 -0.0090588259116758645 -0.028835466832343417 -0.022064281764841726 0.0089136492360852356 0.047204282303067439 -0.0050684890288603037 0.01879899636320374 0.028137409931660369 -0.05104160234715327 0.025954485993948631 0.05521201553629014 -0.018299102316231133 0.013577434525137764 0.0070599360840698433 0.0076948390715430859 0.00070784397538628714 0.0024807944021738803 0.021893650479757158 0.025591150146837716 -0.0041553746064621503
leaf_weight=136.09180195629597 2027.0841694772243 733.39629270136356 579.35405418276787 784.92535592615604 40.871129840612411 832.12259690463543 1895.8764699697495 342.90335428714752 2375.1210214197636 1544.3908338695765 1197.0822324752808 46.544086396694183 144.4298549592495 919.97321034967899 377.88956743478775 1742.4871231615543 1528.2100871503353 275.88067765533924 1201.3307349383831 625.49736316502094 287.43686716258526 558.28554406762123 131.56105400621891 63.210092023015022 926.29300409555435 1763.1747494190931 652.49106994271278 734.82265375554562 466.16646347939968 1784.4556554704905 816.23994867503643 173.08140410482883 619.31371900439262 1101.8880531787872 1130.0373111665249 169.91037334501743 76.416308417916298 532.4759568721056 766.9396513402462 973.45991288125515 638.86649367213249 89.651032596826553 706.41714951395988 527.19196523725986 1706.1100263744593 437.05451695621014 703.80463570356369 1591.6751135587692 770.13756114244461 417.66225370764732 2641.3441489636898 298.81167931854725 891.16351978480816 284.26476672291756 718.7374365478754 92.105475157499313 236.30325135588646 996.10660137236118 489.85165038704872 397.88053107261658 222.11234569549561 156.63549241423607
leaf_count=548 8595 3281 2383 3153 168 4167 8003 1411 11290 6766 5628 201 582 3827 1565 8042 6122 1264 4846 3083 1243 2741 616 263 4037 7090 2635 3215 1890 7227 3488 693 3248 5305 4528 697 323 2383 3098 3916 2563 369 2932 2335 7673 1758 2898 6731 3092 1690 13532 1197 3680 1205 2892 369 951 4095 2020 1623 892 631
internal_value=-0.000122417 -0.0231205 0.0294897 0.0200968 -0.0091189 -0.0377317 0.050803 0.0126182 -0.0439342 -0.0166123 -0.0276684 -0.000428434 0.0292156 0.00331907 0.00459143 -0.0224621 0.0187536 -0.0218044 0.0314032 -0.0370402 -0.0138589 -0.0374436 -0.0205798 0.00776761 -0.00990069 0.0329758 0.0435485 0.0606984 0.0456462 0.00879812 -0.00765103 0.0158278 -0.0508446 -0.0350919 0.0188507 -0.00416836 -0.00646109 -0.0263226 0.00806445 0.0359774 0.0326764 0.0574825 -0.0040299 -0.0197383 -0.0182629 0.00917382 0.0408934 -0.00600699 0.0156762 0.0358679 -0.0528638 0.0366732 0.0507775 -0.00679809 0.0137707 0.0248826 -0.00030464 0.00522373 0.0100679 0.0185386 0.0143161 0.0104044
internal_weight=48093 27069.6 21023.5 14592.5 13823.1 13246.5 6430.99 8017.33 8195.29 7422.78 5051.16 6400.33 6575.14 3186.96 3775.96 3295.8 4830.37 4185.13 5660.57 4102.51 1020.83 1755.37 3909.25 2190.57 3237.64 4875.64 3710.64 2720.35 3058.15 2127.36 2624.37 3302.16 4092.78 3477.01 2270.6 1808.13 996.39 2274.96 2691.65 3112.47 1911.14 1985.53 1084.31 3777.69 3250.5 1031.56 1587.63 1638.22 914.567 883.829 3260.66 1272.27 1470.52 2311.35 1140.56 265.187 372.395 1924.71 928.603 438.752 659.167 875.373
internal_count=208689 123052 85637 58874 59109 63943 26763 32435 40625 32491 23318 26618 26439 13051 15501 14949 19384 18654 22765 19678 4524 8369 17390 8901 13837 19612 15176 11587 12541 8638 11117 13262 20947 16595 9113 7629 4150 10425 11004 12522 7676 8372 4497 16774 14439 4149 6478 6932 3674 3580 16780 5113 6063 9800 4585 1062 1499 7906 3811 1791 2650 3523
cat_boundaries=0 1 2 3 4 5
cat_threshold=1 1 706 62 337
is_linear=0
shrinkage=0.05


Tree=12
num_leaves=63
num_cat=6
split_feature=50 16 16 48 16 25 16 25 25 16 25 25 50 50 25 25 5 2 50 15 15 32 32 15 16 16 32 16 5 14 15 2 7 50 53 32 16 16 14 16 11 25 18 52 53 25 15 15 14 50 2 3 18 17 15 53 3 16 50 11 53 25
split_gain=11904.9 2073.96 1562 444.258 327.31 242.817 208.623 160.705 106.648 106.441 103.881 77.1726 71.9622 48.1531 45.3824 39.5322 38.0619 33.4598 33.3831 33.3694 33.1371 32.8102 32.2533 32.8281 30.2723 29.6204 31.0199 28.6089 27.9204 27.2947 27.0532 26.7763 25.8861 25.8623 25.7648 26.8707 25.5368 24.3829 23.5832 22.8543 21.2473 20.2269 19.5738 19.4567 19.0592 18.8627 18.7919 18.7322 20.3095 18.4371 18.2693 18.1041 17.7909 17.668 17.6513 17.6404 17.6137 17.5975 18.3269 17.3085 16.7631 16.7342
threshold=3.5000000000000004 3.1419924481000066 1.1785366391390579 0.086581709145427302 1.599336558775341 5.5000000000000009 0.89587973461402759 3.5000000000000004 4.5000000000000009 3.6493578504437103 4.5000000000000009 3.5000000000000004 6.5000000000000009 4.5000000000000009 4.5000000000000009 3.5000000000000004 3.5485000000000002 0 2.5000000000000004 1.0471650770867933 0.76519735254682386 7.5000000000000009 7.5000000000000009 1.2946333325561217 0.71754226264466137 1.011435595095721 7.5000000000000009 2.1101948345363803 3.5425000000000004 2.1804014991111278 1.5580892133149293 1 5.7500000000000009 4.5000000000000009 36.850000000000001 7.5000000000000009 3.8617812361389854 2.3465905316554028 3.3339870432574523 1.9387157803292638 35.000000000000007 2.5000000000000004 1.5000000000000002 20.850000000000005 33.150000000000013 6.5000000000000009 2.2027494954295124 0.71754226264466137 2.5217125584596238 1.5000000000000002 2 3 2.5000000000000004 4 1.4701097818118665 30.950000000000003 5 1.3986406674150766 1.5000000000000002 25.000000000000004 33.45000000000001 3.5000000000000004
decision_type=8 8 10 10 10 8 10 8 8 8 8 10 8 10 10 10 2 1 10 10 8 2 2 10 10 10 2 10 2 10 10 1 2 10 2 2 8 10 10 10 2 10 2 2 2 8 10 10 10 10 1 1 2 1 8 2 1 10 10 2 2 10
left_child=2 3 6 10 11 12 24 18 13 28 33 20 15 39 31 29 30 22 47 25 40 50 27 -24 -1 60 -27 -10 46 -3 45 37 -11 61 42 -36 -14 59 -16 -5 57 -26 -20 -29 -42 52 -7 48 -6 -28 -22 -31 -12 -15 -34 -17 -37 58 -4 -9 -8 -2
right_child=1 5 4 8 7 9 19 14 17 32 16 -13 36 53 38 55 -18 -19 34 -21 21 -23 23 -25 41 26 49 43 -30 51 -32 -33 54 -35 35 56 -38 -39 -40 -41 44 -43 -44 -45 -46 -47 -48 -49 -50 -51 -52 -53 -54 -55 -56 -57 -58 -59 -60 -61 -62 -63
leaf_value=0.067382147159976646 0.0015857571324591497 -0.021392091974248462 0.024130583334651602 0.014413514262668244 0.027120820097530626 -0.035226437045348127 0.029968954274903266 0.0072003009676235921 0.0082211092134676349 -0.058618331373256317 -0.014951289494331771 0.013797926265988941 -0.03253441444338824 -0.01106731231287566 -0.0032834325653867862 -0.043284412549660284 -0.050232562532750505 -0.036126378868094673 0.012845176200991258 0.019864124393661496 0.029845891858961089 0.01711221721745192 -0.0090742385265627362 -0.027197977645776736 0.056497368894702193 0.043796396608667069 0.029190606521732717 -0.027077158343336013 -0.056103353910556153 0.012913213350805065 -0.030378455073506335 -0.025995288600569433 -0.041059492180549786 -0.014440994321444252 0.023612500888183844 0.021261528039890489 -0.045957177231913761 -0.0042683413824266018 -0.027632393404364498 0.0043968348172590118 -0.00037999116119262374 0.032117861404805353 -0.0025597931571882133 -0.0044975477499088192 0.045289461334788519 -0.024056990929518463 -0.054275506530912558 0.019581453604766333 0.053430203988545935 0.044551098725048643 0.0037038654343488388 -0.011902280566297899 -0.029609300770688837 0.0003510758931992007 -0.04971770761959992 -0.026047534320833406 0.0083594974441093383 0.025802134748123345 0.038473615301866389 0.018369603912984221 0.048501389089133901 -0.01222763692109438
leaf_weight=719.25548575818539 502.37749041616917 462.82619434595108 291.72970639169216 767.9930624216795 428.06407169997692 2854.6050361096859 133.11938185989857 1233.704409122467 453.22328722476959 653.98693953454494 1527.6387437433004 945.35604427754879 1006.8107825517654 556.57457216084003 857.99711547791958 163.54531134665012 127.65058356523514 106.96852605044842 633.28298759460449 183.28930568695068 1972.9106436818838 818.53223279118538 1363.8172214776278 305.89737148582935 1869.1594670563936 1207.2901760488749 934.7480496019125 107.29927289485931 185.06230013072491 116.12496182322502 891.98767164349556 59.928907409310341 762.86438469588757 2356.8989750891924 1039.6456416994333 411.55901120603085 546.77886748313904 342.64738887548447 112.48187838494778 2202.8029767125845 24.070578098297119 89.135490000247955 305.75941807031631 860.75079207122326 448.7335115224123 1964.8545232862234 135.6194354891777 859.36641022562981 88.522108763456345 246.96869707107544 69.175119072198868 166.62869650125504 239.45651018619537 849.68232335150242 2577.7227535098791 1606.3218329846859 858.71826255321503 872.70153078436852 941.41691185534 482.51172351837158 1463.4082217812538 389.04032266139984
leaf_count=3215 2111 2101 1180 3098 1716 13913 551 4994 1881 3525 6833 3797 4821 2329 3569 782 617 474 2548 737 7928 3281 5815 1335 8003 4966 3796 468 959 502 4131 251 3890 10298 4165 1652 2741 1411 481 9064 97 369 1231 3697 1814 8983 680 3442 355 1004 277 731 1070 3547 13532 7467 3446 3509 3812 1951 6089 1657
internal_value=-0.000120381 -0.0221835 0.0281246 -0.0103711 0.0186097 -0.0385533 0.0477189 0.0116789 -0.00169296 -0.0440898 -0.0185883 0.0269837 -0.0287976 0.00337812 0.00284885 -0.023572 -0.0232992 -0.00863377 0.0175771 0.040724 0.0292754 0.0255701 -0.00768234 -0.0123946 0.0586097 0.0416833 0.0381596 -0.00214641 -0.0372568 -0.0139146 -0.0225557 0.00695027 -0.0495214 -0.0116972 0.0148126 0.0176515 -0.0372585 0.00790925 -0.00610556 0.00698629 0.0333859 0.0553877 0.0078292 -0.00700029 0.0429644 -0.0206859 -0.0360904 0.0241046 0.0316292 0.0324008 0.0289603 -0.00167498 -0.0169376 -0.00424435 -0.0477405 -0.0276403 0.0127728 0.0312353 0.0350804 0.0103405 0.0469561 -0.0044428
internal_weight=47759 26813.8 20945.2 15574.9 14098.8 11238.9 6846.37 7714.19 7575.01 7169.86 7999.9 6384.63 4069.04 4377.05 3089.27 2515.45 4751.59 3197.96 4624.92 4168.82 5439.27 2860.62 3090.99 1669.71 2677.55 3985.53 2389.01 1421.27 3175.29 745.58 4623.94 2118.79 3994.57 3248.32 3248.97 2309.92 1553.59 2058.86 970.479 2970.8 2578.65 1958.29 939.042 968.05 472.804 3731.95 2990.22 1375.95 516.586 1181.72 2042.09 282.754 1767.1 1406.26 3340.59 1769.87 1270.28 2105.85 1233.15 1716.22 1596.53 891.418
internal_count=208689 123052 85637 67408 56907 55644 28730 31212 31708 36499 35700 25695 19145 18038 12657 11583 21634 13670 18555 17143 21898 11486 13196 7150 11587 16406 9766 6046 15552 3334 21017 8607 20947 14066 13042 9263 7562 8356 4050 12162 10412 8372 3779 4165 1911 16886 14593 5513 2071 4800 8205 1233 7903 5876 17422 8249 5098 8501 4992 6945 6640 3768
cat_boundaries=0 1 2 3 4 5 6
cat_threshold=1 1 1 104 3116 67
is_linear=0
shrinkage=0.05


Tree=13
num_leaves=63
num_cat=9
split_feature=50 16 16 48 16 25 16 25 16 25 25 15 50 25 50 32 15 5 10 10 11 16 25 10 10 48 5 32 7 15 32 16 1 32 11 10 15 16 15 15 15 53 50 11 12 15 15 19 15 8 16 10 3 16 25 14 10 50 16 8 53 3
split_gain=10820.8 1937.69 1453.17 405.138 328.392 233.491 171.728 148.986 104.241 96.4474 95.8214 68.261 67.9329 45.3502 43.4594 40.5037 38.3755 35.9091 33.0295 32.3644 31.4938 30.2221 28.887 28.5744 28.3498 28.2952 27.0875 26.1069 25.6637 25.3961 24.5676 24.5384 23.7607 22.9831 22.6225 22.3628 21.8907 20.2423 20.2173 20.1638 19.8463 19.8064 19.7613 19.4846 19.1344 18.1229 18.0704 17.3399 17.2775 17.239 17.1126 17.0817 16.9508 20.4707 17.6432 18.9833 16.6782 16.6511 16.5893 16.5257 16.3326 17.9101
threshold=3.5000000000000004 3.1419924481000066 1.1472764606483909 0.086581709145427302 1.5789255615152133 5.5000000000000009 0.89587973461402759 3.5000000000000004 3.6493578504437103 4.5000000000000009 4.5000000000000009 0.81068324164968719 6.5000000000000009 4.5000000000000009 4.5000000000000009 7.5000000000000009 1.0816615128302691 3.5485000000000002 0 1 25.000000000000004 0.71754226264466137 3.5000000000000004 2 3 0.10811126694717159 3.5425000000000004 7.5000000000000009 5.7500000000000009 1.8945885877146502 7.5000000000000009 3.8617812361389854 40.500000000000007 7.5000000000000009 25.000000000000004 4 1.2382692000587421 2.8003208578683441 1.7491620461964394 1.2088489500472754 1.0471650770867933 26.550000000000004 2.5000000000000004 25.000000000000004 1.0000000180025095e-35 1.5789255615152133 2.2027494954295124 1.5000000000000002 1.4701097818118665 46.500000000000007 2.3465905316554028 5 6 1.8640500836336089 2.5000000000000004 2.266944491991564 7 6.5000000000000009 1.8164190316151558 30.500000000000004 42.95000000000001 8
decision_type=8 8 10 10 10 8 10 8 8 8 8 8 8 10 10 2 10 2 9 9 2 10 10 9 9 10 2 2 2 10 2 8 2 2 2 9 10 10 10 8 10 2 10 2 2 10 10 2 8 2 10 9 1 10 10 10 9 10 10 2 2 1
left_child=2 3 6 10 11 12 21 20 26 14 30 27 16 24 23 19 -3 29 -11 49 32 -1 34 59 -9 45 46 -4 -10 37 41 -14 60 58 -8 -16 42 -12 -15 -39 -21 -2 -34 -23 -35 -20 57 -46 -30 -13 -26 -41 53 -25 55 -54 -44 -7 -27 -5 61 -6
right_child=1 5 4 9 7 8 22 13 28 18 17 15 31 38 35 -17 -18 -19 25 40 -22 43 -24 52 50 33 -28 -29 48 -31 -32 -33 36 44 -36 -37 -38 39 -40 51 -42 -43 56 -45 47 -47 -48 -49 -50 -51 -52 -53 54 -55 -56 -57 -58 -59 -60 -61 -62 -63
leaf_value=0.065531467786849346 -0.034472198900440371 -0.015848877887322557 0.037724052783009748 -0.036299078310907583 0.011418304553531728 -0.029964969724741428 0.037526635494446924 -0.009905844373585021 -0.057450218241292407 -0.023378036055477981 -0.016534765055667696 0.0081032720354255027 -0.03133415482842683 -0.0036224235408049543 0.0044866110963606631 0.01313158412851922 -0.028299120305484565 -0.048766578535257579 -0.010172332063451285 0.034552214457690647 0.022848911369980511 0.048362868623460627 0.019223396058492385 0.020179211806864897 0.010944467401366488 0.024692254167756778 -0.054815114957472225 0.028341950783787002 -0.039789469726872036 -0.035176950462414203 -0.015269923332911058 -0.0446132537954049 0.024919299992588635 0.0034329577203973389 0.045710059913629204 -0.0086417293784298941 -0.013883416828243032 -0.015772589040434947 -0.028459682068993797 -0.030762969396020187 0.020921404646917351 -0.0053850686166812952 0.021279351290419062 0.058411943115408538 -0.018939668349645417 -0.028634014251911439 -0.052898713747031971 -0.0023496566511058696 -0.048444165772739377 0.022488783774215659 -0.0017326481135591825 -0.019719089110862925 0.017026798744590978 5.7133560736443521e-05 0.0078847917487700446 0.060892172996711839 0.010144691431489839 -0.037668101282030943 0.0011026040236191759 -0.0013871172622544063 0.016784982577862522 -0.004518022318611723
leaf_weight=703.00290897488594 60.956448644399643 1141.7815171778202 1120.0219982713461 36.266788646578789 339.63888657093048 1343.0554666221142 2070.8227693736553 217.2329667955637 634.41825054585934 316.07619851827621 1791.2170729339123 323.21654513478279 993.45357443392277 903.66542416810989 495.69244623184204 1032.5284276902676 1351.5719771683216 124.9819294065237 949.5500575453043 917.23847343027592 1527.9612115621567 958.08000363409519 161.32071420550346 152.08428931236267 1658.8686602413654 82.619245320558548 180.06840005517006 2193.8127536177635 748.2298436909914 320.51338846981525 1709.0242800563574 535.3800852894783 677.71165472269058 262.47845987975597 1426.1214338093996 909.34919260442257 55.871889516711235 627.98077836632729 90.101545840501785 1029.1387017518282 376.71490125358105 1467.4800110459328 597.17067223787308 971.4857043325901 406.67586599290371 154.5696244686842 132.27716308832169 257.06574413180351 2514.8241473436356 585.53636339306831 317.08826687932014 818.60657297074795 580.33477218449116 748.24382568895817 911.99851678311825 25.759045109152794 941.06251901388168 1468.6883340626955 761.09611608088017 518.58328334987164 343.49471420049667 349.32787019014359
leaf_count=3215 274 5185 4573 151 1365 6583 8571 897 3525 1384 7969 1299 4821 3766 2068 4142 6398 617 4143 3696 6122 4147 650 612 6699 338 959 8865 3890 1526 7444 2741 2717 1111 5955 3808 225 2865 384 4823 1510 6348 2394 4225 1722 687 680 1088 13532 2354 1305 3834 2356 3064 3738 105 3777 7330 3197 2136 1378 1406
internal_value=-0.000117856 -0.0212835 0.0268345 -0.00989101 0.0181623 -0.0372918 0.0469176 0.0113783 -0.0427943 -0.00161109 -0.0177736 0.0264692 -0.027686 0.00298635 0.00320687 0.0213029 -0.0225978 -0.0223235 -0.00822352 0.0251332 0.016913 0.056656 0.0399097 0.00663128 0.00700126 -0.0064531 -0.0359897 0.0315129 -0.0482486 -0.0216031 -0.0111509 -0.0359843 0.0141681 -0.00255716 0.040864 -0.00403968 0.0170264 -0.0205835 -0.00587434 -0.0235128 0.0303493 -0.00654511 0.0178057 0.0534223 -0.00799512 -0.0127568 -0.0348383 -0.0125144 -0.0464596 0.0171832 0.00886526 -0.0261434 0.00895742 0.00341821 0.0121987 0.0188911 0.0146717 -0.0339886 0.00341258 -0.00360412 0.00787863 0.00343824
internal_weight=47421.2 26562.1 20859.1 15518.3 14568.3 11043.7 6290.83 8019.2 7021.56 7568.44 7949.9 6549.07 4022.19 3186.96 4378.31 3235.23 2493.35 4712.44 3190.13 2202.71 4832.24 2632.57 3658.26 2973.27 2193.19 2874.06 3124.09 3313.83 3897.47 4587.46 3237.46 1528.83 3304.28 1769.94 3496.94 1405.04 2271.82 4266.94 993.767 2475.73 1293.95 1528.44 2215.94 1929.57 926.22 1104.12 2944.02 663.742 3263.05 908.753 1975.96 1847.75 2418.42 900.328 1518.09 606.094 1538.23 2811.74 843.715 554.85 1032.46 688.967
internal_count=208689 123052 85637 67408 58874 55644 26763 32435 36499 31708 35700 26439 19145 13051 18038 13001 11583 21634 13670 8859 19384 11587 15176 12162 8901 12286 15552 13438 20947 21017 14066 7562 13262 7456 14526 5876 9113 19491 4150 11522 5206 6622 8888 8372 3921 4830 14593 2810 17422 3653 8004 8657 9875 3676 6199 2461 6171 13913 3535 2287 4149 2771
cat_boundaries=0 2 4 6 8 9 10 11 12 13
