tree
version=v4
num_class=1
num_tree_per_iteration=1
label_index=0
max_feature_idx=54
objective=binary sigmoid:1
feature_names=advance_final_count_90d age bike_class car_no dow good_track_race_ave good_track_race_best good_track_rate2_180d good_track_run_count_180d good_track_trial_ave graduation_code handicap handicap_diff_min is_absent log_place_odds_max log_place_odds_min log_win_odds month order1_count_90d order2_count_90d order3_count_90d order_other_count_90d place_code place_odds_max place_odds_min place_odds_min_rank player_place_code player_place_name race_dev_num race_handicap_max race_handicap_min race_n_absent race_n_cars race_no rain_expect_code rank_class rank_num rate2 rate3 run_count_90d st_ave_90d sunny_expect_code this_year_advance_final this_year_win_count total_win_count wet_track_rate2_180d wet_track_run_count_180d win_count_90d win_implied_prob win_odds win_odds_rank win_rate1 win_rate2 win_rate3 year
feature_infos=[0:12] [18:79] -1:0:1 -1:4:3:1:2:5:0:6:7 -1:5:6:4:0:3:2:1 [0:3.8420000000000001] [0:3.8420000000000001] [0:100] [0:91] [0:3.7200000000000002] -1:23:22:19:21:20:18:25:28:17:27:26:24:13:16:15:14:29:8:7:30:11:31:9:10:32:3:12:6:2:0:1:4 [0:90] [0:90] none [0.69314718055994529:8.0971219309187106] [0.69314718055994529:6.6612151498615315] [0.69314718055994529:7.203405521083095] -1:4:6:5:9:8:7:3:10:0:11:2:1 [0:10] [0:8] [0:8] [0:10] -1:0:3:1:4:2 [1:3284] [1:780.5] [1:8] -1:1:0:3:4:2 -1:0:2:4:1:3 [0:217] [0:90] [0:10] [0:2] [5:8] -1:4:5:3:2:7:6:1:0:8:10:9:11 none -1:0:1:2 [1:232] [0:100] [0:100] [0:62] [0:0.42999999999999999] none [0:29] [0:16] [0:219] [0:100] [0:27] [0:6] [0.00074460163812360388:1] [1:1343] [1:8] [0:100] [0:100] [0:100] -1:3:2:1:4:0
tree_sizes=6898 6963 6952 6953 6921 6986 6975 6976 6961 6970 6963 6932 6970 6965 6973 6980 6955 6963 6927 6954 6972 6961 6969 6988 6918 6933 6945 6886 6992 6921 6967 6868 6934 6953 6931 6927 6933 6932 6929 6900 6901 6910 6898 6902 6927 6946 6960 6894 6899 6815 6896 6896 6964 6884 6888 6876 6884 6908 6881 6907 6830 6895 6898 6953 6866 6859 6933 6873 6861 6913 6879 6922 6883 6905 6911 6874 6903 6869 6955 6841 6844 6875 6779 6880 6864 6855 6894 6899 6870 6852 6924 6876 6859 6833 6868 6879 6942 6877 6892 6905 6778 6893 6809 6823 6879 6804 6830 6895 6965 6838 6856 6824 6844 6855 6773 6778 6809 6807 6847 6872 6863 6858 6826 6825 6914 6735 6869 6740 6798 6819 6867 6819 6846 6768 6775 6824 6858 6799 6845 6776 6787 6791 6826

Tree=0
num_leaves=63
num_cat=0
split_feature=50 48 16 16 25 16 48 25 16 25 16 25 25 50 25 16 25 50 50 16 25 16 48 25 25 11 16 50 16 5 16 25 25 16 53 32 24 24 32 25 53 28 53 5 24 32 24 50 1 53 51 53 16 32 50 24 16 53 50 25 16 1
split_gain=36830.4 4835.87 4681.48 805.233 768.39 751.229 613.591 275.1 262.629 216.702 206.179 182.418 171.408 162.612 132.657 115.609 94.3425 89.5967 66.7217 64.2977 61.6206 59.2406 55.3268 51.0029 49.5101 47.9751 47.6181 44.5247 44.2773 41.6493 41.3871 39.3758 37.6015 36.4903 35.0407 32.8515 32.7873 30.1919 29.3823 29.3264 27.7488 27.5919 27.4493 27.3072 25.1897 24.7121 24.6457 24.5431 24.4368 24.08 24.0827 23.4877 23.3751 23.2761 22.9655 22.5825 22.4997 22.1432 22.1363 21.7024 21.0543 20.4665
threshold=3.5000000000000004 0.063492703378214957 1.3216669431912595 0.97438160901885995 3.5000000000000004 3.3860823123378947 0.10811126694717159 5.5000000000000009 1.6581827230727291 4.5000000000000009 1.9530024665512917 4.5000000000000009 4.5000000000000009 5.5000000000000009 2.5000000000000004 0.76519735254682386 4.5000000000000009 2.5000000000000004 4.5000000000000009 2.1341489346727696 4.5000000000000009 1.1472764606483909 0.020555006295366784 2.5000000000000004 3.5000000000000004 25.000000000000004 1.4701097818118665 5.5000000000000009 1.9387157803292638 3.5365000000000006 1.5368094061055313 6.5000000000000009 6.5000000000000009 1.8325494627242667 34.150000000000013 7.5000000000000009 1.1500000000000001 1.2500000000000002 7.5000000000000009 3.5000000000000004 33.650000000000013 92.500000000000014 28.850000000000005 3.5225000000000004 4.5500000000000007 6.5000000000000009 1.0500000000000003 4.5000000000000009 31.500000000000004 31.750000000000004 12.950000000000001 35.050000000000004 1.6581827230727291 7.5000000000000009 1.5000000000000002 2.0500000000000003 3.6389002209295209 32.45000000000001 4.5000000000000009 5.5000000000000009 2.5217125584596238 49.500000000000007
decision_type=8 10 10 10 8 8 10 8 10 8 10 8 8 8 10 10 10 10 10 10 10 10 10 10 10 2 10 10 10 2 10 10 10 10 2 2 10 10 2 10 2 2 2 2 8 2 8 10 2 2 2 2 10 2 10 8 8 2 10 10 10 2
left_child=2 5 3 15 8 9 11 13 23 27 16 18 19 24 21 -1 30 37 -3 49 -12 35 55 26 47 28 -4 57 61 31 -6 44 34 -14 -13 46 38 53 -17 -16 -35 54 -28 -24 -11 -44 -5 -7 -21 -8 -51 -30 -18 -10 -23 -9 -15 -2 -36 -42 -20 -19
right_child=1 6 4 14 10 7 12 22 17 29 20 32 33 56 39 36 52 25 60 48 -22 41 43 -25 -26 -27 42 -29 51 -31 -32 -33 -34 40 58 -37 -38 -39 -40 -41 59 -43 45 -45 -46 -47 -48 -49 -50 50 -52 -53 -54 -55 -56 -57 -58 -59 -60 -61 -62 -63
leaf_value=-0.25949493319954625 -0.40888827784314169 -0.37256154339745656 -0.30855178744099532 -0.27943761957710922 -0.3319760845330762 -0.35761233832264516 -0.37379842869802815 -0.41002849327654239 -0.30306735689979991 -0.4091890096126729 -0.36402236528110599 -0.40750878632066351 -0.35762747765543568 -0.41882534353119216 -0.31341378422295452 -0.27024922378759303 -0.35406227744308538 -0.34412186849091941 -0.38034222931564321 -0.38628359228363929 -0.38576545191386841 -0.31044181277934463 -0.43109182429786969 -0.32959209924018079 -0.40713792920178871 -0.33322079663666504 -0.36589303131308859 -0.40526028340054987 -0.36818758623979259 -0.43547540788585576 -0.34746078488108423 -0.42431258248803699 -0.41099449155345236 -0.39505165599133035 -0.38587910668487935 -0.3005969050543853 -0.29046707710451336 -0.33703825735051829 -0.28191361382475344 -0.3317555182303038 -0.37434627804348064 -0.31280261577418228 -0.29969034097872327 -0.44375155858317811 -0.4172199098706505 -0.3233248838797258 -0.29428889055687957 -0.39184618182417164 -0.36575215435630437 -0.34382437522888071 -0.35649332525304733 -0.35024274431891383 -0.37216248407548225 -0.32466331103258228 -0.29563064211308548 -0.44259458510452238 -0.4291459607802236 -0.38924485916890988 -0.3966895283159062 -0.38764294848743924 -0.39172755771363432 -0.32745630272110604
leaf_weight=1129.1976538002491 166.00872847437859 1197.3409746587276 1247.1194289028645 476.76160302758217 648.32812008261681 85.783258527517319 136.52828469872475 54.12802791595459 167.21694338321686 1910.1877708733082 951.34841921925545 569.79415100812912 186.0650959610939 804.67112928628922 542.73013705015182 1096.5758512616158 340.95824727416039 607.73209914565086 620.05589121580124 168.90844425559044 495.60975560545921 404.02706551551819 2902.1322110295296 863.14873087406158 480.62789073586464 879.09716767072678 35.038232356309891 1277.8080875873566 237.29340809583664 277.88942903280258 1290.3735226392746 1023.1163848042488 517.59926694631577 289.9715781211853 654.85248059034348 979.37900510430336 477.72817495465279 369.47211912274361 1063.4707627594471 364.15597352385521 1070.9616951942444 833.18500113487244 122.51299175620079 499.23440033197403 1997.4208872914314 1137.4135151803493 674.66720509529114 134.35349786281586 1020.6999549865723 585.74258780479431 1043.1727522909641 787.51447758078575 374.06333577632904 491.50182491540909 743.05216893553734 3219.1678031086922 1536.3660780787468 1056.4631162881851 1710.349024951458 430.12450754642487 1176.5596782267094 264.35742205381393
leaf_count=4673 687 4955 5161 1973 2683 355 565 224 692 7905 3937 2358 770 3330 2246 4538 1411 2515 2566 699 2051 1672 12010 3572 1989 3638 145 5288 982 1150 5340 4234 2142 1200 2710 4053 1977 1529 4401 1507 4432 3448 507 2066 8266 4707 2792 556 4224 2424 4317 3259 1548 2034 3075 13322 6358 4372 7078 1780 4869 1094
internal_value=-0.369689 -0.405934 -0.317737 -0.290354 -0.339006 -0.422489 -0.380581 -0.431736 -0.329177 -0.410834 -0.356287 -0.390737 -0.367307 -0.419273 -0.30347 -0.272883 -0.348008 -0.338206 -0.381705 -0.359683 -0.37147 -0.299651 -0.437416 -0.319091 -0.398144 -0.342876 -0.315525 -0.398734 -0.347351 -0.416642 -0.342282 -0.41558 -0.398569 -0.378702 -0.396378 -0.293865 -0.278614 -0.325598 -0.275992 -0.320779 -0.380892 -0.305878 -0.322241 -0.43295 -0.413294 -0.321027 -0.28814 -0.378506 -0.368667 -0.353628 -0.351938 -0.354398 -0.363531 -0.319181 -0.300847 -0.442056 -0.425599 -0.391912 -0.393696 -0.378156 -0.387798 -0.33907
internal_weight=48899.1 28804.1 20095 8784.93 11310.1 17425.4 11378.7 9716.46 7209.42 7708.89 4100.68 6446.55 4932.17 3041.8 5017.96 3766.97 2653.72 3804.19 2993.96 2955.05 1446.96 4111.07 6674.66 3405.23 700.765 2775.99 2542.08 2500.28 1896.9 5208.61 1938.7 4930.73 3452.59 1977.12 2935 2130.81 2637.77 1028.19 2160.05 906.886 1791.06 1980.26 1294.96 3401.37 3907.61 1259.93 1151.43 220.137 1189.61 1765.44 1628.92 1024.81 715.022 658.719 1147.08 3273.3 2341.04 1222.47 2365.2 1501.09 1796.62 872.09
internal_count=202361 119201 83160 36355 46805 72112 47089 40210 29835 31902 16970 26678 20411 12588 20766 15589 10982 15743 12390 12229 5988 17013 27622 14092 2900 11488 10520 10347 7850 21555 8023 20405 14288 8182 12146 8818 10916 4255 8939 3753 7412 8195 5359 14076 16171 5214 4765 911 4923 7306 6741 4241 2959 2726 4747 13546 9688 5059 9788 6212 7435 3609
is_linear=0
shrinkage=1


Tree=1
num_leaves=63
num_cat=3
split_feature=50 48 16 16 16 25 48 25 16 25 16 25 25 50 25 16 25 50 2 50 16 16 25 16 25 25 50 11 16 5 2 25 16 2 25 16 16 50 53 9 15 15 32 25 50 53 48 1 53 50 16 15 32 53 16 53 32 32 28 32 15 7
split_gain=33161.5 4453.54 4112.91 700.657 699.719 683.134 556.908 254.713 232.046 200.489 184.934 166.648 154.595 151.225 116.127 99.8084 84.2912 79.4216 64.5819 60.5994 58.8046 57.1208 55.741 50.4593 46.1013 44.9132 43.7727 42.6407 41.8142 41.1209 40.9383 39.5505 39.4706 37.7811 37.3615 36.0177 32.9814 31.7356 30.8699 29.7479 28.743 26.658 26.3371 25.8295 25.7235 25.2637 24.4829 24.3998 24.3412 23.4548 23.1342 22.962 21.6982 21.0626 21.019 20.5713 20.4447 20.0056 19.9556 19.9279 19.538 19.3291
threshold=3.5000000000000004 0.063492703378214957 1.3216669431912595 3.3961834369540003 0.97438160901885995 3.5000000000000004 0.10811126694717159 5.5000000000000009 1.6581827230727291 4.5000000000000009 1.9530024665512917 4.5000000000000009 4.5000000000000009 5.5000000000000009 2.5000000000000004 0.76519735254682386 4.5000000000000009 2.5000000000000004 0 4.5000000000000009 1.9670879050346399 1.0816615128302691 4.5000000000000009 4.0351248116807676 3.5000000000000004 2.5000000000000004 6.5000000000000009 25.000000000000004 1.4701097818118665 3.5335000000000005 1 6.5000000000000009 1.9387157803292638 2 6.5000000000000009 1.5368094061055313 1.8325494627242667 1.5000000000000002 29.550000000000004 3.4450000000000007 0.81068324164968719 0.81068324164968719 7.5000000000000009 3.5000000000000004 4.5000000000000009 33.650000000000013 0.045766830044824271 26.500000000000004 28.850000000000005 4.5000000000000009 1.1785366391390579 1.5368094061055313 6.5000000000000009 35.550000000000004 1.6581827230727291 34.650000000000013 7.5000000000000009 7.5000000000000009 92.500000000000014 7.5000000000000009 1.2088489500472754 48.95000000000001
decision_type=8 10 10 8 10 8 10 8 10 8 10 8 8 8 10 10 10 10 1 10 10 10 10 8 10 10 10 2 10 2 1 10 10 1 10 10 10 10 2 2 10 10 2 10 10 2 10 2 2 10 10 8 2 2 10 2 2 2 2 2 10 2
left_child=2 3 4 9 15 8 11 13 25 26 16 19 20 24 18 -1 30 41 21 -3 60 -6 -12 39 49 28 38 32 -4 31 35 51 -19 34 44 -7 -14 -23 -2 -9 42 56 -17 -16 -13 -38 -40 -22 -30 -5 -39 -11 -50 -34 61 -15 -10 -29 -52 -47 -8 -18
right_child=1 6 5 7 14 10 12 23 17 29 22 33 36 55 43 40 54 27 -20 -21 47 37 -24 -25 -26 -27 -28 57 48 -31 -32 -33 53 -35 -36 -37 45 50 46 -41 -42 -43 -44 -45 -46 59 -48 -49 52 -51 58 -53 -54 -55 -56 -57 -58 -59 -60 -61 -62 -63
leaf_value=0.10297534210643278 -0.050432534126081889 -0.0026010054179180487 0.057597439539378514 0.012924624522169035 0.07568003603343304 0.037019765642967252 0.022544568469774803 -0.059983865030509169 0.062699184772097835 -0.037112102663359389 0.0055066000967404459 -0.016563203203998195 0.011561627466851722 -0.061172877894258418 0.053068025290687243 0.092416865967425446 0.017997336332482416 0.029056063795319872 0.034437266166503562 -0.017133783478737476 -0.013853389081541451 0.056841292376677122 -0.015189688131452628 -0.070656682784582509 -0.035636502960743353 0.037948962672955888 -0.041330517446519215 0.041198232884587759 0.0037326800824727564 -0.062481811873915195 -0.015419388101446694 -0.05262690851444575 0.002648166801065931 -0.055309150437155376 -0.039182241415902763 0.022400620811695089 -0.024082743354734943 0.077678365124353818 -0.030685978631260599 -0.072920979573238134 0.071695150368014798 0.030964605241542976 0.081799409644345067 0.035921436011230344 -0.027217066946352442 -0.0015173371716958159 -0.018935117996906142 0.0064712027326659094 0.065836682156377002 -0.020992460774548374 0.069621034490787811 -0.04487169529810759 0.043814709872092461 0.018896418746342937 -0.0022215353858650437 -0.050683030312567524 0.042562982260008791 0.026047501402809314 0.055837091255974393 -0.013113083026188806 -0.0013964407167680025 -0.031163423204653026
leaf_weight=1148.8018160015345 109.63680647313595 1196.7399556934834 1260.0214551687241 84.276697039604187 1308.3157081305981 633.8745054602623 828.57191346585751 3434.2652651965618 169.0875301361084 1653.2555757313967 952.35054963827133 784.55990652740002 186.47379606962204 656.4854601174593 547.93384334445 1217.0959380418062 320.59706975519657 876.79456162452698 157.19686652719975 1790.5701724290848 160.27931152284145 1189.1729032099247 494.13714262843132 2574.3939332067966 468.08305798470974 869.18056827783585 485.74356672167778 496.3440189063549 35.063300430774689 316.15182633697987 57.788412407040596 1023.9381330907345 270.82753720879555 117.62051026523113 492.4115424156189 1256.4445847421885 288.59292268753052 423.38473615050316 691.76742370426655 510.38295266032219 336.60010434687138 371.5968522131443 1122.9844986498356 366.5708073079586 2039.1694192290306 670.24700270593166 1233.9331646263599 1876.5462096780539 123.9460785984993 128.98511636257172 631.59917083382607 2252.1627816408873 1146.5239693522453 756.8025267124176 373.90302014350891 1622.4332945346832 495.33215028047562 388.36913189291954 449.41671440005302 828.51722498238087 94.988426819443703 21.324672818183899
leaf_count=4673 457 4955 5161 348 5347 2606 3419 14392 692 6894 3937 3259 770 2747 2246 4959 1323 3609 643 7435 664 4868 2051 10809 1951 3572 2024 2041 145 1325 238 4283 1120 490 2054 5179 1200 1731 2878 2143 1375 1529 4582 1507 8485 2777 5132 7754 507 536 2582 9405 4707 3121 1548 6788 2034 1597 1842 3435 392 88
internal_value=0.000116843 -0.0345562 0.0490424 -0.050566 0.0745012 0.0291168 -0.0102412 -0.0596884 0.0383386 -0.039432 0.0128291 -0.0199478 0.00239038 -0.0475256 0.0623269 0.0906475 0.0206442 0.029868 0.065874 -0.0113118 0.00961707 0.0671088 -0.00156349 -0.0652115 -0.0268576 0.047772 -0.0278442 0.025477 0.0510999 -0.0450013 0.0260355 -0.0438801 0.0212632 -0.0274609 -0.0264732 0.0273028 -0.00844833 0.0629456 -0.0246256 -0.0616577 0.0853566 0.0416893 0.0873216 0.046195 -0.0242569 -0.010536 -0.0231564 0.00487185 0.044829 -0.00758912 0.0677709 -0.0415869 0.0459632 0.0146143 0.00597172 -0.0537048 0.0476874 0.0345474 0.0638906 -0.00792747 0.0200822 0.0149313
internal_weight=48870.6 28601.2 20269.4 17245.9 8899.07 11370.3 11355.3 9479.31 7259.89 7766.59 4110.42 6421.07 4934.22 2960.26 5073.59 3825.48 2663.93 3825.15 4159.09 2987.31 2960.39 4001.89 1446.49 6519.04 681.345 3434.74 2521.08 2789.14 2565.55 5245.51 1948.11 4929.36 1904.42 3433.76 3316.14 1890.32 1973.83 2693.57 2035.34 3944.65 2676.68 1036.02 2340.08 914.505 2823.73 1787.36 1925.7 2036.83 1305.53 213.262 1504.4 3905.42 1270.47 1027.63 715.825 2278.92 664.42 884.713 1081.02 1498.76 923.56 341.922
internal_count=202361 119201 83160 72112 36355 46805 47089 39714 29835 32398 16970 26678 20411 12370 20766 15589 10982 15743 17013 12390 12229 16370 5988 27344 2835 14092 10491 11488 10520 21907 8023 20582 7850 14288 13798 7785 8182 11023 8467 16535 10916 4255 9541 3753 11744 7412 8010 8418 5359 884 6155 16299 5214 4241 2959 9535 2726 3638 4424 6212 3811 1411
cat_boundaries=0 1 2 3
cat_threshold=1 1 1
is_linear=0
shrinkage=0.05


Tree=2
num_leaves=63
num_cat=11
split_feature=50 48 48 49 48 25 48 25 48 25 48 25 50 25 48 25 25 50 50 49 48 2 25 32 25 10 50 25 53 5 15 2 25 25 15 25 15 48 10 48 10 50 10 15 10 15 53 48 2 10 10 15 48 28 18 49 5 32 50 53 32 10
split_gain=29908.7 4109.31 3645.86 656.978 619.143 609.05 505.951 243.048 206.094 185.604 166.002 165.74 140.343 126.118 116.982 88.542 75.4131 72.5523 54.1328 51.5303 51.4007 50.4615 50.4221 42.2938 41.5589 40.3963 39.1781 38.8562 38.7176 37.9727 37.7401 36.0117 37.622 35.7593 35.1728 33.9387 33.5984 33.4291 32.6761 31.1893 29.9065 27.518 27.5129 27.0973 25.7889 25.6142 25.0342 24.0459 23.7641 23.7612 22.7779 22.4994 22.3266 21.7701 21.6772 21.117 20.4136 20.1389 20.0791 19.8068 19.7679 19.5578
threshold=3.5000000000000004 0.063492703378214957 0.36375661375661378 28.550000000000004 0.57189542483660138 3.5000000000000004 0.11299795709908071 5.5000000000000009 0.25320512820512825 4.5000000000000009 0.16530054644808748 4.5000000000000009 5.5000000000000009 3.5000000000000004 0.80128205128205143 2.5000000000000004 4.5000000000000009 2.5000000000000004 5.5000000000000009 38.95000000000001 0.18019480519480521 0 4.5000000000000009 7.5000000000000009 3.5000000000000004 1 5.5000000000000009 2.5000000000000004 35.150000000000013 3.5525000000000007 0.81068324164968719 2 6.5000000000000009 5.5000000000000009 0.76519735254682386 6.5000000000000009 0.71754226264466137 0.16261237440507673 3 0.16807909604519775 4 4.5000000000000009 5 1.5580892133149293 6 1.7137573449897647 33.45000000000001 0.31754032258064518 7 8 9 0.81068324164968719 0.9545454545454547 95.500000000000014 2.5000000000000004 37.050000000000004 3.5425000000000004 7.5000000000000009 4.5000000000000009 35.750000000000007 6.5000000000000009 10
decision_type=8 10 10 8 10 8 10 8 10 8 10 8 8 8 10 10 10 10 10 8 10 1 10 2 10 9 10 10 2 2 8 1 10 10 10 10 8 10 9 10 9 10 9 8 9 8 2 10 1 9 9 10 10 2 2 8 2 2 10 2 2 9
left_child=2 3 5 9 15 8 11 12 17 26 22 18 24 37 34 21 25 51 38 56 28 23 42 30 58 60 61 47 -19 35 -4 32 41 39 46 45 -25 49 -3 40 -15 59 -7 -21 -39 -11 -6 -10 -27 -8 -30 57 -16 -22 -17 -14 -9 -1 -5 -13 -12 -2
right_child=1 6 4 7 14 10 13 19 27 29 16 31 55 33 52 54 -18 20 -20 43 53 -23 -24 36 -26 48 -28 -29 50 -31 -32 -33 -34 -35 -36 -37 -38 44 -40 -41 -42 -43 -44 -45 -46 -47 -48 -49 -50 -51 -52 -53 -54 -55 -56 -57 -58 -59 -60 -61 -62 -63
leaf_value=0.057443561667407467 -0.027954137836663947 -0.013170994565669275 0.073088516493179309 0.010948992997737335 0.061541633031767864 -0.0055209498746489737 0.00044537873910014119 -0.054866607430382089 0.04551051096451713 -0.036077870113010641 0.048116022572193259 -0.027032807847323755 -0.044907480592809385 -0.014935346252376606 0.08862684476938118 0.047904554033776171 0.0056667222694322793 0.0040484619141506898 -0.022783091677328282 -0.059002027054343764 0.036573227997587297 0.030460863905795145 -0.0144739438314216 0.060562152919844917 -0.034185826428387966 0.018497846124564586 -0.032555659519306987 0.036368948951521957 0.0070703458629591881 -0.067958395273527261 0.058859703997221118 -0.052263963703961615 -0.037209989911719719 -0.016505041702381089 0.066171557290844799 -0.05045253737678175 0.045172210765601128 0.0044498838608377674 -0.001767423241330118 0.0094828973893171156 -6.0065554723703172e-05 -0.025603246123867853 0.011812467870746503 -0.068075040274173063 0.027622629135770904 -0.044142115951055383 0.081660345927205044 0.056166946650831343 -0.014688638926024566 0.014514755391418938 0.025804072143033693 0.030589769026494653 0.10025832477918147 0.022773312089216194 0.030444763935044278 -0.055016530776676648 -0.074132953551223055 0.039647369323887259 -0.020025873482225159 -0.010282430475837684 0.028817017407015661 -0.014099011928659026
leaf_weight=215.68080158531666 482.59412488341331 1109.7166675925255 1065.6438007503748 86.15186870098114 167.64214891195297 365.86698053777218 558.91177180409431 1902.6890464574099 1314.093998119235 1915.7985550016165 155.61283284425735 246.47800366580486 787.90203151106834 475.9723856151104 892.73325914144516 608.16002213954926 716.53770510852337 328.5692763030529 662.74369701743126 1091.4628360718489 960.35092678666115 133.86162188649178 492.68179734051228 1197.4404618144035 473.64980211853981 842.40631847083569 1260.964531108737 712.49191154539585 219.14388047158718 148.83164758980274 828.208152577281 122.48107010126114 511.87242314219475 459.6268388479948 573.94067823886871 1020.7205257713795 503.8627600222826 178.29257349669933 1457.6758910268545 522.50862209498882 1119.412222251296 2127.3259366154671 587.42110839486122 3344.8484924137592 501.06906409561634 2025.9919330924749 1990.9791297763586 886.46956726908684 57.634192630648613 655.52297069132328 1185.1262793242931 468.24241594970226 767.042555809021 406.87160138785839 251.20208190381527 1500.2595314979553 148.19512338936329 604.62384003400803 133.23005864024162 621.4719859957695 900.65505911409855 728.91872915625572
leaf_count=876 2016 4608 4318 355 677 1511 2309 8081 5353 8055 638 1029 3330 1973 3599 2479 2959 1355 2761 4649 3929 545 2051 4858 1989 3454 5288 2911 899 633 3359 516 2152 1912 2324 4320 2045 733 6052 2157 4637 8898 2426 14259 2060 8547 8040 3602 238 2705 4862 1916 3087 1665 1024 6358 633 2467 556 2587 3693 3043
internal_value=0.000100815 -0.0330905 0.0462784 -0.048599 0.0701142 0.0275347 -0.00975176 -0.0573823 0.036207 -0.0376329 0.012161 -0.0182818 -0.0455652 0.0033348 0.0835323 0.0572694 0.019544 0.0293631 -0.0100433 -0.0628129 0.0252183 0.0606037 -0.00148632 0.061726 -0.0258529 0.0246269 -0.0263863 0.0465175 0.0194995 -0.0430732 0.0668661 -0.0256136 -0.0246829 -0.00386312 0.0771728 -0.0423268 0.0560042 0.0131314 -0.00675463 -0.00111956 -0.004592 -0.0225421 0.00522599 -0.0658428 0.0220132 -0.0402227 0.0800979 0.0498033 0.0161928 0.00816288 0.0231147 0.0393347 0.0940022 0.0324665 0.0428008 -0.0515356 -0.0562588 0.0443265 -0.00786196 -0.0150392 0.0313633 -0.0199652
internal_weight=48784.5 28383.3 20401.2 17052.2 8980.72 11420.5 11331.1 9468.39 7301.66 7583.82 4118.82 6859.77 2981.19 4471.32 4392.34 4588.38 2672.85 4388.61 3230.14 6487.2 3100.06 3729.02 1445.97 3595.16 693.032 1956.31 2472.48 2913.06 1732.84 5111.34 1893.85 3629.63 3507.15 2577.52 2732.56 4962.51 1701.3 1893.8 2567.39 2117.89 1595.38 2995.28 953.288 4436.31 679.362 3941.79 2158.62 2200.56 900.041 1214.43 1404.27 1288.55 1659.78 1367.22 859.362 2288.16 2050.88 820.305 219.382 867.95 1056.27 1211.51
internal_count=202361 119201 83160 72112 36355 46805 47089 40210 29835 31902 16970 28603 12588 18486 17727 18628 10982 17969 13421 27622 12710 15125 5988 14580 2900 8023 10347 11866 7116 21555 7677 15182 14666 10679 11041 20922 6903 7807 10660 8767 6610 12514 3937 18908 2793 16602 8717 8955 3692 5014 5761 5259 6686 5594 3503 9688 8714 3343 911 3616 4331 5059
cat_boundaries=0 1 2 3 5 7 9 10 11 13 14 16
cat_threshold=1 62727168 1 4169804417 1 4031283208 1 4169319040 1 3263212544 1 3212970580 1 3791782977 2059534464 1
is_linear=0
shrinkage=0.05


Tree=3
num_leaves=63
num_cat=8
split_feature=50 16 16 16 16 25 25 16 25 50 16 25 16 16 25 25 16 50 50 2 16 15 32 16 25 16 10 50 11 32 15 5 5 15 16 16 25 15 15 2 16 51 15 1 25 10 2 10 25 50 14 50 10 10 50 53 53 50 15 53 25 53
split_gain=27014.1 3807.19 3257.41 623.94 608.505 515.933 467.263 228.459 194.285 161.119 158.986 146.657 141.852 105.537 96.3881 80.5415 69.7383 68.1126 63.2519 46.576 44.0049 43.2505 40.5887 40.3093 38.8532 38.6774 38.4083 38.1356 37.3606 37.2986 39.6416 36.8579 36.077 35.9769 35.17 32.0536 31.6485 31.5408 29.5311 27.4763 27.0761 26.1078 25.5786 25.6643 25.5205 24.9759 24.9574 24.8294 24.4899 23.6456 23.566 22.7652 22.6583 22.6021 25.4124 22.282 22.2451 21.8227 21.452 21.3786 21.2585 21.0292
threshold=3.5000000000000004 2.9365093959507509 1.3479888099339705 2.4379801953848275 1.011435595095721 3.5000000000000004 5.5000000000000009 3.5307615141790158 4.5000000000000009 6.5000000000000009 1.6581827230727291 4.5000000000000009 1.7491620461964394 0.81068324164968719 2.5000000000000004 4.5000000000000009 2.1341489346727696 4.5000000000000009 2.5000000000000004 0 3.1717820198074476 0.85418893014450203 6.5000000000000009 1.9242220118926376 3.5000000000000004 3.595940517615571 1 4.5000000000000009 25.000000000000004 7.5000000000000009 0.81068324164968719 3.5425000000000004 3.5075000000000007 1.0816615128302691 2.8003208578683441 1.9387157803292638 2.5000000000000004 0.76519735254682386 0.71754226264466137 2 1.4701097818118665 22.150000000000002 1.8164190316151558 23.500000000000004 6.5000000000000009 3 4 5 6.5000000000000009 5.5000000000000009 1.8945885877146502 4.5000000000000009 6 7 6.5000000000000009 35.750000000000007 33.45000000000001 2.5000000000000004 0.81068324164968719 28.850000000000005 2.5000000000000004 31.750000000000004
decision_type=8 8 10 10 10 8 8 8 8 8 10 8 10 10 10 10 10 10 10 1 10 10 2 10 10 8 9 10 2 2 8 2 2 10 10 10 10 10 8 1 10 2 10 2 10 9 1 9 10 10 10 10 9 9 10 2 2 10 10 2 10 2
left_child=2 3 4 8 13 10 9 31 16 17 22 27 21 -1 19 26 61 24 58 29 -19 -7 -4 50 -3 -11 46 45 35 30 -6 49 -9 -22 39 -20 40 56 -31 48 -24 -16 43 -25 -17 -5 -14 -18 55 -8 -10 60 -23 -29 -55 -13 -15 -28 -12 -42 -49 -2
right_child=1 6 5 11 14 12 7 32 23 25 18 34 15 37 41 44 47 20 28 -21 33 52 36 42 -26 -27 57 53 -30 38 -32 -33 -34 -35 -36 -37 -38 -39 -40 -41 59 -43 -44 -45 -46 -47 -48 51 -50 -51 -52 -53 -54 54 -56 -57 -58 -59 -60 -61 -62 -63
leaf_value=0.08878911829663888 -0.0047488252567963784 0.00061565557238825474 0.058073253920107253 -0.01533617258621181 0.068723748015786165 0.031149983080847404 -0.038037115155358847 -0.05969617475861775 0.011823624007172521 -0.041959683635326261 0.04253593321488431 -0.030963358324443559 0.0033307355471068334 0.05816302664261376 0.042813848972636584 -0.0071639046847338838 -0.0075244063029630106 -0.02592357371734343 0.02585176799090802 0.02870806933471556 -0.0307143482425591 -0.00022424359522049242 0.04934258257790531 -0.042524295136873787 -0.026084034949376646 -0.055939403022196812 0.035808872560856513 -0.023793175761614764 0.031249211737072808 0.056835779957545296 0.054741885961134773 -0.066807673926865346 -0.068815288284760648 -0.043829923724276805 -0.036193112948751306 0.012885319835611302 0.030776932115144019 0.062464932216691721 0.043018181817690307 -0.053203357043218352 -0.0050192830132528765 0.02015853668369284 -0.034668519225710036 -0.0110128306710042 -0.035489247579296439 0.00085021434556447326 -0.037205012425001141 0.022122264010913738 -0.036487895745546804 -0.047500682603325392 -0.018615146980926339 -0.0036331391340747249 0.018798691075812748 -0.0098473482537292448 -0.036322108953511845 -0.019508930778295994 0.07707938756986174 0.013493767900221732 0.027612527010348692 0.038983225161676599 0.0040364396456205928 0.01564912781317437
leaf_weight=1669.0863166153431 136.89694173634052 226.73546388745308 342.48265059292316 399.42997962236404 1137.6870395094156 727.87583455443382 845.80022022128105 3886.9285722821951 273.9795987457037 983.33388504385948 672.66059398651123 586.37388578057289 710.10126532614231 168.48749798536301 826.80968832969666 652.04257789254189 654.79035568237305 1070.0613823086023 884.76707048714161 142.03708347678185 899.94557026028633 202.88024140894413 925.32247799634933 66.703419536352158 341.44633641839027 995.81175972521305 131.06373125314713 925.08489625155926 892.70681418478489 1289.4049994945526 914.39301411807537 212.60663053393364 1504.355549544096 1247.8750514388084 1160.6882158219814 1033.2157084494829 717.67343378067017 577.49835629761219 552.31851111352444 87.854004248976707 28.276183873414993 150.27919802069664 132.1582418680191 2063.5306945890188 90.565288633108139 575.54775041341782 40.117130354046822 245.87570935487747 377.62662872672081 3005.6224281042814 82.805758059024811 507.97348801791668 810.15712903439999 896.80591559410095 100.83159327507019 1538.6036817133427 2003.4810796976089 667.74373461306095 375.08838999271393 1160.4102974087 479.02669827640057 1640.6983511149883
leaf_count=6686 565 944 1386 1661 4579 2972 3609 16822 1132 4179 2726 2468 2923 677 3354 2714 2716 4513 3609 576 3818 833 3738 280 1441 4277 538 3873 3638 5199 3688 921 6532 5312 4936 4241 2918 2324 2231 375 116 610 553 8613 377 2389 166 1016 1602 12851 343 2106 3321 3750 424 6458 8040 2744 1529 4707 1981 6741
internal_value=8.71873e-05 -0.0317031 0.0437537 -0.0117567 0.0653438 0.0253513 -0.048652 -0.0554928 -0.000460657 -0.0374327 0.0335269 -0.0224337 0.0110933 0.0788713 0.0534202 0.00291973 0.00697102 -0.0313893 0.0267082 0.0568316 -0.0342074 0.0218526 0.0418155 -0.0108605 -0.0154294 -0.0489936 0.00940993 -0.0139847 0.0227996 0.0578575 0.0624935 -0.0465412 -0.0622407 -0.0383344 -0.0289603 0.0188668 0.0398492 0.0728506 0.052692 -0.0257196 0.0429291 0.0393294 -0.0133238 -0.0119995 -0.0106183 -0.00592962 0.00114783 0.000278226 -0.0247548 -0.0454224 0.00475914 0.00444723 0.0151723 -0.0180693 -0.0123989 -0.0226697 0.075612 0.016943 0.0371934 0.0379365 0.0101709 0.0140782
internal_weight=48650.4 28153.8 20496.6 12933.3 9431.48 11065.2 15220.5 9455.31 6284.44 5765.21 7032.6 6648.85 4032.55 4418.55 5012.93 2291.63 3665.26 3786.06 3858.44 4035.84 3217.88 1740.91 3174.17 2619.18 568.182 1979.15 1549.03 2897.7 2810.69 3893.8 2052.08 4064.03 5391.28 2147.82 3751.15 1917.98 2831.68 2749.47 1841.72 2590.46 2114.01 977.089 2262.39 2130.23 742.608 974.978 750.218 1887.67 2502.6 3851.42 356.785 1232.88 1013.04 1922.72 997.638 2124.98 2171.97 798.807 1047.75 1188.69 724.902 1777.6
internal_count=202361 119201 83160 53982 37964 45196 65219 40735 26046 24484 28608 27936 16588 17727 20237 9462 15125 16028 15743 16273 13643 7126 12865 10921 2385 8456 6371 12097 11488 15697 8267 17381 23354 9130 15839 7850 11479 11041 7430 10903 8561 3964 9446 8893 3091 4050 3089 7819 10528 16460 1475 5103 4154 8047 4174 8926 8717 3282 4255 4823 2997 7306
cat_boundaries=0 1 3 4 6 7 9 11 12
cat_threshold=1 4236694144 1 1 4169828416 1 1 4161544840 1 2952923520 1 4190503552
is_linear=0
shrinkage=0.05


Tree=4
num_leaves=63
num_cat=13
split_feature=50 16 16 48 16 25 25 16 25 16 50 25 16 15 16 50 25 50 16 50 2 16 15 16 25 48 16 5 25 10 53 5 51 25 14 16 10 50 10 10 14 10 25 2 16 16 53 1 15 15 10 50 7 10 15 10 2 2 2 50 7 16
split_gain=24428.7 3527.84 2930.51 569.073 509.428 488.026 441.528 218.409 167.355 165.216 150.521 139.525 137.816 87.376 74.9976 62.7792 62.0716 58.0542 53.0316 50.3933 45.5477 49.2569 41.9569 41.8205 41.0367 38.1017 36.6186 35.4826 35.413 34.8588 33.9881 33.986 31.4556 31.2466 30.8531 33.984 27.6397 27.1107 26.9606 25.4438 25.3572 25.1408 24.7356 25.1292 24.0322 23.3652 23.2232 23.1913 23.1559 23.1551 23.1528 23.042 21.5189 21.3232 20.8066 20.1985 20.1638 19.7795 19.6319 19.5568 19.4508 19.2924
threshold=3.5000000000000004 2.9365093959507509 1.3216669431912595 0.10256679991584264 0.97438160901885995 3.5000000000000004 5.5000000000000009 3.542406503050497 4.5000000000000009 1.599336558775341 6.5000000000000009 4.5000000000000009 1.9530024665512917 0.85418893014450203 0.76519735254682386 4.5000000000000009 4.5000000000000009 2.5000000000000004 2.1341489346727696 4.5000000000000009 0 1.0816615128302691 1.3216669431912595 1.8794359129669858 4.5000000000000009 0.06872933396315542 3.595940517615571 3.5425000000000004 3.5000000000000004 1 35.150000000000013 3.5075000000000007 22.150000000000002 2.5000000000000004 1.8325494627242667 1.9242220118926376 2 1.5000000000000002 3 4 2.8535883538621087 5 6.5000000000000009 6 3.2676641749753856 3.1842822368296253 34.750000000000007 31.500000000000004 1.0471650770867933 0.89587973461402759 7 6.5000000000000009 42.650000000000013 8 1.7833559100698646 9 10 11 12 4.5000000000000009 48.95000000000001 1.2382692000587421
decision_type=8 8 10 10 10 8 8 8 8 10 8 8 10 10 10 10 10 10 10 10 1 10 10 10 10 10 8 2 10 9 2 2 2 10 10 10 9 10 9 9 10 9 10 1 10 10 2 2 10 10 9 10 2 9 10 9 1 1 1 10 2 10
left_child=2 3 4 8 14 9 10 27 19 33 15 18 16 20 -1 28 29 58 -5 39 21 -6 40 36 50 54 -12 44 -3 -7 -25 -9 48 57 35 -13 -19 -23 -37 -2 45 -21 43 59 -8 -17 -24 -20 -15 -16 -14 -43 -38 -32 -10 -42 -31 -4 -11 -27 -18 -39
right_child=1 6 5 11 13 12 7 31 25 17 26 34 24 32 49 22 60 23 47 41 -22 37 46 30 -26 42 -28 -29 -30 56 53 -33 -34 -35 -36 38 52 61 -40 -41 55 51 -44 -45 -46 -47 -48 -49 -50 -51 -52 -53 -54 -55 -56 -57 -58 -59 -60 -61 -62 -63
leaf_value=0.086948167582916167 -0.020241215422265747 0.00058480090808646888 0.045302592111607441 0.013343692905184565 0.065114041774928938 0.028424241696860215 -0.040178112012121833 -0.057840479553667404 -0.031168673486822368 0.036316425030557931 -0.040296628704747615 0.011382305521197894 -0.0029250022481838219 0.048390450164458275 0.07298198639194102 -0.024669592513325022 0.0070930096985226069 0.035878557657187983 -0.014863030468911409 -0.021277615112423553 0.028526995566668129 0.047277183504300241 -0.050884895368650131 0.0029803700498549257 -0.013288500520171371 -0.012607073664364775 -0.053987675397011187 -0.06477362831571308 -0.024935660499537736 0.016522598810570277 0.0053410677476696117 -0.066831344443599783 0.019035211774171244 0.032510918462257718 -0.017697036733548704 0.00026039688051272819 0.023937485290373671 0.062970800232283658 -0.014312905285816744 -0.00028976396115416126 0.00063553689352022029 -0.0074113776689530139 -0.035222185775557052 -0.051445255878684641 -0.048070034170410753 -0.036447426645573745 -0.035492401158932818 0.0030858349143595564 0.032066130575017039 0.053749636757040559 0.01255399443456953 -0.03479500531041347 -0.0041787234271595374 0.023361732401082799 -0.050129149648540976 -0.024380008261920844 -0.0140777432523194 0.016705090607057386 0.0025950373754510155 -0.023279427544948245 -0.027858337141914498 0.05130713633384823
leaf_weight=1168.0026260465384 181.05087341368198 226.76285363733768 2160.7762151658535 1781.5540396869183 1259.996278077364 1064.478946402669 2082.291386321187 3756.0717122256756 1418.2186800539494 1255.6962514519691 972.98687812685966 267.29183001816273 503.0077483355999 742.83388766646385 2560.8840906769037 751.18395517766476 675.69031259417534 747.58377775549889 209.18215733766556 1196.1097284257412 145.61088661849499 1136.1537911891937 371.5564227104187 329.69936013221741 490.15340873599052 603.25409509241581 980.60979847609997 213.44378264248371 339.36653538048267 847.00560976564884 216.12870931625366 1459.5034089386463 148.56142923235893 718.94484566152096 666.59338976442814 556.23851965367794 553.44714896380901 773.78331030905247 745.09131383895874 990.59233768284321 122.32708947360516 826.64915956556797 365.87699061632156 66.398399457335472 1797.2399230152369 958.27549082040787 719.6772650629282 1288.5304031670094 307.02149014174938 166.68928128480911 452.55799925327301 84.691142663359642 77.594134151935577 1196.9983902275562 161.13049043715 267.77765639126301 57.48819237947464 62.204824045300484 44.697390407323837 1488.2561404109001 42.297861739993095 654.33487994968891
leaf_count=4673 755 944 8704 7306 5051 4331 8981 16540 6063 5078 4179 1102 2076 2989 10248 3184 2784 3033 871 5028 588 4566 1600 1355 2051 2533 4277 943 1441 3454 883 6468 600 2911 2789 2322 2246 3105 3114 4115 523 3462 1566 287 7803 4103 3088 5326 1239 668 1861 359 315 4878 692 1145 238 251 181 6292 175 2628
internal_value=7.49919e-05 -0.0303862 0.0414336 -0.0112047 0.0626931 0.0246725 -0.0468571 -0.0535717 -0.0202823 0.03239 -0.0359117 0.000947539 0.0109212 0.0524018 0.0763465 -0.030058 0.0176188 0.0262812 0.00751376 -0.0118611 0.0559738 0.0570189 -0.0327805 0.0225834 -0.00152658 -0.0270123 -0.0471689 -0.0449261 -0.0147135 0.0222079 0.017436 -0.0603564 0.0405693 0.0415719 -0.00868571 -0.00485631 0.0290905 0.0530412 -0.0081917 -0.00354804 -0.028647 -0.0164828 -0.0232008 -0.0211626 -0.0438341 -0.0312719 -0.0407334 0.000578957 0.0436165 0.0718066 0.00450665 -0.00984809 0.0201608 0.0208087 -0.0331031 -0.0171444 0.0144183 0.0445024 0.0351573 -0.0202012 0.00503397 0.0576267
internal_weight=48476.1 27915.8 20560.3 12896.7 9063.87 11496.5 15019.1 9308.55 7382.23 7363.77 5710.52 5514.48 4132.68 5168.3 3895.58 3756.93 2686.96 4421.85 3279.27 3279.09 3969.88 3824.27 3190.8 3121.45 1445.72 4103.13 1953.6 4092.98 566.129 1968.97 1742.83 5215.58 1198.42 2941.93 2235.22 1568.62 1378.63 2564.27 1301.33 1171.64 2099.56 2107.45 2523.79 2157.91 3879.53 1709.46 1091.23 1497.71 1049.86 2727.57 955.566 911.34 631.041 1413.13 1579.35 390.105 904.494 2222.98 1300.39 2091.51 717.988 1428.12
internal_count=202361 119201 83160 53982 36355 46805 65219 40735 31152 29835 24484 22830 16970 20766 15589 16028 10982 17969 13503 13719 15938 15350 13643 12710 5988 17433 8456 17727 2385 8023 7116 23008 4828 11866 9327 6538 5594 10299 5436 4870 8955 8849 10678 9112 16784 7287 4688 6197 4228 10916 3937 3821 2561 5761 6755 1668 3692 8955 5259 8825 2959 5733
cat_boundaries=0 1 2 3 4 6 7 8 10 11 12 13 14 15
cat_threshold=1 62727168 326430216 78323652 3355967488 1 4190577280 1 4190290560 1 3791781953 1075659976 1 1 1
is_linear=0
shrinkage=0.05


Tree=5
num_leaves=63
num_cat=11
split_feature=50 16 16 16 48 48 25 15 25 25 16 25 25 16 16 50 25 50 50 50 2 16 15 32 53 16 16 16 50 15 10 6 10 10 10 6 53 32 15 15 15 10 10 16 53 43 28 25 23 50 25 53 50 10 15 8 10 23 10 15 32 10
split_gain=22177.1 3335.84 2650.69 534.202 498.378 444.353 395.796 176.122 171.168 166.345 123.606 111.503 104.59 100.709 89.5656 88.495 73.0461 52.6316 51.1123 48.4959 45.8373 40.5421 40.3996 54.8918 39.8985 38.5496 38.4643 37.764 37.0421 36.6602 34.4764 33.2834 32.9226 30.7163 29.7115 29.3736 28.7608 30.2596 43.1903 28.7141 27.5657 27.2555 27.2128 27.1512 25.7035 25.6554 25.029 24.6099 41.7879 23.4998 22.9864 22.3465 24.9123 22.316 22.0718 21.6742 21.0668 21.0359 20.8199 20.2063 19.9451 19.8534
threshold=3.5000000000000004 2.8819995850723745 1.3736354571277458 1.011435595095721 0.031007826471549722 0.10811126694717159 3.5000000000000004 1.1150072000796054 4.5000000000000009 5.5000000000000009 1.6955735229043272 3.5000000000000004 3.5000000000000004 1.6581827230727291 0.71754226264466137 5.5000000000000009 5.5000000000000009 4.5000000000000009 5.5000000000000009 2.5000000000000004 0 4.0027769516909535 0.85418893014450203 7.5000000000000009 17.150000000000002 2.3369748506914587 0.89587973461402759 2.1341489346727696 6.5000000000000009 0.85418893014450203 1 3.5105000000000004 2 3 4 3.4765000000000001 33.650000000000013 7.5000000000000009 1.011435595095721 1.5580892133149293 1.8945885877146502 5 6 1.9670879050346399 33.45000000000001 1.0000000180025095e-35 93.500000000000014 3.5000000000000004 7.9500000000000011 6.5000000000000009 2.5000000000000004 27.350000000000005 6.5000000000000009 7 1.599336558775341 24.500000000000004 8 4.4500000000000011 9 0.81068324164968719 7.5000000000000009 10
decision_type=8 8 10 10 10 10 8 8 8 8 10 10 8 10 10 10 10 10 8 10 1 8 8 2 2 10 10 10 10 10 9 2 9 9 9 2 2 2 10 10 10 9 9 10 2 2 2 10 10 10 10 2 10 9 8 2 9 10 9 10 2 9
left_child=2 5 3 14 7 8 13 15 17 24 29 20 27 46 -1 58 25 33 -9 55 22 54 23 -5 -6 30 50 41 47 -8 -12 40 -14 -2 -31 39 -21 38 -38 49 45 -7 -29 -34 -28 53 -4 48 -26 -11 -16 -19 -53 -10 -20 -15 -13 -18 -3 -57 -24 -39
right_child=1 4 6 11 9 12 10 18 31 35 16 56 32 19 26 -17 57 51 21 36 -22 -23 60 -25 28 -27 44 42 -30 34 -32 -33 43 -35 -36 -37 37 61 -40 -41 -42 -43 -44 -45 -46 -47 -48 -49 -50 -51 -52 52 -54 -55 -56 59 -58 -59 -60 -61 -62 -63
leaf_value=0.086163752595502241 -0.0090978482194264878 0.0079257310156863794 0.039958700067064847 0.06138220631128815 -0.068786061232672432 0.0063633977175807134 0.030647201125634623 -0.042645346284872487 -0.025251117623467698 -0.03466646118779524 -0.0057998109855267503 0.0094592581137772497 -0.019768175412665765 -0.020076504328066826 0.0733033052936055 -0.043709138431615252 0.001632002757359927 -0.043029562599186166 -0.049036307305011774 0.0076936197559106913 0.02500561848113993 -0.062687838307621521 0.0461538955821265 0.048251292070897484 -0.023900587474226187 -0.0068260904102756372 0.04065697501024991 -0.016657519478415057 -0.036509555139088413 -0.00094510862850648877 0.012560022189967657 -0.057104537694608021 0.0065343458286957826 0.0063209667191472217 0.020235981686494584 -0.052812560774027677 0.035119474163386212 0.027339509647052698 0.014661022538764834 -0.049242204556241675 -0.040941914397425894 0.021762297690245819 0.0063658805192447904 -0.005386335854942326 0.063669452299519882 -0.033440847749987242 0.030395627796660687 -0.027982587094337975 0.00076553307932306373 -0.044118270248500811 0.047230464487516145 -0.011624316008247097 -0.032083867113395774 -0.016033299848245326 -0.057670803486377112 0.039230847528662627 0.032818516457136356 -0.027408164257695516 -0.020586045479503799 0.024809246452036096 0.030475582833986305 0.012855622735566827
leaf_weight=779.96326485276222 627.2606053352356 89.835813969373703 1805.4654919207096 1329.6284289807081 59.149787217378616 504.91649927198887 597.58306273818016 571.3394026607275 1706.6527585536242 1637.0353213250637 307.53783036768436 196.97485582530499 298.29456762969494 18.836507007479668 1910.2264640629292 968.77147814631462 85.212837502360344 65.327111139893532 1188.2777665406466 374.65719011425972 183.60713645815849 2793.5506435334682 1223.0559519082308 1982.737536534667 727.00915367901325 463.01057912409306 131.95568917691708 149.33613359928131 852.4507817029953 236.79653179645538 1451.7201689332724 77.902558088302612 633.6185764670372 645.57197724282742 586.40196907520294 605.91888996958733 783.78726896643639 360.07180218398571 384.54742877185345 798.0770907253027 228.10251815617085 757.36978900432587 653.56929090619087 1940.74195112288 1508.3758017867804 506.42622627317905 1101.7235819846392 1835.2803660333157 224.80168308317661 1099.1728029549122 88.448586076498032 1810.3439266234636 162.10903567075729 1362.2881090790033 1962.4308880418539 674.12711149454117 253.82949730753899 232.52048936486244 197.47284577786922 379.68327438831329 243.18539030849934 917.58729019761086
leaf_count=3131 2611 382 7264 5322 257 2067 2423 2517 7281 7142 1269 796 1246 76 7649 4271 355 276 5281 1531 740 12577 4907 7946 3093 1915 528 621 3695 969 5957 338 2612 2678 2391 2679 3180 1462 1561 3501 980 3095 2694 8081 6036 2158 4434 7880 952 4814 354 7611 689 5805 8787 2712 1025 972 839 1536 977 3729
internal_value=-0.00018719 -0.0293684 0.0391218 0.0578889 -0.0446523 -0.00969871 0.0219752 -0.0536247 -0.0176283 -0.0357568 0.00941049 0.0473585 0.00185076 0.0292933 0.0707881 -0.0364817 0.00280438 -0.00927621 -0.0569296 0.0240354 0.0495215 -0.0583025 0.0504635 0.0535222 -0.0280507 0.00601054 0.0674925 0.0104331 -0.0273887 0.0212206 0.00938895 -0.0247522 -0.00431922 -0.00129935 0.0143775 -0.0426411 0.0205941 0.0225701 0.0283857 -0.0408974 -0.0240896 0.0158255 0.00195547 -0.00244285 0.0618182 -0.0230144 0.0363346 -0.024599 -0.0180749 -0.0384634 0.0721495 -0.0142587 -0.0133058 -0.0212939 -0.0544143 0.0330846 0.0235497 -0.0196199 -0.0121116 0.0340348 0.0435535 0.0172521
internal_weight=48333.7 27740.4 20593.3 9831.99 15610.6 12129.8 10761.3 7771.68 7191.98 7838.9 3960.78 5413.02 4937.85 6800.49 4418.97 1256.08 2540 3310.61 6515.6 3893.3 4962.21 5944.26 4778.61 3312.37 3698.69 2222.27 3639.01 2065.19 3639.54 1420.78 1759.26 3881.37 2872.66 1272.83 823.199 4140.2 2820.65 2445.99 1168.33 3534.29 3803.47 1262.29 802.905 2574.36 1640.33 3575.37 2907.19 2787.09 951.811 2736.21 1998.68 2037.78 1972.45 3068.94 3150.71 1072.65 450.804 317.733 287.309 1053.81 1466.24 1277.66
internal_count=202657 119510 83147 39411 68667 50843 43736 34654 30427 34013 16251 21713 20416 27485 17698 5492 10468 13865 29162 15787 19892 26645 19152 13268 15877 9141 14567 8477 15620 5783 7226 16562 11939 5289 3360 18136 11463 9932 4741 15457 16224 5162 3315 10693 6564 15244 11698 11925 4045 11956 8003 8576 8300 13086 14068 4324 1821 1327 1221 4248 5884 5191
cat_boundaries=0 1 3 5 7 9 11 13 14 16 17 18
cat_threshold=1 3825352704 1 4026531840 1 4230652097 1 4093905800 1 3397955201 1 4177526784 1 4015244864 3699918848 1 321126784 1157980928
is_linear=0
shrinkage=0.05


Tree=6
num_leaves=63
num_cat=12
split_feature=50 16 16 16 48 16 15 32 15 16 15 50 15 15 15 50 15 32 16 16 50 32 15 16 10 50 16 50 32 50 15 11 10 2 32 15 32 50 32 53 10 53 14 10 15 48 16 15 10 16 11 15 10 8 10 10 15 16 48 2 10 10
split_gain=20095.5 3099.12 2404.95 494.778 450.416 421.584 283.14 179.469 166.198 138.353 123.983 122.196 112.199 105.861 86.32 81.4694 71.2736 69.9872 55.4045 54.1145 50.4496 50.0618 45.4337 44.939 41.0105 40.7696 38.6858 38.4604 38.3516 36.331 34.6568 33.9412 33.4855 33.0603 32.7588 31.3067 41.2322 30.2433 28.8059 28.4232 26.7609 26.4967 26.4252 25.8784 25.5907 25.512 23.0262 22.9171 23.9181 22.221 22.1661 22.1597 21.2841 21.2571 20.9574 20.6886 20.2946 20.1021 19.8914 19.3919 18.5266 18.4897
threshold=3.5000000000000004 2.9258425522898488 1.3736354571277458 0.93590108845079578 0.10811126694717159 3.5070566484845265 1.011435595095721 7.5000000000000009 1.1150072000796054 1.6955735229043272 1.3986406674150766 4.5000000000000009 0.85418893014450203 0.81068324164968719 1.1785366391390579 5.5000000000000009 1.4230357494997927 7.5000000000000009 0.71754226264466137 1.0816615128302691 5.5000000000000009 7.5000000000000009 1.3736354571277458 1.9387157803292638 0 5.5000000000000009 4.0027769516909535 2.5000000000000004 7.5000000000000009 6.5000000000000009 1.0816615128302691 25.000000000000004 1 2 7.5000000000000009 0.89587973461402759 7.5000000000000009 1.5000000000000002 7.5000000000000009 33.650000000000013 3 17.150000000000002 1.6770528870641528 4 0.81068324164968719 0.10471491228070177 2.1341489346727696 1.5580892133149293 5 1.5368094061055313 25.000000000000004 0.97438160901885995 6 41.500000000000007 7 8 1.599336558775341 1.8640500836336089 0.069687257187257198 9 10 11
decision_type=8 8 10 10 10 8 8 2 8 10 8 10 10 10 8 10 8 2 10 10 8 2 10 10 9 10 8 10 2 10 10 2 9 1 2 8 2 10 2 2 9 2 10 9 10 10 10 10 9 10 2 10 9 2 9 9 8 10 10 1 9 9
left_child=2 4 3 18 11 10 7 31 15 24 29 33 19 27 23 60 38 22 -1 39 -10 30 32 -6 -8 -12 56 -9 40 41 -14 52 53 35 43 -2 47 -21 55 -5 -25 -3 -19 -16 -20 -15 -45 48 -37 -29 -39 59 -4 -11 -51 -13 -22 -54 -18 -40 -7 -30
right_child=1 5 6 12 14 8 9 13 20 17 25 16 21 45 34 -17 58 42 44 37 26 -23 -24 28 -26 -27 -28 49 61 -31 -32 -33 -34 -35 -36 36 -38 50 51 -41 -42 -43 -44 46 -46 -47 -48 -49 -50 54 -52 -53 57 -55 -56 -57 -58 -59 -60 -61 -62 -63
leaf_value=0.08244326976068149 0.0032459980212451605 -0.072925777627537297 0.020057257374011428 0.037534069813165781 0.017007017013965349 0.0072628215404557401 0.0052032530253520795 0.032820478245535925 -0.040843169516884659 -0.015385963696455084 -0.033264799612001225 -0.0025041009487938486 0.045566866009370099 -0.0047086333104173726 -0.011050033864824466 -0.04216407634279655 -0.034979202721737913 -0.0022690649378644869 0.068894750060938176 0.040575872103442316 -0.047502269187575906 0.019180217644007527 -0.0081380519400776168 0.0029056578946513503 0.026797861052918537 -0.045035837903934693 -0.060899301990492663 0.037566112929554939 0.0070211106904209787 -0.03564564229517643 0.026311174392147557 0.045217941861080115 0.018705182131036373 -0.040538115689665775 -0.017237987761168558 -0.010509070038606329 -0.020514494281514167 0.046371104153277123 -0.014227644448582176 0.059629478231286143 0.022824246015162267 -0.024413651331023904 -0.022224775958243535 0.01082064588733345 0.052593106851048767 0.013257344938000036 -0.0061690028325170976 -0.020421852332052778 0.0062526378853450847 -0.010393494475501293 0.057288922333020055 -0.02466839450419249 0.041450971291017713 0.0077407385468674528 0.020262116453263042 -0.017056307097500476 -0.055886142313898428 0.027388275692382918 -0.024852503012563535 -0.05749940185839373 -0.019734982034853556 -0.0046094208476594178
leaf_weight=774.53279377520084 575.14752453565598 28.482486709952354 349.62373305857182 159.87788227200508 810.31726633012295 89.769429072737694 298.00146459043026 1351.8526353091002 558.86867812275887 124.95445561408997 1034.1814864426851 486.48932674527168 852.96014465391636 230.31916011869907 526.38262891769409 949.69438682496548 851.97470474243164 378.41762128472328 2279.7842024564743 1216.9542911201715 1159.3483071029186 369.01241862773895 350.83678768575191 347.81727275252342 1100.4601767957211 2547.9617565721273 2733.3485394865274 184.15293477475643 485.79124276340008 1193.8742937743664 321.84540946781635 938.26445671916008 787.83354769647121 75.064019471406937 531.00030478835106 356.07732412219048 618.1739014685154 1196.1735930144787 1144.2286620289087 1624.0038963258266 340.55926769971848 2389.2104579359293 295.38125625252724 441.36776062846184 269.17031706869602 1390.8627976775169 363.82604962587357 179.73237399756908 498.64183075726032 56.586157128214836 760.44892400503159 1312.7379514575005 780.50057175755501 485.10938748717308 1301.4954180121422 509.05435729026794 1912.6880447566509 376.80874682962894 1125.5431024432182 26.490508407354355 194.13983570039272 1091.186138048768
leaf_count=3131 2391 126 1411 640 3307 381 1211 5427 2495 512 4543 2056 3416 946 2193 4245 3706 1558 9157 4872 5236 1485 1453 1432 4454 11325 12577 739 2005 5259 1294 3772 3211 322 2223 1497 2616 4790 4843 6504 1398 10319 1236 1826 1078 5656 1516 762 2092 230 3044 5642 3136 1983 5272 2157 8734 1529 4828 113 829 4516
internal_value=-0.000184426 -0.0281669 0.0371448 0.0550386 -0.010047 -0.0437216 0.0208388 0.0268423 -0.0519352 0.00990271 -0.0350465 -0.0175596 0.047016 0.020934 0.00175735 -0.0351386 -0.0216358 0.0026739 0.0707319 0.0506815 -0.055191 0.0352455 0.00794921 0.00690165 0.022425 -0.0416375 -0.0565722 0.026664 0.00328696 -0.0285092 0.0402916 0.0377524 0.0119867 -0.00790104 -0.00673743 -0.00680134 -0.010298 0.046765 -0.0173275 0.0576492 0.0131337 -0.0249852 -0.0110173 -0.00255006 0.0671733 0.0107049 0.00310532 -0.0041928 -0.000780115 0.0212675 0.0506144 -0.0202081 0.0331041 0.00295544 0.0190575 -0.0101416 -0.0527222 0.0365564 -0.0292154 -0.0152068 -0.0116378 -0.00101132
internal_weight=48095.4 27489.2 20606.2 9824.76 12697.6 14791.6 10781.5 6960.47 7597.86 3820.99 7193.71 7759.36 6501.28 4515.27 4938.25 1233.6 5456.52 2422.53 3323.49 4957.46 6364.25 1543.82 1748.73 3075.67 1398.46 3582.14 5805.38 2894.09 2265.35 3611.57 1174.81 2445.2 1397.9 2302.84 1862.58 2227.77 1652.63 3173.58 3479 1783.88 688.377 2417.69 673.799 1331.58 2548.95 1621.18 805.194 1034.45 854.719 1542.23 1956.62 2483.46 1506.93 610.064 1358.08 995.544 3072.04 1157.31 1977.52 1170.72 283.909 1576.98
internal_count=202657 119510 83147 39411 53441 66069 43736 28118 34497 15618 31572 33025 26045 18270 20416 5455 23345 9953 13366 19850 29042 6195 7159 12658 5665 15868 26547 11668 9351 15704 4710 9848 5706 9680 7758 9358 6967 12706 14811 7144 2830 10445 2794 5535 10235 6602 3342 4351 3589 6241 7834 10598 6076 2495 5502 4213 13970 4665 8534 4956 1210 6521
cat_boundaries=0 2 4 5 7 9 10 12 14 15 16 17 18
cat_threshold=4160754060 1 4248982028 1 1 1050281548 1 4098406400 1 1007874433 3691119124 1 2684356609 1 443594053 1 321126784 34955676
is_linear=0
shrinkage=0.05


Tree=7
num_leaves=63
num_cat=9
split_feature=50 16 16 16 25 16 25 16 16 25 50 25 25 25 50 16 16 15 1 11 53 16 16 10 16 2 1 50 10 10 10 16 5 15 1 28 14 10 16 16 50 10 10 25 15 25 11 50 25 52 39 53 50 14 36 6 16 25 5 33 28 16
split_gain=18221.1 2880.54 2191.6 509.075 414.166 410.351 249.815 227.41 201.204 131.464 130.823 112.002 108.359 77.562 60.5513 57.5477 43.2189 42.5072 41.7786 41.5735 41.0269 39.5458 36.4997 33.3342 33.1774 33.014 33.0112 30.4671 30.2842 30.0594 29.9921 29.6087 29.4089 28.7581 28.6777 28.2009 28.1376 26.5913 24.8681 24.4126 24.4125 24.6371 23.9678 22.3837 22.3637 20.4855 20.0127 19.7698 18.5834 18.5552 18.5474 18.3007 19.4631 18.2788 18.234 19.4723 18.2179 18.0527 17.971 16.9301 18.4874 16.8499
threshold=3.5000000000000004 2.9258425522898488 1.1785366391390579 1.5789255615152133 5.5000000000000009 2.4379801953848275 3.5000000000000004 0.89587973461402759 3.5624645232716516 4.5000000000000009 6.5000000000000009 4.5000000000000009 2.5000000000000004 5.5000000000000009 4.5000000000000009 2.0346842880759621 2.2772541355929321 0.89587973461402759 29.500000000000004 25.000000000000004 29.550000000000004 0.71754226264466137 3.5849059018974727 0 3.1717820198074476 1 30.500000000000004 6.5000000000000009 2 3 4 3.2561697533634875 3.5195000000000003 1.8945885877146502 30.500000000000004 93.500000000000014 1.8325494627242667 5 2.1804014991111278 1.8794359129669858 4.5000000000000009 6 7 3.5000000000000004 1.0816615128302691 2.5000000000000004 25.000000000000004 2.5000000000000004 3.5000000000000004 16.350000000000005 10.500000000000002 32.150000000000013 2.5000000000000004 2.7694539157329841 206.50000000000003 3.3695000000000008 4.0351248116807676 3.5000000000000004 3.5065000000000004 8 95.500000000000014 1.4468497739944199
decision_type=8 8 10 10 8 10 8 10 8 8 8 8 10 10 10 10 10 10 2 2 2 10 8 9 10 1 2 10 9 9 9 10 2 10 2 2 10 9 10 10 10 9 9 10 10 10 2 10 10 2 2 2 10 10 2 2 8 10 2 1 2 10
left_child=2 5 7 12 10 9 19 21 31 15 14 25 18 16 43 29 30 26 58 23 -16 -1 -12 50 -22 27 -9 42 -11 -2 -8 49 56 37 -14 61 38 -13 -30 -25 41 -17 -7 -3 -26 -23 -28 -41 -36 -6 -5 -21 -53 -15 55 -32 -10 -43 -4 -52 -61 -20
right_child=1 4 3 6 8 11 13 17 32 28 22 33 34 53 20 40 -18 -19 35 51 24 45 -24 39 44 -27 46 -29 36 -31 54 -33 -34 -35 48 -37 -38 -39 -40 47 -42 57 -44 -45 -46 -47 -48 -49 -50 -51 59 52 -54 -55 -56 -57 -58 -59 -60 60 -62 -63
leaf_value=0.079137846044812887 0.023002118818970196 0.00098390878158798761 0.029316535981143279 -0.04704140614370822 -0.062428058035780068 -0.015298443495640184 -0.012381748693092953 0.042350432058751594 -0.050575611792120535 -0.024935579111215828 -0.035186187119512741 -0.034214643110627288 0.010492551946219338 -0.011175751836073661 -0.050101080646173614 -0.0014742271531810961 -0.0054774519695255002 0.037265020262584908 0.047157721126592583 -0.0015195699033743156 -0.02000223195566499 0.06686205999438441 -0.049064782199249285 0.02735782663187146 -0.024926250770149344 -0.042779843923500198 0.051524733329191399 -0.030001157089811572 0.0025657603953368022 0.0069850070647840337 -0.007070665825357314 -0.045074116606469795 -0.063235876765479218 -0.041408865316419748 0.03253883469126765 0.035246000021397272 -0.015609800133522256 -0.021003199053321427 -0.0097330228926075426 0.028718660001763374 -0.0052657989618294923 0.016772434905521338 -0.0050806079448631712 -0.019263574815640533 -0.035848149893226725 0.042208592320464068 0.059803817299529695 0.013794837555400924 0.021372553749814217 -0.035764268343556387 0.019394215737750159 0.039645534132542598 0.026816859610037248 -0.037849494310244092 -0.0059027313291825159 0.014369993543959068 -0.057542676948829918 0.00061355080978188633 -0.00088212579302537832 0.013376799011434307 -0.0078779000759520053 0.037749187633353574
leaf_weight=766.73156830668449 551.76742517948151 230.73604565858841 492.83435581624508 14.04835222661495 67.397213324904442 897.35210934281349 130.74826507270336 623.90345814824104 2067.008435934782 263.52895100414753 935.98056530952454 514.3132064640522 303.99345241487026 290.81222996115685 210.3751373142004 748.63457114994526 536.55537489056587 500.19310031831264 1643.5624103844166 45.851791903376579 1028.2681098431349 1893.2903346717358 959.25696240365505 1218.5298916399479 823.73900918662548 79.715096935629845 1743.1750841587782 180.35689304769039 816.11321707069874 676.18264377117157 112.48465679585934 2026.9461463689804 1038.7087722718716 232.21988482773304 799.77061322331429 1307.148991137743 698.04152174293995 2814.8259456455708 828.03753718733788 291.44775877892971 921.2394100278616 515.53732040524483 1664.1831640452147 334.21387049555779 1087.4031172841787 88.186742529273033 1255.7579817324877 930.12042625248432 697.61792525649071 2045.1600351333618 319.95962633192539 418.0051451921463 1010.1262694448233 82.432836830615997 134.9043891876936 1807.9596728980541 1718.2885346114635 260.02542723715305 54.736334472894669 231.40675492584705 183.38150399923325 669.81150153279305
leaf_count=3131 2245 968 1975 57 310 3791 541 2503 9595 1120 4157 2244 1228 1215 939 3098 2221 2004 6579 185 4451 7649 4393 4900 3606 341 6991 778 3394 2760 460 9203 4917 1022 3208 5235 2950 12186 3499 1170 3828 2116 6995 1448 4844 354 5040 3777 2820 9148 1294 1677 4068 348 551 7383 8090 1074 220 936 742 2685
internal_value=-0.00018107 -0.0270187 0.0353022 0.0237642 -0.0421756 -0.0095738 0.0153187 0.0583544 -0.0488439 -0.000498562 -0.0315211 -0.0185014 0.0347411 0.00430795 -0.0260672 0.00559476 0.00723818 0.0509281 0.0391697 0.0226292 -0.0287708 0.0694958 -0.0422107 0.0194194 -0.0272442 -0.0110604 0.0528145 -0.0101382 -0.00908856 0.0144263 0.0103591 -0.040757 -0.0557833 -0.0243967 0.0244941 0.0411165 -0.00716848 -0.0232101 -0.00362823 0.0222592 0.00116008 0.00504394 -0.00873966 -0.0109941 -0.0311406 0.0657648 0.0549915 0.0173554 0.0273366 -0.0366149 0.00973815 0.0295735 0.0305717 -0.0170668 0.0118085 0.0131142 -0.0537382 0.0112103 0.0262978 0.0109563 0.00388622 0.0444336
internal_weight=47835 27235.6 20599.5 13728.3 14573.5 12662.1 7758.77 6871.24 8963.51 6279.11 5609.97 6382.97 5969.48 3095.9 3714.74 3673.39 2722.65 4123.03 4168.09 4662.88 3149.79 2748.21 1895.24 3188.89 2939.41 2821.61 3622.84 2741.89 2605.72 1227.95 2186.1 4139.5 4824.01 3561.36 1801.38 3620.52 2342.19 3329.14 1644.15 2440.1 2445.44 1524.2 2561.54 564.95 1911.14 1981.48 2998.93 1221.57 1497.39 2112.56 748.796 1473.98 1428.13 373.245 2055.35 1920.44 3785.3 775.563 547.571 734.748 414.788 2313.37
internal_count=202657 119510 83147 55475 66069 53441 31525 27672 41263 26084 24806 27357 23950 12719 16256 15121 11156 16538 16694 18806 13840 11134 8550 12876 12901 11905 14534 11564 10963 5005 8935 18661 22602 15452 7256 14499 9843 14430 6893 9847 10116 6288 10786 2416 8450 8003 12031 4947 6028 9458 3029 5930 5745 1563 8394 7843 17685 3190 2195 2972 1678 9264
cat_boundaries=0 2 3 5 6 8 10 12 13 14
cat_threshold=4160884807 1 1 4026531840 1 87511884 3758096512 1 3892445696 1 4245564928 1 964886656 2697
is_linear=0
shrinkage=0.05


Tree=8
num_leaves=63
num_cat=11
split_feature=50 16 16 16 16 25 25 16 16 25 25 50 25 16 25 16 25 16 2 16 10 50 15 50 25 32 28 7 2 10 14 16 32 10 10 44 16 53 14 53 10 10 50 53 29 50 50 53 50 10 32 28 44 10 53 25 25 15 11 53 10 15
split_gain=16531 2680.4 2009.11 459.725 447.085 362.755 224.917 215.24 157.897 118.941 117.649 114.14 98.3621 72.3609 70.1054 51.896 39.28 38.9243 38.5507 38.2301 37.7118 36.5672 36.5142 36.4176 35.9 32.3615 29.2191 28.9869 28.5676 27.7631 27.7422 27.5924 27.5218 27.142 27.0926 25.6569 25.7004 25.6062 25.5552 24.6869 24.497 24.2997 24.0768 24.9748 23.6442 22.8677 22.7235 22.4085 22.0278 21.9355 21.0414 20.8175 21.79 20.4877 19.7677 19.4599 18.989 18.9643 18.6915 18.5581 18.5045 18.3902
threshold=3.5000000000000004 2.998226044309511 1.1785366391390579 1.5789255615152133 2.4379801953848275 5.5000000000000009 3.5000000000000004 0.89587973461402759 3.5624645232716516 4.5000000000000009 4.5000000000000009 5.5000000000000009 2.5000000000000004 3.6389002209295209 5.5000000000000009 2.0346842880759621 3.5000000000000004 2.2772541355929321 0 0.71754226264466137 1 2.5000000000000004 1.8945885877146502 4.5000000000000009 3.5000000000000004 6.5000000000000009 85.500000000000014 5.1500000000000012 2 3 2.2027494954295124 1.8794359129669858 6.5000000000000009 4 5 1.5000000000000002 1.0816615128302691 35.750000000000007 1.8325494627242667 34.550000000000004 6 7 6.5000000000000009 27.350000000000005 35.000000000000007 4.5000000000000009 4.5000000000000009 35.350000000000001 4.5000000000000009 8 6.5000000000000009 93.500000000000014 1.0000000180025095e-35 9 36.250000000000007 1.5000000000000002 6.5000000000000009 0.71754226264466137 25.000000000000004 31.350000000000005 10 1.7664051342320239
decision_type=8 8 10 10 10 8 8 10 8 8 8 8 10 8 10 10 10 10 1 10 9 10 10 10 10 2 2 2 1 9 10 10 2 9 9 2 10 2 10 2 9 9 10 2 2 10 10 2 10 9 2 2 2 9 2 10 10 8 2 2 9 10
left_child=2 4 7 12 9 11 20 19 37 15 23 24 18 39 17 34 25 33 26 -1 51 44 28 40 30 -9 57 -10 45 -11 60 -23 -14 -8 -2 -27 -37 -7 46 -13 -6 -34 43 -25 -22 -12 -31 -33 49 -17 -35 52 -5 -47 -52 -21 -39 -4 -28 -36 -3 -56
right_child=1 5 3 6 10 8 14 16 27 29 22 13 32 -15 -16 48 -18 -19 -20 55 21 31 -24 42 -26 35 58 -29 -30 38 -32 47 41 50 59 36 -38 56 -40 -41 -42 -43 -44 -45 -46 53 -48 -49 -50 -51 54 -53 -54 -55 61 -57 -58 -59 -60 -61 -62 -63
leaf_value=0.076177767559166318 0.0044397120891394694 0.0063893339891726384 0.049777588140474671 -0.0014947719890096077 -0.018793830601470593 -0.046353590556849865 -0.011832099610385439 0.061011920870032467 -0.063612259410665173 -0.023878499145982626 -0.014068410225935689 -0.040441810342643311 0.041427431614655653 -0.04520071821821367 -0.016276846966910046 -0.0020201992081452227 0.026491257816288766 -0.0052089267117620642 0.0088353551011622258 0.064705684352872481 0.025099307170542696 0.025846422584109616 -0.041906578740802579 -0.04464504955400353 -0.02549860770384953 0.037975594881844897 0.031563278415175568 -0.052572817503595305 -0.046495657764063059 0.0014578872355632301 0.0038666248408903269 0.0027477155041225111 0.012250142628323029 0.024628344317123609 -0.019016609384451322 0.053139172039311115 0.043075800321286377 -0.034335014886644019 -0.01488481558904127 -0.027433681609166941 0.00016180521804316618 0.025802450809501599 -0.030424523536161097 -0.012268735314177151 0.039598166716189501 -0.028670480677672739 -0.010496311424786593 0.018677222548054151 -0.0050077072950392119 0.010029383312717806 0.00033674773624411849 0.003208302754158471 0.026029017287157022 -0.019587707611005614 0.01301102902880772 0.048830612521039082 -0.043704114126368279 0.038415633363332258 0.040409056597649706 0.021706540956685574 -0.02449783086222938 -0.042569045647728287
leaf_weight=756.94328357279301 504.85117031633854 60.500973984599113 677.91870765388012 94.778545320034027 204.76720987260342 1193.0679323375225 130.45317585766315 535.58497603237629 697.82204838097095 261.91979940235615 702.26658569276333 472.83552026748657 186.38047976791859 1377.0747321695089 371.84440703690052 670.25573137402534 193.08346584439278 536.01867206394672 116.37728832662106 1749.8313302397728 694.085295394063 1247.3441729545593 273.03581911325455 61.560771882534027 1062.3605847358704 556.9391356408596 1630.3187221586704 4021.1066279411316 125.02110785245895 968.24458070099354 222.62319438159466 271.0879432708025 584.9595193117857 257.32481633126736 29.14760434627533 1865.6212940961123 961.38361702859402 1642.1917597800493 695.5047165453434 1595.3637308627367 834.21830417215824 1032.7552802115679 230.70510743558407 1836.8095205873251 472.6813163459301 1445.556852966547 674.44263951480389 1189.5104836821556 920.3077088445425 855.10794387757778 455.24153515696526 402.59489275515079 298.00816051661968 1582.8020577132702 1331.0175938010216 216.97762103378773 806.36887852847576 801.41809187829494 942.38475112617016 696.17503488063812 256.12276116013527 15.051240727305411
leaf_count=3131 2060 260 2715 384 863 5488 541 2156 3385 1120 3029 2124 748 6387 1563 2776 774 2221 467 7126 2782 5011 1221 268 4671 2237 6528 19217 567 4042 945 1105 2357 1046 119 7518 3853 7476 2950 7111 3482 4151 1009 7817 1894 6352 2851 4803 3828 3512 1857 1626 1201 6944 5429 877 3707 3210 3774 2826 1103 62
internal_value=-0.000178722 -0.0259226 0.0335779 0.022557 -0.0102592 -0.0417791 0.0145368 0.0557275 -0.0481691 -0.000474254 -0.0186752 -0.0311937 0.0329869 -0.0363204 0.0040884 0.00531488 0.0485074 0.00686727 0.0372082 0.0666292 0.0214656 0.0235125 -0.0242367 -0.0114273 -0.0201653 0.049592 0.0380231 -0.0542053 -0.0229854 -0.0086585 -0.00965824 0.0203849 0.0232334 0.00982424 0.0136916 0.0477845 0.0497169 -0.0403471 -0.00682228 -0.0304076 -0.00375337 0.0211372 -0.0151722 -0.0133186 0.0309731 -0.0221975 -0.00345018 0.0157207 0.00110138 0.00478722 0.0111996 0.0110591 0.0193876 -0.0240826 0.00934347 0.0629544 -0.0374205 0.0436223 0.0348035 0.0197971 -0.0191678 0.0123896
internal_weight=47556.1 26980.1 20575.9 13739.6 13572.7 13407.4 7767.04 6836.36 8360.56 6275.96 7296.74 5046.88 5972.51 3445.27 3096.95 3675.85 4112.61 2725.11 4168.42 2723.75 4670.09 3874.71 4128.68 3168.06 1601.61 3919.53 4052.04 4718.93 3855.65 2600.11 539.247 2707.94 1804.1 2189.09 1230.17 3383.94 2827 3641.63 2338.19 2068.2 1038.99 1617.71 2129.08 1898.37 1166.77 3730.63 1642.69 1460.6 2445.67 1525.36 2058.64 795.382 392.787 3028.36 1801.31 1966.81 2448.56 1479.34 2572.7 725.323 316.624 1346.07
internal_count=202657 119510 83147 55475 57636 61874 31525 27672 39273 26084 31552 22601 23950 15622 12719 15121 16538 11156 16694 11134 18806 15595 18113 13439 6979 15764 16227 22602 16892 10963 2308 10919 7256 8935 5005 13608 11371 16671 9843 9235 4345 6508 9094 8085 4676 16325 6893 5908 10116 6288 8394 3211 1585 13296 7348 8003 11183 5925 10302 2945 1363 5491
cat_boundaries=0 1 3 4 6 8 10 12 14 16 17 18
cat_threshold=1 3892449287 1 1 4026531840 1 3758096512 1 3934825601 1 3892510849 1 4228062473 1 4228787712 1 1061552832 2377536
is_linear=0
shrinkage=0.05


Tree=9
num_leaves=63
num_cat=9
split_feature=50 16 16 16 16 25 25 16 25 25 50 25 16 16 16 16 2 25 10 53 15 32 50 50 10 10 16 50 25 5 32 10 48 6 16 15 14 53 50 32 18 25 20 15 10 10 15 16 15 10 53 32 28 16 10 32 7 14 28 15 28 53
split_gain=15005.8 2496.63 1848.13 443.055 410.039 320.805 262.582 139.754 114.92 108.404 106.486 87.8875 84.1167 70.076 61.3574 60.2302 46.6903 45.7382 44.7933 42.7508 41.1423 46.1273 40.3885 39.8531 35.5802 34.9423 34.0961 31.9311 29.399 28.9257 27.7248 27.5716 26.3937 26.2634 24.2706 23.94 23.0989 23.0454 22.7762 22.7318 21.8014 21.7515 21.2927 20.4912 20.3288 20.1529 19.8691 19.4899 19.0236 18.9362 18.6063 24.2802 18.4635 18.4292 18.4196 18.385 18.1135 17.7097 17.5625 17.3564 17.124 17.0241
threshold=3.5000000000000004 3.037351072839019 1.3736354571277458 2.4379801953848275 0.97438160901885995 5.5000000000000009 3.5000000000000004 3.5624645232716516 5.5000000000000009 3.5000000000000004 5.5000000000000009 3.5000000000000004 1.9530024665512917 1.5150668501356619 0.71754226264466137 3.6389002209295209 0 5.5000000000000009 1 27.350000000000005 0.85418893014450203 7.5000000000000009 4.5000000000000009 4.5000000000000009 2 3 2.1341489346727696 2.5000000000000004 3.5000000000000004 3.5195000000000003 6.5000000000000009 4 0.066007319623562224 3.4765000000000001 1.8000241202036604 0.76519735254682386 2.1916379270371573 34.550000000000004 6.5000000000000009 7.5000000000000009 2.5000000000000004 3.5000000000000004 1.5000000000000002 1.5580892133149293 5 6 1.1785366391390579 1.011435595095721 1.6193392260821904 7 33.45000000000001 6.5000000000000009 93.500000000000014 4.0351248116807676 8 7.5000000000000009 37.750000000000007 2.4203582520096725 101.50000000000001 1.6193392260821904 96.500000000000014 37.250000000000007
decision_type=8 8 10 10 10 8 8 8 8 8 8 10 10 10 10 8 1 10 9 2 8 2 10 10 9 9 10 10 10 2 2 9 10 2 10 10 10 2 10 2 2 10 2 10 9 9 10 10 10 9 2 2 2 8 9 2 2 10 2 10 2 2
left_child=2 3 4 9 14 10 13 33 19 23 28 16 17 58 -1 37 20 25 50 -5 21 -6 41 31 59 30 45 -20 36 53 -8 -2 43 38 56 39 -3 -12 -7 -16 -24 44 -36 -10 -21 -11 -44 -23 -28 -13 -15 -52 -53 -9 -30 -22 -29 60 -4 -14 -47 -43
right_child=1 5 6 8 11 7 12 29 32 26 15 49 24 18 35 -17 -18 -19 27 22 55 47 40 -25 -26 -27 48 34 54 -31 -32 -33 -34 -35 42 -37 -38 -39 -40 -41 -42 61 46 -45 -46 57 -48 -49 -50 -51 51 52 -54 -55 -56 -57 -58 -59 -60 -61 -62 -63
leaf_value=0.07350776409494611 0.0032947284569375505 -0.018978116196511369 0.035406632015733179 -0.040338241350136722 0.052010694626953985 -0.033149585900904541 0.041792724377786458 -0.047396481251082832 -0.027609390019071707 -0.020056465677671602 -0.039936723675496714 0.0064120426520530953 -0.0081714535037153233 0.0024174432704563344 0.064164693957758784 -0.043704364475727613 0.018307338525825761 -0.0068611256045124098 0.030846238312654706 -0.011444021904117202 0.037956966688914101 0.05551935922816828 -0.013975588790394108 -0.002359286159615958 0.0053726288848686878 0.0086292720614543211 -0.0082692613267962775 0.030257328827296887 -0.013083679715781532 -0.06029318563247496 0.018566084828812904 0.016297090080408156 -0.021301807116030677 -0.049750077271801585 0.01136722243469316 0.047721446765149805 0.0029254237919150538 -0.026927455335239648 -0.04210427966866518 0.054659732600678905 -0.027001628387029936 -0.02251868705923267 0.025578979481797149 -0.042388216486030417 0.0080388503949400131 0.0072206489178063106 -0.01173057348785175 0.03908981480208483 -0.024009198641473641 0.027498750470750219 0.036464685752685286 0.01998762819318229 0.0077289108966745335 -0.05455726904238415 -0.02930994371415363 0.023379936489488592 0.01277016270354471 -0.015408858263081367 0.020900581357387142 -0.038657969813299484 -0.0052810666824290708 -0.0056752286667886166
leaf_weight=745.50376611948013 664.53855665028095 274.95583960413933 1292.7171460837126 141.53956227004528 1486.8046504259109 1488.2774072140455 146.93692274391651 1984.4872142970562 1216.0847837626934 106.76079903542995 442.53733088076115 208.44272693991661 637.51281310617924 290.61908560991287 1285.888640999794 1353.6151788979769 210.74226215481758 259.86502540111542 1197.9527938961983 185.67702071368694 1328.1471805423498 198.61398546397686 2801.7691462785006 717.70098109543324 753.3890014141798 1103.4057434648275 2017.5788028985262 794.08910290896893 318.01556891202927 986.97301675379276 1022.8368206620216 1127.334025233984 1646.5669624507427 509.33303290605545 806.55854265391827 519.01910102367401 214.0842992067337 1475.3096744567156 1358.074958011508 1231.4229470342398 362.81369781494141 219.91882839798927 626.69147133827209 290.59222094714642 416.01086343824863 892.5524512976408 37.839031741023064 1980.1624509990215 212.15272627770901 266.17782205343246 135.17606393992901 644.02550008893013 587.23207800090313 1641.9283166825771 651.67431943118572 258.3858000934124 182.02673725783825 138.88076773285866 248.81452606618404 50.374573409557343 395.18307153880596 471.97598208487034
leaf_count=3131 2726 1190 5175 626 5996 6862 591 9595 5478 449 2017 837 2648 1176 5281 6387 844 1074 4796 779 5327 804 12117 2974 3114 4479 8518 3183 1408 4917 4132 4596 7208 2411 3255 2103 908 6641 6328 5040 1569 936 2527 1330 1734 3694 153 7946 910 1067 543 2588 2363 8090 2892 1035 730 580 996 213 1637 2003
internal_value=-0.000176082 -0.0248738 0.0319626 -0.010332 0.0477867 -0.0409344 0.0177456 -0.047057 -0.0183254 -0.000452293 -0.0306194 0.0395905 0.00752342 0.0236819 0.0606548 -0.0356289 0.0413836 0.0130104 0.0209538 -0.0132852 0.0423095 0.0452209 -0.0124263 0.00759667 -0.00211991 0.0152821 -0.00582005 0.0240916 -0.0193848 -0.0527041 0.0213015 0.0115843 -0.0256777 -0.0392933 0.0208835 0.0574991 -0.00938953 -0.0299293 -0.0374221 0.059515 -0.015469 -0.00498271 0.0168274 -0.0304598 0.00196997 -8.08564e-05 0.0234545 0.0405875 -0.00976687 0.0189524 0.0138225 0.0163494 0.014141 -0.0506387 -0.0244256 0.0355829 0.0269963 0.00154378 0.0330652 -0.0102549 0.0033841 -0.0110289
internal_weight=47262.3 26724.9 20537.4 14025.6 9719.31 12699.3 10818.1 7969.07 7752.95 6272.68 4730.19 5937.48 3974.32 6843.74 3781.83 3271.46 5462.86 2533.04 5302.21 4599.71 5252.11 3665.58 4458.17 2509.57 1441.28 2273.18 3763.11 3645.16 1458.73 4613.39 1169.77 1791.87 3153.24 3355.69 2447.2 3036.33 489.04 1917.85 2846.35 2517.31 3164.58 1293.58 1471.09 1506.68 601.688 1533.38 664.531 2178.78 2229.73 474.621 1657.05 1366.43 1231.26 3626.42 969.69 1586.53 976.116 1426.62 1541.53 687.887 1287.74 691.895
internal_count=202657 119510 83147 59864 39411 59646 43736 38203 33780 26084 21443 23856 16251 27485 15555 15045 21952 10276 21314 19764 21108 14746 19138 10296 5975 9202 15788 14644 6398 22602 4723 7322 14016 15601 9848 12424 2098 8658 13190 10321 13686 5452 5935 6808 2513 6360 2680 8750 9428 1904 6670 5494 4951 17685 4300 6362 3913 5911 6171 2861 5331 2939
cat_boundaries=0 1 3 5 6 8 9 11 13 14
cat_threshold=1 4165079047 1 4253204992 1 62498368 3934792704 1 2843902020 2415919104 1 3699918848 1 304623237
is_linear=0
shrinkage=0.05


Tree=10
num_leaves=63
num_cat=10
split_feature=50 16 16 16 16 16 16 15 50 15 32 15 15 32 15 15 32 15 15 16 50 16 2 32 50 15 10 32 32 32 14 54 32 10 15 15 15 11 16 44 10 14 1 10 10 15 15 7 15 16 50 51 28 10 15 16 2 16 51 10 15 16
split_gain=13544.3 2318.43 1750.95 362.025 342.856 316.287 191.355 162.839 138.201 117.348 95.3161 88.0119 68.8483 61.305 59.0258 58.342 54.3199 54.0768 47.4604 47.2498 45.1661 42.5819 42.0647 43.0777 41.4901 38.9748 40.3274 35.5728 31.7901 31.1941 30.7737 30.6938 28.504 27.8976 27.6625 27.5471 27.4845 25.9422 25.0684 23.8828 23.7804 23.7214 22.4551 22.1786 21.8277 21.1929 20.8615 20.4626 20.2695 19.7149 19.5773 19.1626 19.1569 18.7761 18.7177 18.2076 18.0408 17.4039 17.3393 16.4999 16.4058 16.3971
threshold=3.5000000000000004 2.9365093959507509 1.1785366391390579 1.5150668501356619 3.595940517615571 2.4379801953848275 0.85418893014450203 1.011435595095721 5.5000000000000009 1.3736354571277458 7.5000000000000009 0.89587973461402759 1.4230357494997927 7.5000000000000009 0.81068324164968719 1.3479888099339705 7.5000000000000009 1.0816615128302691 0.81068324164968719 2.1341489346727696 6.5000000000000009 1.011435595095721 0 7.5000000000000009 5.5000000000000009 1.7491620461964394 1 7.5000000000000009 7.5000000000000009 7.5000000000000009 1.638949582658831 2 7.5000000000000009 3 0.85418893014450203 1.3736354571277458 1.0471650770867933 25.000000000000004 4.1919246049003025 3.5000000000000004 4 0.71754226264466137 40.500000000000007 5 6 1.6581827230727291 1.9387157803292638 5.7500000000000009 1.2088489500472754 2.1575426144600001 1.5000000000000002 6.9500000000000011 101.50000000000001 7 0.89587973461402759 2.0215256339172751 8 2.5376494037109896 29.450000000000003 9 2.2137389487888997 2.9258425522898488
decision_type=8 8 10 10 8 10 10 8 8 8 2 8 8 2 8 8 2 8 10 10 10 10 1 2 10 10 9 2 2 2 10 1 2 9 8 10 10 2 8 2 9 8 2 9 9 10 10 2 8 10 10 2 2 9 10 10 1 10 2 9 10 10
left_child=2 5 6 14 9 11 41 10 17 20 37 31 22 19 27 -10 25 -6 43 45 40 39 23 33 47 26 -9 -4 36 34 -18 -2 57 -7 -23 -15 52 42 -17 -8 -3 -1 -5 -12 -21 -13 51 -11 -46 -33 -31 -26 56 -20 -25 -28 -16 -14 -38 -30 -49 -55
right_child=1 4 3 7 8 12 21 16 15 24 18 13 32 35 28 38 30 -19 53 44 -22 29 -24 54 46 -27 55 -29 59 50 -32 49 -34 -35 -36 -37 58 -39 -40 -41 -42 -43 -44 -45 48 -47 -48 60 -50 -51 -52 -53 -54 61 -56 -57 -58 -59 -60 -61 -62 -63
leaf_value=0.068933561385015163 0.013213171505434199 -0.025766329284464973 0.044383975802362197 0.012903500668532304 -0.0051485781939250609 -0.012158853991625146 0.043332292362552226 0.0020798225305536937 -0.040902903924402968 -0.055305642804319134 0.0093262519743364195 0.010626745815844139 -0.0077202801763590597 -0.0091711937033843779 0.037293720809340666 -0.049347260596303961 0.0027478572233947066 -0.035327899681418237 -0.001712663740658969 0.0060661422778501154 -0.031934992248035657 0.052960519127726369 -0.043571364769410613 -0.0094169610547238831 -0.061646018052905094 -0.019945679600294655 0.020094440899857902 0.032012877824405282 0.024161505677905704 0.03188097406381904 -0.016088986478999423 0.0076137317107191089 -0.031210313989048877 0.0026608122045568552 0.03834377613817197 -0.030246745838817597 0.020916979560075915 0.036408164338266137 -0.057554943248243319 0.054516271458891902 -0.015149946555638781 0.058274040186565734 0.02854769461682995 0.021908197249026942 0.001710226884850016 -0.015847101638239432 -0.051060957291031994 -0.024918306680897326 -0.013190794862416901 -0.0095376162749575746 0.047915620354700143 -0.037418949110151895 0.019489498768845818 0.012946920870802481 -0.018000248343146046 0.0080932454823633548 -0.0075612227597137678 -0.021637454566709652 -0.03479669377995117 0.0086210697095449994 -0.054022343278744472 -0.01295107636366149
leaf_weight=1115.8820422589779 1252.1923215985298 1112.7070025801659 888.64062859117985 320.49742324650288 225.72358341515064 551.7739739716053 709.85890112817287 872.71106226742268 1524.4845663309097 65.422499418258667 501.88099366426468 1016.8722458928823 272.22652144730091 1671.7743879556656 963.35394804179668 2496.0202655494213 511.09597761929035 433.49700649082661 400.53931477665901 326.70159448683262 1268.8917751759291 733.64569225907326 104.15552206337452 992.79469114542007 84.434112787246704 109.09830676019192 919.5656418800354 1678.9901092201471 382.0182718783617 910.11130458116531 376.57648150622845 375.45944553613663 724.35007625818253 727.42006668448448 579.26953062415123 170.89446160197258 474.74931204319 690.23542387783527 1483.0705936551094 1457.3206777125597 1277.5095635056496 980.54374168813229 806.77409605681896 1751.5957076996565 328.15847972035408 81.666884437203407 361.86150974035263 933.32656276226044 749.36895808577538 302.56611874699593 240.70584300160408 2448.1442255228758 206.11650301516056 928.18410533666611 1763.2246146202087 481.54082541167736 22.950952351093292 1285.0457467585802 14.388454526662825 373.58287914097309 51.070052668452263 65.42689423263073
leaf_count=4703 5134 4968 3577 1290 978 2356 2901 3555 7382 309 2020 4179 1187 7026 3863 12424 2091 2054 1630 1368 5873 2979 466 4225 415 456 3708 6735 1533 3662 1580 1527 3238 3088 2329 736 1905 2764 7507 5980 5689 4094 3239 7031 1360 344 1723 4283 3176 1255 970 11553 826 3761 7715 1971 92 5691 58 1501 235 268
internal_value=-2.77766e-05 -0.0236509 0.0305145 0.0202818 -0.0378639 -0.00824061 0.0514147 0.0141387 -0.0466286 -0.0307599 0.0194197 -0.000258128 -0.0160424 -0.0042045 0.0310042 -0.0492199 0.00531431 -0.0249942 0.0147586 0.00089133 -0.0243108 0.0457409 -0.0121985 -0.0113887 -0.0367428 0.00924717 0.0106478 0.0362944 0.0254308 0.0412441 -0.00524328 0.0086262 -0.0230161 -0.00380583 0.0465115 -0.0111258 0.0292587 0.0287742 -0.0524064 0.050853 -0.0202633 0.0639479 0.0240999 0.0192446 -0.0051851 0.00865864 -0.0398312 -0.0282278 -0.00857316 -3.94056e-05 0.0352348 -0.0382267 0.0333528 0.00750756 -0.0149083 0.0158566 0.03625 -0.0192046 0.0192781 0.0169119 -0.0264282 0.0111296
internal_weight=46930.7 26462.8 20467.9 13740.5 13766.2 12696.6 6727.34 8735.72 6162.8 7603.37 5465.13 6275.65 6420.99 4345.44 5004.79 5503.58 3270.59 659.221 3647.63 2502.77 3659.11 4630.91 4139.37 4035.21 3944.26 2382.92 2273.82 2567.63 2437.16 2463.73 887.672 1930.22 2281.62 1279.19 1312.92 1842.67 1681.56 1817.51 3979.09 2167.18 2390.22 2096.43 1127.27 2253.48 1404.23 1098.54 2894.44 1049.82 1077.53 678.026 1150.82 2532.58 1192.42 1394.15 2756.02 1401.11 986.305 1557.27 489.138 755.601 984.397 993.611
internal_count=202536 119464 83072 55454 65393 54071 27618 35364 30345 35048 22003 26105 27966 18189 20090 27313 13361 3032 14710 10427 16530 18821 17850 17384 18518 9690 9234 10312 9778 9940 3671 7916 10116 5444 5308 7762 6744 7293 19931 8881 10657 8797 4529 9051 5904 4523 13691 4827 4536 2782 4632 11968 4781 5659 11940 5679 3955 6878 1963 3034 4518 4029
cat_boundaries=0 1 3 4 5 7 9 10 12 13 14
cat_threshold=1 4098052880 1 28 1753727890 2126594048 1 4160886869 1 10507585 3926098121 1 1 325756928
is_linear=0
shrinkage=0.05


Tree=11
num_leaves=63
num_cat=7
split_feature=50 48 48 48 48 25 48 25 25 25 48 50 25 15 12 50 1 48 50 49 25 48 32 48 2 32 32 1 6 6 32 50 49 15 15 25 14 26 48 14 28 1 25 32 1 1 2 50 15 53 14 50 15 52 15 28 15 3 33 2 2 45
split_gain=12302.5 2162.08 1617.27 460.867 328.545 234.927 183.707 168.253 113.587 109.426 98.7037 90.9476 60.1199 53.8811 43.3658 43.1219 41.7513 40.3422 39.9081 39.4081 38.6208 37.339 32.5917 32.2262 28.7725 28.7511 28.7297 28.0374 27.4373 27.1741 27.0796 26.8228 26.1479 26.0135 24.9935 23.6386 28.7697 23.4422 23.3069 23.1663 21.9753 21.6846 20.0046 19.5847 19.4355 19.2351 18.7057 18.6982 18.3468 18.2174 18.1717 17.8991 17.8449 17.8389 17.649 17.3737 17.0935 16.455 16.3869 16.3197 16.1933 16.1307
threshold=3.5000000000000004 0.045146956911662803 0.4446640316205534 0.086581709145427302 0.2817460317460318 5.5000000000000009 0.7417582417582419 3.5000000000000004 5.5000000000000009 4.5000000000000009 0.026702317290552589 5.5000000000000009 5.5000000000000009 0.81068324164968719 25.000000000000004 4.5000000000000009 33.500000000000007 0.57189542483660138 6.5000000000000009 32.350000000000001 3.5000000000000004 0.18350168350168353 7.5000000000000009 0.19049346879535561 0 7.5000000000000009 7.5000000000000009 24.500000000000004 3.4765000000000001 3.4715000000000003 6.5000000000000009 2.5000000000000004 15.450000000000001 0.89587973461402759 1.0471650770867933 2.5000000000000004 2.6354730848759527 1 0.9545454545454547 2.0731521505764063 94.500000000000014 37.500000000000007 2.5000000000000004 7.5000000000000009 37.500000000000007 30.500000000000004 2 5.5000000000000009 1.011435595095721 34.650000000000013 2.841993923664011 1.5000000000000002 0.89587973461402759 38.95000000000001 1.5580892133149293 101.50000000000001 1.0816615128302691 3 4 5 6 56.800000000000004
decision_type=8 10 10 10 10 8 10 8 8 8 10 8 10 8 2 10 2 10 10 8 10 10 2 10 1 2 2 2 2 2 2 10 10 10 10 10 10 1 10 10 2 2 10 2 2 2 1 10 10 2 10 10 10 2 10 2 10 1 1 1 1 2
left_child=2 5 4 8 7 11 17 14 16 15 29 20 21 22 27 35 46 25 37 -13 -2 31 -6 24 30 33 34 53 47 -7 -11 52 -10 -4 55 36 -5 58 42 -32 -29 -33 -8 48 56 -45 -3 -12 -16 -21 -14 60 -9 -1 -34 59 -19 -42 -18 -15 -27 -60
right_child=1 3 6 9 13 10 38 12 32 23 28 19 50 26 43 -17 18 44 -20 49 -22 -23 -24 -25 -26 51 -28 40 -30 -31 39 41 54 -35 -36 -37 -38 -39 -40 -41 57 -43 -44 45 -46 -47 -48 -49 -50 -51 -52 -53 -54 -55 -56 -57 -58 -59 61 -61 -62 -63
leaf_value=-0.010287868021264579 -0.0049257679114184938 -0.02111488618459886 0.048126958387087332 0.011468931754877076 0.042321749936738109 -0.047726996955177035 0.059025363602800932 0.03182162126960178 -0.020500396816415994 0.0064562570445003339 -0.026721173968317687 -0.027660911584915789 -0.0083869391569150655 0.035482843684988385 0.034653029734965889 -0.0036884325560503578 -0.013095866904893156 0.04301840202108486 -0.02622975372379785 -0.047818170350318795 -0.024437385174262364 0.012992277698087241 0.03046298646478586 0.011170928735908988 -0.037280561747106367 0.031761173487075238 0.016080462201002656 0.01967684095541735 -0.049174801551740782 -0.056936460121028189 -0.0079310993994575734 -0.011774853520050392 -0.027208334129335918 0.030999662232961279 0.018304716996322738 0.0034407235845732862 0.065041694474171546 -0.014333944446325467 0.069049964277272044 -0.019035400954801874 -0.014595070455041962 0.0028536850000167088 0.026621642981844058 -0.0011829352906813214 0.051914949078634198 0.022680467357566781 -0.042842537492318478 -0.038239960682887687 0.018782112419676176 -0.036284411902306885 -0.03588125098960003 0.045723242795952274 0.0037423215315433573 0.025863201879169847 -0.039012847600100029 0.018522773124959497 -0.0047440532614208214 0.01241503283946218 -0.00075665102247936223 -0.0071851107470394492 -0.0014846682015589876 -0.019445794838745589
leaf_weight=155.19360291957855 378.65120843052864 625.88977840542793 1023.2717173993587 1130.9621190428734 885.42520569264889 2784.1042605042458 1311.5858476608992 113.24884921312332 1338.6972155719995 256.99804575741291 419.75517274439335 1168.7430211156607 325.41726119816303 961.92762391269207 686.82731872797012 1355.8844638466835 531.43600513041019 647.56699451804161 413.12113323807716 483.5384628623724 768.02952088415623 1443.916703119874 1676.2608226239681 192.99765349924564 93.044277295470238 869.70684467256069 755.94434688985348 2353.7956491857767 499.89376910030842 1124.5143125504255 1986.3492204397917 337.89278395473957 1617.9446427077055 283.01381200551987 489.38096949458122 1747.0671261399984 25.628215461969376 1512.6743738502264 704.91857843101025 615.15158547461033 53.328889563679695 1012.2748352736235 49.424818649888039 96.899252012372017 1482.3098995089531 656.96977250277996 117.68297271430492 2192.7083720564842 247.78930021822453 1172.5965251326561 73.708777561783791 239.66124303638935 113.08144414424896 43.742733865976334 393.68424160778522 206.03231516480446 19.290641695261002 1025.8343170583248 1138.3602592200041 22.944881156086922 38.237262800335884 128.48652064800262
leaf_count=627 1635 2741 4171 4612 3577 14220 5528 462 5948 1090 1981 5374 1368 3863 2750 5669 2305 2671 1865 2369 3466 5839 6735 794 413 3509 3034 9451 2484 5877 8466 1396 7494 1137 1963 7183 105 6558 3066 2659 214 4158 203 389 6132 2633 537 10598 994 5671 317 970 467 176 1865 826 78 4123 4928 92 153 557
internal_value=-2.98263e-05 -0.0226914 0.0290812 -0.0104889 0.019274 -0.0395888 0.0492836 0.0134268 -0.0189555 -0.00154904 -0.0450864 -0.0298702 0.00477338 0.0294991 0.0189885 0.00367361 -0.0137365 0.043724 -0.0115767 -0.0346908 -0.0179944 0.00718338 0.0345619 -0.00862356 -0.00991789 0.0393434 0.0241756 0.0159106 -0.0384428 -0.0503766 -0.00902724 0.00186301 -0.0259151 0.0444162 0.0278175 0.00711138 0.012656 -0.00974835 0.0616707 -0.0105568 0.0169681 -0.000807251 0.0578486 0.025609 0.0487258 0.0196132 -0.0245537 -0.0363892 0.0304453 -0.0396519 -0.0134645 0.0335692 0.0177924 -0.00233886 -0.0295185 0.0317266 0.0416367 0.0110601 -0.00577921 0.0344888 0.0303611 -0.00263138
internal_weight=46621.4 26214.6 20406.8 15222.1 13737.8 10992.5 6668.99 8739.92 7817.98 7404.08 7020.98 3971.56 3419.54 4997.92 5320.38 4259.54 4467.65 4603.06 3724.08 2824.88 1146.68 3020.41 2561.69 3144.54 2951.54 2453.89 2436.23 3631.9 3112.36 3908.62 2858.5 1576.5 3350.33 1306.29 1680.29 2903.66 1156.59 3310.96 2065.93 2601.5 3432.96 1350.17 1361.01 1688.49 2149.17 753.869 743.573 2612.46 934.617 1656.13 399.126 1147.61 226.33 198.936 2011.63 1190.9 666.858 1079.16 1798.28 984.873 907.944 1266.85
internal_count=202536 119464 83072 65789 55454 53675 27618 35364 34798 30991 35160 18515 14007 20090 21357 17569 19491 18821 16213 13414 5101 12322 10312 13422 12628 9940 9778 14591 15063 20097 12215 6483 15307 5308 6744 11900 4717 14348 8797 11125 13788 5554 5731 6766 8881 3022 3278 12579 3744 8040 1685 4632 929 803 9359 4781 2749 4337 7790 3955 3662 5485
cat_boundaries=0 1 2 3 4 5 6 7
cat_threshold=1 28 1 128 1824 1 1
is_linear=0
shrinkage=0.05


Tree=12
num_leaves=63
num_cat=4
split_feature=50 48 16 48 16 25 16 25 25 25 16 50 25 15 16 11 53 16 16 25 16 32 16 32 25 5 6 52 48 50 26 16 14 32 50 2 50 36 2 18 53 11 25 15 15 50 32 16 15 15 53 25 32 14 17 15 32 51 11 15 14 32
split_gain=11177 2019.37 1497 420.455 298.394 225.817 177.034 151.751 104.968 98.9575 96.6107 85.2915 54.3203 49.7438 40.8146 39.2059 38.8233 38.2788 37.5351 35.4561 34.6339 32.3953 29.9161 28.1491 27.4674 26.848 26.3967 25.8845 23.6687 23.5585 25.2371 23.1499 23.0079 22.5313 21.3169 20.758 20.4207 20.0436 21.0141 19.94 19.9026 18.9806 18.7965 18.7509 18.0629 20.1427 17.7235 17.6824 17.5882 17.5427 17.4459 17.3163 16.9247 16.6738 16.6623 16.6356 16.3894 15.7903 15.7659 15.7414 18.5103 15.6816
threshold=3.5000000000000004 0.045146956911662803 1.1785366391390579 0.086581709145427302 1.5150668501356619 5.5000000000000009 0.85418893014450203 3.5000000000000004 5.5000000000000009 4.5000000000000009 3.6493578504437103 5.5000000000000009 5.5000000000000009 0.85418893014450203 2.1341489346727696 25.000000000000004 31.550000000000004 1.011435595095721 3.5070566484845265 3.5000000000000004 2.0731521505764063 7.5000000000000009 2.1804014991111278 7.5000000000000009 3.5000000000000004 3.5195000000000003 3.4765000000000001 16.350000000000005 0.060423512230741154 6.5000000000000009 0 0.71754226264466137 1.8325494627242667 7.5000000000000009 2.5000000000000004 1 2.5000000000000004 206.50000000000003 2 2.5000000000000004 31.150000000000002 35.000000000000007 2.5000000000000004 0.85418893014450203 2.2460007439412273 6.5000000000000009 7.5000000000000009 2.0346842880759621 1.0471650770867933 1.4701097818118665 34.650000000000013 6.5000000000000009 6.5000000000000009 2.841993923664011 3 1.011435595095721 7.5000000000000009 26.950000000000003 1.0000000180025095e-35 0.71754226264466137 1.8000241202036604 6.5000000000000009
decision_type=8 10 10 10 10 8 10 8 8 8 8 8 10 8 10 2 2 10 8 10 10 2 10 2 10 2 2 2 10 10 1 10 10 2 10 1 10 2 1 2 2 2 10 8 10 10 2 10 10 8 2 10 2 10 1 10 2 2 2 10 10 2
left_child=2 5 6 8 13 11 31 15 16 14 26 19 20 21 -5 36 -3 52 -13 -2 37 -4 32 35 33 49 44 -10 -29 30 39 -1 56 43 -22 48 59 38 -9 61 -24 -16 -33 -19 45 -7 55 -38 -15 -12 -20 -42 -8 -14 -49 -17 -11 -48 -21 60 -6 -18
right_child=1 3 4 9 7 10 17 12 27 22 25 18 53 23 41 46 29 24 50 58 34 -23 40 -25 -26 -27 -28 28 -30 -31 -32 42 -34 -35 -36 -37 47 -39 -40 -41 51 -43 -44 -45 -46 -47 57 54 -50 -51 -52 -53 -54 -55 -56 -57 -58 -59 -60 -61 -62 -63
leaf_value=0.067002331223913164 -0.0046857937282161095 -0.028596150910610074 0.039779744978474779 0.0092257694702798671 0.021653997066327795 -0.029470277329243386 0.057698865277020839 0.01267115995826093 -0.050688785921927305 0.0087979999971585145 -0.039893557662485701 -0.026552006664266343 -0.0079824632118249261 0.030627734640539819 -0.0023051016810176077 0.032938034074035831 0.0074798666690993791 0.04863860756010973 -0.046412706608710219 -0.037636089469161055 0.01849722674582607 0.028528343391164293 -0.030624829600720035 0.013223395296272426 0.016067263045659003 -0.05700192012445951 -0.047787916290911135 -0.028484363043731094 -0.019915138971605434 -0.022422145360862657 -0.014990190712122795 0.056890243259976318 -0.013282962483863684 0.033509189626061149 -0.0040572717019500175 -0.0028829550775893564 0.015509901702672342 -0.0085840742140448952 -0.015235462871414751 -0.019989724981294432 -0.0089077239260718626 0.011187887187547207 0.025405265403876616 0.03618496824952553 -0.055941720565989277 -0.038512847155049712 0.019884222999411564 0.014704908248722406 0.01891572320626575 -0.048961545875272773 -0.035016413726912846 -0.024160437732636798 0.044916963939685944 -0.034428053843628979 0.00028599300512099755 0.017828657712602964 -0.0047033056134486067 -0.022928040284834608 -0.019776086231278998 0.015913908825883741 0.044297136470795584 -0.0065005936550060293
leaf_weight=690.50441054999828 378.15402981638908 370.89335878193378 984.88921362161636 1794.3840030133724 345.6698135882616 1159.7654846459627 301.73549607396126 1885.1084053367376 94.227257490158081 447.66122874617577 695.56891049444675 1156.9812882989645 324.82650978863239 1054.3174034357071 2170.8010425418615 686.46684049069881 230.89220687747002 723.11453597247601 473.52868528664112 155.18210715055466 120.17066007852554 1825.5706880539656 135.42804647982121 603.52932232618332 140.16882573068142 832.51769757270813 488.96167527139187 1575.8860900104046 1648.9995794594288 455.12085111439228 1623.2701753526926 1293.2376288324594 338.01220655441284 1059.8370129615068 816.94007909297943 60.151760518550873 1584.4559700787067 130.2548620402813 69.96204274892807 241.40808843076229 1553.1316554844379 296.19777266681194 49.20729686319828 519.32245688140392 100.05649581551552 1313.1355533748865 731.99009399116039 340.89231483638287 460.58818931877613 2286.9453009963036 1154.7655619680882 211.40963263809681 1827.7721523940563 72.997377380728722 478.93187396228313 247.98342795670033 451.46280784904957 22.190377324819565 606.47155956923962 761.82588496804237 122.15154476463795 1527.855408385396
leaf_count=3066 1635 1661 3994 7288 1384 5608 1263 7631 456 1859 3597 5374 1368 4239 9048 2750 999 2979 2369 709 495 7347 599 2422 561 4498 2484 7443 7408 2072 7068 5528 1439 4296 3376 242 6358 529 291 1051 6696 1233 203 2104 497 6474 2933 1376 1846 12002 5671 937 7618 317 1933 994 1892 89 2757 3051 489 6640
internal_value=-3.21235e-05 -0.0217705 0.0277268 -0.0100039 0.0183185 -0.0382919 0.0472869 0.0127507 -0.0181281 -0.00147331 -0.0437536 -0.0287229 0.00453319 0.0280755 0.00348818 0.0180313 -0.0131083 0.0418283 -0.0334379 -0.0172012 0.00681926 0.0324713 -0.0082129 0.0224049 0.0375564 -0.0490628 -0.0371385 -0.0248574 -0.0241026 -0.0116999 -0.0103531 0.0595628 -0.00216197 0.0388647 -0.00116499 0.0259231 0.015106 0.0104072 0.0116725 -0.00648239 -0.0121529 -0.000685079 0.0557362 0.0434331 -0.0351147 -0.034272 0.0243264 0.0124255 0.0270668 -0.0468467 -0.0383306 -0.0107352 0.0467281 -0.012835 0.0064644 0.0289283 0.0020188 0.0186246 -0.0234149 0.0203471 0.0275663 -0.00466521
internal_weight=46305.8 25969.1 20336.8 15167 13731.9 10802 6604.9 8742.82 7768.55 7398.49 6876.95 3925.08 3420.26 4989.05 4261.38 5322.56 4449.44 4571.95 2785.28 1139.81 3022.44 2810.46 3137.11 2178.59 2442.44 3815.03 3061.92 3319.11 3224.89 4078.55 3623.43 2032.95 1237.14 2302.27 937.111 1575.06 3633.93 2085.33 1955.07 2000.16 1899.97 2467 1342.44 1242.44 2572.96 2472.9 1688.63 2404.28 1514.91 2982.51 1628.29 1764.54 2129.51 397.824 819.824 934.45 899.124 754.18 761.654 1229.65 467.821 1758.75
internal_count=202536 119464 83072 65789 55454 53675 27618 35364 34798 30991 35160 18515 14007 20090 17569 21357 19491 18821 13414 5101 12322 11341 13422 8749 9940 20097 15063 15307 14851 17830 15758 8797 5190 9379 3871 6327 14591 8451 7922 8690 8232 10281 5731 5083 12579 12082 6766 9667 6085 15599 8040 7633 8881 1685 3309 3744 3751 3022 3466 4924 1873 7639
cat_boundaries=0 1 2 3 4
cat_threshold=28 1 1 2093
is_linear=0
shrinkage=0.05


Tree=13
num_leaves=63
num_cat=11
split_feature=50 48 16 48 16 25 16 25 25 16 25 50 15 32 10 54 1 50 16 16 50 50 10 25 15 16 11 6 10 5 25 52 32 25 14 48 50 15 32 26 10 5 15 10 1 25 11 10 15 25 53 15 51 14 10 10 52 10 53 50 15 11
split_gain=10156.9 1886.14 1387.48 383.462 271.565 217.118 171.024 119.599 97.0108 94.6097 89.4932 79.9707 73.4292 47.85 46.3108 46.2967 37.6667 37.6512 36.3436 35.7534 35.5586 34.5493 33.6456 32.5474 32.5318 30.155 27.6914 26.763 26.2345 26.2013 25.2492 24.4583 23.7902 23.5547 23.16 22.1456 22.0861 21.301 20.924 20.808 20.56 20.3526 19.9509 19.3594 18.4694 18.2729 18.1525 17.6317 17.5829 17.4378 16.7288 16.6601 19.8033 18.5474 16.4801 16.0036 15.9732 16.6124 15.9551 15.8803 15.8543 15.5692
threshold=3.5000000000000004 0.045146956911662803 1.1785366391390579 0.086581709145427302 1.6581827230727291 5.5000000000000009 0.85418893014450203 4.5000000000000009 5.5000000000000009 3.6493578504437103 4.5000000000000009 5.5000000000000009 0.76519735254682386 7.5000000000000009 0 1 33.500000000000007 4.5000000000000009 1.011435595095721 3.5070566484845265 2.5000000000000004 6.5000000000000009 2 3.5000000000000004 1.0816615128302691 2.0604932465842616 25.000000000000004 3.4715000000000003 3 3.5425000000000004 3.5000000000000004 16.350000000000005 7.5000000000000009 6.5000000000000009 0.71754226264466137 0.060423512230741154 2.5000000000000004 2.1222436103259104 7.5000000000000009 4 5 3.5435000000000003 2.2460007439412273 6 37.500000000000007 5.5000000000000009 1.0000000180025095e-35 7 0.85418893014450203 5.5000000000000009 34.650000000000013 0.71754226264466137 13.850000000000003 2.5297127291328443 8 9 46.250000000000007 10 27.750000000000004 5.5000000000000009 1.0816615128302691 35.000000000000007
decision_type=8 10 10 10 10 8 10 8 8 8 8 8 8 2 9 1 2 10 10 8 10 10 9 10 10 10 2 2 9 2 10 2 2 10 8 10 10 10 2 1 9 2 10 9 2 8 2 9 8 10 2 10 2 10 9 9 2 9 2 10 10 2
left_child=2 5 6 8 12 11 34 14 16 29 17 23 32 24 61 33 41 28 44 47 51 37 25 43 58 -12 46 -11 -5 42 38 -10 -4 36 -1 -33 -9 39 48 -18 -19 -3 59 -2 60 -17 54 -13 -20 -24 -21 53 -53 -16 -22 -15 57 -26 -14 -7 -8 -6
right_child=1 3 4 10 7 9 18 15 31 27 22 19 13 55 20 45 21 40 30 50 26 -23 49 -25 56 -27 -28 -29 -30 -31 -32 35 -34 -35 -36 -37 -38 -39 -40 -41 -42 -43 -44 -45 -46 -47 -48 -49 -50 -51 -52 52 -54 -55 -56 -57 -58 -59 -60 -61 -62 -63
leaf_value=0.06266392787645568 0.011922286944368714 -0.020787876716987033 0.037501694742316516 -0.00038429136361876659 0.00039079937697178739 -0.025171320182740993 0.039226593580993202 0.019021052831720817 -0.049225342642625097 -0.045118587715205279 -0.00078680524237772782 -0.012983010275368226 0.0007829376465109003 0.022407022398660423 0.027721875291045618 -0.0063541525646699203 -0.0045449931395592441 -0.015312622223865353 0.046622084685965924 -0.04506054791925547 0.0014955800010026752 -0.024210413481060539 -0.00024110328129105956 -0.022433957417840288 -0.0029635147230789669 -0.018193469712664251 0.020528401114290277 -0.05450463190740417 0.0097829492458016004 -0.054539258632884918 0.01526800144596497 -0.027375298754218354 0.027492601875252418 -0.025916376703851763 0.051878782375443036 -0.019048894255053753 0.0019425103364427172 -0.045007316374279988 0.031963902055544953 -0.012653646773904582 -0.00033417597602209087 -0.056446752390209236 -0.055582424002822373 -0.011825100545703451 0.047985488991992904 -0.02692573375164577 0.0078392753426272978 -0.029090590060653405 0.034525616556541239 -0.011270640230677144 -0.033791784232067974 0.028473890415633543 0.011704033608515447 0.057560276471280515 0.023568867648304945 0.010191125361980687 -0.038649575673679375 0.019046060386747797 0.028044524219916274 -0.035546086101557239 -0.0068860034094689803 0.021377264764166879
leaf_weight=1058.9099839925766 117.13692001998425 691.68960823118687 865.78809793293476 942.47949127852917 703.98868770897388 439.83487567305565 636.48192705214024 234.59197552502155 92.228376716375351 2659.4720445722342 330.43016339838505 282.51828029751778 55.154267236590385 372.82995748519897 273.44273239374161 247.31148332357407 1763.8000674843788 282.40272349119186 716.83203041553497 463.60594375431538 121.58973847329617 406.16868026554585 1296.7738214731216 755.39005342125893 106.02054597437382 1007.2782651185989 987.65714840590954 1063.041055187583 1965.4620332121849 177.07704231142998 140.13205985724926 1558.2024934142828 1888.9063897281885 63.852079793810844 939.31682504713535 1638.0727871209383 980.5587299913168 40.025432795286179 1055.6286849975586 1487.6732431054115 1072.6287842541933 42.472153961658478 110.08979149162769 260.5408450961113 1452.9772658348083 191.56087435781956 1629.1319149434566 862.92931658029556 517.12394221127033 495.20763330161572 1137.2368324249983 344.26295235753059 360.27234494686127 64.332984834909439 379.97004082798958 1210.5499328970909 13.847422599792479 530.43337388336658 1995.2523609697819 2285.1860505193472 19.202494129538536 101.06163622438908
leaf_count=4703 505 3076 3520 3881 2850 2130 2671 956 456 14220 1386 1324 222 1497 1096 1028 7665 1184 2979 2369 491 1865 5509 3466 426 4378 3968 5877 8019 945 561 7443 7611 275 4094 7408 4027 181 4296 6502 4485 202 562 1130 6132 811 6565 4050 2104 2149 5671 1382 1446 258 1532 4865 56 2129 8036 11426 78 407
internal_value=-3.37253e-05 -0.0208859 0.0264467 -0.00954033 0.0174157 -0.0370406 0.0454056 0.0101974 -0.0173339 -0.0424681 -0.00140129 -0.0276183 0.0242698 0.0201747 0.0141314 -0.00117427 -0.0125059 0.00331238 0.0400391 -0.0322294 0.0162412 -0.010452 -0.00782181 -0.0164419 0.0242208 -0.0137907 0.0136079 -0.047799 0.00652001 -0.03588 0.0358708 -0.0238405 0.0306384 0.00365563 0.0575941 -0.0231081 0.00523962 -0.00875418 0.0371317 -0.00830791 -0.00357131 -0.0228508 -0.0347146 -0.00445726 0.044842 -0.0149917 0.0104 -0.0254851 0.0415527 -0.00327082 -0.0370552 0.0242754 0.0198984 0.0334049 0.0187175 0.0132734 0.0144765 0.0156324 0.0273112 -0.0338715 0.0378761 0.00298821
internal_weight=45986 25727.1 20259 15113 13722.4 10614.1 6536.61 6683.59 7720.33 6734.7 7392.66 3879.36 7038.78 4284.09 4965.71 1717.88 4431.83 4262.97 4538.38 2746.29 4160.66 3697.67 3129.69 1133.07 2700.71 1337.71 3118.35 3722.51 2907.94 3012.19 2429.72 3288.5 2754.69 1279 1998.23 3196.28 1215.15 3291.5 2289.58 3251.47 1355.03 734.162 2835.11 377.678 2108.66 438.872 2130.69 1145.45 1233.96 1791.98 1600.84 1042.31 704.535 337.776 501.56 1583.38 650.301 636.454 2050.41 2725.02 655.684 805.05
internal_count=202536 119464 83072 65789 55454 53675 27618 27092 34798 35160 30991 18515 28362 17231 19995 7097 19491 17569 18821 13414 16738 16213 13422 5101 10869 5764 12556 20097 11900 15063 9940 15307 11131 5258 8797 14851 4983 14348 9379 14167 5669 3278 14118 1635 8881 1839 8588 5374 5083 7658 8040 4182 2828 1354 2023 6362 2611 2555 8258 13556 2749 3257
cat_boundaries=0 2 3 5 7 8 10 11 12 13 14 16
cat_threshold=3892445185 1 7 4215422976 1 4161415169 1 28 2759857024 1 36980480 50603614 276894464 19980288 1090784640 1
is_linear=0
shrinkage=0.05


Tree=14
num_leaves=63
num_cat=13
