tree
version=v4
num_class=1
num_tree_per_iteration=1
label_index=0
max_feature_idx=54
objective=binary sigmoid:1
feature_names=advance_final_count_90d age bike_class car_no dow good_track_race_ave good_track_race_best good_track_rate2_180d good_track_run_count_180d good_track_trial_ave graduation_code handicap handicap_diff_min is_absent log_place_odds_max log_place_odds_min log_win_odds month order1_count_90d order2_count_90d order3_count_90d order_other_count_90d place_code place_odds_max place_odds_min place_odds_min_rank player_place_code player_place_name race_dev_num race_handicap_max race_handicap_min race_n_absent race_n_cars race_no rain_expect_code rank_class rank_num rate2 rate3 run_count_90d st_ave_90d sunny_expect_code this_year_advance_final this_year_win_count total_win_count wet_track_rate2_180d wet_track_run_count_180d win_count_90d win_implied_prob win_odds win_odds_rank win_rate1 win_rate2 win_rate3 year
feature_infos=[0:12] [18:79] -1:0:1 -1:2:5:1:3:4:0:6:7 -1:5:6:4:0:3:2:1 [0:3.8420000000000001] [0:3.8420000000000001] [0:100] [0:91] [0:3.7200000000000002] -1:23:22:19:21:20:18:25:17:28:27:26:24:13:16:15:14:29:8:30:7:31:11:9:32:10:3:12:6:2:0:4:1:5 [0:90] [0:90] none [0.69314718055994529:8.4703112055161078] [0.69314718055994529:5.7474803299219204] [0.69314718055994529:6.7951463345994831] -1:4:6:5:9:11:10:8:0:7:3:2:1 [0:10] [0:8] [0:7] [0:10] -1:0:3:1:4:2 [1:4770] [1:312.39999999999998] [1:8] -1:1:0:3:4:2 -1:0:2:4:1:3 [0:217] [0:90] [0:10] [0:2] [5:8] -1:5:4:3:2:6:7:1:0:8:10:9:11 none -1:0:1:2 [1:232] [0:100] [0:100] [0:62] [0:0.42999999999999999] none [0:30] [0:17] [0:220] [0:100] [0:27] [0:6] [0.0011204481792717086:1] [1:892.5] [1:8] [0:100] [0:100] [0:100] -1:3:4:2:1:0:5
tree_sizes=6884 6907 6985 6935 6973 6969 6979 6946 6980 6975 6974 6978 6960 6990 6960 6992 6909 6966 6969 6928 6949 6947 6941 6955 6945 6922 6935 6970 6954 6923 6965 6944 6873 6949 6945 6915 6937 6919 6907 6876 6890 6895 6916 6964 6982 6895 6982 6912 6952 6912 6838 6905 6899 6897 6909 6794 6852 6969 6871 6937 6901 6940 6915 6941 6968 6829 6895 6874 6930 6901 6840 6844 6866 6876 6865 6878 6912 6860 6886 6875 6845 6955 6888 6916 6894 6919 6846 6854 6943 6822 6942 6909 6893 6849 6887 6876 6879 6911 6873 6856 6866 6836 6845 6870 6906 6868 6911 6863 6852 6847 6863 6881 6866 6794 6839 6817 6803 6851 6865 6816 6798 6842 6877 6874 6882 6804 6809 6865 6814 6831 6868 6845 6876 6811 6843 6791 6801 6842 6845 6832 6823 6855 6868 6833 6797 6775 6786 6884 6821 6814 6858 6833 6811 6776 6841 6765 6757 6749 6733 6770 6811 6804 6786 6810 6797 6829 6792 6829 6772 6751 6751 6789 6747 6776 6831 6768 6767 6825 6801 6846 6857 6841 6788 6783 6847 6835 6774 6831 6847 6756 6803 6826 6755 6812 6847 6796 6814 6806 6774 6771 6814 6808

Tree=0
num_leaves=63
num_cat=0
split_feature=50 48 16 25 16 16 16 16 16 25 25 25 50 25 25 50 24 16 24 50 24 11 16 32 16 50 50 25 16 25 53 48 25 32 14 16 25 5 24 24 1 24 16 1 16 53 14 32 24 5 1 16 32 53 53 53 25 53 25 1 16 53
split_gain=39158.4 5104.44 4843.05 935.708 843.861 632.23 613.717 354.984 298.376 271.55 231.967 226.324 165.127 164.895 106.311 102.768 101.979 83.2539 70.4123 69.6685 65.981 59.5012 55.8084 55.0406 53.4197 48.9108 47.4774 50.4344 42.68 39.4653 44.4792 39.096 38.1832 36.1177 35.8247 35.814 34.1462 33.0783 32.1671 31.2808 31.2484 30.9844 29.2087 29.1059 28.81 28.7626 28.6995 27.9428 37.5429 27.8325 26.7837 26.4925 25.4047 25.2447 25.2308 24.0649 23.9814 23.9009 22.4928 22.1704 22.1642 22.1489
threshold=3.5000000000000004 0.063492703378214957 1.2382692000587421 3.5000000000000004 3.3928277196600067 2.287458571408536 0.93590108845079578 1.599336558775341 1.6955735229043272 5.5000000000000009 5.5000000000000009 4.5000000000000009 4.5000000000000009 3.5000000000000004 4.5000000000000009 2.5000000000000004 1.3500000000000003 0.76519735254682386 1.1500000000000001 5.5000000000000009 1.3500000000000003 25.000000000000004 3.9189981260915085 7.5000000000000009 1.9809776870881779 5.5000000000000009 6.5000000000000009 3.5000000000000004 1.9242220118926376 6.5000000000000009 34.550000000000004 0.10811126694717159 3.5000000000000004 7.5000000000000009 2.3272658077629083 1.9387157803292638 3.5000000000000004 3.5425000000000004 1.2500000000000002 1.4500000000000002 35.500000000000007 3.9500000000000006 2.5217125584596238 48.500000000000007 1.011435595095721 32.45000000000001 3.3339870432574523 7.5000000000000009 1.5500000000000003 3.5235000000000007 29.500000000000004 1.1472764606483909 7.5000000000000009 32.050000000000004 36.050000000000004 30.550000000000004 5.5000000000000009 35.250000000000007 5.5000000000000009 33.500000000000007 3.0750027876182671 34.650000000000013
decision_type=8 10 10 8 8 10 10 10 10 8 8 8 8 8 10 10 10 10 10 10 10 2 8 2 10 8 10 10 10 10 2 10 10 2 10 10 10 2 10 10 2 10 10 2 10 2 10 2 10 2 2 10 2 2 2 2 10 2 10 2 10 2
left_child=2 4 6 7 10 13 17 18 20 12 26 19 36 24 31 38 23 -1 33 42 -5 35 49 51 -3 -14 27 34 -15 30 -13 -10 -18 -4 -2 43 -6 41 52 -19 -33 60 -7 -17 -25 -30 -16 48 -20 -11 -26 -8 55 -29 -37 -9 -47 -35 -22 -44 -12 -27
right_child=1 5 3 8 9 11 16 15 14 22 37 29 25 28 46 21 32 39 47 -21 58 -23 -24 44 50 61 -28 53 45 -31 -32 40 -34 57 -36 54 -38 -39 -40 -41 -42 -43 59 -45 -46 56 -48 -49 -50 -51 -52 -53 -54 -55 -56 -57 -58 -59 -60 -61 -62 -63
leaf_value=-0.24950113530746421 -0.38519356125496945 -0.33440085838665246 -0.28918307970844559 -0.31848498903863853 -0.3452558958514329 -0.36166305752916872 -0.27397489623287075 -0.36204432035035666 -0.36258079256178843 -0.421715540184468 -0.40112117146184817 -0.39707236483959374 -0.39925533254367379 -0.3521366044963381 -0.36610078780831873 -0.33474297540070458 -0.29745122654615008 -0.26443986803833519 -0.30048868972894294 -0.38462235206767953 -0.33426800912743221 -0.32061001994730437 -0.43243043438084228 -0.27944912577229181 -0.37150373069459769 -0.42384897614144151 -0.40312403657001156 -0.40821248772239704 -0.38356836312125897 -0.4005044459018266 -0.38297833515942953 -0.3579817113438159 -0.32137287311407858 -0.31908750437817529 -0.36241815166511004 -0.35339838447774691 -0.38491144836263608 -0.42910665833618922 -0.32428958827920135 -0.29047042877567186 -0.3402171404294449 -0.41717524670316419 -0.38662827812776013 -0.31768969828211979 -0.29376529437463605 -0.36258740479118162 -0.39302559056054165 -0.32151170392513811 -0.31752590344301518 -0.43420444251199519 -0.34873655226732297 -0.28815316252285661 -0.31324675906149058 -0.39186648371141664 -0.33666401330377865 -0.28951340270875536 -0.37708610520257518 -0.30070644293910259 -0.35451125614379453 -0.36920950242262024 -0.40956885110330649 -0.41329707274042032
leaf_weight=1199.272971957922 893.76580792665482 733.265610024333 656.04153290390968 821.86752922832966 90.538573175668716 1363.8885595500469 1210.4087322950363 12.104087322950361 372.80588954687119 3096.4676189571619 1375.7505651265383 719.70903222262859 507.64542232453823 572.28124862909317 739.55973543226719 729.63438382744789 691.86963137984276 2063.0206433236599 712.68866157531738 688.72256867587566 898.60744285583496 1032.236566901207 3409.4793171286583 464.55487145483494 146.94362010061741 696.7112663090229 787.24983948469162 271.61571952700615 247.16546313464642 558.24050733447075 2519.3447353988886 322.45288628339767 219.81022578477859 206.25364798307419 214.00026386976242 322.69496802985668 135.56577801704407 196.08621463179588 486.82639212906361 122.25128196179867 1065.64384791255 753.1163132339716 218.84189879894257 380.79458718001842 1443.0492906421423 1473.0674272030592 114.26258432865143 567.19753195345402 591.88987009227276 521.20200012624264 1068.5488288700581 452.69286587834358 636.91707493364811 1811.7397904992104 745.85386084020138 207.22197496891022 353.68143157660961 1240.6689506024122 161.95268838107586 1105.3452543318272 1782.4478991776705 1737.6627760827541
leaf_count=4954 3692 3029 2710 3395 374 5634 5000 50 1540 12791 5683 2973 2097 2364 3055 3014 2858 8522 2944 2845 3712 4264 14084 1919 607 2878 3252 1122 1021 2306 10407 1332 908 852 884 1333 560 810 2011 505 4402 3111 904 1573 5961 6085 472 2343 2445 2153 4414 1870 2631 7484 3081 856 1461 5125 669 4566 7363 7178
internal_value=-0.359708 -0.39626 -0.307135 -0.325843 -0.412795 -0.370577 -0.276158 -0.316112 -0.344298 -0.422361 -0.400732 -0.379851 -0.410208 -0.356096 -0.355225 -0.325641 -0.288293 -0.260087 -0.305193 -0.370434 -0.329119 -0.330499 -0.427841 -0.284483 -0.345059 -0.413373 -0.392127 -0.389414 -0.364225 -0.388226 -0.38611 -0.348205 -0.303219 -0.298914 -0.380794 -0.335183 -0.369032 -0.409067 -0.314027 -0.265896 -0.344344 -0.408062 -0.366799 -0.328895 -0.290279 -0.36756 -0.369704 -0.312247 -0.308219 -0.423515 -0.351489 -0.277834 -0.308193 -0.393998 -0.341718 -0.293516 -0.365395 -0.303327 -0.337359 -0.372088 -0.405889 -0.416317
internal_weight=50943.2 30050.1 20893.1 13026.2 18281 11769 7866.93 8529.02 4497.15 10195.3 8085.77 7174.09 3168.12 4594.95 2614.72 4554.28 4482.39 3384.54 3974.74 3376.8 1882.43 3211.21 7027.15 3570.71 1948.76 2942.02 3978.37 3191.12 2646.2 3797.29 3239.05 1760.9 911.68 2102.96 1107.77 2178.98 226.104 4107.4 1343.07 2185.27 1388.1 3911.31 2688.08 1110.43 1907.6 2073.91 853.822 1871.78 1304.58 3617.67 1215.49 1663.1 856.243 2083.36 1068.55 219.326 1826.75 1446.92 1060.56 1324.19 3158.2 2434.37
internal_count=210438 124132 86306 53809 75516 48616 32497 35232 18577 42115 33401 29635 13087 18981 10801 18813 18516 13981 16419 13949 7776 13265 29028 14750 8050 12153 16434 13182 10931 15686 13380 7274 3766 8687 4576 9001 934 16967 5548 9027 5734 16157 11104 4587 7880 8567 3527 7732 5389 14944 5021 6870 3537 8606 4414 906 7546 5977 4381 5470 13046 10056
is_linear=0
shrinkage=1


Tree=1
num_leaves=63
num_cat=7
split_feature=50 16 16 16 25 16 16 25 25 25 16 25 16 50 25 16 50 50 25 16 16 5 53 25 50 32 2 2 25 2 2 15 16 53 16 25 50 25 14 2 14 15 15 25 50 32 1 15 50 16 53 15 15 1 48 2 2 52 52 32 32 50
split_gain=35260.5 4703.1 4274.73 865.511 683.7 674.344 662.651 254.376 254.376 179.818 176.637 159.833 159.639 152.374 149.728 97.4273 92.5328 78.8037 78.2502 62.6984 62.0476 53.1005 49.7377 49.3627 45.5074 45.2317 43.9086 43.6689 45.4178 39.4394 35.5094 34.7288 34.6364 34.0656 33.8043 33.8001 32.6689 32.608 32.4779 32.2421 32.1709 31.4348 31.3529 30.934 30.8786 29.5203 28.7572 28.4283 27.6925 27.6559 27.2018 27.1961 27.0732 25.6863 25.5734 24.7773 24.7511 24.6235 24.5477 23.792 21.7825 21.7806
threshold=3.5000000000000004 2.8819995850723745 1.3736354571277458 0.97438160901885995 3.5000000000000004 2.287458571408536 3.3928277196600067 5.5000000000000009 4.5000000000000009 5.5000000000000009 1.8000241202036604 2.5000000000000004 1.6581827230727291 4.5000000000000009 4.5000000000000009 0.76519735254682386 2.5000000000000004 5.5000000000000009 4.5000000000000009 1.9670879050346399 1.0816615128302691 3.5055000000000001 34.650000000000013 5.5000000000000009 5.5000000000000009 7.5000000000000009 0 1 6.5000000000000009 2 3 1.011435595095721 2.8003208578683441 16.450000000000003 3.9189981260915085 3.5000000000000004 6.5000000000000009 3.5000000000000004 2.4203582520096725 4 1.8325494627242667 0.76519735254682386 0.76519735254682386 3.5000000000000004 4.5000000000000009 7.5000000000000009 23.500000000000004 1.8945885877146502 1.5000000000000002 1.9242220118926376 34.550000000000004 0.85418893014450203 0.71754226264466137 27.500000000000004 0.10811126694717159 5 6 19.350000000000005 16.050000000000004 7.5000000000000009 6.5000000000000009 5.5000000000000009
decision_type=8 8 10 10 8 10 8 8 8 8 10 10 10 8 8 10 10 10 10 10 10 2 2 10 8 2 1 1 10 1 1 10 10 2 8 10 10 10 10 1 10 10 10 10 10 2 2 10 10 10 2 8 10 2 10 1 1 2 2 2 2 10
left_child=2 5 3 15 12 14 9 13 17 33 23 20 30 43 19 -1 52 29 54 -2 56 34 46 26 -15 31 60 28 32 44 41 -24 50 -3 -9 -13 37 38 -35 48 49 -4 59 -8 -7 57 -18 58 -22 -16 -10 -50 -14 -21 -12 -56 -5 -43 -11 -17 -6 -60
right_child=1 6 4 11 10 8 7 21 27 47 18 35 16 24 40 42 22 -19 -20 53 39 -23 25 -25 -26 -27 -28 -29 -30 -31 -32 -33 -34 36 -36 -37 -38 -39 -40 -41 -42 45 -44 -45 -46 -47 -48 -49 51 -51 -52 -53 -54 -55 55 -57 -58 -59 61 -61 -62 -63
leaf_value=0.10297543671261739 0.021139312868534269 -0.070344121113432578 0.052652110736452651 0.075490390214340064 0.041978136393926835 -0.00089200838946736918 0.013751824592410018 -0.059073142703316997 -0.032847613893468977 -0.069698189939196839 -0.0026724160009169509 0.05160846707688771 0.053574979843467277 -0.03779783481349152 0.010457631886743146 0.093589660929705526 -0.026791066858180935 -0.02465877682545678 -0.011767043770348784 -0.013200469999559676 0.056695317841096098 -0.072519914930230578 0.042937847881348266 -0.0013663581936798287 -0.054321120939978186 0.02302214567867511 -0.013867769155514457 -0.054737353461233186 -0.040203101929889712 -0.039298066451167013 0.016871473854643746 0.024226732770515059 -0.036858252998810674 -0.025623369885675963 -0.067358111044523036 0.034291100067473351 -0.040911447144107591 -0.032872677482566864 -0.0010432986220984786 0.036551049788116394 -0.018331048703703445 -0.0021007284572281222 0.074781230235716381 -0.023998831052138767 -0.011359622440668446 0.031574524429355974 0.015770574164752804 -0.061375310860327242 0.069577934217246118 -0.0074282137315721938 -0.021006420794527886 0.056546244283186733 0.037385551801344029 0.0072097451446044049 0.013921143914376178 -0.03061843307700245 0.044054957973214792 0.048279783730207054 -0.038852050533282181 0.083385433916208812 0.024850503748850727 -0.048207127910545912
leaf_weight=1219.4237874150276 949.54675437510014 57.162165477871895 1426.8419803380966 1346.8013013005257 212.93642202019691 1435.3120642453432 90.768098592758179 2733.6473733186722 609.65217399597168 110.52361193299294 372.6186814904213 698.48902729153633 410.88559201359749 503.90078750252724 276.10200756788254 1151.9722361713648 43.455396518111229 816.49461944401264 705.03925657272339 169.6229555606842 1263.329768717289 1960.955045029521 749.42259706556797 190.81798386573792 2408.1276625394821 1293.929444283247 68.270389199256897 155.78129285573959 625.21826879680157 91.995015025138855 98.576090082526207 370.63184380531311 572.12957905232906 753.28663784265518 2240.1338824629784 472.29208666086197 715.29388980567455 1755.0657297670841 163.56985825300217 124.02141085267067 517.51821717619896 24.878620997071266 506.6137857735157 134.9399209022522 1383.7720113098621 450.71850441396236 457.66810378432274 357.41054931282997 1503.3352614194155 994.96759822964668 2372.1975880712271 545.67515178024769 695.09233285486698 1689.9924487322569 1023.9181802272797 32.207090720534325 65.670809954404831 964.40136384963989 846.221659258008 1133.1046546697617 1447.6904962360859 2350.0010213106871
leaf_count=4954 3909 238 5839 5496 875 5937 374 11428 2536 462 1540 2859 1683 2097 1139 4690 179 3389 2918 702 5163 8214 3079 788 10056 5318 281 648 2603 381 404 1523 2380 3126 9386 1940 2979 7296 676 507 2141 102 2066 560 5726 1850 1884 1493 6145 4116 9841 2234 2851 6974 4218 133 268 3952 3527 4614 5953 9798
internal_value=4.65384e-05 -0.0349186 0.0495657 0.0731924 0.0280989 -0.011795 -0.0519578 -0.060207 -0.0205091 -0.0402691 0.0117634 0.0612032 0.0375766 -0.0483944 0.00348605 0.0911849 0.0310861 -0.0109316 0.00186334 0.0106858 0.0652067 -0.0655518 0.0264142 0.0227675 -0.0514619 0.0293899 0.0254311 -0.0287447 -0.0277758 -0.00708145 0.0463778 0.0367462 -0.0255895 -0.032067 -0.0628046 0.0446227 -0.031421 -0.0288804 -0.0212382 0.0615805 -0.00782188 0.0473923 0.0860347 -0.00881747 -0.00603013 0.0421806 0.0120798 -0.0479793 0.0625177 -0.00354305 -0.0234274 0.0661074 0.0434001 0.00534805 0.0085895 0.0125629 0.0740288 0.0470128 -0.0465314 0.0885297 0.0270467 -0.0457303
internal_weight=50912 29841.3 21070.7 10030.7 11040 12660.3 17181 10072.5 8062.55 7108.54 4053.5 6019.61 6986.5 3137.74 4597.75 4011.11 4021.09 3727.57 2133.78 2809.16 4848.83 6934.74 2915.11 1919.72 2912.03 2413.98 1728.9 4334.98 4179.2 2911.08 2965.42 1120.05 3553.98 3444.38 4973.78 1170.78 3387.22 2671.92 916.856 3436.36 1788.59 2866.84 2791.69 225.708 2819.08 1440 501.124 3664.16 3312.34 1271.07 2981.85 2049.01 1105.98 1859.62 1428.74 1056.13 1412.47 989.28 3306.75 2285.08 1660.63 3196.22
internal_count=210438 124132 86306 40936 45370 52422 71710 42115 33441 29595 16706 24612 28664 13087 18981 16324 16517 15433 8809 11585 19813 29028 11983 7897 12153 9920 7109 18008 17360 12044 12147 4602 14757 14315 20814 4799 14077 11098 3802 14049 7396 11743 11370 934 11663 5904 2063 15280 13542 5255 12377 8379 4534 7676 5891 4351 5764 4054 13787 9304 6828 13325
cat_boundaries=0 1 2 3 4 5 6 7
cat_threshold=1 1 1 1 1 1 1
is_linear=0
shrinkage=0.05


Tree=2
num_leaves=63
num_cat=8
split_feature=50 49 48 25 49 48 48 48 50 25 48 25 25 25 25 50 15 50 25 48 25 48 10 48 48 25 10 2 25 53 10 10 50 10 48 48 32 49 53 5 48 15 50 25 29 14 50 10 29 32 15 2 15 50 15 15 53 25 52 25 28 49
split_gain=31804.4 4341.27 3796.21 728.106 621.116 612.17 531.1 255.492 240.08 232.509 213.094 166.906 137.783 113.462 96.0148 86.7552 81.6852 71.7445 70.6444 66.1912 56.2186 54.0352 53.6497 51.64 43.2041 42.9689 42.1694 40.3896 41.8554 39.8529 39.1141 38.9435 37.6779 35.0904 33.7965 32.6146 32.1179 31.8542 31.6924 31.3909 30.9055 30.207 30.1679 29.9582 29.8732 29.689 28.832 28.7649 28.1735 27.6606 27.6225 27.4479 26.6432 26.3157 26.0646 25.3686 24.9721 24.8652 23.0472 22.9874 22.8712 22.7666
threshold=3.5000000000000004 16.850000000000005 0.39230769230769236 3.5000000000000004 28.750000000000004 0.11299795709908071 0.64583333333333337 0.2817460317460318 5.5000000000000009 4.5000000000000009 0.19803921568627456 5.5000000000000009 3.5000000000000004 6.5000000000000009 3.5000000000000004 2.5000000000000004 0.85418893014450203 5.5000000000000009 4.5000000000000009 0.9545454545454547 2.5000000000000004 0.51315789473684215 0 0.1941930618401207 0.16001024065540195 5.5000000000000009 1 2 6.5000000000000009 34.650000000000013 3 4 1.5000000000000002 5 0.13423423423423425 0.024968827930174565 7.5000000000000009 15.450000000000001 16.450000000000003 3.5205000000000006 0.27402402402402409 1.1472764606483909 6.5000000000000009 3.5000000000000004 35.000000000000007 2.3174615720687197 4.5000000000000009 6 35.000000000000007 7.5000000000000009 1.1785366391390579 7 1.8945885877146502 4.5000000000000009 1.0816615128302691 1.1472764606483909 34.550000000000004 5.5000000000000009 16.050000000000004 3.5000000000000004 96.500000000000014 55.750000000000007
decision_type=8 8 10 8 8 10 10 10 8 8 10 8 8 8 8 10 10 10 10 10 10 10 9 10 10 10 9 1 10 2 9 9 10 9 10 10 2 10 2 2 10 10 10 10 2 10 10 9 2 2 8 1 10 10 10 10 2 10 2 10 2 8
left_child=2 5 3 7 11 9 16 15 14 17 18 38 24 35 53 33 21 30 26 41 -9 32 -12 29 -7 40 -5 28 37 -17 -2 -14 -4 -1 -33 55 54 56 -3 61 -24 -8 43 45 -31 -40 59 -26 -35 -25 -16 -23 58 -6 -18 -10 -11 60 -13 -32 -36 -15
right_child=1 4 6 10 8 12 19 20 13 27 22 52 31 39 50 23 36 -19 -20 -21 -22 51 25 49 47 -27 -28 -29 -30 44 46 34 -34 48 57 -37 -38 -39 42 -41 -42 -43 -44 -45 -46 -47 -48 -49 -50 -51 -52 -53 -54 -55 -56 -57 -58 -59 -60 -61 -62 -63
leaf_value=0.023710891801863445 -0.023185767250017031 -0.067871201917003895 0.053459739470754108 -0.011755511941094683 0.013033363102264548 0.0075797139322315785 0.084350968538788526 0.054182181346311614 -0.051137798002780357 -0.031420333272407334 0.0073865985801104444 -0.067282360649841208 -0.021314366930717379 -0.060640442549860812 -0.030180881326135629 0.007424498916165272 0.059466131627087096 -0.023542554769571095 -0.011203808061655815 0.10023727338290329 0.037322345847917743 0.073192365032429638 0.023662769774523446 0.041283446799988875 0.0061215983929542922 0.0034192254786551048 0.01175283509530306 -0.052614122458396841 -0.03852150466188406 0.020163450730117282 0.0059595841836074309 -0.0092336836086820261 0.066749319491894873 0.038946990681842202 0.010431786415811904 -0.048755106776693688 0.03313036936178454 -0.035287591421784628 -0.024759208509628476 -0.073318069518965842 0.037227405057293772 0.018999843491186583 -0.039207741021434865 -0.031442804820783758 0.033487943749251348 -0.0021829627249479659 -0.01002740143217519 0.028989708276239631 0.053004658585400967 0.027726129921570555 -0.049032043464114439 0.044044416225263103 -0.05912193767025873 -0.021699440344599294 0.038611682845771281 -0.062163745792079485 -0.020039822575840759 -0.012093217554712175 -0.043878796705534379 -0.0074838917158686694 -0.0048474350952674907 -0.06853066446076006
leaf_weight=342.60738565027714 312.71810817718506 56.304354965686798 1060.525174960494 219.40808284282684 90.977533221244812 1218.3431438952684 2642.5148623436689 2205.2173274308443 814.73559410870075 605.58365976810455 440.32267519831657 108.81082756817341 283.55976560711861 2325.1122922450304 267.51055426895618 367.53069193661213 621.52849364280701 812.54907955229282 703.49878203868866 810.14378947019577 637.34024520218372 1749.414463326335 907.02578015625477 752.74365255236626 211.97853402793407 167.87709282338619 1211.3567214310169 154.00963094830513 620.01939229667187 1042.9405369907618 785.27208690345287 955.89407283067703 1072.9072204828262 890.64028775691986 825.65326733887196 1533.5974341630936 225.54301846027374 567.82635009288788 731.21190592646599 1102.1551885604858 781.89767643809319 17.801552832126617 709.21335978806019 1743.4343907237053 704.99524120986462 181.83724862337112 1274.8747355341911 526.88718710839748 594.19603785872459 752.18047267198563 710.29692585766315 84.676230922341347 352.60351179540157 136.14442813396454 197.41907715797424 1450.3446432501078 2362.5381113290787 229.57235544919968 3165.3348859250546 534.37272496521473 348.21524921059608 1506.6611547768116
leaf_count=1396 1299 238 4301 905 374 5021 10651 8956 3445 2536 1806 462 1174 9858 1122 1511 2522 3389 2918 3258 2596 7070 3715 3071 869 693 4986 648 2603 4270 3248 3958 4347 3627 3409 6487 919 2380 3050 4696 3195 72 2979 7296 2882 752 5286 2160 2419 3073 3000 343 1493 571 804 6150 9841 952 13325 2211 1438 6412
internal_value=3.39899e-05 -0.0334349 0.0467803 0.0295052 -0.0499418 -0.0112344 0.072689 0.0382505 -0.0579942 -0.0195662 0.0131442 -0.0385893 0.0033093 -0.060881 -0.0370723 0.0319102 0.0622782 -0.0104078 0.0017691 0.0877243 0.050402 0.0655534 0.0237128 0.0274274 0.0133648 0.027397 0.00814781 -0.0274704 -0.0265387 0.0223907 -0.00673679 -0.00413737 0.0601431 0.0407912 -0.00197423 -0.0543856 0.0498376 -0.0244375 -0.0306685 -0.0658818 0.0299426 0.0839137 -0.0300462 -0.0276003 0.0255376 -0.0202631 -0.00464691 0.0229041 0.0442744 0.0345073 -0.0438747 0.0718467 -0.0460629 -0.00778663 0.0544389 -0.0581978 -0.0223618 0.00295618 -0.0446566 0.000515826 0.00589937 -0.0637429
internal_weight=50820.4 29616.2 21204.3 12721.8 16986.3 12629.9 8482.47 8290.39 9937.54 8029.76 4431.39 7048.75 4600.1 8732.61 1204.93 5447.83 5012.01 3719.79 2134.26 3470.46 2842.56 3967.52 2297.12 3620.39 1957.21 1856.8 1430.76 4309.98 4155.97 2115.47 2907.24 2642.89 2133.43 1827.44 2359.33 3798.68 1044.49 3535.95 3422 4933.93 1688.92 2660.32 3365.7 2656.48 1747.94 913.049 2594.52 738.866 1484.84 1504.92 977.807 1834.09 3626.75 227.122 818.948 2265.08 2968.12 1403.44 3274.15 1319.64 1173.87 3831.77
internal_count=210438 124132 86306 52019 71710 52422 34287 33801 42115 33441 18218 29595 18981 37048 5067 22249 20306 15433 8809 13981 11552 16061 9409 14807 8050 7603 5891 18008 17360 8663 12044 10931 8648 7442 9757 16082 4245 14757 14315 20966 6910 10723 14077 11098 7152 3802 10745 3029 6046 6144 4122 7413 15280 945 3326 9595 12377 5799 13787 5459 4847 16270
cat_boundaries=0 2 3 4 6 8 10 11 12
cat_threshold=4160749825 1 4026667008 1 3892314240 1 4026531840 1 3892446293 1 2323686912 1
is_linear=0
shrinkage=0.05


Tree=3
num_leaves=63
num_cat=10
split_feature=50 16 16 16 16 25 16 25 25 50 25 16 25 16 15 16 16 50 15 25 16 50 50 16 11 15 16 25 10 2 25 2 1 2 1 1 32 10 15 15 15 32 16 53 10 15 5 10 10 16 14 53 53 51 32 10 16 50 2 51 45 32
split_gain=28729 4015.15 3397.61 689.902 624.705 545.238 512.093 199.821 198.436 170.927 160.831 143.473 127.475 126.699 85.0866 84.9552 79.5568 74.029 72.3006 61.684 50.207 46.8062 46.5309 44.1114 43.4914 40.204 38.0776 37.9772 33.18 32.4446 33.447 30.8939 29.6685 28.8858 28.7554 28.1731 28.0815 28.0345 27.5358 27.3848 27.3398 27.0644 26.4684 25.5685 25.232 25.1225 25.0466 24.9865 22.7463 23.8946 22.2911 21.4259 21.3877 24.5033 21.2051 21.0097 20.8482 20.7313 20.669 20.6668 20.1308 19.8701
threshold=3.5000000000000004 2.9258425522898488 1.3736354571277458 0.97438160901885995 2.4379801953848275 3.5000000000000004 3.5849059018974727 5.5000000000000009 4.5000000000000009 5.5000000000000009 4.5000000000000009 1.9530024665512917 2.5000000000000004 1.6581827230727291 1.0816615128302691 2.1341489346727696 0.76519735254682386 2.5000000000000004 1.5789255615152133 4.5000000000000009 1.1785366391390579 5.5000000000000009 4.5000000000000009 2.1341489346727696 25.000000000000004 1.3479888099339705 3.2523087303165323 3.5000000000000004 0 1 6.5000000000000009 2 29.500000000000004 3 23.500000000000004 30.500000000000004 6.5000000000000009 4 0.85418893014450203 0.89587973461402759 0.76519735254682386 7.5000000000000009 2.8003208578683441 31.750000000000004 5 0.81068324164968719 3.5205000000000006 6 7 1.6581827230727291 2.2772541355929321 34.650000000000013 32.350000000000001 12.850000000000003 7.5000000000000009 8 2.0081915103761951 1.5000000000000002 9 9.3500000000000032 39.550000000000004 7.5000000000000009
decision_type=8 8 10 10 10 8 8 8 8 8 8 10 10 10 8 10 10 10 8 10 10 10 10 10 2 10 10 10 9 1 10 1 2 1 2 2 2 9 10 10 10 2 10 2 9 10 2 9 9 10 10 2 2 2 2 9 10 10 1 2 2 2
left_child=2 4 3 16 8 13 7 21 15 14 22 19 20 31 -8 43 -1 45 -11 28 41 27 47 44 34 37 -9 50 -7 30 42 36 -17 57 -19 -14 -4 -13 -37 61 -38 -5 -12 -2 -10 54 -20 -6 -21 -50 -3 -23 -24 -54 -15 60 -36 -22 -30 -45 -26 -18
right_child=1 6 5 12 10 11 9 26 23 18 29 25 35 17 -16 32 39 24 46 48 33 51 52 -25 55 -27 -28 -29 58 -31 -32 -33 -34 -35 56 38 40 -39 -40 -41 -42 -43 -44 59 -46 -47 -48 -49 49 -51 -52 -53 53 -55 -56 -57 -58 -59 -60 -61 -62 -63
leaf_value=0.091631200318272543 -0.0060423554013985525 -0.021458113997212931 0.056408942553201384 0.067396894860931381 -0.02158707299257388 0.029664784760742122 -0.012762925278972196 -0.042738825441046562 -0.02434838470918832 -0.054597124401606537 -0.023193429221210649 -0.014946395181772001 0.023567672618169517 0.059169302728938347 -0.047743363690326439 -0.017416223631244256 0.081738313155232278 -0.010940546385776708 -0.062791435554933536 -0.017097160787384737 0.045278314398392458 -0.045342917758062984 -0.032299229340705532 -0.01610890867542324 0.016905535811922057 -0.019107507465871809 -0.051772908016995189 -0.030975164635217625 0.017572173740624114 -0.053023091234860369 -0.039218980384154417 0.013916637760167081 0.0018220310491168991 0.021704936275020861 0.025336676551835864 0.057859218641176005 0.045560327457567919 0.0053886700607653692 0.038486575094652531 0.057476144457877701 0.035277994516595065 0.057284230788620161 -0.033496155457797848 0.043212695877705751 -0.00014287051957382235 0.028681503195554015 -0.071822629202307184 -0.001073249093008152 0.019562525218668938 -0.00013528846498315567 0.00067332688305968291 -0.03399080704379101 -0.0082423447783244539 -0.02062602049936145 0.039349832119530997 0.034149113740406682 0.014866023101506641 0.0564382591736644 -0.01312475357775466 0.015128571807940897 -0.052394406296826512 0.073067658576778563
leaf_weight=1237.6497232913971 139.05343496799469 365.18599215149879 313.28122825920582 1419.8217173963785 171.68023839592934 888.14948830008507 259.29371857643127 2252.5332235097885 111.85324139893055 2750.4133828729391 2197.1562422066927 192.36345887184143 219.07748471200466 180.0838867276907 527.48976936936378 226.32477280497551 1422.4854463934898 75.006630465388298 2971.4138312637806 90.455727115273476 559.16548112034798 539.26309569180012 231.53754287958145 1628.2032874375582 41.768278330564499 271.60296520590782 2418.9345494955778 1050.520422115922 903.45756235718727 136.53128838539124 579.01608434319496 99.359848663210869 1749.7166031599045 73.446561470627785 1054.6373014003038 246.24763870239258 1329.0994687080383 1041.6491005122662 718.98527985811234 178.4408778399229 1258.713491410017 1238.9548243880272 870.33408732712269 68.261614069342613 936.52393852174282 399.90528813004494 1035.1608335375786 834.47190392017365 281.18740355968475 340.26271818578243 165.26587171852589 1813.2457051575184 628.33962249755859 1096.5722194164991 538.56228482723236 886.83476087450981 865.58487488329411 1626.9501333385706 58.379923656582832 1623.6704778373241 13.989138364791868 1233.9025984704494
leaf_count=4954 572 1531 1267 5711 714 3625 1087 9592 465 11821 9205 796 888 728 2251 940 5703 308 12827 373 2257 2288 968 6802 170 1126 10366 4430 3692 582 2454 404 7231 297 4301 995 5373 4295 2916 718 5103 4988 3681 280 3874 1624 4492 3457 1152 1406 685 7673 2622 4578 2182 3608 3539 6560 241 6664 57 4949
internal_value=2.36614e-05 -0.0320314 0.0442366 0.065117 -0.0116087 0.0251378 -0.0487619 -0.0404251 -0.000526104 -0.0582713 -0.0222609 0.0105575 0.0544814 0.0335418 -0.0362152 0.00680838 0.0810547 0.0277798 -0.0608395 0.0177564 0.0580274 -0.0321218 -0.0135366 -0.0109583 0.0236119 -0.00169185 -0.0474168 -0.0254685 0.0225693 -0.0290931 -0.0281971 0.0413316 -0.000381411 0.0525476 0.0194305 0.0397549 0.0422706 0.0021413 0.0434289 0.0764371 0.040559 0.0626845 -0.0261166 0.0145678 -0.00295901 0.0387266 -0.0651248 -0.00479875 0.00524956 0.00863837 -0.0145629 -0.036593 -0.0180303 -0.016115 0.0443163 0.0324629 0.0206168 0.0535838 0.0155473 0.0162616 -0.000408128 0.0777108
internal_weight=50677.4 29378 21299.5 10175.1 13229.2 11124.3 16148.7 8604.95 6483.61 7543.77 6745.64 4067.51 6102.65 7056.83 786.783 3807.03 4072.48 4056.37 6756.99 2561.89 4918.34 3933.48 2962.6 2676.58 2937.82 1505.62 4671.47 1580.97 1849.99 3783.04 3646.51 3000.45 1976.04 2259.56 1995.23 1184.31 2901.09 1234.01 965.233 2834.83 2587.81 2658.78 3067.49 1830.99 1048.38 1118.55 4006.57 1006.15 711.906 621.45 530.452 2352.51 1956.45 1724.91 718.646 942.592 1920.22 2186.12 961.837 1691.93 55.7574 2656.39
internal_count=210438 124132 86306 40936 55089 45370 69043 36565 26828 32478 28261 16706 24612 28664 3338 15687 16324 16517 29140 10489 19813 16607 12339 11141 11983 6217 19958 6646 7558 15922 15340 12147 8171 9114 8148 4799 11743 5091 3911 11370 10476 10699 12886 7516 4339 4534 17319 4171 2931 2558 2216 9961 8168 7200 2910 3835 7840 8817 3933 6944 227 10652
cat_boundaries=0 1 2 3 4 6 8 10 12 13 14
cat_threshold=62465024 1 1 1 3892445184 1 4026531840 1 3355590720 1 1879048448 1 3758101896 1
is_linear=0
shrinkage=0.05


Tree=4
num_leaves=63
num_cat=8
split_feature=50 16 16 25 16 16 16 16 25 16 25 25 50 25 25 16 15 50 16 16 10 25 15 50 16 16 16 50 53 2 15 44 50 15 2 14 53 1 10 29 50 16 16 53 5 14 25 25 53 10 14 2 51 25 53 50 10 10 25 14 15 53
split_gain=25982.5 3719.53 3066.38 592.944 568.267 487.776 389.582 227.01 220.742 198.151 179.391 147.471 128.023 125.785 79.9349 76.4138 75.1325 69.3439 53.0099 48.5282 44.2887 43.0957 42.4749 42.257 41.4899 39.9968 39.8698 36.1792 34.4944 31.8824 30.8808 30.4847 30.0595 29.7299 28.6434 28.2785 26.8987 26.8641 26.6194 25.1172 24.9995 24.9434 24.2151 23.9537 23.839 23.7689 23.4964 23.2957 22.9848 22.8099 22.1116 22.0345 21.2838 21.1671 20.8076 20.6688 27.3233 20.4389 20.3409 22.2659 19.5151 19.4404
threshold=3.5000000000000004 2.9258425522898488 1.2382692000587421 3.5000000000000004 2.4379801953848275 3.3928277196600067 0.89587973461402759 1.5150668501356619 5.5000000000000009 1.6193392260821904 4.5000000000000009 4.5000000000000009 4.5000000000000009 5.5000000000000009 4.5000000000000009 2.1341489346727696 0.89587973461402759 2.5000000000000004 1.0816615128302691 3.9189981260915085 0 2.5000000000000004 0.85418893014450203 4.5000000000000009 1.8164190316151558 2.1341489346727696 0.71754226264466137 5.5000000000000009 34.650000000000013 1 1.8945885877146502 2.5000000000000004 1.5000000000000002 0.81068324164968719 2 2.7113724724615449 16.450000000000003 29.500000000000004 3 35.000000000000007 6.5000000000000009 1.9670879050346399 2.8003208578683441 27.150000000000002 3.5235000000000007 1.8325494627242667 3.5000000000000004 6.5000000000000009 31.750000000000004 4 2.8535883538621087 5 22.150000000000002 2.5000000000000004 34.650000000000013 6.5000000000000009 6 7 3.5000000000000004 2.4466760667407619 1.4701097818118665 31.650000000000002
decision_type=8 8 10 8 10 8 10 10 8 10 8 8 8 8 10 10 10 10 10 8 9 10 10 10 10 10 10 8 2 1 10 2 10 10 1 10 2 2 9 2 10 10 10 2 2 10 10 10 2 9 10 1 2 10 2 10 9 9 10 10 8 2
left_child=2 4 6 7 10 13 26 21 12 22 15 23 46 36 20 48 18 29 31 44 -11 51 -5 49 38 45 -1 -14 -26 33 34 -8 -20 50 42 -16 -3 -17 -19 -30 58 -22 -13 -15 -10 -12 -7 -45 -2 -6 -9 -4 -24 -28 -29 56 -25 -50 59 -38 -21 -27
right_child=1 5 3 9 11 8 16 17 19 14 25 30 27 43 35 37 -18 24 32 60 41 -23 52 55 28 61 53 54 39 -31 -32 -33 -34 -35 -36 -37 40 -39 -40 -41 -42 -43 -44 47 -46 -47 -48 -49 57 -51 -52 -53 -54 -55 -56 -57 -58 -59 -60 -61 -62 -63
leaf_value=0.090167542724231151 -0.0057461632442542179 -0.065103101616920608 0.049135209006939018 0.03621696856436557 -0.020653357998017208 0.013153711755160223 0.055464084553098897 0.04002997793362275 -0.053301449346837573 -0.0017918063985784519 0.0018548183063068593 -0.02312247163222118 -0.033441067769235944 -0.062061576353945061 -0.002233498685425508 -0.016603463510097758 0.042460766464122224 0.040538968245587254 0.048420621589385121 -0.055435591893471761 0.021028643135635787 0.0342641863373703 0.022462784890925284 -0.024322281620772601 0.0061247945550393489 -0.032739446857340246 0.078169981158564716 -0.055865599373358388 0.018022460253843558 0.0019956285993031077 -0.04512291343013132 0.068223189096540335 0.060707657308210011 0.029076980431159961 -0.05078539383282793 -0.02256768463317263 -0.023187263990441961 0.0017303519840986738 0.024946379546807548 0.030197420005793854 -0.036832080349421703 0.0081134543060227739 -0.032455986101351773 -0.039253757485501757 -0.065247458338771505 -0.014943842403543437 -0.019858501283698052 -0.048852579767663766 0.0087255811464857086 -0.0010204288546591647 0.06192373955089725 0.022768146619716739 -0.001830419235722555 0.052894700253350205 -0.045371954761094443 -0.032855875378905469 -0.010761972887251819 0.020227710929246079 -0.02912030171989325 -0.0013755307960360622 -0.065453823536835848 -0.013633551561468652
leaf_weight=814.08151638507843 138.91372382640839 50.18517193198204 2443.6624605357647 692.64790077507496 170.94088372588158 90.939404338598251 621.14562892913818 1007.0892212688923 2929.7061395645142 542.88223625719547 755.93372476100922 2422.8127530515194 492.39144857227802 156.05203050374985 735.83393478393555 225.55357673764229 682.3884351849556 532.09496033191681 1062.2116759717464 598.13489910960197 801.97450394928455 700.55833287537098 736.82506664097309 589.06527101993561 368.96682396531105 146.33727994561195 2005.9870855659246 660.91344231367111 1048.9168141782284 64.869597762823105 241.60091118514538 1900.5657753646374 936.73723989725113 641.70510166883469 118.71181827783585 222.73331502079964 649.73302246630192 1750.2849516868591 985.42189843952656 710.60884194076061 653.66104510426521 700.29689720273018 974.40259286761284 2220.7955152392387 487.04940177500248 291.87568542361259 132.33832257986069 883.5787548571825 735.81149569153786 834.30575405061245 130.23787358403206 81.890710547566414 102.73214074969292 86.402067631483078 1656.1940753757954 190.14392897486687 1169.8545847684145 960.36846253275871 1537.9426861256361 142.70177757740021 2595.3262337893248 1476.3828508108854
leaf_count=3258 572 218 9824 2804 714 374 2488 4059 12791 2232 3126 10223 2097 680 3047 940 2747 2153 4266 2627 3269 2828 3000 2470 1511 617 8025 2878 4270 263 1029 7610 3757 2595 513 928 2740 7231 3991 2882 2795 2878 4157 9560 2153 1213 560 3813 3014 3457 525 331 419 346 7178 802 4896 3930 6531 591 11457 6185
internal_value=1.47348e-05 -0.0306992 0.0418998 0.0270806 -0.0110623 -0.0469547 0.0661162 0.0347103 -0.054022 0.0124196 -0.000502599 -0.0212596 -0.0428535 -0.0361282 0.0049557 0.00646073 0.0579254 0.0285246 0.0602598 -0.0591461 0.0105398 0.0452366 0.0270517 -0.0129012 0.0245284 -0.0104395 0.080779 -0.0457495 0.0200247 0.0364265 -0.0278314 0.0650804 0.0541785 0.037682 -0.0266432 -0.00695836 -0.0288015 -0.000362561 0.0308452 0.0229395 -0.0281909 0.0149089 -0.0257995 -0.0429467 -0.0550043 -0.00282458 -0.00641287 -0.0419858 0.0138073 -0.00457459 0.0425371 0.0482803 0.0194902 0.0771263 -0.0483651 -0.0171957 -0.0155028 0.0154087 -0.0257671 -0.0192594 -0.0635774 -0.0153565
internal_weight=50492.4 29130.9 21361.5 13251.9 13193.3 15937.6 8109.52 8716.02 9642.99 4535.93 6481.46 6711.84 3032.78 6294.65 3003.72 3810.93 5203.05 5489.91 4520.66 6610.22 2045.15 3226.11 1532.21 2954.31 3646.01 2670.53 2906.47 2809.5 2128.49 1843.9 3757.53 2521.71 1998.95 1779.03 3515.93 958.567 3034.22 1975.84 1517.52 1759.53 2984.04 1502.27 3397.22 3260.43 3416.76 1047.81 223.278 3104.37 1835.09 1005.25 1137.33 2525.55 839.557 2092.39 2317.11 1949.06 1758.92 1696.18 2330.38 792.435 3193.46 1622.72
internal_count=210438 124132 86306 53809 55089 69043 32497 35232 42115 18577 26828 28261 13087 26928 12354 15687 20868 22249 18121 29028 8379 12983 6223 12339 14807 11141 11629 12153 8663 7442 15922 10098 8023 7179 14893 3975 12875 8171 6144 7152 12657 6147 14380 14053 14944 4339 934 13373 7516 4171 4584 10155 3419 8371 10056 8168 7366 6944 9862 3331 14084 6802
cat_boundaries=0 2 3 4 5 7 8 9 11
cat_threshold=4093825152 1 1 1 51767296 3355590720 1 1 4186046592 2861221395 1
is_linear=0
shrinkage=0.05


Tree=5
num_leaves=63
num_cat=11
split_feature=50 16 16 25 16 16 16 16 25 16 50 25 25 15 25 50 2 25 15 16 11 50 32 16 10 10 50 10 53 15 32 6 48 16 10 32 53 53 16 25 10 16 50 10 16 15 25 10 50 15 10 48 15 10 16 32 15 33 28 53 16 15
split_gain=23625 3447.18 2805.3 532.245 511.578 475.294 352.963 206.753 203.643 190.975 183.854 149.104 118.043 79.8844 76.5946 63.0743 61.9871 61.259 56.4154 56.3911 55.9185 53.3311 47.7541 41.1431 40.1208 39.1157 42.9953 34.4905 34.0676 32.9499 42.3376 32.3481 32.2393 32.1491 30.8474 30.5116 29.3051 28.1811 28.1433 27.2235 26.4808 27.482 25.9282 25.1285 24.3237 24.2948 23.4906 25.1733 23.2146 22.2592 22.2308 22.1278 22.0865 21.6811 20.8958 20.7862 20.265 20.0561 19.9401 19.6735 19.2984 18.8708
threshold=3.5000000000000004 2.9258425522898488 1.2382692000587421 3.5000000000000004 2.2137389487888997 3.5070566484845265 0.93590108845079578 1.5580892133149293 4.5000000000000009 1.9530024665512917 5.5000000000000009 5.5000000000000009 3.5000000000000004 1.0816615128302691 6.5000000000000009 4.5000000000000009 0 5.5000000000000009 0.85418893014450203 0.71754226264466137 25.000000000000004 4.5000000000000009 7.5000000000000009 1.5580892133149293 1 2 2.5000000000000004 3 33.150000000000013 0.81068324164968719 7.5000000000000009 3.4765000000000001 0.064309346567411094 2.0081915103761951 4 7.5000000000000009 16.450000000000003 35.45000000000001 3.1289487232602951 5.5000000000000009 5 2.5217125584596238 5.5000000000000009 6 1.8325494627242667 0.89587973461402759 6.5000000000000009 7 2.5000000000000004 0.85418893014450203 8 0.018779359280001132 1.0816615128302691 9 4.0064232668739788 6.5000000000000009 1.011435595095721 10 105.50000000000001 40.45000000000001 1.9387157803292638 0.85418893014450203
decision_type=8 8 10 8 10 8 10 10 8 10 8 8 8 8 8 10 1 10 8 10 2 10 2 10 9 9 10 9 2 10 2 2 10 10 9 2 2 2 10 10 9 10 10 9 10 10 10 9 10 10 9 10 10 9 8 2 10 1 2 2 10 8
left_child=2 4 6 7 12 11 19 29 15 17 13 36 60 53 52 34 18 23 22 -1 25 37 59 49 -11 57 -27 -14 -23 30 -4 42 -30 -28 -6 56 -3 -10 -38 48 -17 -42 -13 -25 58 -21 47 -39 -26 -5 -37 -16 -12 -7 -54 -20 -22 -9 -29 -8 -2 -45
right_child=1 5 3 9 8 10 16 20 21 24 14 31 27 -15 51 40 -18 -19 55 45 35 28 -24 43 39 26 33 44 32 -31 -32 -33 -34 -35 -36 50 38 46 -40 -41 41 -43 -44 61 -46 -47 -48 -49 -50 -51 -52 -53 54 -55 -56 -57 -58 -59 -60 -61 -62 -63
leaf_value=0.086319506638785778 0.02204099558233755 -0.065311185565637697 0.05476112997891968 0.035453943762930429 -0.013177499677308297 0.0049588236937984052 0.059871688096187051 0.023050885627176762 -0.026903448324390872 -0.013853988237266477 -0.043844740967444951 -0.032980217531729764 -0.011456240483572628 -0.042747655931031019 -0.06430549097645176 -0.022886465353060173 0.028456623888031957 -0.0027533425951847493 0.059663503164255144 0.072404821514097203 0.044888843245420113 -0.038062674667961593 0.053433671143276053 -0.00013009606207922052 0.028553156873743536 0.033925875587970403 0.025981955935025232 0.02255881612516919 -0.033641419380109956 0.035365890141758859 0.040621845726253589 -0.053584975304874063 -0.021856491894527767 0.012977088190114934 0.0018061193612848696 0.015328796753471553 -0.022876992863672146 -0.00023570110991814609 -0.03198967470159407 -0.018403006958505479 -0.0030739759342244388 -0.015481587112250722 -0.043360214225294166 0.044845595183080539 -0.00089634115628413119 0.050481829792956789 -0.033827246587620069 -0.01756160052345641 0.0033287489233779274 0.021515864449251663 0.034622983523399646 -0.057025092631420429 -0.049039713505612405 -0.022089724757312704 -0.059104068576049884 0.043296136214154374 0.027484413629534205 0.0026200770963572093 -0.032581281123413623 0.072021074817840924 0.010859363076275212 0.017329047329136645
leaf_weight=816.99363847076893 619.93347150087357 54.246077641844749 789.74642051756382 574.16745814681053 445.77125976979733 126.23235915601254 669.2959048897028 177.70061637461185 362.12314213812351 523.64278285205364 918.20767988264561 778.10691960155964 735.99917602539062 614.76274240016937 2134.5799111872911 642.62601046264172 229.20763333141804 293.62193986773491 237.90245063602924 2560.1031485944986 639.38839691877365 565.81757578253746 1799.5244690179825 217.79093557596207 103.71743981540203 928.71788528561592 1217.0491637289524 188.16663345694542 767.91566380858421 1287.9931248873472 1606.2189370989799 600.54198491573334 2375.6160916686058 779.65647947788239 1389.6645346730947 334.38076311349869 1429.4572161734104 487.63291616737843 2080.3282162845135 127.31240582466125 702.30242273211479 1224.2384206056595 2652.3287675827742 65.436213940382004 1150.9311814308167 132.93470069766045 96.966135576367378 364.42823046445847 756.58854292333126 571.6262278854847 393.83924616873264 2042.1832862347364 1273.7574372589588 168.30641530454159 866.62532998621464 1050.692796304822 226.49689145386219 360.5886155962944 17.96075539290905 663.55634813010693 1022.0622472167015 1303.2661397904158
leaf_count=3283 2523 240 3165 2315 1856 534 2678 720 1542 2169 4040 3388 3052 2690 9626 2700 919 1211 953 10253 2576 2428 7203 894 427 3737 4926 773 3307 5178 6445 2645 10062 3174 5749 1350 6101 2058 8929 531 2922 5149 11610 266 4764 532 415 1540 3116 2318 1589 9117 5639 711 3862 4213 915 1462 74 2655 4191 5311
internal_value=2.7895e-06 -0.0294998 0.0397721 0.0255938 -0.0106146 -0.04529 0.0628442 0.0328054 -0.0168205 0.011699 -0.0536804 -0.0362924 0.00504532 -0.0324896 -0.0563435 -0.00897386 0.0538097 0.0189485 0.0551241 0.0748133 0.0262429 -0.0237045 0.0587468 0.0212806 -0.00281623 0.0226763 0.0249526 -0.00282761 -0.0267683 0.0418153 0.0452824 -0.0428798 -0.0247354 0.0209039 -0.0018949 0.0339925 -0.0288419 -0.0150367 -0.0282783 0.00314451 -0.0140311 -0.0109019 -0.0410058 0.0160664 0.00192238 0.0713227 -0.0105086 -0.0078549 0.00636977 0.0285004 0.0264495 -0.0607458 -0.0503318 -0.011079 -0.0531147 0.0463179 0.0403362 0.00966212 0.0177542 0.0659202 0.015081 0.0185094
internal_weight=50339 28899.8 21439.2 13278.9 13160.2 15739.7 8160.21 8741.78 9425.1 4537.17 8144.66 7595.01 3735.05 909.302 7235.35 4404.6 4650.18 3025.91 4420.97 3510.03 5057.82 5020.5 3132.38 2732.29 1511.26 3463.71 2925.42 2093.06 3709.35 3683.96 2395.97 4030.98 3143.53 1996.71 1835.44 1594.11 3564.03 1311.15 3509.79 987.618 2569.17 1926.54 3430.44 1586.49 1357.06 2693.04 949.027 852.061 860.306 1145.79 728.22 4176.76 3058.59 294.539 2140.38 1288.6 865.885 538.289 206.127 1332.85 1642 1368.7
internal_count=210721 124237 86484 53795 55105 69132 32689 35237 39728 18558 36219 32913 15377 3935 32284 18376 18621 12315 17702 14068 20449 21352 12536 11104 6243 14019 11837 8663 15797 14788 9610 17643 13369 8100 7605 6430 15270 5555 15030 4074 10771 8071 14998 6471 5611 10785 4013 3598 3543 4633 2939 18743 13541 1245 9501 5166 3491 2182 847 5333 6714 5577
cat_boundaries=0 1 3 5 7 9 11 13 14 15 16 17
cat_threshold=1 4169285632 1 2818703426 1 4031414272 1 3892971648 1 3783393920 1 3825225856 1 100277828 3938584008 1399866752 2569
is_linear=0
shrinkage=0.05


Tree=6
num_leaves=63
num_cat=8
split_feature=50 16 16 16 16 16 15 16 50 50 15 16 15 32 32 15 15 15 15 32 15 15 32 16 32 50 15 53 2 44 15 32 10 15 32 16 15 10 15 15 16 50 16 48 50 44 50 28 50 10 6 15 15 10 53 15 10 10 15 52 10 51
split_gain=21407.9 3200.58 2554.96 464.953 452.677 447.052 339.032 226.82 175.013 145.584 133.746 95.3686 93.9324 92.7674 79.9522 78.6193 75.0105 73.998 66.9123 66.1829 63.0393 62.6094 59.966 57.3944 55.1215 48.3154 48.2548 39.8046 37.9821 34.3655 32.6298 32.3779 31.3092 31.0928 30.2342 29.6371 29.2189 28.2846 28.1278 27.5724 26.9332 26.8023 25.8685 25.6216 25.3848 25.2401 25.2092 24.9901 24.9425 23.5596 23.5245 23.037 21.8624 21.6155 21.6145 21.2978 22.4489 21.0444 20.5885 20.0773 19.5006 19.437
threshold=3.5000000000000004 2.9258425522898488 1.3216669431912595 2.235362044717585 3.5070566484845265 1.011435595095721 0.81068324164968719 1.8640500836336089 5.5000000000000009 4.5000000000000009 1.2088489500472754 0.81068324164968719 1.4230357494997927 7.5000000000000009 7.5000000000000009 0.89587973461402759 1.5789255615152133 1.0816615128302691 0.81068324164968719 7.5000000000000009 1.2382692000587421 1.2088489500472754 7.5000000000000009 1.638949582658831 7.5000000000000009 5.5000000000000009 1.2088489500472754 35.45000000000001 0 3.5000000000000004 1.0816615128302691 7.5000000000000009 1 1.011435595095721 7.5000000000000009 1.9387157803292638 0.89587973461402759 2 1.0471650770867933 1.1150072000796054 2.7245741281253104 2.5000000000000004 4.2158241874322906 0.078432578740157494 6.5000000000000009 1.0000000180025095e-35 5.5000000000000009 101.50000000000001 2.5000000000000004 3 3.5225000000000004 1.9387157803292638 1.0471650770867933 4 37.45000000000001 1.6955735229043272 5 6 1.5789255615152133 21.250000000000004 7 16.850000000000005
decision_type=8 8 10 10 8 10 8 10 8 10 8 10 8 2 2 8 8 8 8 2 8 10 2 10 2 10 8 2 1 2 10 2 9 8 2 10 8 9 8 10 10 10 8 10 8 2 10 2 10 9 2 10 8 9 2 10 9 9 10 2 9 2
left_child=2 3 5 15 10 11 13 14 17 27 46 -1 28 45 21 35 44 53 24 20 54 47 26 -15 -7 59 -17 58 43 -13 -16 38 -25 -21 39 -2 49 -28 -29 -20 -14 -34 -18 -11 -10 -4 -3 52 -47 -33 51 -27 -8 -6 -9 56 -22 -40 -5 -12 -24 -45
right_child=1 4 6 9 8 18 7 19 16 12 25 29 40 23 30 22 42 -19 34 33 55 -23 60 32 -26 50 37 31 -30 -31 -32 36 41 -35 -36 -37 -38 -39 57 -41 -42 -43 -44 61 -46 48 -48 -49 -50 -51 -52 -53 -54 -55 -56 -57 -58 -59 -60 -61 -62 -63
leaf_value=0.077465877951647943 0.023479230654312223 -0.019806518320826288 0.022946166825983039 -0.01443593611524944 0.0038402705027237327 0.059679576814574288 0.039397025017957138 0.011069260549125319 -0.040947053575329462 -0.019291056758974339 -0.044250503535203226 0.054758547835850095 -0.024403135740931961 0.035912876220110738 0.017017020639389022 0.017473263134842851 -0.056128822891662745 -0.041149955792590565 0.046161799731271332 0.0028024057017003966 -0.0044151149812695226 0.012279440194482974 -0.016047832214904557 0.0076024098290008004 0.045741352071131419 -0.041037412212838291 -0.013422845563369163 0.017045006718980793 -0.045726633404439124 0.066456728657017183 -0.0037264221374385892 0.014962324298837759 0.035512943728342454 -0.013290871246694516 0.028406095044772872 0.0082378134761298735 -0.016379629483684915 0.0045136813062146711 0.0044648252140509943 0.026899275273205549 -0.035710756644609133 0.021261031555370943 -0.06451704201734558 -0.0085775734830356287 -0.051337135103275193 0.053548359557091918 -0.029721228009371777 0.02013684523006113 0.038868471471043976 -0.0077603997589785938 -0.066298074517230868 -0.055104590266300803 0.028623138415969224 -0.022918772032817392 0.027166488513347992 -0.020633610070088348 0.012771168486330678 -0.011879380969150317 -0.041896813545439553 -0.029032939556066895 -0.0023216876195349513 -0.021228855832079164
leaf_weight=1760.9787414073944 503.57467012107372 1000.942220389843 122.95934353768826 682.35028298199177 142.59735395014286 1157.8564487248659 956.95468562841415 341.81341360509396 808.13170580565929 2003.6819031834602 270.14341172575951 925.78741930425167 1266.9142386466265 1505.4498715251684 1420.6191007196903 535.97955051064491 2756.0150004923344 606.90250815451145 1100.5350325852633 753.73729321360588 361.42790243029594 506.55427226424217 588.63481561839581 318.62828229367733 1831.0912211090326 2934.9064758718014 309.6579022705555 251.32289585471153 105.79785819351673 1950.5167964547873 218.77568352222443 158.09200622141361 487.68988133966923 498.71376286447048 493.1148276925087 869.96780444681644 678.29558816552162 694.29982255399227 483.17604817450047 223.50370126962662 901.19837948679924 1019.5146397054195 1379.0127719044685 1490.1915685534477 2156.7695686966181 626.28955247998238 1783.4511270076036 386.38821004331112 537.8568639755249 345.05680321156979 106.63489036262035 323.07816883921623 926.97213685512543 151.22577722370625 534.83234536647797 94.518750891089439 384.79849454760551 318.8009480535984 75.841803312301636 1096.5881186723709 479.50163884460926 381.27780884504318
leaf_count=7107 2046 4287 495 2872 603 4634 3844 1390 3627 8530 1186 3713 5404 6036 5751 2192 12575 2690 4406 3083 1489 2058 2444 1290 7327 12972 1287 1040 457 7826 899 654 1957 2067 1979 3567 2861 2872 2024 898 3899 4127 6358 6271 9724 2507 7765 1557 2165 1430 482 1442 3742 642 2164 394 1579 1340 324 4779 1985 1606
internal_value=-3.55926e-06 -0.0282911 0.0377697 -0.0101165 -0.0436631 0.0572268 0.0224637 0.0158193 -0.0519405 -0.0163274 -0.0348517 0.068302 -0.0207294 0.03309 0.0230046 0.00414417 -0.0545744 -0.0311783 0.0465407 0.0051346 0.0115087 0.0281738 -0.000954606 0.0286852 0.0511407 -0.0399685 0.00535968 -0.00728337 -0.0161688 0.0626915 0.0142488 -0.00392473 0.0227259 -0.00360578 0.0389743 0.0138257 -0.00960736 -0.00110735 0.00244925 0.0429102 -0.0291033 0.025702 -0.0589263 -0.0153618 -0.0485052 0.0444904 -0.0261571 0.0317201 0.046766 -0.000477663 -0.0431888 -0.0424324 0.0340958 -0.0105815 0.02089 0.00172689 0.00455913 -0.00212476 -0.0171828 -0.0320408 -0.0100579 -0.011155
internal_weight=50087.9 28640 21447.9 13123.6 15516.4 9443.38 12004.5 7386.11 8000.65 9142 7515.74 4637.28 6149.06 4618.39 4416.26 3981.62 7099.93 900.726 4806.1 2969.84 1717.39 2776.87 2608.07 3331.28 2988.95 4731.35 1539.94 2992.94 3980.95 2876.3 1639.39 2234.74 1825.83 1252.45 1817.15 1373.54 1181.44 1003.96 1053.3 1324.04 2168.11 1507.2 4135.03 3875.15 2964.9 1287.11 2784.39 2270.32 1164.15 503.149 3364.62 3257.98 1883.93 293.823 876.646 840.745 746.226 801.977 758.192 1366.73 1068.14 1871.47
internal_count=210721 124237 86484 55105 69132 37890 48594 30017 36219 38712 32913 18646 26167 18577 17851 16393 32284 3935 19244 12166 7016 11201 10780 13410 11961 20861 6351 12545 16864 11539 6650 9349 7374 5150 7283 5613 4945 4159 4404 5304 9303 6084 18933 16407 13351 5167 12052 9143 4672 2084 14896 14414 7586 1245 3554 3462 3068 3364 3196 5965 4429 7877
cat_boundaries=0 1 3 4 5 6 8 9 11
cat_threshold=1 3892451333 1 4031283208 1146176264 326387072 4106441348 1 335217732 4216979456 1
is_linear=0
shrinkage=0.05


Tree=7
num_leaves=63
num_cat=11
split_feature=50 16 16 25 16 25 16 16 16 25 16 50 25 25 16 16 25 15 53 16 53 11 25 50 5 14 16 10 50 5 15 10 10 25 14 5 15 25 2 10 1 10 2 50 10 11 51 10 15 50 10 15 53 10 16 53 16 15 25 14 47 53
split_gain=19411.6 2974.77 2340.31 465.053 438.077 427.696 271.58 209.669 197.481 158.114 125.434 124.848 118.643 102.947 88.1227 70.4279 52.2253 52.1429 43.2395 39.4013 39.2832 38.8092 38.2205 36.5595 36.1471 34.9146 34.3962 34.2981 32.4034 31.1642 29.8773 29.6959 28.7312 28.5171 28.2888 26.0588 25.3733 25.3155 24.4676 24.3316 24.3 24.199 23.256 22.9082 22.7998 22.7597 24.0503 22.3724 21.6257 21.4345 21.1901 20.2192 20.162 20.0678 18.8214 18.6147 17.8163 17.7125 17.5586 17.2028 17.0969 16.6224
threshold=3.5000000000000004 2.9365093959507509 1.2088489500472754 2.5000000000000004 2.4379801953848275 5.5000000000000009 0.89587973461402759 3.5849059018974727 1.6955735229043272 4.5000000000000009 1.5580892133149293 5.5000000000000009 5.5000000000000009 4.5000000000000009 3.5189793199236452 2.1341489346727696 3.5000000000000004 0.89587973461402759 34.95000000000001 0.71754226264466137 35.150000000000013 25.000000000000004 3.5000000000000004 2.5000000000000004 3.5425000000000004 1.8325494627242667 1.9095150692894911 0 5.5000000000000009 3.5205000000000006 1.9387157803292638 1 2 2.5000000000000004 2.2027494954295124 3.5315000000000007 1.3736354571277458 5.5000000000000009 3 4 30.500000000000004 5 6 5.5000000000000009 7 25.000000000000004 14.15 8 2.0979991079743008 2.5000000000000004 9 1.4468497739944199 33.850000000000001 10 3.180132835422278 30.950000000000003 4.0386552682304071 1.8640500836336089 3.5000000000000004 2.8243462541691211 1.0000000180025095e-35 34.650000000000013
decision_type=8 8 10 8 10 8 10 8 10 8 10 8 8 10 8 10 10 10 2 10 2 2 10 10 2 10 10 9 10 2 10 9 9 10 10 2 8 10 1 9 2 9 1 10 9 2 2 9 10 10 9 10 2 9 10 2 8 10 10 10 2 2
left_child=2 4 6 10 9 11 19 24 22 15 38 16 18 20 -13 -2 34 21 42 -1 32 40 50 55 30 26 -11 -28 31 56 43 -20 -10 -21 -3 51 45 47 52 -25 -8 -24 58 -7 -17 -22 -47 -15 -18 -38 -5 -14 -4 59 -45 -12 -9 60 -6 -39 -43 -16
right_child=1 5 3 8 12 7 17 29 13 25 23 14 35 37 61 44 48 -19 28 33 36 -23 41 39 -26 -27 27 -29 -30 -31 -32 -33 -34 -35 -36 -37 49 53 -40 -41 -42 57 -44 54 -46 46 -48 -49 -50 -51 -52 -53 -54 -55 -56 -57 -58 -59 -60 -61 -62 -63
leaf_value=0.079591682823863988 0.01303899074170075 -0.018303516200360938 0.029116583133043494 0.034167001330314993 -0.012284094191698338 -0.031018949070170582 0.038869772424763721 -0.050739755323860714 -0.011758973573148916 0.011081330312541627 0.0025831075570647809 -0.029748271398846678 -0.023387028752445711 0.010900062461442431 -0.052358091253535535 0.0043890799593768867 -0.025682854464469218 0.036930648147347193 -0.014434179577816331 0.067777784016989195 0.013824116798711567 0.058629286256812588 0.0033983003608209386 0.027557206282048271 -0.059963742490837774 -0.018364201016258141 -0.021543250635282753 -0.0044054571962910535 -0.018506794521293342 -0.063648446874649808 -0.053340632539698257 -0.0027505033444527854 0.00889849798377133 0.038624563281532145 0.0029012968603558502 -0.048519582568466092 0.025801092142301515 -0.02251574307801783 0.016743633011303518 0.015817001599781284 0.051232790918380226 0.024127368431317374 -0.048974678107438725 -0.034835217456860676 -0.006362865095757772 0.03726014404365411 0.017153891935996833 -0.0096951335817319784 -0.055117853502754326 0.0025203565913201214 0.022636311470996651 -0.034081693962382635 0.042608216420173858 -0.004185244297007641 -0.043318073218985655 0.034783353325932589 -0.057503986010923193 -0.037421401792844415 -0.027195089072193424 -0.059491574527560612 0.00094215743496172245 -0.041825947702399557
leaf_weight=802.64070263504982 1843.2247135192156 396.5915912091732 307.57877793908119 966.71888835728168 352.47350832819939 802.07989808917046 495.36704434454441 2078.0636143684387 257.07962493598461 253.65376591682434 46.739718496799469 2035.5831714868546 1959.3514359295368 222.38885852694511 530.97654327750206 1060.9429693669081 1251.0295245051384 597.44174960255623 908.41350629925728 1993.4387800246477 1236.8645205050707 1669.5263759940863 272.56062026321888 1122.6089712232351 236.15984737873077 831.40385121107101 384.86095993220806 1190.034222394228 940.32573975622654 1039.6536367237568 373.57644538581371 1373.3892349153757 445.76885905861855 87.567613735795021 260.65987120568752 132.82780809700489 119.35599212348461 135.19459201395512 105.21362212300301 930.22198988497257 2011.066461712122 828.4424873739481 79.587746798992157 972.01107510924339 903.92311745882034 257.03068912029266 352.98104459047318 294.99192073941231 65.675451427698135 576.01114055514336 1092.7665672600269 570.66321773827076 2777.509783193469 159.34227387607098 1997.9868739694357 1129.587689563632 1831.3617390245199 12.757649526000021 448.84191173315048 40.994309142231941 87.954313352704048 1272.284684702754
leaf_count=3283 7513 1698 1231 3879 1485 3564 1986 9596 1052 1045 188 8926 8458 923 2433 4384 5438 2392 3834 8066 5019 6702 1107 4523 1090 3510 1624 4997 4022 4912 1703 5778 1815 352 1096 586 486 564 422 3753 8067 3350 347 4339 3752 1039 1428 1226 288 2354 4388 2492 11115 666 9042 4527 8592 52 1920 173 356 5773
internal_value=-9.08958e-06 -0.0271365 0.0359035 0.0235876 -0.00981921 -0.04227 0.0580656 -0.0489021 0.0150083 -0.000515064 0.0334228 -0.0316239 -0.0187138 0.00770167 -0.0368784 0.00601852 -0.0214051 0.0507467 -0.0133798 0.0701808 0.0117645 0.0527233 0.0241898 0.0264758 -0.0409366 -0.0098688 -0.00600611 -0.00875823 -0.010696 -0.0559545 -0.0398527 -0.00747723 0.00130195 0.066551 -0.00989388 -0.0269326 0.0146571 -0.00775631 0.0404545 0.0224485 0.0487894 0.0171037 -0.0231965 -0.0385169 -0.000567324 0.0177221 0.0256257 -0.000819289 -0.027151 0.00651637 0.0283246 -0.0257993 0.0412631 -0.018453 -0.0405418 0.0335039 -0.0539084 0.020863 -0.0206362 -0.0294476 0.0219021 -0.0449272
internal_weight=49813.3 28377.6 21435.7 13778.7 13233.9 15143.7 7657.05 9330.89 7359.2 6468.04 6419.46 5812.8 6765.87 4098 3838.84 3808.09 1973.96 4773.4 4103.03 2883.65 3245.09 4175.96 3261.2 3229.16 4381.81 2659.95 1828.55 1574.9 3222.13 4949.08 4145.65 2281.8 702.848 2081.01 657.251 2662.84 2542.24 852.912 3190.3 2052.83 2506.43 1201.72 880.903 3772.08 1964.87 1846.88 610.012 517.381 1316.7 695.367 2059.49 2530.01 3085.09 335.531 2970 1176.33 3909.43 929.154 801.315 176.189 916.397 1803.26
internal_count=210721 124237 86484 55636 55747 68490 30848 42838 29877 26825 25759 25652 28922 16745 17132 15649 8520 19147 17386 11701 13193 16755 13132 12991 19738 11176 7666 6621 13634 23100 18648 9612 2867 8418 2794 11536 10326 3552 12768 8276 10053 4865 3752 16945 8136 7486 2467 2149 5726 2840 8267 10950 12346 1403 13381 4715 18188 3758 3405 737 3706 8206
cat_boundaries=0 2 3 5 6 7 9 10 11 12 13 15
cat_threshold=4161830920 1 3096117633 3561127936 1 1 97906176 4093643144 1 1 49890655 276432136 129050824 3095150592 1
is_linear=0
shrinkage=0.05


Tree=8
num_leaves=63
num_cat=8
split_feature=50 16 16 16 25 25 16 16 16 16 25 25 50 16 2 16 32 50 25 16 15 10 25 50 32 10 53 6 50 10 16 15 10 5 15 50 53 35 18 28 10 50 11 16 32 15 15 15 14 14 16 32 6 16 14 42 32 50 15 50 18 26
split_gain=17613.4 2772.82 2146.74 502.784 391.604 345.533 295.18 158.028 153.738 147.332 144.917 136.645 105.52 64.7016 53.8373 50.2948 49.2936 48.5683 47.2062 46.4089 45.4841 42.9068 42.1411 40.9294 40.6799 35.0326 34.8177 33.5335 33.2445 31.9871 34.7873 28.6758 28.453 27.6169 26.8143 25.5944 25.1949 23.7971 23.6766 23.4358 23.1951 23.1275 22.5192 22.9172 22.4631 22.0781 21.592 21.5617 22.8246 20.6266 20.6223 19.186 21.2171 18.932 18.5974 18.5473 18.3025 18.1729 17.8023 17.6445 17.7169 18.9302
threshold=3.5000000000000004 3.037351072839019 1.2382692000587421 2.4379801953848275 3.5000000000000004 5.5000000000000009 0.93590108845079578 3.6493578504437103 1.5580892133149293 1.9530024665512917 3.5000000000000004 5.5000000000000009 5.5000000000000009 3.5737481633217896 0 0.71754226264466137 6.5000000000000009 4.5000000000000009 5.5000000000000009 2.1222436103259104 0.85418893014450203 1 3.5000000000000004 4.5000000000000009 7.5000000000000009 2 32.850000000000001 3.4765000000000001 2.5000000000000004 3 1.4928409688502451 1.4701097818118665 4 3.5335000000000005 0.76519735254682386 5.5000000000000009 33.550000000000004 5 3.5000000000000004 96.500000000000014 6 2.5000000000000004 25.000000000000004 2.0081915103761951 7.5000000000000009 1.5368094061055313 0.89587973461402759 0.71754226264466137 2.5297127291328443 2.1916379270371573 1.9670879050346399 7.5000000000000009 3.4555000000000002 1.8945885877146502 1.6193392260821904 5.5000000000000009 6.5000000000000009 4.5000000000000009 2.0856528016791152 6.5000000000000009 2.5000000000000004 7
decision_type=8 8 10 10 8 8 10 8 10 10 8 8 8 8 1 10 2 10 10 10 8 9 10 10 2 9 2 2 10 9 10 8 9 2 10 10 2 1 2 2 9 10 2 10 2 10 10 10 10 10 10 2 2 10 8 2 2 10 10 10 2 1
left_child=2 3 6 10 8 12 15 27 34 18 23 17 22 -14 20 -1 -10 32 29 38 24 -18 49 40 -8 -11 -19 35 47 30 -6 -9 -5 45 44 -7 -21 -31 39 53 -2 -27 43 -30 -4 57 -17 48 -23 -3 -42 52 -41 -12 -43 -45 -22 -13 -24 60 61 -28
right_child=1 5 4 11 9 7 14 31 16 25 19 33 13 -15 -16 46 21 26 -20 36 56 28 58 -25 -26 41 59 -29 42 37 -32 -33 -34 -35 -36 -37 -38 -39 -40 51 50 54 -44 55 -46 -47 -48 -49 -50 -51 -52 -53 -54 -55 -56 -57 -58 -59 -60 -61 -62 -63
leaf_value=0.076655233168733905 0.0055691118718205731 -0.018471106060319174 0.047718268725716509 -0.017172174196068962 0.033373689790027847 -0.030144262174293612 0.057415368233133646 -0.04699120080194305 0.036324699765252232 -0.013167131851854972 0.016619329535328919 -0.014928050185584525 -0.030374935242801732 -0.044100427827613316 0.022660812772833897 0.063329019308740006 0.0053425806140330575 -0.030213371989489531 -0.0027864802533972993 -0.022990196867768958 0.052135313890782645 0.032625826684849743 -0.025350549332004552 -0.001366080111761807 0.045859492547367819 0.023490739048761009 -0.0078400407216002877 -0.051842524849490812 0.020465111470389041 0.017300268992940713 0.017873222608395297 -0.056982713961028719 -0.0014017256764427375 -0.047705584251763709 0.031219948802617484 -0.041394347230922196 -0.0087604569854834273 0.0021277072015458164 -0.023789631996829558 0.012691110216367664 0.026734020158312249 0.015804173567013663 0.025696312465888854 0.0065556148355576001 0.036173967247410649 -0.034692400577298894 0.042598249619733582 0.023769364872406339 0.062928363907838208 0.0016158102004865502 0.012378065060378128 -0.01706047156619343 -0.025028485268238372 0.0015182548265862672 -0.0034297121147112732 0.033676771945640442 0.036766086595302366 -0.02598673756899644 -0.054276075120006644 -0.025540521076108227 -0.024771527941966152 -0.017154292900356066
leaf_weight=791.98488558828831 754.21100839972496 284.80091224610806 611.11478482186794 394.02377142012119 532.86200739443302 615.79311381280422 1323.3753573298454 900.32026675343513 562.56963790953159 521.97893781960011 304.71061907708645 452.69058510661125 1835.7719574272633 1613.0736401975155 229.53297485411167 2515.9914005547762 441.35092732310295 437.64918041229248 293.48571050167084 368.19617509841919 237.460090264678 427.07254914939404 994.88627573847771 731.27824573218822 1793.9739170074463 118.42323039472103 1263.6917763799429 640.28315863013268 1158.3936343044043 661.23708666861057 1128.6500049978495 3548.3684511780739 1003.2259156554937 154.49762646853924 1725.7674777209759 2824.2234600782394 2004.9826750457287 424.2359497398138 95.729532778263092 156.56475266814232 381.91104219853878 152.36085027456284 902.69290508329868 659.25095483660698 1357.2186340987682 597.42480978369713 132.20332069694996 791.24752160906792 72.723700895905495 231.84119100868702 725.12163569033146 242.27835717797279 48.933532282710075 650.90122428536415 717.62481541931629 69.703228384256363 1051.3131237030029 2071.2953605502844 56.197650372982025 357.31355734169483 317.75688987970352 1052.9941755384207
leaf_count=3283 3085 1225 2448 1671 2139 2774 5333 4246 2262 2169 1250 1957 8159 7467 919 10253 1780 1900 1211 1569 953 1709 4360 3018 7203 486 5407 2987 4661 2677 4566 17003 4205 698 6909 12972 8440 1722 396 648 1543 627 3624 2669 5431 2655 532 3171 291 975 2972 1005 203 2696 2961 282 4213 9082 251 1554 1359 4505
internal_value=-1.30268e-05 -0.0260337 0.0341608 -0.0108916 0.0218362 -0.0423181 0.0545038 -0.0484426 0.0280064 0.00993319 -0.000492363 -0.0191889 -0.0319054 -0.0367945 0.046269 0.0656003 0.0223669 -0.0138396 0.016274 -0.00661769 0.0474988 0.0206306 -0.0211498 0.00865667 0.0507652 -0.00283113 -0.0170411 -0.041336 0.0222164 0.0183104 0.0227077 -0.0549606 -0.00598192 -0.0270705 0.0357694 -0.0393805 -0.0109682 0.0112666 0.000269368 0.00191051 0.0125946 0.00273289 0.019201 0.0160945 0.0397582 -0.0260492 0.0622941 0.0289049 0.037035 -0.00945718 0.0171755 -0.00752861 0.00370927 0.00633345 -6.1276e-05 0.00914896 0.0395979 -0.0240033 -0.0268971 -0.0151142 -0.0137001 -0.0121815
internal_weight=49518.7 28112.9 21405.8 14567.4 13330 13545.6 8075.84 8528.99 8779.11 4550.86 6464.82 8102.56 5016.57 3448.85 4635.66 3440.18 5085.01 4826.66 3040.47 3872.3 4406.12 4522.44 1567.73 2592.52 3117.35 1510.39 3429.41 4080.3 4081.08 2746.99 1661.51 4448.69 1397.25 3275.91 3694.1 3440.02 2373.18 1085.47 1499.12 1403.39 1861.24 988.409 2790.04 1887.35 1968.33 3121.41 2648.19 1291.04 499.796 516.642 1107.03 447.777 205.498 955.612 869.986 728.954 1288.77 2523.99 1051.08 2991.76 2634.44 2316.69
internal_count=210721 124237 86484 61818 53795 62419 32689 39982 35237 18558 26825 34993 22437 15626 18621 14068 20449 20601 12315 16207 17702 18187 6811 10618 12536 6243 14725 18733 16407 11104 6705 21249 5876 14392 14788 15746 10009 4399 6198 5802 7600 4074 11236 7612 7879 13694 10785 5171 2000 2200 4515 1856 851 3946 3588 2951 5166 11039 4611 12825 11271 9912
cat_boundaries=0 1 3 5 6 8 9 11 12
cat_threshold=1 2684485632 1 4169285632 1 66301128 4161404993 1 1 3934824592 1 28
is_linear=0
shrinkage=0.05


Tree=9
num_leaves=63
num_cat=11
split_feature=50 16 16 50 16 25 25 16 48 25 25 50 25 25 15 16 16 48 32 16 10 16 16 16 16 53 50 5 50 2 53 53 25 10 32 25 50 10 52 16 44 10 10 2 25 53 32 10 16 15 14 53 50 15 10 51 10 10 14 14 15 15
split_gain=15988.6 2584.46 1983.21 427.065 417.412 360.64 225.593 213.065 165.845 131.608 109.307 101.24 88.6781 67.2932 62.9586 53.0979 52.8703 48.4741 44.3019 43.5149 38.6181 36.8909 36.4358 34.7395 32.8985 31.6378 30.8998 30.2358 30.0914 29.3436 28.9202 28.4021 27.5201 27.2294 27.2065 26.0949 25.8479 25.6973 24.5997 24.1314 23.8728 23.0926 22.3592 22.3439 22.1679 21.2053 20.6116 20.4586 19.798 19.5152 20.6427 19.4865 19.3646 18.7325 18.7118 22.6494 18.52 18.2015 17.6307 17.5017 17.3848 17.3842
threshold=3.5000000000000004 2.998226044309511 1.1785366391390579 4.5000000000000009 1.5580892133149293 5.5000000000000009 3.5000000000000004 0.89587973461402759 0.028368851403553958 3.5000000000000004 4.5000000000000009 6.5000000000000009 2.5000000000000004 5.5000000000000009 1.0816615128302691 2.1341489346727696 2.0346842880759621 0.073801742919389998 6.5000000000000009 2.5217125584596238 0 0.71754226264466137 2.2137389487888997 3.5737481633217896 1.011435595095721 35.45000000000001 1.5000000000000002 3.5205000000000006 2.5000000000000004 1 35.650000000000013 33.150000000000013 6.5000000000000009 2 6.5000000000000009 2.5000000000000004 4.5000000000000009 3 16.750000000000004 3.1925297413228297 3.5000000000000004 4 5 6 4.5000000000000009 27.150000000000002 6.5000000000000009 7 1.8000241202036604 0.71754226264466137 2.5297127291328443 38.250000000000007 6.5000000000000009 1.9095150692894911 8 22.450000000000003 9 10 2.841993923664011 2.2975599250672958 0.89587973461402759 1.4701097818118665
decision_type=8 8 10 10 10 8 8 10 10 8 8 8 8 10 10 10 10 10 2 10 9 10 10 8 10 2 10 2 10 1 2 2 10 9 2 10 10 9 2 10 2 9 9 1 10 2 2 9 10 10 10 2 10 10 9 2 9 9 10 8 10 8
left_child=2 3 7 9 12 11 18 21 27 22 19 14 29 16 36 44 33 38 -6 47 -20 -1 -2 -13 40 -17 43 61 49 46 -10 -19 42 -8 -14 -23 -3 -24 -12 -16 -9 -18 -27 -26 57 -21 -4 -5 -30 50 -22 -50 -47 -32 -36 -56 -38 -11 -15 -40 -28 -7
right_child=1 5 4 10 6 8 13 24 30 15 17 23 34 58 39 25 41 31 20 45 28 35 37 -25 26 32 60 -29 48 -31 53 -33 -34 -35 54 -37 56 -39 59 -41 -42 -43 -44 -45 -46 52 -48 -49 51 -51 -52 -53 -54 -55 55 -57 -58 -59 -60 -61 -62 -63
leaf_value=0.074008937022067595 0.014513556851770901 -0.0044075568506627442 0.049380978820141225 0.0033381181680574492 0.034446707099786804 -0.044756676718467885 -0.00017135929157127339 0.044263650070035993 -0.04519954025402332 0.00092062156336929495 -0.056785614260537243 -0.032110418198436005 0.038447922061997791 -0.0094732240885176157 -0.021803301642045494 -0.020050773053610374 -0.009473650886809586 -0.030751100197716832 0.0050791399519882641 -0.044927058263069058 0.030990576506035202 0.062415651501921181 -0.0066336666518607562 -0.04586499029504354 0.041253909727707302 0.00019806260272985985 0.055279063441025671 -0.060717922880078871 0.023771592137235301 0.012612205207339917 -0.034601052609671577 -0.01513626117746455 -0.031495647856371288 0.015240531298574786 0.031128094218471403 0.034409777981229454 -0.027042790798274798 0.0084751418844817104 -0.021751476121372678 -0.034860973590988546 0.056710930036198773 0.0051065713878197623 -0.011292008720351906 0.014311326909296061 -0.0061763184880032906 -0.012625410832407487 0.036582488413891043 -0.0089574426641752091 0.0082397972879596701 0.02256378228152987 0.059814860611800594 0.019072516109248188 -0.028225603113209048 -0.048606144634332167 0.021506564174620917 0.0028299016192322637 -0.014220972205172839 0.016420807166192087 -0.035591439501007148 -0.030750640665675268 0.032184478153478073 -0.052777000380950248
leaf_weight=779.60021764039993 1338.1222494244576 298.96611894667149 350.96113148331642 579.12803521752357 563.55076791346073 887.97456392645836 364.86262522637844 586.11455062031746 1265.2146164178848 456.44816939532757 70.692043423652649 867.08998435735703 303.93813307583332 319.96537667512894 486.22024315595627 620.3103408664465 498.84326855838299 341.9969799220562 441.54400549829006 59.29844531416893 427.12475921213627 1957.7362181395292 465.04123172163963 975.5345357209444 1775.5305112302303 877.89220628142357 627.70631383359432 983.71985134482384 1019.1823143512011 118.65258586406708 2377.8827730864286 1961.2493835687637 107.44668319821358 1470.1336765885353 518.70162987709045 86.866500869393349 631.33892302215099 683.42644393444061 959.33724248409271 1299.4559202343225 1123.7754546105862 573.65249837934971 815.45045700669289 80.438197314739227 471.85880978405476 1613.1355096250772 3034.8818915486336 795.21050399541855 662.5393972247839 791.83131398260593 72.684094682335854 1111.7803754210472 226.90547735989094 265.41087485849857 1338.0174376815557 184.74296848475933 682.46258388459682 322.23489360511303 80.962877422571182 1236.8246782273054 93.643904611468315 2825.3527087569237
leaf_count=3283 5432 1276 1409 2406 2262 4256 1491 2374 5913 1879 328 3916 1218 1334 2142 2668 2068 1496 1780 261 1709 8066 1937 4594 7148 3701 2533 4885 4087 475 10986 8417 470 5958 2080 352 2801 2826 4237 5905 4571 2356 3458 322 1967 6902 12165 3310 2675 3171 291 4474 991 1252 5370 743 3026 1321 344 5502 375 13776
internal_value=-1.7215e-05 -0.0249777 0.0325257 -0.0098306 0.0217624 -0.0402948 0.0146201 0.0540913 -0.0465921 2.43954e-05 -0.0175679 -0.0299549 0.0320165 0.00445559 -0.0248379 -0.00599086 0.0071036 -0.0225634 0.0212266 -0.010594 0.0195807 0.0647545 0.00890639 -0.0393925 0.0470669 -0.0103122 0.0434993 -0.0529239 0.0210841 0.0370526 -0.0389829 -0.0174548 -0.00695764 0.0122582 0.0244914 0.0612258 -0.0176769 0.00237327 -0.0277541 -0.0313055 0.0524443 -0.00171576 -0.00540064 0.0400862 0.00237548 -0.0154976 0.0379091 -0.00381714 0.0182177 0.0274466 0.0351823 0.0150275 -0.0145492 -0.0360073 0.0224136 0.0191152 -0.0206965 0.00755762 -0.0147475 -0.0268196 0.052281 -0.0508591
internal_weight=49208.6 27848.6 21360 14002 14248.6 13846.6 8398.66 7111.41 8605.56 6158.23 7843.78 5241.07 5849.9 3308.42 3398.44 3671.64 2907.49 4570.1 5090.24 3273.68 4526.69 2824.2 2486.59 1842.62 4287.21 2421.1 2577.32 4697.05 4085.14 3504.5 3908.51 2303.25 1800.79 1835 2345.4 2044.6 1612.77 1148.47 2266.85 1785.68 1709.89 1072.5 1693.34 1855.97 1250.54 1899.34 3385.84 1374.34 2793.5 1291.64 499.809 1774.32 1840.04 2643.29 2041.46 1522.76 1313.8 778.683 400.928 2196.16 721.35 3713.33
internal_count=210721 124237 86484 59509 57460 64728 34000 29024 41068 25659 33850 23660 23460 13551 15150 15464 11873 19980 20449 13870 18187 11701 10195 8510 17323 10297 10378 22917 16407 14049 18151 9913 7629 7449 9411 8418 7103 4763 10067 8047 6945 4424 7159 7470 5167 8154 13574 5716 11236 5171 2000 7149 7893 12238 8193 6113 5827 3200 1678 9739 2908 18032
cat_boundaries=0 2 3 5 7 9 11 12 13 14 16 18
cat_threshold=2684485632 1 1 3825360000 1 3912105984 1 4253204608 1 99882836 1 1 439107916 36743360 2093203456 1 2037286920 1
is_linear=0
shrinkage=0.05


Tree=10
num_leaves=63
num_cat=9
split_feature=50 16 16 16 16 15 16 16 15 50 15 15 16 32 32 15 32 32 15 32 16 15 50 15 15 54 15 16 50 15 15 32 32 7 1 15 14 10 50 10 10 16 15 32 52 28 50 3 15 16 11 28 44 11 10 10 10 10 15 15 15 32
split_gain=14541.9 2407.89 1830.27 435.311 396.495 317.963 195.749 164.557 161.246 132.39 97.3724 91.2002 73.0126 72.0313 64.4998 63.851 61.3956 59.6502 43.7667 43.8056 41.6415 39.5434 39.3394 34.8391 34.1136 33.5441 32.6278 32.1502 31.8084 30.7861 30.1538 35.5887 30.0879 29.5248 29.2684 26.4162 26.1829 26.1401 24.9903 26.2255 23.0849 22.9815 22.3023 25.2136 22.1762 22.0591 21.5504 21.5247 21.2497 20.3591 19.9178 19.8712 19.7682 19.1945 19.3365 18.9839 18.3824 17.7368 18.3092 17.3935 16.8873 19.0946
threshold=3.5000000000000004 2.998226044309511 1.1472764606483909 1.599336558775341 2.4024201905583298 1.3479888099339705 0.89587973461402759 3.6493578504437103 0.89587973461402759 6.5000000000000009 1.5580892133149293 0.81068324164968719 1.9387157803292638 7.5000000000000009 7.5000000000000009 1.2088489500472754 7.5000000000000009 7.5000000000000009 1.4230357494997927 7.5000000000000009 3.5070566484845265 1.1150072000796054 6.5000000000000009 1.0471650770867933 0.97438160901885995 0 0.85418893014450203 0.71754226264466137 4.5000000000000009 1.0471650770867933 0.85418893014450203 7.5000000000000009 7.5000000000000009 5.7500000000000009 29.500000000000004 1.1472764606483909 1.5789255615152133 1 2.5000000000000004 2 3 2.0731521505764063 0.85418893014450203 7.5000000000000009 21.050000000000004 101.50000000000001 6.5000000000000009 4 1.7137573449897647 1.011435595095721 25.000000000000004 91.500000000000014 3.5000000000000004 35.000000000000007 5 6 7 8 1.2088489500472754 1.8945885877146502 2.2027494954295124 7.5000000000000009
decision_type=8 8 10 10 10 8 10 8 8 8 8 8 10 2 2 8 2 2 10 2 8 10 10 10 8 1 10 10 10 8 10 2 2 2 2 10 10 9 10 9 9 10 8 2 2 2 8 1 10 10 2 2 2 2 9 9 9 9 10 10 10 2
left_child=2 4 6 11 12 9 27 22 16 23 14 32 42 15 40 53 -5 21 19 29 -11 34 44 -3 -21 48 36 -1 45 55 31 52 -4 -9 -13 41 -16 -31 -18 -40 -6 -15 -2 -44 -7 -12 -35 -41 -17 -33 -29 -51 -8 54 -10 -14 -38 -28 -59 -30 61 -46
right_child=1 5 3 8 10 7 30 33 13 20 28 17 18 35 26 25 38 -19 -20 24 -22 -23 -24 -25 -26 -27 57 50 59 37 -32 49 -34 46 -36 -37 56 -39 39 47 -42 -43 43 -45 60 -47 -48 -49 -50 51 -52 -53 -54 -55 -56 -57 -58 58 -60 -61 -62 -63
leaf_value=0.071694202901514723 0.020853533610231935 -0.017029184739822165 0.042399368008485622 0.030934472811661746 -0.01334184239824584 -0.043490897389425603 0.045955595566510972 -0.061174607749848398 0.0057288425025977677 -0.030590822505986298 -0.010223219988202156 0.017188127248269833 0.026283772400301442 0.00533766608797419 -0.014832801986667282 0.010718907001951501 0.023653539917895799 0.014904777857491941 -0.016736783919146066 -0.00040972296856025262 -0.044047083326282203 0.017452066076074829 -0.043900833588247368 -0.027977655574139299 -0.012342930095659177 -0.0071304372543947439 -0.024664686898289181 0.054650453114656806 -0.026484614856684588 0.0082922239282696673 0.035746935682926625 0.048654504331920582 0.032603802090287536 -0.044167146349996904 0.03535944209176739 -0.018185140792852508 -0.014061204499552865 -0.0062797756264158112 -0.011802440025277314 0.020630181386222017 -0.0014632345101790473 -0.0093216623206977163 0.013463426672265673 -0.0041754876330207967 -0.027323628346896472 -0.036524410915063553 -0.052751715405282965 0.0091580527682763851 -0.02325580711712083 0.044370812517206065 0.064559716800961689 0.029451446874245057 0.057725841316273854 0.035146930711843341 0.021499244474783921 0.0069811453705765358 0.011025602917927847 -0.012977357330955725 -0.025060428467976206 -0.04071921335668955 -0.05063883518117869 -0.038690273529560781
leaf_weight=761.36454963684082 392.72378104925156 1507.3956419676542 1181.6319430172443 1026.4779184758663 612.26556119322777 491.47982163727283 589.31452511250973 738.03603577613831 302.54617270827293 1007.6514595299959 461.23657602071762 259.94717563688755 206.46066445112228 742.43321563303471 611.31632468104362 977.43402144312859 851.48807333409786 1109.9217971712351 492.39940224587917 1458.6175049543381 1338.8204191178083 562.50640088319778 1699.3549892157316 1402.7915545403957 1016.1062777340412 457.91431526839733 1146.8679974228144 1006.1620842814445 1598.7708994597197 560.45897161960602 659.50020918250084 715.45358762145042 2329.1116906404495 1046.917015209794 1502.103835567832 239.34703259170055 99.130012422800064 658.38512749969959 94.6458710283041 823.84962598979473 1220.5001072585583 417.8150470405817 508.32901932299137 336.8486133813858 1333.067191183567 96.380378752946854 2423.2066466957331 928.05013690888882 48.297872647643089 473.7597309499979 1022.395318120718 421.97220607101917 903.84896805882454 170.90473768115044 702.14368046820164 372.24607671797276 213.10591457784176 1238.7234251350164 419.74612087011337 247.87585291266441 110.02185572683811 511.146873280406
leaf_count=3264 1584 6680 4762 4116 2629 2326 2400 3743 1220 4630 2002 1042 844 3022 2603 3978 3413 4458 2091 6015 6450 2258 8091 6424 4298 1880 5014 4186 7121 2336 2654 2926 9346 5129 6020 1003 419 2755 384 3321 5195 1728 2073 1384 6152 420 12115 3737 202 1913 4260 1703 3702 686 2823 1527 902 5353 1862 1122 520 2390
internal_value=-0.000135969 -0.0240981 0.030915 0.021134 -0.00951479 -0.0390657 0.0528962 -0.0451283 0.0130141 -0.0294317 -0.0168273 0.0302337 0.000189496 0.00612018 -0.0131927 0.0109525 0.0205268 0.0244409 -0.00262128 -0.000994406 -0.0382685 0.0289941 -0.0380573 -0.0223067 -0.00530942 0.00405581 -0.0169676 0.062933 -0.025235 0.00494617 0.0454566 0.0475193 0.0359008 -0.0520932 0.0326787 -0.00306119 -0.00881613 0.000437353 0.0165672 0.0132995 -0.00551226 5.872e-05 0.0110082 0.00643337 -0.033997 -0.0147692 -0.0501618 0.0146394 0.00903112 0.0423656 0.0596447 0.0373424 0.0530804 0.0196563 0.0170213 0.0144424 0.00296371 -0.0196512 -0.0159394 -0.0283953 -0.0316093 -0.030474
internal_weight=48860.7 27578.4 21282.3 14728.6 13968.5 13609.9 6553.77 8353.23 7783.35 5256.66 7965.92 6945.22 6002.58 4058.84 5561.66 2659.24 3724.51 3434.48 4764.67 4272.27 2346.47 2324.56 4145.07 2910.19 2474.72 1483.65 3728.89 2789.92 2404.26 1797.55 3763.85 3104.35 3510.74 4208.16 1762.05 1399.6 923.552 1218.84 2698.03 1846.55 1832.77 1160.25 1237.9 845.178 2445.72 557.617 3470.12 1751.9 1025.73 1611.19 2028.56 895.732 1493.16 1175.59 1004.69 578.707 312.236 2805.34 1658.47 1846.65 1954.24 1844.21
internal_count=210606 124199 86407 59399 59549 64650 27008 40466 31513 24184 34642 27886 24907 16542 23977 10789 14971 13778 19866 17775 11080 9320 19479 13104 10313 6060 16153 11710 10665 7462 15298 12644 14108 20987 7062 5753 3924 5091 10855 7442 7824 4750 5041 3457 11388 2422 17244 7058 4180 6542 8446 3616 6102 4729 4043 2371 1321 12229 7215 8243 9062 8542
cat_boundaries=0 1 2 4 5 6 8 9 10 12
cat_threshold=7 20670277 2684358725 1 3900918402 71 3695186304 1 7457920 1006920448 4183885440 1
is_linear=0
shrinkage=0.05


Tree=11
num_leaves=63
num_cat=3
split_feature=50 49 48 48 48 25 48 25 49 25 50 25 25 25 25 50 15 2 1 6 12 14 49 25 48 28 1 2 48 1 15 32 15 12 48 14 25 49 12 48 15 1 53 25 25 33 48 7 29 12 43 48 52 50 14 53 32 12 32 15 14 28
split_gain=13211.1 2243.91 1694.69 394.694 363.385 334.36 188.152 176.349 158.16 121.134 102.424 89.7184 72.8801 53.9362 44.1238 42.0882 41.2728 39.0204 37.9753 35.8259 35.7492 34.6449 32.6378 31.9774 31.8618 30.4843 29.0563 28.963 28.7973 28.2498 27.2649 26.157 28.1632 26.1313 25.7709 25.666 24.5879 24.5333 23.3298 22.5297 22.2704 21.7547 21.7493 21.4462 20.0464 19.602 19.5382 18.8196 18.0531 17.9146 17.7875 17.5777 17.4418 16.8728 17.7465 16.7131 22.8106 15.7364 15.6337 19.9388 15.4028 15.3622
threshold=3.5000000000000004 19.050000000000004 0.46536796536796537 0.25320512820512825 0.10256679991584264 5.5000000000000009 0.69047619047619058 3.5000000000000004 37.45000000000001 4.5000000000000009 6.5000000000000009 3.5000000000000004 3.5000000000000004 4.5000000000000009 3.5000000000000004 5.5000000000000009 1.8945885877146502 0 29.500000000000004 3.4765000000000001 25.000000000000004 2.3841544616826362 46.550000000000004 3.5000000000000004 0.9545454545454547 93.500000000000014 40.500000000000007 1 0.10582306830907055 23.500000000000004 1.4701097818118665 7.5000000000000009 1.3216669431912595 25.000000000000004 0.16261237440507673 3.3339870432574523 6.5000000000000009 14.250000000000002 25.000000000000004 0.31754032258064518 1.6193392260821904 28.500000000000004 30.950000000000003 2.5000000000000004 1.5000000000000002 2 0.20204081632653062 5.7500000000000009 55.000000000000007 25.000000000000004 1.0000000180025095e-35 0.044543650793650802 49.350000000000001 2.5000000000000004 1.7491620461964394 31.750000000000004 7.5000000000000009 25.000000000000004 7.5000000000000009 0.93590108845079578 2.1690373735723498 104.50000000000001
decision_type=8 8 10 10 10 8 10 8 8 8 8 10 8 10 10 10 10 1 2 2 2 10 8 10 10 2 2 1 10 2 8 2 10 2 10 10 10 10 2 10 10 2 2 10 10 1 10 2 2 2 2 10 2 10 10 2 2 2 2 10 10 2
left_child=2 4 3 7 9 10 23 20 19 15 14 18 34 27 21 38 17 37 -5 36 26 -3 -12 33 44 39 45 28 -9 -14 -10 40 61 -4 55 -15 -7 50 48 -20 46 -13 -16 53 57 -1 -31 -32 -2 -30 -11 -44 58 54 -28 -6 -57 -8 59 60 -22 -33
right_child=1 5 6 11 12 8 24 13 30 16 22 41 29 35 42 -17 -18 -19 25 -21 52 -23 -24 -25 -26 -27 43 -29 49 31 47 32 -34 -35 -36 -37 -38 -39 -40 -41 -42 -43 51 -45 -46 -47 -48 -49 -50 -51 -52 -53 -54 -55 -56 56 -58 -59 -60 -61 -62 -63
leaf_value=-0.0027485912230687057 -0.0081480760570360432 -0.019684208180284778 0.04088652920250252 0.021146746392633586 -0.013446681501853255 -0.032187949842921053 0.05436892651920866 -0.0045708745299613942 -0.042840895686081959 -0.013478851078251756 -0.032755030009785961 -0.0023995525009071965 -0.028897069432016649 -0.0035943919234328252 -0.041797854618674302 -0.017836399248743792 -0.039117760598145375 -0.045602851248912044 0.030142601642021628 -0.047980146907458054 0.032578165572169457 0.00065925675514030141 -0.04732328857318463 0.021790040306695832 0.069502665256413229 0.027533821968295444 0.022866739898478632 -0.026189898167520723 0.0080547849336832528 0.0024193029912221151 -0.060685347679372462 -0.0034170932996428027 -0.026070248706485999 0.04957661737777485 0.015462842373414831 -0.028608801562397562 -0.04118044863327705 -0.023049913395199989 0.0017526790004896266 0.038735100185987137 -0.013412713143086877 0.018002636548233125 -0.027387477012340157 0.012400224429625441 0.043227526757442188 0.012772141556028191 0.026017189214064332 -0.051065948565402836 -0.056509177512585232 0.01938195140937336 -0.026204034681950927 -0.016643284344611462 -0.032273761224040041 0.018555638683036928 0.0429470000861851 0.012296791135642261 -9.4089828186498926e-05 0.06377000633049093 0.019795165275806065 0.021050839850290756 0.055991973374095297 -0.019160168356256224
leaf_weight=283.766077876091 1927.2719409018755 737.7886118888855 2113.3047392368317 828.58301737904549 126.31555300951004 2390.2542694956064 872.45684725046158 344.91642168164253 847.01695609092712 1857.8530585318804 1207.3693825602531 155.01951497793198 110.61312797665596 866.13942475616932 207.60216212272644 982.3640508055687 298.81087507307529 142.76749950647354 1206.90053640306 632.10582453012466 367.6570860594511 292.15282317996025 564.06698037683964 162.86791530251503 746.48053550720215 1840.326817676425 300.93375732004642 61.55200819671154 1234.2798709571362 1173.0675182640553 628.0578775703907 1373.1308301389217 180.37583474814892 1464.6036517769098 705.47879157960415 116.31705895066261 1114.6273107230663 1978.212330237031 748.82337646186352 2073.6015684753656 209.52448074519634 831.44910138845444 1601.3559599071741 830.27698390185833 221.86820106208324 717.62933029234409 94.805161446332932 2670.080263838172 19.492585301399231 486.70739983022213 322.24977648258209 499.39180745184422 13.195321813225744 899.90708883106709 173.44890455901623 676.21905241906643 824.05182515084743 908.81581579148769 661.99942535161972 340.62053036689758 86.831083983182907 174.66996389627457
leaf_count=1142 8155 3296 8631 3328 521 11372 3678 1420 4231 8123 5674 626 472 3598 976 4275 1364 668 4839 3112 1472 1265 2764 654 3264 7399 1205 256 5005 4903 3298 5749 772 6013 2842 495 5371 8896 3160 8354 888 3340 7371 3337 923 2885 387 13690 86 1972 1406 2230 53 3613 695 2766 3381 3845 2653 1364 348 735
internal_value=-0.000133238 -0.0231213 0.0294714 0.0200878 -0.00906879 -0.0377345 0.0507562 0.0123609 -0.0439401 -0.0157405 -0.027676 0.028762 0.000708996 0.00313374 -0.0225193 -0.00897632 -0.021149 -0.0199006 0.0310776 -0.0370237 0.0184974 -0.0139136 -0.0373939 0.0434575 0.0606858 0.0326845 0.0155368 0.00760843 0.00861542 -0.00405387 -0.0508427 -0.00319662 -0.00737266 0.0444438 0.00748177 -0.00655595 -0.0350478 -0.0190182 -0.0057474 0.0355739 0.00168829 0.0147965 -0.0263591 0.0187449 0.0574001 0.00847412 0.00418383 -0.0528978 -0.00863231 0.0112582 -0.0153598 -0.0248334 0.0249529 0.0225781 0.0302087 0.00402024 0.00549087 0.0591654 0.0254711 0.0301969 0.0370514 -0.00519371
internal_weight=48530.4 27318 21212.5 14722.1 13926.1 13391.9 6490.4 7786.18 8282.14 8277.85 5109.73 6935.88 5648.25 3109.91 3338.29 3677.95 4599.89 4301.08 5949.41 4136.99 4676.27 1029.94 1771.44 3740.78 2749.62 5120.83 3205.96 2127.46 2065.9 3316.19 4145.16 3205.57 1728.18 3577.91 2332.07 982.456 3504.88 4158.32 2695.59 3280.5 1477.4 986.469 2308.35 2204.57 2003.14 1001.4 1267.87 3298.14 1946.76 1720.99 2180.1 2100.75 1470.3 1374.29 474.383 1626.59 1500.27 1781.27 1457.11 795.109 454.488 1547.8
internal_count=210606 124199 86407 59399 59549 64650 27008 31513 41074 36133 23576 27886 23416 12746 15138 15676 20457 19093 23920 19855 18767 4561 8438 15298 11710 20592 12877 8653 8397 13906 21219 13434 7256 14644 9510 4093 16743 18425 11401 13193 6178 3966 10577 8850 8446 4027 5290 16988 8241 6977 9529 9601 5890 5513 1900 6668 6147 7523 5837 3184 1820 6484
cat_boundaries=0 1 2 3
cat_threshold=1 1 54
is_linear=0
shrinkage=0.05


Tree=12
num_leaves=63
num_cat=5
split_feature=50 16 16 48 16 25 16 25 16 25 25 25 50 25 50 25 5 2 11 16 32 15 25 5 14 2 48 15 15 16 32 11 16 11 32 15 16 50 16 14 15 25 25 52 17 7 15 18 3 39 45 53 6 50 2 7 53 53 15 14 8 50
split_gain=12004.9 2094.19 1571.83 446.789 358.515 248.312 181.61 164.487 107.47 107.02 102.498 75.2379 72.6259 53.8416 53.6307 40.0825 38.4712 34.3704 33.2948 31.6751 31.3052 34.6158 29.5644 29.5159 29.129 27.7726 27.519 27.2117 26.7618 26.4286 26.3599 26.0592 26.0167 24.3325 23.9719 22.5111 22.2325 21.3965 22.1506 19.9759 19.5069 19.3188 19.3005 19.2884 19.1408 18.6919 18.5363 17.7786 17.3802 17.0466 18.4601 16.9949 16.9101 16.4294 16.3531 16.808 16.2047 16.1075 16.3128 22.5289 16.0888 15.8982
threshold=3.5000000000000004 3.1419924481000066 1.1472764606483909 0.086581709145427302 1.5789255615152133 5.5000000000000009 0.89587973461402759 3.5000000000000004 3.6493578504437103 4.5000000000000009 4.5000000000000009 2.5000000000000004 6.5000000000000009 4.5000000000000009 4.5000000000000009 3.5000000000000004 3.5485000000000002 0 25.000000000000004 0.71754226264466137 7.5000000000000009 1.2946333325561217 3.5000000000000004 3.5425000000000004 2.1804014991111278 1 0.10582306830907055 1.5580892133149293 1.4701097818118665 2.1101948345363803 7.5000000000000009 25.000000000000004 3.8617812361389854 25.000000000000004 6.5000000000000009 1.7833559100698646 1.9387157803292638 2.5000000000000004 1.8794359129669858 1.8945885877146502 2.2027494954295124 2.5000000000000004 6.5000000000000009 20.850000000000005 2 5.7500000000000009 1.8945885877146502 2.5000000000000004 3 33.500000000000007 27.550000000000004 26.550000000000004 3.4635000000000002 6.5000000000000009 4 31.650000000000002 34.350000000000001 34.050000000000004 0.89587973461402759 1.8325494627242667 28.500000000000004 4.5000000000000009
decision_type=8 8 10 10 10 8 10 8 8 8 8 8 8 10 10 10 2 1 2 10 2 10 10 2 10 1 10 10 8 10 2 2 8 2 2 10 10 10 10 10 10 10 8 2 1 2 10 2 1 2 2 2 2 10 1 2 2 2 10 10 2 10
left_child=2 3 6 10 11 12 19 18 23 14 30 31 15 25 36 24 27 20 37 -1 29 -22 33 40 -3 26 -9 42 -10 -11 51 54 -14 -8 -13 -15 -5 60 -39 -36 53 -21 47 -31 -16 -30 -17 -12 -38 -50 -51 -2 -40 -7 55 -4 -33 -32 59 -59 -6 -53
right_child=1 5 4 9 7 8 22 13 28 17 16 34 32 35 44 46 -18 -19 -20 41 21 -23 -24 -25 -26 -27 -28 -29 45 43 57 56 -34 -35 39 -37 48 38 52 -41 -42 -43 -44 -45 -46 -47 -48 -49 49 50 -52 61 -54 -55 -56 -57 -58 58 -60 -61 -62 -63
leaf_value=0.067491702340207044 -0.03284105335375425 -0.021533634574478072 0.03349849494934961 0.014473675507572581 -0.011222266022958095 -0.031225672915243564 0.039082804270674482 -0.004345749592581845 -0.041519901221055852 0.0077402763574289796 -0.014872722624061467 0.0335000008908065 -0.032442168249477092 -0.004189565280472156 -0.01173818634163969 -0.025897090091045651 -0.050263906448634904 -0.036377668101763877 0.023887209677130896 0.056384746764200355 -0.0088720846583613105 -0.027396485670466431 0.020725612135817917 -0.056508021473930505 -0.0012711492532222069 -0.024788482782433272 0.011080758756388715 -0.030285691411244271 -0.059471259468023098 -0.026846228325264523 -0.028622014750689952 0.016331528168132239 -0.045923216259912511 0.047499347962632048 0.021513744633720723 -0.032348862298739865 -0.0041013400708458398 0.01775219383223799 0.010153947938225927 0.0092746769498344723 -0.054453437589025447 0.032615216760115744 -0.02401528691864914 -0.0043759601321553153 0.00010997285799539073 -0.049743636824423815 -0.042949861399610358 -0.029498341139042778 0.00064097466383367411 0.016890310797611743 0.0038863036759334856 0.0016482785269418322 -0.0068616243964940496 -0.038792033895995365 0.011187428805433417 0.025024658280781327 0.038769566945483745 -0.014986740450789108 -0.021241673688445172 0.0019558700074844191 0.022176271110934391 -0.0094661347482544178
leaf_weight=730.68743991851807 61.071503192186356 466.55089968442917 1389.129016533494 772.59232714772224 37.407523289322853 1372.5131130963564 2100.6194390952587 344.652020201087 830.68726719915867 455.1704974770546 1544.6456062197685 344.97575852274895 1016.030225917697 929.14065311849117 558.24873708188534 1618.3496743738651 128.00036519765854 107.74833849072456 1544.1486629098654 1886.1583494096994 1375.7422061860561 308.79422900080681 162.67575646936893 187.47133710980415 286.15985445678234 64.174878403544426 1793.3237268179655 900.38954763114452 609.3125151693821 107.38869255781174 219.86523105204105 85.529143884778023 552.49754273891449 1452.5297677367926 1901.7046079784632 76.842734917998314 451.65531599521637 1035.1634282916784 1100.4143367707729 404.25898772478104 137.57492725551128 89.541145637631416 1973.6959083974361 862.94287060201168 861.00604861974716 2605.6537186354399 176.76390953361988 240.07676358520985 677.21863949298859 576.41651353240013 518.30664786696434 472.05602212250233 168.35199242830276 1503.1937523037195 122.32810406386852 1011.1456271559 1359.2382915765047 716.12225116789341 526.90374159812927 270.25603534281254 1000.0182930678129 1010.4726711064577
leaf_count=3264 275 2114 5608 3117 150 6642 8631 1420 4231 1885 6918 1385 4860 3868 2329 7518 619 478 6186 8076 5871 1347 654 965 1250 268 7259 4167 3298 470 967 345 2764 6013 7628 326 1858 4149 4429 1623 690 370 9022 3707 3591 13690 848 1073 2790 2372 2131 1993 679 7392 490 4082 5497 3101 2298 1158 4007 4400
internal_value=-0.000130605 -0.0221846 0.0281066 -0.01035 0.0190974 -0.0385332 0.0487449 0.0120393 -0.0441041 -0.00167984 -0.0185574 0.0277289 -0.0287263 0.00324312 0.00337421 -0.0235153 -0.0232214 -0.00861501 0.0178154 0.0585971 -0.00765316 -0.0122678 0.0415692 -0.0372583 -0.0138304 0.0076211 0.00859393 -0.0224784 -0.0495201 -0.00219995 -0.0117439 0.0320867 -0.0371907 0.0425235 0.0212071 -0.00634053 0.0071668 0.0150094 0.0123245 0.0193681 -0.0360607 0.0553075 -0.0206081 -0.00686279 -0.00463231 -0.0515873 -0.0275763 -0.0168401 0.00462801 0.00683761 0.0107334 -0.00699199 0.00789616 -0.0351808 0.02902 0.0299288 0.0374413 -0.0159762 -0.0141389 -0.0103447 0.020972 -0.00592716
internal_weight=48193.7 27059.5 21134.2 15696.8 14711.9 11362.8 6422.21 8093.64 7246.41 7633.23 8063.56 6618.31 4116.35 3208.13 4415.44 2547.82 4786.81 3217.79 4885.5 2706.39 3110.04 1684.54 3715.82 3200.75 752.711 2202.15 2137.98 4658.81 4045.65 1425.5 3276.75 3967.37 1568.53 3553.15 2650.94 1005.98 2996.19 3341.36 2303.93 2305.96 3013.28 1975.7 3758.42 970.332 1419.25 3214.97 1795.11 1784.72 2223.6 1771.94 1094.72 1543.6 1268.77 2875.71 2522.6 2400.27 1444.77 1733.15 1513.28 986.378 1037.43 1482.53
internal_count=210606 124199 86407 67937 59399 56262 27008 32741 36908 31946 35991 26658 19354 13141 18188 11730 21799 13758 19600 11710 13280 7218 15298 15689 3364 8947 8679 21180 21219 6062 14192 16022 7624 14644 10636 4194 12268 13414 9257 9251 14724 8446 17013 4177 5920 16988 8366 7991 9151 7293 4503 6668 5108 14034 10180 9690 5842 7524 6557 4259 4157 6393
cat_boundaries=0 1 2 3 4 5
cat_threshold=1 1 3116 132 1
is_linear=0
shrinkage=0.05


Tree=13
num_leaves=63
num_cat=9
split_feature=50 16 16 48 16 25 16 25 16 25 25 25 50 50 25 16 5 25 10 16 15 32 16 53 29 10 32 5 48 10 15 10 15 32 15 14 32 15 12 51 10 10 1 45 51 10 11 10 40 53 15 15 7 16 10 28 32 15 16 12 53 50
split_gain=10911.2 1956.53 1460.59 407.434 294.303 238.825 204.621 143.646 105.22 96.7725 94.5298 72.4565 69.0967 48.3982 43.7728 39.7131 36.2947 35.1602 33.4172 32.9831 31.8516 34.8593 31.5848 30.144 31.8537 29.8617 28.9593 28.5882 27.72 26.7398 26.3072 25.4649 25.3187 24.0329 23.8164 23.0515 22.2018 22.0317 20.4517 24.0234 20.5825 20.257 20.1287 19.9353 23.865 19.7198 19.3367 19.3052 18.8611 18.7841 18.779 18.7552 18.6117 18.4599 19.0168 18.7524 18.4125 18.3842 18.3816 18.1655 18.1206 17.9015
threshold=3.5000000000000004 3.1419924481000066 1.1785366391390579 0.086581709145427302 1.599336558775341 5.5000000000000009 0.89587973461402759 3.5000000000000004 3.6493578504437103 4.5000000000000009 4.5000000000000009 3.5000000000000004 5.5000000000000009 4.5000000000000009 4.5000000000000009 3.5849059018974727 3.5485000000000002 3.5000000000000004 0 1.011435595095721 0.76519735254682386 7.5000000000000009 0.71754226264466137 34.750000000000007 35.000000000000007 1 7.5000000000000009 3.5425000000000004 0.10811126694717159 2 1.4701097818118665 3 1.5580892133149293 7.5000000000000009 1.1150072000796054 3.3586362549537383 7.5000000000000009 1.2088489500472754 1.0000000180025095e-35 10.050000000000002 4 5 33.500000000000007 38.70000000000001 23.550000000000004 6 35.000000000000007 7 0.14500000000000005 34.650000000000013 0.71754226264466137 2.2027494954295124 5.7500000000000009 1.3986406674150766 8 104.50000000000001 7.5000000000000009 1.5789255615152133 3.2523087303165323 1.0000000180025095e-35 33.550000000000004 1.5000000000000002
decision_type=8 8 10 10 10 8 10 8 8 8 8 10 8 10 10 8 2 10 9 10 8 2 10 2 2 9 2 2 10 9 8 9 10 2 10 10 2 10 2 2 9 9 2 2 2 9 2 9 2 2 10 10 2 10 9 2 2 10 10 2 2 10
left_child=2 3 6 10 11 12 22 23 27 13 33 20 17 25 31 -14 32 41 -11 60 46 42 -1 29 38 -5 34 51 57 -6 -10 -9 -12 -2 -21 -16 -30 43 40 -40 -25 58 -22 -26 -45 -15 53 -13 -49 -17 -24 -7 -32 -4 55 -55 -52 -20 -3 -38 -8 -28
right_child=1 5 4 9 7 8 19 14 30 18 16 47 15 45 35 49 -18 -19 28 26 21 -23 50 24 37 -27 61 -29 36 -31 52 -33 -34 -35 -36 -37 59 -39 39 -41 -42 -43 -44 44 -46 -47 -48 48 -50 -51 56 -53 -54 54 -56 -57 -58 -59 -60 -61 -62 -63
leaf_value=0.065636625685515579 -0.0066570192179465082 -0.02222589427133995 0.03370629865442358 -0.0036283658163787321 0.018943255398810421 -0.033946600540207157 0.027299240499229955 -0.0094656276111100435 -0.040243258085634705 -0.023376224274078983 -0.019721026429269085 0.020979219808507997 -0.025838391048165765 0.0015112321043822146 -0.0031620944073203145 -0.046389510272077668 -0.048798927914597966 -0.023533950654328131 -0.010057496869193347 0.042262805828697333 0.018004444409274237 0.015521928732033011 0.055838341899727334 0.0052031283648842344 0.029069402268893443 0.0091672208989183185 0.026571565552940435 -0.055204453560198666 0.0032821933741626142 0.00013160346783321991 -0.058324189705962294 0.0086261763897378108 -0.029104754654184928 -0.015249485155983018 0.016191207589327929 -0.027185529647991744 0.0031985463810406305 -0.0048155093486635416 0.046952058672551249 0.010936462704716444 0.027285627451556341 -0.013483996398520227 0.03023025545243152 0.019151747177329745 -0.032488994956325699 -0.010244797148520359 0.040920391686575762 -0.0030736027817252071 0.015547432205023288 -0.033951343284563298 0.049746464072267849 -0.053078347699074581 -0.048471588464739555 0.018618624692094986 0.030114923413261704 -0.015455917349470567 0.024687028864251705 -0.028599580693096961 0.020318006014993052 -0.01226794112192673 0.046014620700872033 0.041627971212142151
leaf_weight=714.19124221801758 1540.3885019272566 33.22358101606369 1242.7091136425734 558.72840026021004 307.36580316722393 2832.3783810138702 141.49088676273823 209.80052009224892 814.60122232139111 319.03757700324059 3731.8365050405264 409.51487717032433 1402.5508440136909 711.31398165225983 866.86811459064484 430.52276965975761 125.31959082186222 812.04981990158558 953.37668685615063 1231.527509316802 424.94303460419178 826.27558226883411 1547.376132234931 157.73897297680378 1040.8248855471611 2440.0191878825426 952.70510800182819 182.43185596168041 845.96125754714012 477.39367666840553 590.70467302203178 1920.4369549453259 890.33750483393669 1725.2226798981428 94.302764758467674 112.85458715260029 264.70408809185028 63.345613732933998 47.63368646800518 1655.4218437224627 487.94319504499435 254.06324955821037 1620.6430493295193 416.95183472335339 23.641143411397934 706.65351422131062 477.42840175330639 267.12404558062553 277.00533117353916 1029.1428399980068 302.66502985358238 134.16913647949696 2541.9631408900023 289.63826633989811 542.87846161425114 46.917971923947334 96.726730048656464 155.48197020590305 107.66957813501358 671.32272435724735 1505.3570881485939 249.01971043646336
leaf_count=3264 6668 145 5047 2303 1235 14034 588 866 4231 1398 17013 1642 6588 2964 3608 2189 619 3733 4161 5088 1707 3315 6735 633 4171 9965 3890 965 3543 1922 3298 7787 4167 7524 379 485 1121 254 191 6638 1957 1104 6525 1671 95 2956 1937 1074 1113 5131 1299 690 13690 1167 2190 189 412 691 464 2844 6312 1021
internal_value=-0.000128122 -0.0212849 0.0268148 -0.00987118 0.0176809 -0.0372724 0.0458075 0.011146 -0.0428099 -0.00159901 -0.0177443 0.0256023 -0.0276157 0.00320247 0.0028176 -0.0318467 -0.0222484 -0.0175825 -0.00820573 0.0389006 0.027819 0.0241894 0.0566429 0.0166825 0.0184843 0.00680161 0.0353131 -0.0359933 -0.00642839 0.00774261 -0.0482479 0.00684043 -0.0215285 -0.0111964 0.0404084 -0.00592936 -0.00258838 0.0240609 0.0148166 0.0119438 0.0223941 -0.00534596 0.0276905 0.0252957 0.0163808 -0.00440906 0.0318287 0.012884 0.00629039 -0.0376199 0.0533435 -0.0348119 -0.0503294 0.0297833 0.0242399 0.0134682 0.0436774 -0.0126574 0.0096042 -0.00789409 0.0444067 0.0296915
internal_weight=47853.8 26805.2 21048.7 15639.7 14213.3 11165.5 6835.36 7788.22 7096.25 7626.6 8013.1 6425.08 4069.22 4416.72 3109.96 2862.22 4747.49 1207.01 3209.88 4174.4 5471.43 2871.86 2660.96 4678.26 3893.5 2998.75 2527.56 3148.98 2890.85 784.759 3947.27 2130.24 4622.17 3265.61 1325.83 979.723 1781.99 1544.76 2348.74 1703.06 645.682 394.956 2045.59 1481.42 440.593 1417.97 2599.57 953.644 544.129 1459.67 1946.77 2966.55 3132.67 2122.14 879.435 336.556 399.392 1108.86 140.893 936.027 1646.85 1201.72
internal_count=210606 124199 86407 67937 57419 56262 28988 31513 36908 31946 35991 25906 19354 18188 12746 13908 21799 5446 13758 17278 22077 11547 11710 18767 15610 12268 10378 15689 12360 3157 21219 8653 21180 14192 5467 4093 7508 6191 9419 6829 2590 1713 8232 5937 1766 5920 10530 3829 2187 7320 8446 14724 16988 8593 3546 1356 1711 4852 609 3965 6900 4911
