tree
version=v4
num_class=1
num_tree_per_iteration=1
label_index=0
max_feature_idx=54
objective=binary sigmoid:1
feature_names=advance_final_count_90d age bike_class car_no dow good_track_race_ave good_track_race_best good_track_rate2_180d good_track_run_count_180d good_track_trial_ave graduation_code handicap handicap_diff_min is_absent log_place_odds_max log_place_odds_min log_win_odds month order1_count_90d order2_count_90d order3_count_90d order_other_count_90d place_code place_odds_max place_odds_min place_odds_min_rank player_place_code player_place_name race_dev_num race_handicap_max race_handicap_min race_n_absent race_n_cars race_no rain_expect_code rank_class rank_num rate2 rate3 run_count_90d st_ave_90d sunny_expect_code this_year_advance_final this_year_win_count total_win_count wet_track_rate2_180d wet_track_run_count_180d win_count_90d win_implied_prob win_odds win_odds_rank win_rate1 win_rate2 win_rate3 year
feature_infos=[0:12] [18:79] -1:0:1 -1:2:3:5:1:4:0:6:7 -1:5:6:4:0:3:2:1 [0:3.8420000000000001] [0:3.8420000000000001] [0:100] [0:91] [0:3.7200000000000002] -1:23:22:19:21:20:18:25:17:28:27:26:24:13:16:15:14:29:8:30:7:11:31:9:10:32:3:12:6:2:0:1:4 [0:90] [0:90] none [0.69314718055994529:8.4703112055161078] [0.69314718055994529:5.7474803299219204] [0.69314718055994529:6.7951463345994831] -1:4:6:5:9:10:11:8:7:3:0:2:1 [0:10] [0:8] [0:7] [0:10] -1:0:3:1:4:2 [1:4770] [1:312.39999999999998] [1:8] -1:1:0:3:4:2 -1:0:2:4:1:3 [0:217] [0:90] [0:10] [0:2] [5:8] -1:5:4:3:2:6:1:7:0:8:10:9:11 none -1:0:1:2 [1:232] [0:100] [0:100] [0:62] [0:0.42999999999999999] none [0:30] [0:17] [0:220] [0:100] [0:27] [0:6] [0.0011204481792717086:1] [1:892.5] [1:8] [0:100] [0:100] [0:100] -1:3:4:2:1:0
tree_sizes=6901 6922 6968 6960 6959 6970 6977 6945 6980 6965 6936 6951 6961 7015 6967 6995 6931 6973 6941 6947 6940 6946 6940 6966 6913 6921 6938 6957 6947 6942 6937 6937 6899 6980 6958 6919 6931 6957 6885 6916 6890 6890 6937 6925 6954 6929 6910 6923 6983 6904 6819 6855 6904 6931 6878 6875 6876 6885 6930 6933 6904 6898 6885 6920 6909 6890 6901 6902 6868 6901 6868 6848 6870 6844 6860 6864 6854 6899 6892 6891 6856 6902 6871 6887 6846 6929 6851 6845 6877 6884 6888 6818 6810 6873 6815 6871 6886 6864 6900 6849 6850 6853 6866 6884 6919 6911 6885 6870 6879 6856 6854 6832 6837 6821 6835 6819 6867 6826 6804 6861 6756 6859 6894 6875 6916 6761 6852 6869 6839 6871 6896 6770 6913 6833 6847 6848 6813 6801 6820 6804 6871 6825 6900 6843 6808 6747 6846 6818 6832 6794 6845 6808 6770 6861 6824 6739 6807 6777 6743 6808 6843 6820 6778 6828 6765 6817 6839 6807 6840 6750 6790 6781 6816 6835 6801 6793 6765 6827 6742 6799 6843 6877 6794 6756 6776 6820 6809 6838 6853 6769 6807 6861 6764 6822

Tree=0
num_leaves=63
num_cat=0
split_feature=50 48 16 16 16 25 16 25 25 25 16 16 25 50 25 16 50 25 16 50 16 11 25 16 50 50 25 16 25 25 25 53 25 24 1 14 50 5 1 24 24 53 24 53 5 1 48 53 51 8 50 16 16 1 16 16 25 1 16 16 53 44
split_gain=38556.1 5040.63 4786.68 978.259 830.13 757.489 624.096 264.102 229.614 224.566 194.993 185.309 178.942 166.387 162.522 110.808 101.88 86.32 69.2699 69.2001 57.1461 55.7807 55.3318 52.9815 47.8429 46.006 46.7248 43.4052 40.5842 38.1433 37.8659 43.3916 37.2512 36.5376 35.3634 34.1044 32.2454 32.1058 31.9296 31.5771 29.7002 29.5951 29.2746 29.21 28.1716 27.9269 27.2807 27.1901 25.6916 25.052 24.4985 23.8278 23.4604 25.9906 23.3738 23.3339 23.0402 22.8825 22.1098 22.0125 21.1997 20.7478
threshold=3.5000000000000004 0.063492703378214957 1.3736354571277458 0.97438160901885995 3.3928277196600067 3.5000000000000004 2.287458571408536 5.5000000000000009 5.5000000000000009 4.5000000000000009 1.8000241202036604 1.6581827230727291 2.5000000000000004 4.5000000000000009 3.5000000000000004 0.76519735254682386 2.5000000000000004 4.5000000000000009 1.1472764606483909 5.5000000000000009 3.9189981260915085 25.000000000000004 5.5000000000000009 1.9670879050346399 5.5000000000000009 6.5000000000000009 3.5000000000000004 1.9242220118926376 3.5000000000000004 1.5000000000000002 6.5000000000000009 34.550000000000004 3.5000000000000004 1.4500000000000002 23.500000000000004 2.3272658077629083 1.5000000000000002 3.5425000000000004 29.500000000000004 1.0500000000000003 1.2500000000000002 32.45000000000001 3.9500000000000006 31.650000000000002 3.5235000000000007 27.500000000000004 0.10811126694717159 35.150000000000013 12.950000000000001 35.500000000000007 1.5000000000000002 1.0816615128302691 1.9387157803292638 49.500000000000007 1.599336558775341 0.89587973461402759 5.5000000000000009 25.500000000000004 1.5150668501356619 3.0841983033087499 34.650000000000013 1.0000000180025095e-35
decision_type=8 10 10 10 8 8 10 8 8 8 10 10 10 8 8 10 10 10 10 10 8 2 10 10 8 10 10 10 10 10 10 2 10 10 2 10 10 2 2 10 8 2 10 2 2 2 10 2 2 2 10 10 10 2 10 10 10 2 10 10 2 2
left_child=2 4 3 15 8 11 14 13 25 19 22 29 18 32 23 -1 39 46 36 41 44 34 38 -3 -15 26 35 -16 -14 58 31 -11 -6 55 -18 -2 51 42 49 -13 50 -8 59 -29 -9 -25 -12 -28 -43 -7 -20 -5 53 -36 -40 -17 -45 -48 -4 -10 -26 -31
right_child=1 6 5 12 7 10 9 20 37 30 17 16 28 24 27 33 21 -19 40 -21 -22 -23 -24 45 60 -27 47 43 -30 61 -32 -33 -34 -35 52 -37 -38 -39 54 -41 -42 48 -44 56 -46 -47 57 -49 -50 -51 -52 -53 -54 -55 -56 -57 -58 -59 -60 -61 -62 -63
leaf_value=-0.24942359045667856 -0.38521741099309453 -0.33381181222471801 -0.2984159050437466 -0.28291732652974738 -0.34296225049985796 -0.38432821322045307 -0.38137816808024128 -0.42143176842899704 -0.40118702209363588 -0.39687813143744932 -0.36225662079122467 -0.30265796585703253 -0.30453629268496607 -0.39924508017744487 -0.35184223277666143 -0.26235444587431206 -0.3708541724262302 -0.37208016784829723 -0.3012758374466914 -0.38446213752715136 -0.43235733053349518 -0.32162884243759782 -0.3612679497426049 -0.37479072074735731 -0.42366903181662841 -0.40285145211070122 -0.40347572589061331 -0.38711554792457137 -0.32370636593559415 -0.33561781226031634 -0.40019614547562204 -0.38289989531652868 -0.38497000513638013 -0.29012631159041607 -0.33516099324954068 -0.36276483041655994 -0.27150283421212679 -0.42879007986595663 -0.32372083831597909 -0.32036203302260818 -0.3038382458803579 -0.35794906741939819 -0.41687274613444025 -0.36296443616738111 -0.43406127999007466 -0.34875178394666734 -0.37491681134060284 -0.39031499700908012 -0.36875268101058639 -0.34210206861078984 -0.28840408063775225 -0.29571238444875297 -0.34045929577262929 -0.31650643100746001 -0.33637981221255303 -0.27211302835056417 -0.37701060771551542 -0.34451925031077857 -0.31120896596421255 -0.40962068835954568 -0.41328193789494133 -0.31395024147820988
leaf_weight=1175.5797861814499 883.62154439091682 685.59348320960999 752.89397343993187 1218.4293788820505 87.635890156030655 42.365416511893272 300.91550128161907 3047.1628436297178 1407.742268666625 713.67570215463638 368.94225579500198 399.68744377791882 683.65677845478058 499.18565055727959 566.48614078760147 1518.1344396919012 72.626428306102753 695.76118317246437 525.33116474747658 682.68842607736588 3350.7413139492273 910.97749905288219 188.58662550151348 113.29722815752029 688.25645224750042 777.58695906400681 529.93083854019642 173.3350755572319 463.11452449858189 119.83360670506954 550.50832656025887 2500.0437503904104 132.66427570581436 171.64045889675617 587.06362880766392 209.16411352157593 434.06395317614079 193.91256357729435 745.87341870367527 680.99380941689014 797.19609470665455 877.32725393772125 741.5158330053091 1518.6186158806086 516.37390525639057 1129.8251363486052 66.090049758553505 1512.8085016161203 1476.2531993687153 205.53279210627079 1247.4799502044916 518.79478619992733 1010.9598820209503 273.80163471400738 713.43361406028271 1026.9376962482929 361.43752487003803 979.00425356626511 612.48287871479988 1717.8571175336838 1715.9204127788544 1415.7311757802963
leaf_count=4856 3650 2832 3110 5033 362 175 1243 12587 5815 2948 1524 1651 2824 2062 2340 6271 300 2874 2170 2820 13841 3763 779 468 2843 3212 2189 716 1913 495 2274 10327 548 709 2425 864 1793 801 3081 2813 3293 3624 3063 6273 2133 4667 273 6249 6098 849 5153 2143 4176 1131 2947 4242 1493 4044 2530 7096 7088 5848
internal_value=-0.359568 -0.396075 -0.307061 -0.281698 -0.412651 -0.329939 -0.370446 -0.422218 -0.400608 -0.379708 -0.347205 -0.319823 -0.294554 -0.410152 -0.355986 -0.262248 -0.32689 -0.357662 -0.290268 -0.370265 -0.42767 -0.331839 -0.335567 -0.344971 -0.413331 -0.391965 -0.389265 -0.364095 -0.312278 -0.310235 -0.38808 -0.386004 -0.368259 -0.267798 -0.336622 -0.38092 -0.283693 -0.408937 -0.332728 -0.313814 -0.295823 -0.366613 -0.407941 -0.367476 -0.423262 -0.351125 -0.350568 -0.393729 -0.364725 -0.349318 -0.292218 -0.286738 -0.335294 -0.329228 -0.32991 -0.266292 -0.365665 -0.346442 -0.304155 -0.405822 -0.416256 -0.315641
internal_weight=50285.1 29662.1 20623 9780.36 18012.1 10842.6 11650 10037.9 7974.14 7101.41 4005.59 6837.05 5888.07 3123.66 4548.59 3892.29 3936.11 2109.8 4741.3 3337.18 6914.28 2855.43 1895.79 1928.72 2903.36 3913.11 3135.52 2619.88 1146.77 2900.94 3764.23 3213.72 220.3 2716.71 1944.45 1092.79 2171.29 4061.03 1707.21 1080.68 2570.01 2654.5 3867.12 2053.39 3563.54 1243.12 1414.04 2042.74 2353.58 247.898 1772.81 1737.22 1871.83 860.865 1459.31 2545.07 1880.06 1045.09 1365.38 3125.6 2404.18 1535.56
internal_count=207714 122526 85188 40400 74403 44788 48123 41464 32939 29334 16546 28242 24322 12903 18789 16078 16259 8715 19585 13785 28561 11795 7831 7967 11993 16164 12952 10822 4737 11983 15549 13275 910 11222 8032 4514 8969 16775 7052 4464 10616 10965 15974 8482 14720 5135 5841 8438 9722 1024 7323 7176 7732 3556 6028 10513 7766 4317 5640 12911 9931 6343
is_linear=0
shrinkage=1


Tree=1
num_leaves=63
num_cat=7
split_feature=50 16 16 25 16 16 16 16 16 25 25 25 50 25 25 50 15 50 16 15 16 25 11 16 2 32 50 2 25 2 16 2 48 16 25 25 53 15 50 14 16 50 15 25 14 14 16 15 2 32 53 5 1 1 16 53 47 52 16 2 2 50
split_gain=34718.4 4643.38 4218.93 820.118 665.849 651.73 517.195 315.695 263.025 252.777 247.398 178.372 153.518 148.746 95.5809 89.1138 88.5889 77.7233 71.8666 63.5681 63.3878 59.4651 54.8818 53.8431 52.1127 45.6532 44.5165 42.5911 44.2904 38.5937 36.9416 36.9105 37.7733 33.8394 33.7308 33.4359 32.5246 31.9045 31.8632 31.7108 31.4372 31.3502 29.8387 29.3747 30.6435 27.9036 27.326 27.1052 26.8399 28.0541 26.7481 26.5202 26.2386 24.909 24.313 23.852 23.8358 23.5449 23.3946 22.3961 22.0087 22.0013
threshold=3.5000000000000004 2.8819995850723745 1.2382692000587421 3.5000000000000004 2.287458571408536 3.3928277196600067 0.93590108845079578 1.599336558775341 1.6955735229043272 4.5000000000000009 5.5000000000000009 5.5000000000000009 4.5000000000000009 4.5000000000000009 4.5000000000000009 2.5000000000000004 0.85418893014450203 5.5000000000000009 0.71754226264466137 0.85418893014450203 1.9670879050346399 2.5000000000000004 25.000000000000004 3.9189981260915085 0 7.5000000000000009 5.5000000000000009 1 6.5000000000000009 2 1.4701097818118665 3 0.10811126694717159 2.8003208578683441 3.5000000000000004 3.5000000000000004 16.750000000000004 0.89587973461402759 6.5000000000000009 1.8325494627242667 1.9387157803292638 4.5000000000000009 0.81068324164968719 3.5000000000000004 2.3174615720687197 3.3339870432574523 1.9242220118926376 1.8945885877146502 4 7.5000000000000009 34.550000000000004 3.5235000000000007 27.500000000000004 48.500000000000007 1.1472764606483909 34.650000000000013 1.0000000180025095e-35 16.050000000000004 1.011435595095721 5 6 5.5000000000000009
decision_type=8 8 10 8 10 8 10 10 10 8 8 8 8 8 10 10 10 10 10 10 10 10 2 8 1 2 8 1 10 1 10 1 10 10 10 10 2 10 10 10 10 10 10 10 10 10 10 10 1 2 2 2 2 2 10 2 2 2 10 1 1 10
left_child=2 4 6 7 13 11 18 21 19 17 12 36 34 20 31 42 24 29 -1 -5 -2 30 40 51 25 54 -14 28 33 41 60 32 -10 50 -7 -18 -3 -20 43 46 53 -6 48 44 -38 -16 -15 57 49 -9 -11 -12 -22 -17 -8 -42 59 -13 -27 -21 -4 -59
right_child=1 5 3 8 9 10 16 15 14 27 23 47 26 39 45 22 35 -19 37 56 52 -23 -24 -25 -26 58 -28 -29 -30 -31 -32 -33 -34 -35 -36 -37 38 -39 -40 -41 55 -43 -44 -45 -46 -47 -48 -49 -50 -51 -52 -53 -54 -55 -56 -57 -58 61 -60 -61 -62 -63
leaf_value=0.10639335395228866 0.021228461357024331 -0.069510361785453723 0.059342065628958697 0.039251186263860288 -0.00078135615998478505 0.015779588281211863 0.08206924031019476 0.065949867664449116 -0.0021517583671072484 -0.032865856724349211 -0.059441508866894914 -0.069476884442260411 -0.037930028682205422 0.010375813389769657 -0.0060324342209447102 0.023423112844549426 0.058681740142008068 -0.024595317727562575 0.090413127096178381 0.025160119780126441 -0.013606724205025435 0.040094660283292394 0.037050894075216632 -0.070113280667732425 0.042364971918634017 0.076653616050735507 -0.054404358550068622 -0.054522615981854899 -0.040158228316054027 -0.039138060509173532 0.046495611444011889 -0.030367267904965731 0.016083710522195756 -0.03682757496629168 -0.024196312319555428 0.036211425975995172 -0.026124090304619731 0.065205542612010794 -0.040827523962267132 -0.018361528519095779 0.0024801487396662945 -0.011395489257969606 0.032979256997582439 -0.032699357202466528 -0.0029639925969922646 -0.032978601502714464 -0.0074782638828191379 -0.061191497733211156 0.0012852617281930033 0.044776023468800885 -0.021077780774491066 -0.071782522266039414 0.007160045647808368 0.039235369299265722 0.068254233497699698 0.02074724399716571 -0.00079831462543160717 -0.038850904353852869 0.063449473311598545 -0.0095775413814369222 0.031049775750262278 -0.048304920258598047
leaf_weight=784.97777326405048 940.63815063238144 56.95353738963604 2042.1000973284245 825.00141559541225 1413.944886520505 87.890092790126801 1152.8790317177773 210.36993683874607 360.54163172841072 604.86721122264862 3011.0646821856499 108.61608505249023 495.49140948057175 273.69198130071163 729.60549116134644 722.52587135136127 692.26751494407654 808.81103286147118 2466.7841858714819 888.1654010862112 167.34510867297649 900.16836248338223 1018.8122246861458 3303.4492957442999 154.31523340940475 443.3874648809433 2378.22407746315 154.58703975379467 616.36339834332466 90.746880546212196 944.62948726117611 52.471389785408974 1337.3605577796698 566.37090504169464 132.04688131809235 217.58712524175644 725.50081877410412 132.25479778647423 706.68813952803612 511.71667049825191 227.9626550078392 1369.4997362196445 484.0448372066021 1720.4833791255951 177.83085559308529 110.64361809194088 987.75027479231358 351.9262285977602 29.030917599797249 610.17884740233421 2354.1535769999027 508.90087316930294 1670.1873029619455 380.0815132856369 440.03237302601337 826.94755166769028 114.74314816296101 837.12424278259277 1378.0735724419355 48.956892415881157 71.132558643817902 2323.4263890683651
leaf_count=3189 3872 237 8351 3387 5849 362 4703 862 1490 2516 12587 454 2062 1129 3018 2971 2830 3357 10038 3652 693 3689 4181 13841 630 1808 9931 643 2566 376 3870 217 5509 2356 548 893 3011 540 2943 2117 939 5666 1986 7152 735 458 4086 1470 119 2500 9766 2133 6892 1559 1799 3405 472 3489 5630 202 291 9687
internal_value=3.90111e-05 -0.0348819 0.0494975 0.0319405 -0.01181 -0.0519628 0.0783823 0.041085 0.0146074 -0.0205147 -0.0602109 -0.0402918 -0.0484825 0.00345111 0.00428096 0.0320408 0.0672351 -0.0109029 0.0931348 0.0288609 0.0106725 0.0513902 0.0274866 -0.0655285 0.0707859 0.0720704 -0.0515638 -0.0287543 -0.0277926 -0.00704983 0.0547154 0.0109351 0.0122115 -0.0256306 -0.00822135 0.0533081 -0.0320447 0.0891304 -0.031404 -0.00786324 0.0229702 -0.00600368 0.0428876 -0.0288659 -0.0215648 -0.00958069 -0.00360451 -0.0480068 0.0485329 0.0502045 -0.0234874 -0.0612257 0.0052688 0.0288738 0.0782529 0.0167998 0.0207116 -0.0465875 0.0666637 0.0233454 0.0583897 -0.0458009
internal_weight=50254.3 29456.3 20798 12935.5 12530.7 16925.6 7862.56 8467.98 4467.49 7979.34 9917.07 7008.55 3093.65 4551.33 2590.62 4509.95 4478.54 3683 3384.02 1876.87 2778.17 3958.03 3176.33 6823.41 3568.69 3414.37 2873.72 4296.34 4141.76 2874.19 3057.86 1750.37 1697.9 3525.39 219.937 909.855 3387.46 2599.04 3330.5 1773.16 2157.52 2783.44 1333.62 2623.82 903.332 840.249 1261.44 3621.09 849.58 820.549 2959.02 3519.97 1837.53 1102.61 1592.91 1054.91 1051.87 3269.17 1821.46 937.122 2113.23 3160.55
internal_count=207714 122526 85188 53128 51884 70642 32060 34723 18405 33095 41464 29178 12903 18789 10692 18522 18293 15248 13767 7713 11457 16201 13055 28561 14570 13940 11993 17847 17204 11891 12512 7216 6999 14638 910 3723 14078 10578 13841 7332 8874 11515 5467 10898 3746 3476 5215 15100 3481 3362 12282 14720 7585 4530 6502 4344 4326 13630 7438 3854 8642 13176
cat_boundaries=0 1 2 3 4 5 6 7
cat_threshold=1 1 1 1 1 1 1
is_linear=0
shrinkage=0.05


Tree=2
num_leaves=63
num_cat=9
split_feature=50 49 48 48 48 48 25 50 25 25 48 48 25 25 48 25 25 50 50 25 10 53 2 10 32 48 10 2 25 10 48 15 48 25 48 25 49 2 49 5 1 10 25 50 50 50 32 15 25 14 25 15 15 10 15 1 50 15 48 52 25 28
split_gain=31315.7 4286.11 3748.11 755.362 610.891 604.462 603.114 235.119 231.045 165.565 157.761 145.924 135.745 125.986 110.762 109.682 97.4175 80.9442 70.7588 70.3973 47.3728 47.1444 45.5398 44.0949 43.8401 42.8448 39.6238 39.3903 40.816 37.5131 35.873 34.4669 33.6288 33.3668 32.8821 31.3397 31.1372 31.0765 31.0587 30.8896 30.755 30.1493 30.01 29.7035 28.7915 28.7862 28.1682 27.3475 26.7853 27.2005 26.7739 26.0885 25.4018 24.1066 23.907 23.7852 22.9933 22.9399 22.8696 22.1046 21.5328 21.4607
threshold=3.5000000000000004 16.850000000000005 0.33908045977011497 0.57189542483660138 0.034782713898567567 0.11299795709908071 3.5000000000000004 5.5000000000000009 4.5000000000000009 5.5000000000000009 0.19803921568627456 0.23532668881506094 3.5000000000000004 2.5000000000000004 0.7417582417582419 6.5000000000000009 3.5000000000000004 2.5000000000000004 5.5000000000000009 4.5000000000000009 0 34.650000000000013 1 2 7.5000000000000009 0.16001024065540195 3 4 6.5000000000000009 5 0.4446640316205534 1.011435595095721 0.13423423423423425 5.5000000000000009 0.9545454545454547 1.5000000000000002 12.250000000000002 6 46.550000000000004 3.5205000000000006 23.500000000000004 7 3.5000000000000004 6.5000000000000009 4.5000000000000009 4.5000000000000009 7.5000000000000009 1.1785366391390579 3.5000000000000004 2.3174615720687197 5.5000000000000009 0.71754226264466137 1.8945885877146502 8 1.1150072000796054 29.500000000000004 1.5000000000000002 1.0816615128302691 0.017937234158928724 16.050000000000004 3.5000000000000004 96.500000000000014
decision_type=8 8 10 10 10 10 8 8 8 8 10 10 8 10 10 8 8 10 10 10 9 2 1 9 2 10 9 1 10 9 10 10 10 10 10 10 10 1 8 2 2 9 10 10 10 10 2 8 10 10 10 10 10 9 10 2 10 10 10 2 10 2
left_child=2 5 6 13 7 8 11 16 18 37 19 17 25 22 57 38 45 51 26 23 -12 40 30 -8 31 55 -2 28 36 -14 56 -23 -31 -22 -16 -13 -10 43 -9 58 -19 -27 -15 48 60 -3 -32 -18 49 -6 61 -1 59 -26 -40 -7 -4 -5 -17 -11 -28 -34
right_child=1 4 3 14 9 12 10 15 27 52 20 35 29 42 34 39 47 21 -20 -21 33 24 -24 -25 53 41 44 -29 -30 32 46 -33 50 -35 -36 -37 -38 -39 54 -41 -42 -43 -44 -45 -46 -47 -48 -49 -50 -51 -52 -53 -54 -55 -56 -57 -58 -59 -60 -61 -62 -63
leaf_value=0.050824994761522774 -0.023387561304525233 0.014950356336127055 0.047869548023644896 0.076895090931350024 -0.024592010854511372 -0.011536991196924714 -0.0121506515369522 -0.050332421898313155 -0.019292622307612455 -0.06706443965727453 0.0011818486845285899 0.049354139210101136 -0.021127680606314533 0.048090865575807773 0.087362335983253922 -0.068535059438281268 -0.030176000453850483 -0.030231904062864842 -0.023481611800396936 -0.01137764499054085 0.027064318278047207 0.041170078764743115 0.034157464082385014 0.011809876584100836 0.029464340402558298 0.0087963356298590735 0.0058983488289996479 -0.052404799671973236 -0.038477921048474473 -0.0092945989718676691 0.071479833881361782 0.02246120816395631 0.01040749606058005 0.0030762305083738908 0.099997739042513564 0.039019719381472973 -0.028757807592286796 -0.057233940029835152 -0.050281778585807416 -0.073269615945389555 0.014539849188096046 0.030687098352303929 0.031324236679089776 -0.038943385197353547 -0.0099949461185114621 -0.0218429124306064 0.059709005897599067 -0.049149097888777291 -0.031005231004529701 -0.0025430723637420182 -0.012737876157983805 0.034850869003601181 -0.058941736107548132 0.014700792400894884 -0.063344607827547653 0.01010086840852821 0.059707871593985343 0.041967697534690013 -0.060562585132574148 -0.043947110434132158 -0.007209935726491111 -0.0044770612813560184
leaf_weight=406.14161036908627 307.93278548121452 88.120593219995499 551.6461375951767 2219.1699080020189 711.45755913853645 144.29689157009125 221.50397284328938 2063.9022338986397 1586.3755240291357 106.93953065574169 261.1596263051033 1387.3975029438734 279.65262335538864 656.36463567614555 1467.5742367058992 1480.8000229299068 260.81814482808113 41.918047294020653 804.91454572975636 692.8673543035984 1488.7298515439034 743.286726385355 161.98024594783783 1197.1209945827723 548.37328964471817 280.7624734044075 776.01030573248863 152.83724567294121 611.24724075198174 947.24540524184704 1077.46493498981 368.08806262910366 817.43803916871548 160.60370625555515 793.18639156222343 1556.7676723897457 1921.1063879430294 106.4329217672348 497.1551084369421 1083.7404546141624 451.54302798211575 452.20276917517185 449.7469328045845 695.44713394343853 1261.0625086277723 133.99502670764923 962.09866282343864 698.73641756176949 1678.0385484546423 174.10540939867496 228.13082112371922 689.55237549543381 347.21099585294724 727.81641298532486 1185.4356913566589 1059.7830532193184 1599.3111511766911 48.028342306613922 2291.5189903974533 3129.9653026610613 525.41197766363621 344.10714927315712
leaf_count=1651 1279 362 2239 8959 2968 598 914 8730 6615 454 1074 5640 1158 2668 5913 6305 1094 173 3357 2874 6095 3040 658 4927 2244 1151 3210 643 2566 3922 4358 1506 3375 662 3189 6343 8023 447 2102 4615 1852 1854 1838 2921 5228 562 3897 2951 7022 720 946 2813 1470 2980 5029 4364 6486 195 9714 13176 2174 1421
internal_value=2.68533e-05 -0.0333994 0.0467168 0.0688659 -0.0499465 -0.0112487 0.0265034 -0.0579979 -0.0195715 -0.0386111 0.0111054 0.0354518 0.00327615 0.0563417 0.0839642 -0.0608706 -0.0370849 0.0292048 -0.0103805 0.00168593 0.0215159 0.0248056 0.060171 0.00806628 0.0277134 0.0133096 -0.00670667 -0.0274796 -0.0265547 -0.0041516 0.0611765 0.0349737 -0.00202106 0.0245795 0.0917955 0.0438897 -0.0244769 -0.0306469 -0.0544429 -0.0658296 0.0107366 0.0228405 0.0412735 -0.0297786 -0.00459294 -0.00724581 0.0659273 -0.043992 -0.0272924 -0.0202571 0.00292226 0.040772 -0.0460895 0.0213907 -0.0594849 0.00750779 0.0566718 0.0761552 -0.0636921 -0.0447109 0.000606254 0.00599795
internal_weight=50163.8 29234.3 20929.4 9986.57 16733.8 12500.5 10942.9 9784.22 7946.9 6949.6 4021.99 6920.88 4553.62 5458.61 4527.96 8602.55 1181.67 3976.72 3675.33 2111.49 1910.49 2881.03 4352.5 1418.62 2387.56 1937.05 2870.42 4271.57 4118.73 2616.57 4190.52 1111.37 2336.92 1649.33 2260.76 2944.17 3507.48 3365.48 3746.49 4856.06 493.461 732.965 1106.11 3259.05 2562.48 222.116 2039.56 959.555 2563.6 885.563 1389.68 1095.69 3584.12 1276.19 1682.59 1204.08 2150.96 2267.2 3772.32 3236.9 1301.42 1161.55
internal_count=207714 122526 85188 40400 70642 51884 44788 41464 33095 29178 16546 28242 18789 22144 18256 36495 4969 16259 15248 8715 7831 11795 17638 5841 9770 7967 11891 17847 17204 10822 16980 4546 9664 6757 9102 11983 14638 14078 15861 20634 2025 3005 4506 13631 10612 924 8255 4045 10710 3688 5742 4464 15100 5224 7131 4962 8725 9154 16019 13630 5384 4796
cat_boundaries=0 2 3 5 7 8 10 11 13 14
cat_threshold=4026532160 1 1 4026667008 1 3892314240 1 1 4026531840 1 1 3397953152 1 1160602376
is_linear=0
shrinkage=0.05


Tree=3
num_leaves=63
num_cat=10
split_feature=50 16 16 25 16 16 16 16 25 25 16 50 25 15 16 16 50 25 25 2 25 25 11 50 50 16 10 10 50 16 5 16 25 15 32 16 25 2 1 16 15 16 50 53 16 10 14 15 2 32 32 10 53 53 51 10 16 14 10 10 15 6
split_gain=28287.9 3968.84 3356.46 645.228 619.349 502.995 469.708 230.33 198.987 195.378 189.508 165.699 158.02 105.026 81.8999 78.6902 70.6399 68.8769 63.5605 53.7025 52.3537 50.9465 47.1755 45.7491 45.6347 43.8903 41.5393 40.5425 38.0538 37.4676 36.9928 34.5866 33.2237 32.655 32.3444 31.8873 30.2144 30.0962 29.7305 28.3877 27.7223 26.9182 26.5181 26.5 26.2152 26.2129 25.5287 24.7504 23.6963 24.7324 23.2129 22.6838 21.8414 21.3233 22.7774 20.6589 20.697 20.3825 20.3582 20.3019 19.3596 19.1941
threshold=3.5000000000000004 2.9258425522898488 1.2668484069787163 3.5000000000000004 2.4379801953848275 3.5849059018974727 0.97438160901885995 1.599336558775341 4.5000000000000009 5.5000000000000009 1.8000241202036604 4.5000000000000009 4.5000000000000009 1.1785366391390579 2.1341489346727696 0.76519735254682386 2.5000000000000004 3.5000000000000004 4.5000000000000009 0 2.5000000000000004 5.5000000000000009 25.000000000000004 4.5000000000000009 5.5000000000000009 2.1341489346727696 1 2 6.5000000000000009 3.2523087303165323 3.5205000000000006 1.0816615128302691 3.5000000000000004 1.8945885877146502 6.5000000000000009 1.4701097818118665 3.5000000000000004 3 29.500000000000004 4.1904117444420335 0.76519735254682386 1.9387157803292638 1.5000000000000002 31.750000000000004 2.8003208578683441 4 1.4230357494997927 0.81068324164968719 5 7.5000000000000009 7.5000000000000009 6 34.650000000000013 32.350000000000001 12.850000000000003 7 1.9670879050346399 2.2772541355929321 8 9 1.0471650770867933 3.4495000000000005
decision_type=8 8 10 8 10 8 10 10 8 8 10 8 8 8 10 10 10 10 10 1 10 10 2 10 10 10 9 9 10 10 2 10 10 10 2 10 8 1 2 8 10 10 10 2 10 9 10 10 1 2 2 9 2 2 2 9 10 10 9 9 10 2
left_child=2 4 6 7 8 9 15 20 14 24 21 36 23 28 43 -1 47 19 27 31 35 26 41 45 32 46 61 -12 -13 -11 39 -8 57 37 -28 -4 -7 44 -16 -15 50 51 -33 -2 -14 -6 -10 48 49 -9 -17 -18 -26 -25 -55 -45 -57 -3 -43 -24 -20 -5
right_child=1 5 3 10 12 11 17 16 25 29 18 13 33 30 38 40 22 -19 60 -21 -22 -23 59 53 52 -27 34 -29 -30 -31 -32 42 -34 -35 -36 -37 -38 -39 -40 -41 -42 58 -44 55 -46 -47 -48 -49 -50 -51 -52 -53 -54 54 -56 56 -58 -59 -60 -61 -62 -63
leaf_value=0.09164289295942836 -0.0065179261968379074 -0.021851387693915064 0.05260905976202588 0.015374091352125516 -0.022140996447667968 0.01546472331976018 0.066280352577860829 0.059562040172601263 0.0045142864755954503 -0.042739585836566257 -0.0057474794333259279 -0.036430332719464033 -0.024191367221166837 -0.057557576922071335 -0.017417820329374382 0.083734451312622846 0.01657435873482032 0.033187214778497238 0.0034902297792815044 0.032200038010027944 0.034630809215650135 -0.0011004321376145939 0.00014180315414941448 -0.0323796271910467 -0.045488468314579145 -0.016162093703291257 0.046207008597723122 0.012899359566835184 -0.053682022116248854 -0.051754150868305093 -0.069923187124285052 0.051371488468204142 -0.030738820384686696 -0.046916881114940988 0.025621753594839203 0.041361527365188472 -0.026478310466422319 -0.05252032440969312 0.0019800640233445937 -0.065908681715896977 0.065838659612735828 0.0024448915851421659 0.061703254475040915 0.0094514191439723557 -0.033912062635828112 -0.00096806918033314003 -0.011175952952335172 0.029238042093568308 -0.00092948719519687993 0.03981394994420015 0.073664357017014723 0.032388760410687757 -0.033959632782430658 -0.0084901248520561738 -0.020491410325473674 0.028435255628049234 0.013653377989932509 -0.00044012561604862827 0.018689665767480865 0.034889644443320433 -0.015720522165600073 -0.011283420766816068
leaf_weight=1213.0854981541634 138.22581222653389 359.41175752878189 1848.4398221075535 305.65598310530186 168.9173501431942 62.221171036362648 1465.6610987335443 213.32987108826637 542.10665658116341 2225.6248208284378 403.54841406643391 526.95861181616783 2415.463383808732 3080.8933293819427 222.98322883248329 1154.2911362051964 491.10098406672478 276.26377159357071 175.89416866004467 179.15416537225246 853.33218839764595 209.89928279817104 54.082037627696991 228.50866903364658 533.30910223722458 1615.5867733955383 219.40674556791782 1016.9291022270918 812.52121470868587 2390.9922422319651 1280.9792879521847 1228.3016200214624 1026.6697602570057 239.97399705648422 1464.6353425681591 956.08614468574524 138.54016403853893 119.43493044376373 1730.4848767668009 1519.4983718246222 508.77891877293587 273.02890211343765 1256.2528158426285 725.2102627158165 972.96368911862373 820.24115434288979 496.84448173642159 488.77765899896622 29.216016694903374 617.38885337114334 1134.9592086821795 620.57427029311657 1788.655720025301 622.24620977044106 1084.2634547799826 495.04568661749363 453.94821916520596 160.91555322706699 788.49698662757874 974.38063587248325 515.46477152407169 86.673296764492989
leaf_count=4856 569 1507 7460 1251 702 255 5893 862 2239 9477 1664 2246 10139 13259 928 4628 2004 1123 731 724 3459 864 220 956 2263 6747 893 4177 3481 10245 5548 4952 4329 1014 5968 3870 587 509 7153 6575 2043 1119 5060 2978 4113 3397 2061 1986 119 2500 4551 2526 7569 2594 4526 2024 1869 667 3225 3961 2143 356
internal_value=1.70782e-05 -0.0319968 0.0441776 0.0278531 -0.011608 -0.0487779 0.068628 0.0361333 -0.000522028 -0.0404628 0.0123997 -0.0582849 -0.0222759 -0.0595307 0.00686824 0.0810069 0.0286238 0.0573575 0.00160069 0.0589746 0.0454751 0.0223748 0.0245805 -0.0135646 -0.0321752 -0.0110063 0.0247479 0.00765226 -0.0468951 -0.0474083 -0.0624084 0.0601889 -0.0255224 -0.0290728 0.0281366 0.0487747 -0.0134791 -0.0278521 -0.000234153 -0.0603159 0.0763957 0.0204052 0.0565955 0.0145233 -0.0269826 -0.00481737 -0.00298906 0.0382222 0.0433287 0.0448853 0.0787419 0.0258429 -0.0366076 -0.018036 -0.0161154 0.0162605 0.0211416 -0.0152298 0.0147105 0.033403 -0.010833 0.00924917
internal_weight=50022.7 28999.6 21023.1 12606.3 13092.4 15907.2 8416.75 8208.23 6420.44 8485.58 4398.11 7421.61 6672.01 7220.85 3765.9 4011.11 4550.38 4405.63 2111.84 4129.37 3657.86 2286.27 3201.66 2924.18 3868.96 2654.54 2076.37 1420.48 1339.48 4616.62 5881.37 3950.22 1547 3747.84 1684.04 2804.53 200.761 3507.86 1953.47 4600.39 2798.03 2173.2 2484.55 1812.43 3388.43 989.159 1038.95 1348.71 859.935 830.719 2289.25 1111.68 2321.96 1935.02 1706.51 1674.2 948.994 520.327 1061.53 1028.46 691.359 392.329
internal_count=207714 122526 85188 51358 54518 68008 33830 33311 26568 36057 18047 31951 27950 31109 15521 16078 18522 17752 8715 16629 14789 9332 13055 12175 16335 11047 8468 5841 5727 19722 25382 15905 6503 15775 6861 11330 842 14761 8081 19834 11222 8874 10012 7440 14252 4099 4300 5467 3481 3362 9179 4530 9832 8076 7120 6871 3893 2174 4344 4181 2874 1607
cat_boundaries=0 1 3 5 6 8 9 11 12 14 15
cat_threshold=1 4160749825 1 4228009988 1 1 3355590720 1 1 4238479573 1 2861221395 4060282945 1 3758101640
is_linear=0
shrinkage=0.05


Tree=4
num_leaves=63
num_cat=10
split_feature=50 16 16 25 16 16 16 16 25 16 25 25 50 25 25 16 15 50 16 5 10 16 15 25 50 16 2 50 53 16 10 16 15 29 2 15 14 50 29 10 53 10 16 50 16 25 53 10 10 25 51 25 2 51 50 10 51 53 14 15 53 16
split_gain=25584.8 3676.9 3023.79 585.007 563.515 478.298 378.897 224.311 214.54 198.239 179.821 144.881 125.681 124.382 79.0652 73.6975 69.4006 68.9776 53.7593 49.2049 44.9975 43.8622 42.9583 42.5242 41.5446 39.8682 38.8179 37.5822 37.1277 33.0053 32.6055 30.7895 30.2711 29.3908 28.0084 27.7971 27.5929 27.3439 27.061 26.9629 26.7285 25.9523 24.2943 24.2437 24.217 24.1084 23.8324 23.404 23.3176 22.7818 22.6083 22.148 21.1401 20.847 20.8434 27.1595 20.2682 19.6807 19.2149 18.6531 18.603 18.171
threshold=3.5000000000000004 2.9258425522898488 1.2382692000587421 3.5000000000000004 2.4379801953848275 3.3928277196600067 0.93590108845079578 1.5150668501356619 5.5000000000000009 1.6193392260821904 4.5000000000000009 4.5000000000000009 4.5000000000000009 5.5000000000000009 4.5000000000000009 2.1341489346727696 0.85418893014450203 2.5000000000000004 0.71754226264466137 3.5055000000000001 0 1.8164190316151558 0.85418893014450203 2.5000000000000004 4.5000000000000009 2.1341489346727696 1 5.5000000000000009 34.650000000000013 1.0816615128302691 2 3.8907988472957267 1.8945885877146502 35.000000000000007 3 1.1472764606483909 2.7113724724615449 1.5000000000000002 35.000000000000007 4 16.750000000000004 5 2.0731521505764063 6.5000000000000009 2.8003208578683441 3.5000000000000004 31.750000000000004 6 7 3.5000000000000004 7.1500000000000012 6.5000000000000009 8 22.150000000000002 6.5000000000000009 9 9.6500000000000004 34.650000000000013 1.8325494627242667 2.0979991079743008 31.650000000000002 1.3216669431912595
decision_type=8 8 10 8 10 8 10 10 8 10 8 8 8 8 10 10 10 10 10 2 9 10 10 10 10 10 1 8 2 10 9 8 10 2 1 10 10 10 2 9 2 9 10 10 10 10 2 9 9 10 2 10 1 2 10 9 2 2 10 10 2 10
left_child=2 4 6 7 10 13 18 23 12 22 15 24 45 40 20 46 26 30 -1 31 -11 41 -5 52 47 48 29 -14 -23 -8 -9 -10 34 -32 44 -20 -16 -31 -30 -17 -3 -19 -22 59 -13 -7 -2 -6 -12 -18 -15 -52 -4 61 55 -26 -48 -29 -50 -42 -27 -24
right_child=1 5 3 9 11 8 16 17 19 14 25 32 27 50 36 39 49 21 35 -21 42 28 53 -25 54 60 -28 57 38 37 33 -33 -34 -35 -36 -37 -38 -39 -40 -41 43 -43 -44 -45 -46 -47 56 -49 58 -51 51 -53 -54 -55 -56 -57 -58 -59 -60 -61 -62 -63
leaf_value=0.089971787409142509 -0.0061990069498501655 -0.064814554754670434 0.04909412469127538 0.036312799520031434 -0.02007863561107796 0.01373968206897846 0.065676001527828681 0.020209317322891399 -0.052557890911087306 -0.00052175630094836796 -0.023588405413807308 -0.023109053470999896 -0.033140033400055044 -0.067264035077557113 -0.0023561458855549753 -0.0096013390034100348 0.048775096887902568 0.039322314506310928 0.075579902982167366 -0.066070186946278073 0.020603581414101148 0.0052157790610317346 0.041183622820047422 0.034223719984364978 -0.024317295483373427 -0.032474019696007543 0.035360201809176123 -0.05582873949541322 0.017695929018804284 0.050107491333154876 0.034251867794345803 -0.060686917338137164 -0.045091774130009699 0.048647301219718109 -0.050598005903065846 0.013152914440350039 -0.022629938366554681 0.062699737678693454 0.030439470429338384 0.0034210371564340337 -0.025077498391572639 0.024261385385290157 0.0067946122750363359 -0.036754616101982898 -0.032486282241491624 -0.020123591736069618 0.038694986884663718 -0.00074993033702645177 0.0042149333637501955 0.030366532237123801 -0.03962161235859063 -0.048960759180728099 0.0230606255333532 -0.0018075391501386898 -0.032949975219396292 -0.010722676092451838 0.014114840065745838 -0.045560641054770097 -0.012030016396728861 -0.054771743096544229 -0.013714808626751311 0.019075686842557626
leaf_weight=796.77922131121159 138.07424832880497 50.693401277065277 2413.7975823581219 690.84166166186333 185.70446532964706 88.437482759356499 1743.5058629959822 338.82067503035069 2464.4506186842918 646.6196051388979 109.80676744878292 2402.4986764788628 482.92329934239388 93.126447811722755 725.9638430327177 541.79211483895779 704.95683448016644 627.8411485850811 2626.095340102911 1830.8695635348558 883.12172971665859 361.37164011597633 109.34355539083481 689.41715732216835 583.12380599975586 145.26362377405167 156.47344917058945 652.87799914181232 1032.8088093400002 931.74239535629749 886.91783855855465 2208.8778944015503 237.27203284204006 590.73061028122902 117.81533893942833 17.953688576817513 218.2949653416872 802.37324418127537 698.20783416926861 1411.509320423007 2232.8379773199558 869.19750079512596 498.18656961619854 645.31138391792774 965.08608296513557 129.55596502125263 88.536788150668144 802.56733645498753 679.93668049573898 220.68177115917206 2243.5207412540913 885.36010640859604 80.583060085773468 101.37561655044556 189.44575937092304 1155.1495734900236 1589.748412296176 1636.0944592803717 248.57758964598179 54.169750884175301 1464.8832008242607 619.71237693727016
leaf_count=3189 569 219 9702 2797 774 362 6982 1369 10748 2659 457 10139 2062 407 3007 2249 2830 2541 10506 8080 3604 1478 444 2783 2444 612 630 2843 4205 3741 3580 9733 1014 2384 509 72 910 3217 2833 5832 9449 3523 2045 2759 4113 548 362 3325 2809 893 9659 3821 325 414 799 4833 6509 7088 1034 230 6135 2525
internal_value=9.5516e-06 -0.0306654 0.0418469 0.0270396 -0.0110604 -0.0469707 0.066061 0.0346867 -0.0540262 0.0124214 -0.000496141 -0.0212738 -0.0429404 -0.0361753 0.00490796 0.00651893 0.0566088 0.0284859 0.0785868 -0.0591222 0.0104727 0.0244681 0.0271008 0.0452152 -0.0129279 -0.0104809 0.059722 -0.0458152 0.0197929 0.0608181 0.0364253 -0.0564001 -0.0278111 0.0397379 -0.0266347 0.075156 -0.00704307 0.0559339 0.0228361 -0.000222652 -0.0288181 0.0310025 0.0155109 -0.0281958 -0.0257964 -0.00638564 0.0137688 -0.00459271 -0.00284166 0.0443863 -0.0429868 -0.0422643 0.0482531 0.0194373 -0.0172011 -0.0154847 0.0154115 -0.0484894 -0.000132661 -0.0257808 -0.0154072 0.0223914
internal_weight=49839.6 28755.9 21083.7 13083.2 13056.8 15699.1 8000.56 8589.69 9494.09 4493.46 6418.13 6638.66 2989.89 6205.02 2972.19 3769.66 4559.73 5405.9 3440.83 6504.2 2027.93 3589.43 1521.27 3183.8 2915.99 2648.47 3634.09 2771.9 2092.39 3477.62 1816.47 4673.33 3722.67 1477.65 3485.4 2644.05 944.259 1734.12 1731.02 1953.3 2983.01 1497.04 1381.31 2932.32 3367.58 217.993 1816.36 988.272 1038.32 925.639 3222.01 3128.88 2494.38 830.432 1927.72 1738.27 1678.29 2288.97 928.514 2287.01 1610.15 729.056
internal_count=207714 122526 85188 53128 54518 68008 32060 34723 41464 18405 26568 27950 12903 26544 12225 15521 18293 21913 13767 28561 8308 14580 6180 12810 12175 11047 14570 11993 8516 13940 7333 20481 15775 5964 14761 10578 3917 6958 7038 8081 12657 6064 5649 12438 14252 910 7440 4099 4300 3723 13887 13480 10027 3383 8076 7277 6871 9931 3843 9679 6747 2969
cat_boundaries=0 2 3 5 6 8 9 11 13 14 15
cat_threshold=4228042880 1 1 3892446293 1 1 4177793664 1 53864448 3422683200 1 4026531840 1 1 4186046592
is_linear=0
shrinkage=0.05


Tree=5
num_leaves=63
num_cat=9
split_feature=50 16 16 16 25 16 16 25 50 16 16 25 25 15 15 15 32 50 25 16 50 11 10 10 16 53 48 6 32 10 32 25 53 16 53 25 32 10 50 10 16 16 10 16 50 10 25 10 15 50 10 16 51 15 16 53 16 11 28 50 53 8
split_gain=23301 3394.96 2774.4 506.897 480.197 473.23 466.676 198.356 186.546 161.239 152.437 144.663 117.303 91.7133 85.0524 75.9302 69.0359 61.393 58.5697 55.9401 53.2631 45.1545 38.7424 36.6717 36.5286 33.6101 33.1425 31.2972 31.2078 30.8943 30.4761 28.9144 28.3743 28.2787 27.9517 27.7588 27.404 27.2984 34.1185 26.9668 26.3125 26.1888 25.7463 28.2989 24.8102 24.5782 23.6474 24.4686 23.6448 23.4369 23.2916 22.9972 22.7706 22.5399 22.1115 23.4499 21.4324 21.3427 20.2948 19.118 18.9223 17.875
threshold=3.5000000000000004 2.9258425522898488 1.3216669431912595 2.2137389487888997 3.5000000000000004 0.93590108845079578 3.5070566484845265 4.5000000000000009 5.5000000000000009 1.9530024665512917 1.6581827230727291 5.5000000000000009 3.5000000000000004 0.81068324164968719 1.0816615128302691 1.5789255615152133 7.5000000000000009 4.5000000000000009 5.5000000000000009 0.76519735254682386 4.5000000000000009 25.000000000000004 0 1 1.1472764606483909 33.150000000000013 0.064309346567411094 3.4765000000000001 6.5000000000000009 2 6.5000000000000009 2.5000000000000004 16.750000000000004 3.1289487232602951 35.45000000000001 5.5000000000000009 7.5000000000000009 3 2.5000000000000004 4 2.0081915103761951 3.9189981260915085 5 2.5217125584596238 5.5000000000000009 6 6.5000000000000009 7 0.89587973461402759 6.5000000000000009 8 1.0816615128302691 22.350000000000005 0.85418893014450203 1.4701097818118665 30.350000000000005 1.8325494627242667 25.000000000000004 109.50000000000001 2.5000000000000004 33.750000000000007 48.500000000000007
decision_type=8 8 10 10 8 10 8 8 8 10 10 8 8 8 8 8 2 10 10 10 10 2 9 9 10 2 10 2 2 9 2 10 2 10 2 10 2 9 10 9 10 8 9 10 10 9 10 9 10 8 9 10 2 8 10 2 10 2 2 10 2 2
left_child=2 3 5 12 10 19 11 17 14 18 30 32 -2 16 45 49 57 29 28 -1 34 37 -11 60 -15 -22 -27 44 61 -5 -4 54 -3 -34 -9 59 -23 -12 -39 58 -40 -17 -19 -44 -13 -8 47 -36 -21 -10 -38 -18 -26 -41 -32 -56 -25 -7 -30 -24 -14 -6
right_child=1 6 4 7 9 13 8 20 15 22 21 27 23 24 -16 41 51 42 -20 48 25 36 35 56 52 26 -28 -29 39 -31 31 -33 33 -35 46 -37 50 38 40 53 -42 -43 43 -45 -46 -47 -48 -49 -50 -51 -52 -53 -54 -55 55 -57 -58 -59 -60 -61 -62 -63
leaf_value=0.083403532984055881 0.015055807053971677 -0.064829639238024858 0.051937486232556278 -0.012250886399141434 0.019437659947676121 0.058705112325899811 0.0058219589347171998 -0.026870472151484595 -0.042995592608024311 -0.012045043955734032 0.0080008018603379034 -0.033073054557181236 -0.025656258722113169 0.050168667727343685 -0.042708269765750366 -0.056081838346591417 0.05691881934502651 -0.022890744402850834 -0.0044052016817436581 0.071328915869742077 -0.038018392820793445 0.039191332871455757 0.029436915637314383 0.01841068964906388 0.039453822453139754 -0.033801927507500822 -0.021800173911460607 -0.053431580294194307 0.011053475786644439 0.002112450580077245 0.044631907410523308 0.028814639101066922 -0.022871237389168169 -0.032085635333199185 0.00062561508252918232 -0.019439191504211681 0.036046045238488263 0.032581990117576634 0.024957664846148489 0.04612952580194063 0.012423045847148545 -0.064114561175422288 -0.0030196479730648026 -0.015662031020559103 -0.04328914023552017 -0.022939365202882787 -0.034109364206889668 -0.016358598352613045 0.04855538914179016 -0.052971482932776454 0.014165952085691699 0.046549439207236615 0.016513525865929284 0.019911969665758811 -0.0037364108708773944 0.036298637043971814 -6.2075886333538469e-05 0.070547288024804866 -0.024470589247576918 0.0046393530621514851 -0.0071184635379253434 0.043838548590699869
leaf_weight=1222.4456701129675 1626.5043244659901 54.087469220161438 384.90888975560665 515.89466392993927 121.81213644146919 794.41644304990768 138.38030490279198 358.25815942883492 808.88890013098717 656.07617920637131 395.27759218215942 768.49438846111298 171.90836331248283 985.04374624788761 605.1297188103199 1756.8247617483139 876.50261317193508 633.53683103621006 277.20118686556816 2116.7613159269094 562.05805476009846 673.36083407700062 88.463023543357849 185.50628368556499 1001.1874156743288 761.33075056970119 2353.1235101670027 592.17590050399303 582.12484282255173 1294.2006859481335 1190.6678981184959 800.56577761471272 1404.9689743965864 2044.0804832875729 435.2723830640316 108.67669388651848 243.97555941343307 666.83024497330189 915.03842389583588 86.989732310175896 771.82992427051067 2401.9953820258379 697.44235369563103 1211.6019356250763 2621.757713124156 147.34852479398251 95.010973483324051 410.17930176854134 120.46258975565434 2163.4316181242466 330.78607618808746 1371.160416379571 121.27561014890671 1423.466800570488 37.737151518464088 1189.1190760135651 1022.3980125933886 730.1879521459341 43.187786847352982 640.36370113492012 690.89650583267212 195.52752894163132
leaf_count=4909 6651 238 1547 2146 495 3180 587 1524 3569 2714 1607 3346 716 3947 2651 7821 3507 2662 1145 8475 2409 2716 364 762 4021 3276 9971 2608 2373 5354 4773 3225 5996 8774 1838 454 984 2684 3710 353 3143 10816 2903 5093 11476 624 406 1734 482 9604 1336 5493 488 5791 152 4782 4232 2922 177 2635 2861 793
internal_value=6.73259e-06 -0.0294794 0.0397602 -0.0106604 0.0236708 0.0601298 -0.0452859 -0.0168703 -0.0536646 0.0101547 0.0311826 -0.0363067 0.00500688 0.0514964 -0.0320922 -0.0563595 0.0561639 -0.00907507 0.01738 0.0748024 -0.0236901 0.0244595 -0.00305344 -0.00288636 0.0431418 -0.0267649 -0.024734 -0.0428259 0.0198417 -0.00203725 0.038641 0.0370506 -0.0288957 -0.0283322 -0.0149857 0.00408537 0.0323464 0.0208786 0.02291 0.0176679 0.0192224 -0.0607213 -0.0140854 -0.0109858 -0.0409734 -0.00960915 -0.0104584 -0.00780053 0.0701027 -0.0502566 0.0243273 0.0505931 0.0369753 0.021281 0.039778 0.0350672 0.00275213 0.0643768 0.00846461 0.00764921 -0.0106881 0.0344722
internal_weight=49696.1 28532.7 21163.4 13025.1 11824 9339.44 15507.6 9327.91 8022 4223.89 7600.1 7485.56 3697.21 5879.77 890.859 7131.14 3772.27 4352.68 2730.31 3459.67 4975.23 3997.1 1493.58 2070.71 2107.51 3676.51 3114.45 3982.43 2453.11 1810.1 3603 3218.09 3503.14 3449.05 1298.72 837.503 1248.12 2748.98 2353.7 2135.77 1686.87 4158.82 2542.58 1909.04 3390.25 285.729 940.463 845.452 2237.22 2972.32 574.762 2247.66 1122.46 1510.46 2417.52 1226.86 1207.9 1524.6 625.313 728.827 862.805 317.34
internal_count=208025 122648 85377 54538 47953 37424 68110 39316 35672 17294 30659 32438 15222 23558 3862 31810 15102 18158 11127 13866 21158 16180 6167 8571 8456 15656 13247 17430 9982 7500 14479 12932 15008 14770 5502 3453 5036 11144 9537 8694 6853 18637 10658 7996 14822 1211 3978 3572 8957 13173 2320 9000 4509 6144 9707 4934 4994 6102 2550 2999 3577 1288
cat_boundaries=0 2 4 6 8 10 12 13 14 15
cat_threshold=4186096256 1 4165634048 1 3960080384 1 3355574338 1 3826014988 1 3783393920 1 326387072 99229252 87892480
is_linear=0
shrinkage=0.05


Tree=6
num_leaves=63
num_cat=6
split_feature=50 16 16 48 16 16 16 15 50 15 15 15 32 15 32 15 32 15 15 50 50 15 15 32 32 16 15 15 32 50 16 10 10 32 50 50 15 2 10 6 14 16 53 11 32 53 52 10 53 16 10 6 15 6 16 53 15 44 50 48 28 53
split_gain=21113.6 3152.19 2527.99 460.386 458.557 445.93 322.047 175.459 154.633 143.16 120.736 114.317 109.729 94.5553 73.671 70.9232 67.9791 65.9933 65.8232 63.651 59.8201 58.5063 54.0243 53.8896 53.5322 52.9252 50.3394 48.9223 46.5295 45.9188 39.6343 34.3995 33.2689 32.7253 31.2424 29.7999 26.3839 26.3783 25.6548 25.606 25.4341 23.5073 23.3995 22.9864 22.917 22.6837 22.346 22.309 22.7853 22.2996 22.2986 21.9361 21.7851 21.1141 21.0395 20.908 20.7237 20.6577 20.604 20.1558 19.7296 19.618
threshold=3.5000000000000004 2.9258425522898488 1.2382692000587421 0.10811126694717159 1.6581827230727291 3.5849059018974727 0.93590108845079578 1.011435595095721 5.5000000000000009 1.2088489500472754 1.4230357494997927 0.81068324164968719 7.5000000000000009 0.89587973461402759 7.5000000000000009 1.0816615128302691 7.5000000000000009 0.81068324164968719 1.5789255615152133 4.5000000000000009 5.5000000000000009 0.85418893014450203 1.3986406674150766 7.5000000000000009 7.5000000000000009 0.76519735254682386 1.2088489500472754 1.1472764606483909 7.5000000000000009 4.5000000000000009 1.9387157803292638 0 1 7.5000000000000009 6.5000000000000009 2.5000000000000004 1.9387157803292638 2 3 3.5150000000000001 1.6193392260821904 1.8325494627242667 30.950000000000003 25.000000000000004 6.5000000000000009 34.750000000000007 21.250000000000004 4 38.150000000000013 2.3655488712929413 5 3.5185000000000004 0.89587973461402759 3.4145000000000008 2.7245741281253104 32.45000000000001 1.1785366391390579 1.0000000180025095e-35 6.5000000000000009 0.014981281814182731 105.50000000000001 35.45000000000001
decision_type=8 8 10 10 10 8 10 8 8 8 8 8 2 8 2 8 2 10 8 10 10 8 10 2 2 10 8 10 2 10 10 9 9 2 10 10 10 1 9 2 10 10 2 2 2 2 2 9 2 10 9 2 10 2 10 2 10 2 8 10 2 2
left_child=2 3 6 10 11 9 25 12 15 34 19 23 45 30 22 50 26 35 58 33 46 28 31 57 27 -1 -15 -13 -8 61 -5 43 55 -2 -3 -14 39 -30 -28 -22 -16 -40 -18 60 -23 -6 -11 -35 -49 -19 -7 54 -27 -34 -31 -21 -44 -4 -10 -20 -9 -12
right_child=1 5 4 13 7 8 21 14 18 20 29 24 17 16 40 -17 42 49 59 32 36 44 -24 -25 -26 52 38 -29 37 51 -32 -33 53 47 -36 -37 -38 -39 41 -41 -42 -43 56 -45 -46 -47 -48 48 -50 -51 -52 -53 -54 -55 -56 -57 -58 -59 -60 -61 -62 -63
leaf_value=0.079792830486243679 0.0036861596452375661 -0.0234382861688536 0.028098509556910279 0.02324978699744806 0.020919227750429495 0.0066818433549477715 0.061740924487853101 0.0020722694653012865 -0.041829402997464439 -0.044509447855884315 -0.027158359126700761 0.035842922082574384 0.031972666478943541 0.014168255477904471 0.00034411396500672335 -0.042199099752729174 -0.041456829989034986 0.010393444975997092 -0.06455151568873739 -0.036926399108272411 -0.041691466559234128 0.056106575026624167 -0.0068042068561038468 0.036439267975192625 0.018743842791149448 0.067999984933646382 -0.013956984856546305 0.017221536555192131 0.050952961096732488 -0.024588985891178815 0.0063864986146872282 0.020167858265606589 -0.019499020882394059 -0.019106453447707922 -0.034348398549235853 0.01781841183033946 -0.056329794728817141 0.02257289329114014 0.023428401539764804 -0.063409725578547599 -0.018143310714067315 -0.0012481803514940845 -0.0068377064074581165 0.020047253878870824 0.039315913045654731 0.037018979383290844 -0.028860375000144989 -0.020074503474969863 0.0024878749122715731 -0.0068308686788441765 -0.022705248230498302 -0.063019221970707237 0.046136386218851182 -0.0087099485618406074 -0.035019291853163888 -0.02024815813558728 -0.021834635077411943 0.053233628608336248 -0.051977861304324295 -0.05690986597817136 -0.031685915189494193 -0.0096936496933841265
leaf_weight=1214.0750606507063 650.69500394165516 2004.9885154813528 90.305506616830826 498.26706853508949 277.63263741135597 116.81148305535316 1386.8333688229322 342.05760718882084 679.84894861280918 285.03354302048683 239.11758063733578 1761.5908712297678 546.23900674283504 657.56019373238087 406.64658737182617 500.02726772427559 62.323228791356087 904.53386799991131 1357.7820418924093 217.90027238428593 3306.3276155441999 249.29174517095089 367.53990723192692 2032.832624450326 1134.0284335464239 2109.5339676737785 359.37839469313622 441.01672790944576 1778.1719122827053 1086.7302527427673 1158.7627022117376 969.81485231220722 695.38919731974602 433.1763474047184 975.41584408283234 1164.8574701547623 388.35250537097454 85.828609079122543 109.03040827810764 141.52529427409172 342.92442208528519 840.43282474577427 1052.7576124072075 165.05514977872372 1099.5472953170538 1032.1644949018955 1142.4618190079927 155.84299972653389 396.83350422978401 237.18496488034725 129.62146425247192 49.239698603749275 120.43968445062637 1303.4488540440798 870.98049356043339 1365.3261953145266 294.88262282311916 862.3321587741375 1892.0612336397171 2367.5628527998924 49.551092237234116 490.89924120903015
leaf_count=4909 2704 8638 362 2025 1126 495 5553 1398 3043 1252 1023 7077 2194 2695 1670 2221 263 3684 6261 934 14647 998 1519 8147 4582 8475 1498 1784 7116 4640 4761 3947 2947 1818 4284 4720 1737 344 447 640 1428 3493 4367 672 4404 4158 4983 652 1657 972 552 216 482 5516 3766 5797 1237 3453 8555 10802 203 2082
internal_value=2.11235e-07 -0.0282707 0.0377581 -0.0101595 0.0242342 -0.0436585 0.0598306 0.015228 -0.0528969 -0.0357651 -0.0176471 0.03393 0.0216257 0.00167495 0.00515427 -0.0313794 -0.00312595 0.016125 -0.0554476 -0.0131863 -0.0407231 0.0511735 0.0104052 0.0410379 0.0275702 0.0713925 0.00288164 0.0321145 0.0548059 -0.0261525 0.0114573 0.0145488 -0.0169187 -0.00501676 -0.0270089 0.0223369 -0.0439746 0.0496462 -0.00278873 -0.0425829 -0.00811378 0.001569 -0.0115044 0.00431943 0.0424192 0.0336064 -0.0319851 -0.010761 -0.00380538 0.0068152 -0.00942571 -0.0300584 0.0668191 -0.0124014 -0.0292294 -0.0224021 -0.0101192 0.0508509 -0.0492953 -0.059695 -0.00219923 -0.0154142
internal_weight=49448.8 28276.8 21172 12989 13128.3 15287.8 8043.72 6806.2 7043.72 8244.11 7955.58 6322.11 4162.61 5033.4 2643.59 746.46 3376.37 2852.82 6297.26 5218.61 5263.7 4599.67 1894.02 2985.47 3336.64 3444.05 1966.4 2202.61 3250.83 2736.97 1657.03 1526.48 3582.06 1636.55 2980.4 1711.1 3836.21 1864 1308.84 3447.85 749.571 949.463 1409.96 556.664 1348.84 1309.8 1427.5 985.853 552.677 1141.72 246.433 2006.95 2229.97 1998.84 1957.71 1583.23 1347.64 952.638 2571.91 3725.34 391.609 730.017
internal_count=208025 122648 85377 54538 53096 68110 32281 27691 31929 36181 33752 25405 16854 20786 10837 3268 14000 11570 28661 22025 23259 18415 7739 11962 13443 13866 8133 8861 13013 11727 6786 6220 15194 6831 12922 6914 17024 7460 5438 15287 3098 3940 5867 2273 5402 5284 6235 4127 2309 4656 1047 8622 8957 8463 8406 6731 5604 3815 11598 17063 1601 3105
cat_boundaries=0 2 4 5 7 9 10
cat_threshold=3561181840 1 4253221504 1 1 4030767104 1 4197090368 1 326386048
is_linear=0
shrinkage=0.05


Tree=7
num_leaves=63
num_cat=10
split_feature=50 16 16 16 16 25 25 16 16 25 50 25 25 16 16 16 15 25 11 53 25 16 11 5 10 14 10 10 50 50 25 14 5 15 10 16 1 10 5 53 25 25 50 2 16 10 17 18 2 15 15 16 33 25 16 53 50 5 50 39 15 16
split_gain=19144.6 2929.71 2311.36 461.928 434.841 419.73 266.997 265.657 208.778 155.631 124.699 113.545 90.536 86.8411 72.2921 70.9122 55.9495 51.4721 48.3292 42.465 40.3253 38.0887 37.4488 35.1926 34.8077 33.8068 33.6205 33.4414 35.7139 32.1062 30.22 30.097 30.0626 28.7308 28.6103 25.2054 25.1799 24.9662 24.8458 24.5774 24.2753 23.4922 23.1914 23.0814 22.5036 22.4824 20.9072 21.9259 20.2269 20.2251 19.6884 18.4937 18.3947 18.1992 18.1884 17.3824 17.3284 17.292 17.1103 17.0574 16.5035 16.4909
threshold=3.5000000000000004 2.9365093959507509 1.2088489500472754 1.5580892133149293 2.4379801953848275 5.5000000000000009 3.5000000000000004 0.89587973461402759 3.5849059018974727 4.5000000000000009 5.5000000000000009 5.5000000000000009 2.5000000000000004 3.5189793199236452 1.9530024665512917 2.1341489346727696 0.89587973461402759 3.5000000000000004 25.000000000000004 34.95000000000001 5.5000000000000009 0.71754226264466137 25.000000000000004 3.5425000000000004 0 1.8325494627242667 1 2 2.5000000000000004 5.5000000000000009 2.5000000000000004 2.2027494954295124 3.5205000000000006 1.9387157803292638 3 2.0081915103761951 30.500000000000004 4 3.5315000000000007 33.95000000000001 3.5000000000000004 5.5000000000000009 5.5000000000000009 5 1.9095150692894911 6 7 4.5000000000000009 8 1.4468497739944199 2.0979991079743008 3.180132835422278 9 3.5000000000000004 4.0386552682304071 34.250000000000007 4.5000000000000009 3.5045000000000006 2.5000000000000004 28.500000000000004 0.71754226264466137 1.011435595095721
decision_type=8 8 10 10 10 8 8 10 8 8 8 8 8 8 10 10 10 10 2 2 10 10 2 2 9 10 9 9 10 10 10 10 2 10 9 10 2 9 2 2 10 10 10 1 10 9 1 2 1 10 10 10 1 10 8 2 10 2 8 2 10 10
left_child=2 4 7 12 9 10 18 21 23 15 17 19 39 -12 20 -2 22 31 27 43 37 -1 36 33 -16 26 44 52 60 34 -23 -3 54 42 -21 -30 -9 -8 49 -4 -14 58 -7 53 -11 -17 -20 -48 -41 -13 -19 -44 -5 -6 -10 -39 -33 -46 -26 -54 -29 -38
right_child=1 5 3 6 11 8 14 16 32 25 13 38 40 -15 24 45 -18 50 46 29 -22 30 -24 -25 41 -27 -28 28 35 -31 -32 56 -34 -35 -36 -37 61 55 -40 48 -42 -43 51 -45 57 -47 47 -49 -50 -51 -52 -53 59 -55 -56 -57 -58 -59 -60 -61 -62 -63
leaf_value=0.079484741564306377 0.01305028823296148 -0.018432433297036192 0.027914024486336887 0.0209596444320461 -0.012214305474890254 -0.030900416997038924 0.022079099659261865 0.038762377396717236 -0.050734244574654669 0.006697482763404765 -0.029772407324599098 -0.023316422418237611 0.031063064177158109 -0.044928555020452052 -0.011582353638400898 0.0043022461576431147 0.036415503029163243 -0.025648629480767716 0.037385297129309956 -0.014469351757115818 -0.009297688972854606 0.067825310380206533 0.058689572207174412 -0.059787657699327271 0.02752997585372496 -0.018275724106984328 0.00059553955120096981 0.039041223230443643 0.023009082947336692 -0.018645165319630719 0.037664443241278156 0.017032224736268978 -0.063603596036026541 -0.053146666617159943 -0.0029145676761673216 0.011433469958472588 0.057684876249677663 -0.0059812523221763917 -0.048036280615791335 0.04269488251462332 0.019981463747539004 -0.018011733149615506 -0.034849524243510815 -0.049228242288910262 -0.013723683905781513 -0.0064269041078796278 0.025493384395515975 -0.031195643873293089 0.01511698149813475 -0.03407384735473367 -0.054096990623077351 -0.043310809035416342 -0.018600687600216586 -0.027467406072265652 -0.057625722104837268 0.012172066498669578 -0.0091699369365906783 -0.037951918591113958 0.0041270680180521 0.0073482064045332198 0.025223329801605979 0.048134010621823896
leaf_weight=787.67990691959858 1824.5178786218166 391.05561336874962 346.78402836620808 173.45040315389633 349.82686008512974 790.95147331058979 649.12112948298454 486.19265845417976 2046.5034611523151 122.8859226256609 2009.8174699097872 1945.5695801079273 1424.3082125931978 1784.0993022918701 654.75175303220749 1044.3283602297306 592.38900923728943 1222.8283165246248 739.602932035923 897.00506350398064 199.57145202159882 1966.12645226717 1647.8516929894686 233.11847364902496 88.931802749633789 822.12666290998459 936.91805624961853 346.41637845337391 1207.4879514873028 930.6928652971983 86.714257881045341 124.13525046408176 1022.7125970423222 367.83716225624084 1351.1281137168407 770.24822977185249 692.68795290589333 159.15137921273708 131.40030816197395 2734.7271025329828 756.77942624688148 107.95649607479572 959.11362779140472 78.106098964810371 673.87518501281738 899.68146656453609 815.29142723977566 17.421309694647789 68.145298406481743 563.47796522080898 64.001698568463326 1976.8103330135345 82.496321797370911 443.45782707631588 1799.1489758193493 769.19999350607395 128.33178663253784 82.68033093214035 641.30580453574657 272.59896358847618 574.37239901721478 1300.483736872673
leaf_count=3223 7439 1677 1388 701 1474 3514 2633 1950 9443 507 8810 8398 5713 8119 2714 4313 2372 5316 2970 3786 828 7956 6615 1076 364 3473 3920 1387 4866 3980 349 516 4832 1677 5683 3125 2786 650 581 10943 3059 454 4282 340 2834 3736 3274 70 273 2460 282 8939 334 1897 8445 3129 548 351 2635 1102 2305 5209
internal_value=-5.46573e-06 -0.0271166 0.0358922 0.0235714 -0.0098599 -0.042265 0.0161729 0.0580563 -0.0488814 -0.000550007 -0.0316356 -0.0187751 0.0350484 -0.0368996 0.00506399 0.00597051 0.050785 -0.0212898 0.023439 -0.0135159 0.0118782 0.0701377 0.0528474 -0.0408911 -0.00304691 -0.00986321 -0.0060555 0.0201092 0.0222112 -0.0108354 0.0665513 -0.00974418 -0.0559846 -0.0398152 -0.00760225 0.0185009 0.0489646 0.0145572 -0.0268423 0.0404708 0.027218 0.00371439 -0.0384994 -0.0232944 -0.0130002 -0.000674099 0.0306969 0.0240189 0.0420244 -0.0257323 -0.0270635 -0.0405467 0.00800987 -0.020741 -0.0539584 0.00896341 0.00371338 -0.0163715 0.00697719 0.00128357 0.0304219 0.0514532
internal_weight=49178.4 28018.1 21160.2 13600.1 13097.7 14920.5 8269.38 7560.13 9196.2 6407.01 5724.27 6690.66 5330.74 3793.92 3269.99 3768.53 4719.61 1930.35 4999.39 4050.22 1777.04 2840.52 4127.22 4327.83 1492.95 2638.49 1816.36 3427.07 2898.52 3178.83 2052.84 643.523 4868.37 4094.71 2248.13 1977.74 2479.36 1577.47 2640.45 3149.66 2181.09 838.194 3726.88 871.391 879.441 1944.01 1572.32 832.713 2802.87 2509.05 1286.83 2935.92 528.546 793.285 3845.65 928.351 252.467 756.556 730.238 355.095 920.789 1993.17
internal_count=208025 122648 85377 54917 55172 67476 33541 30460 42208 26573 25268 28599 21376 16929 13407 15488 18932 8339 20134 17160 7240 11528 16560 19488 6167 11085 7612 13820 11683 13449 8305 2741 22720 18412 9469 7991 9945 6412 11439 12604 8772 3453 16735 3711 3692 8049 6314 3344 11216 10858 5598 13221 2137 3371 17888 3779 1064 3185 2999 1436 3692 7995
cat_boundaries=0 2 4 6 7 8 9 10 11 12 13
cat_threshold=4186096256 1 4216369160 1 2818703426 1 3096117633 162603008 1 49890651 3087 1 2569
is_linear=0
shrinkage=0.05


Tree=8
num_leaves=63
num_cat=6
split_feature=50 16 16 16 25 25 16 16 48 25 25 16 50 32 16 25 15 25 16 50 25 50 32 53 16 10 50 53 6 25 32 5 5 10 50 11 53 10 18 28 10 48 16 2 28 14 25 10 32 32 6 16 16 50 53 16 15 5 44 50 53 15
split_gain=17370.8 2730.9 2120.23 498.357 417.248 338.76 251.671 181.009 157.516 144.173 131.706 112.312 106.213 72.2939 63.1226 58.1731 51.5195 50.2213 46.5416 45.5432 42.1834 40.7337 37.9326 37.9127 36.8989 35.7927 34.3721 33.383 32.1518 28.0356 26.7713 26.6582 26.3776 26.1284 24.8495 24.7281 23.9412 23.4436 23.191 23.8986 23.0336 22.7662 22.7557 22.3713 22.103 21.6234 21.4419 21.7772 20.5789 20.4894 20.9625 20.2993 20.2625 19.204 18.9816 18.8412 18.3522 17.7251 17.6822 17.3532 17.2319 17.1901
threshold=3.5000000000000004 3.037351072839019 1.2088489500472754 2.4379801953848275 2.5000000000000004 5.5000000000000009 0.89587973461402759 1.8640500836336089 0.02743489387325004 3.5000000000000004 5.5000000000000009 1.5580892133149293 5.5000000000000009 6.5000000000000009 3.5737481633217896 4.5000000000000009 0.89587973461402759 4.5000000000000009 2.1222436103259104 4.5000000000000009 3.5000000000000004 4.5000000000000009 7.5000000000000009 35.250000000000007 0.71754226264466137 0 2.5000000000000004 32.850000000000001 3.4765000000000001 2.5000000000000004 7.5000000000000009 3.5205000000000006 3.5335000000000005 1 5.5000000000000009 25.000000000000004 33.45000000000001 2 3.5000000000000004 96.500000000000014 3 0.064309346567411094 1.5368094061055313 4 97.500000000000014 2.1916379270371573 3.5000000000000004 5 6.5000000000000009 7.5000000000000009 3.4555000000000002 1.011435595095721 1.9670879050346399 1.5000000000000002 30.950000000000003 1.8945885877146502 1.3986406674150766 3.4905000000000004 19.500000000000004 6.5000000000000009 37.150000000000013 1.4701097818118665
decision_type=8 8 10 10 8 8 10 10 10 8 8 10 8 2 8 10 10 10 10 10 10 10 2 2 10 9 10 2 2 10 2 2 2 9 10 2 2 9 2 2 9 10 10 1 2 10 8 9 2 2 2 10 10 10 2 10 10 2 2 10 2 8
left_child=2 3 6 9 11 12 24 13 31 21 19 43 20 -6 -14 23 22 25 38 33 45 40 35 -9 -1 -15 54 -21 34 -26 -28 61 41 -5 -10 -8 -20 -32 39 55 -2 -12 -27 48 56 -3 -25 -48 -4 50 -41 -24 -42 -53 -13 -11 -44 -47 -40 -29 -50 -7
right_child=1 5 4 10 7 8 16 15 28 18 32 26 14 17 -16 -17 -18 -19 36 27 -22 -23 51 46 29 42 30 59 -30 -31 37 -33 -34 -35 -36 -37 -38 -39 58 49 52 -43 44 -45 -46 57 47 -49 60 -51 -52 53 -54 -55 -56 -57 -58 -59 -60 -61 -62 -63
leaf_value=0.07655819646121248 0.0055624082078762193 -0.018413401959585001 0.051421805715175899 -0.017083500635051704 0.037653772784875632 -0.046495346280165786 0.05010306836642775 -0.0040677947275760832 -0.029812014958147306 0.016745041568320275 -0.030899435593280414 0.00037106123640349276 -0.03045674179750172 0.027392973386838951 -0.044094553542513744 -0.0093249862998796736 0.034599369581516583 0.0057031897425193307 -0.022899323418758107 -0.030039267164937006 -0.026809899447952396 -0.0014039824116033901 0.052271028631009166 0.017565749218758427 0.064987374067413436 0.021898743340488983 0.02759766098492162 -0.013744276503030551 -0.051638007091758267 0.035890478125873232 0.02259109275168723 -0.062113626710742657 -0.047278374775217492 -0.0018265312097425386 -0.041109189858355141 0.061188687249035437 -0.0088882283651736792 0.0075730624817194536 -0.034020379946197159 0.012991877428588552 0.026678146698799029 -0.022243764736351087 0.017228409892798592 0.015671325858146162 -0.00030766145092129063 0.0088869037608034981 -0.0019850447955906095 0.013174363564032208 0.031070945577160954 -0.017569979442774549 -0.024628139179742964 0.038525411426742463 0.012390416787547265 0.05229091381807302 0.033293040782355392 0.0015840934997925192 -0.03233139803153532 -0.027984316102364393 0.02136203153678029 -0.025536392109235112 0.040175734165799899 -0.054671465140979918
leaf_weight=777.16374890506268 747.43050366640091 281.07074308395386 311.16681894659996 387.05452974140644 542.5351824015379 840.80314788222313 1082.5885790139437 497.69092629849911 595.13005217909813 300.49291585385799 1342.5519552379847 45.571932971477509 1813.4307855367661 1279.450237467885 1594.5030286759138 606.83869504928589 592.30988462269306 668.81475640833378 359.91768065094948 431.9710428416729 1027.4781038016081 723.58812041580677 745.27153204381466 805.91748090088367 1949.7935164272785 920.44805428385735 905.35334232449532 2601.3655722141266 600.69003093242645 86.456777021288872 609.52813954651356 964.76924179494381 152.86979211866856 986.68358075618744 2673.1989542096853 939.70817582309246 1994.1173267513514 508.43992882966995 77.011975139379501 154.91886624693871 379.74282883107662 1749.7804743498564 683.60221295058727 104.14338004589081 301.57745234668255 185.10069830715656 427.45955695211887 524.10902643203735 697.83263573050499 239.76428106427193 48.660217389464378 1007.9075988382101 716.06111340224743 338.44342078268528 1115.0664453208447 644.34310518205166 19.204411551356316 39.56171627342701 17.730395168066025 354.50312858819962 2035.5844652801752 2730.8506722301245
leaf_count=3223 3058 1211 1246 1641 2180 3964 4359 2033 2679 1233 5986 183 8056 5142 7383 2542 2372 2729 1534 1877 4510 2986 3010 3249 7956 3694 3640 11126 2798 349 2455 4678 692 4135 12259 3792 8391 2051 319 641 1534 7579 2758 417 1219 779 1757 2138 2793 995 202 4041 2936 1358 4465 2671 78 168 73 1542 8148 13012
internal_value=-9.53705e-06 -0.0260138 0.0341506 -0.0109206 0.0223779 -0.0423102 0.0554589 0.0142115 -0.0484177 -0.000523567 -0.0192361 0.0317629 -0.0319206 0.0205599 -0.0368376 0.00441697 0.0483865 0.0181655 -0.00665975 -0.0139421 -0.0209914 0.00864897 0.0503715 0.00811476 0.0672895 0.0207667 0.0251412 -0.0170559 -0.0410061 0.063752 0.0212065 -0.0547388 -0.0270039 -0.00626288 -0.0390521 0.0552543 -0.0110304 0.0160309 0.000278416 0.00191192 0.0125954 -0.0260017 0.0161359 0.0384588 0.0110154 -0.00917006 0.0115647 0.00648211 0.0392383 -0.00766534 0.0039998 0.0456505 0.0171849 0.0419858 0.0320004 0.00640584 0.0158742 0.0023941 -0.0236559 -0.0151585 0.0378513 -0.0527467
internal_weight=48887.1 27757.1 21130 14410.6 13610.3 13346.6 7519.64 7277.65 8405.44 6403.78 8006.78 6332.69 4941.15 4415.63 3407.93 2862.02 4706.23 3873.1 3836.96 4761.58 1533.21 2566.82 4113.92 2255.18 2813.41 3204.28 3183.96 3387.84 3869.02 2036.25 2023.32 4536.42 3245.2 1373.74 3268.33 2022.3 2354.04 1117.97 1482.92 1388.18 1843.23 3092.33 1924.83 3148.73 1004.38 505.733 1757.49 951.569 3044.58 443.343 203.579 2091.62 1095.8 1346.35 1160.64 944.836 702.807 224.662 94.7424 2955.87 2733.42 3571.65
internal_count=208025 122648 85377 61151 54917 61497 30460 29519 39390 26573 34578 25398 22107 17800 15439 11719 18932 15620 16059 20321 6668 10514 16560 9177 11528 12891 12794 14545 17736 8305 8146 21654 14257 5776 14938 8151 9925 4506 6134 5742 7528 13565 7749 12604 4055 2158 7144 3895 12187 1838 843 8409 4470 5399 4648 3904 2836 947 392 12668 10941 16976
cat_boundaries=0 1 3 4 6 7 8
cat_threshold=61876936 4161404993 1 97904128 3934824592 1 1 4269950596
is_linear=0
shrinkage=0.05


Tree=9
num_leaves=63
num_cat=13
split_feature=50 16 16 50 16 25 25 16 48 25 15 50 15 25 16 48 16 16 16 32 32 10 25 32 16 16 53 15 15 32 50 6 25 10 10 5 25 16 53 50 51 10 10 18 33 28 2 53 44 14 10 14 15 20 15 28 10 2 26 50 10 10
split_gain=15769.1 2545.02 1955.87 455.997 420.246 323.852 219.891 207.198 153.079 133.909 120.785 99.4035 84.2534 62.6572 60.0085 56.8681 55.0033 53.2786 47.7561 47.1152 42.7947 40.377 38.7614 37.0132 36.2514 36.0181 35.495 33.978 33.4435 32.5761 31.8869 30.7508 28.4253 28.0128 27.6967 26.2792 26.1662 24.2264 24.0909 23.4855 22.7585 22.4622 22.168 22.0498 21.7343 21.492 21.4552 21.3846 20.2936 19.6486 19.303 20.6533 18.9146 18.628 18.2582 17.8868 17.6281 17.5839 17.5283 19.9623 22.3116 17.2336
threshold=3.5000000000000004 3.037351072839019 1.1785366391390579 4.5000000000000009 1.5580892133149293 5.5000000000000009 3.5000000000000004 0.89587973461402759 0.02743489387325004 3.5000000000000004 1.4230357494997927 5.5000000000000009 0.81068324164968719 5.5000000000000009 3.5737481633217896 0.078432578740157494 2.1341489346727696 2.0346842880759621 2.7245741281253104 6.5000000000000009 7.5000000000000009 0 3.5000000000000004 7.5000000000000009 2.2137389487888997 0.71754226264466137 35.45000000000001 0.89587973461402759 1.1150072000796054 7.5000000000000009 2.5000000000000004 3.4765000000000001 6.5000000000000009 1 2 3.5205000000000006 2.5000000000000004 1.8164190316151558 24.150000000000002 5.5000000000000009 17.050000000000004 3 4 3.5000000000000004 5 105.50000000000001 6 34.350000000000001 3.5000000000000004 2.1916379270371573 7 2.8819995850723745 0.81068324164968719 1.5000000000000002 1.5789255615152133 93.500000000000014 8 9 10 6.5000000000000009 11 12
decision_type=8 8 10 10 10 8 8 10 10 8 8 8 8 10 8 10 10 10 10 2 2 9 10 2 10 10 2 10 10 2 10 2 10 9 9 2 10 10 2 10 2 9 9 2 1 2 1 2 2 10 9 10 10 2 10 2 9 1 1 10 9 9
left_child=2 3 7 9 12 11 19 25 35 24 15 22 20 17 -13 38 43 33 -12 -6 -4 44 49 28 -2 -1 54 29 46 48 52 39 41 -8 -26 -7 -27 -32 -5 -10 47 -28 -19 45 -21 61 -14 -17 -9 -3 -15 -52 -23 -39 -18 -46 -49 -31 59 60 -40 -11
right_child=1 5 4 10 6 8 13 27 31 16 18 14 23 50 -16 40 26 42 -20 21 -22 30 -24 -25 34 36 32 -29 -30 57 37 -33 -34 -35 -36 -37 -38 53 58 -41 -42 -43 -44 -45 55 -47 -48 56 -50 -51 51 -53 -54 -55 -56 -57 -58 -59 -60 -61 -62 -63
leaf_value=0.073920208711660371 0.014508219852081689 -0.017582095254490667 0.046552097039605923 -0.052268748283381739 0.034928927001478545 -0.05123063404372985 -0.0004724024557218856 0.046970693084851328 -0.028617392002076587 -0.0040290061638774011 -0.020043952823726841 -0.029225658792476496 0.034655087852601824 0.0010821015802777816 -0.042612563631853534 -0.015948395501429635 -0.017361445397857327 -0.0095378231101957856 -0.032859006009782685 0.018673100556583788 0.033760618996382531 0.033074642781590918 -0.025682553115364378 0.017711158743143923 -0.0069677320708157204 0.062381138122631324 0.00021201344138707673 0.035012709051010164 0.018012700488944738 0.045240095694137013 0.024635495591340061 -0.050068110897105535 -0.031958579310581478 0.015249083564816829 0.0087187797976134122 -0.060650829598237914 0.034218059181682067 0.0097447171406301585 -0.00059290496237434905 -0.039660876352307264 -0.0176497239026542 -0.011279526390667587 0.0048364288976856457 -0.022832291024452996 0.011518361535477476 -0.014799856577701463 0.0012293113447019454 0.0012620232994440725 0.057733994358311606 0.002272367728395622 -0.01597148410303665 -0.052249622120111749 0.019653071994463464 0.020834817597591152 -0.042021586170364153 -0.008184320434142479 -0.0091953542346345733 0.022553626478158749 -0.02240031269702674 -0.026639537748273781 -0.015674726699179211 0.010499215367173598
leaf_weight=764.96090222895145 1326.9840437918901 279.67845660448074 985.05987474322319 52.233316138386726 550.25837223231792 3495.4447291493416 359.63367126882076 720.35161252319813 589.13036106526852 277.23252335190773 1488.4278050214052 1795.7849062979221 1434.4186629652977 143.88136237859726 1568.1374838650227 421.9495545476675 538.30978678166866 492.22624933719635 1421.0873406082392 312.508615270257 1944.7736391872168 768.55045984685421 1019.1664196699858 916.42402175068855 465.39078329503536 1930.1858291476965 878.5110205411911 509.93694654107094 452.80079726874828 1799.0643791109324 980.95617581903934 588.85190610587597 107.15581664443016 1458.2515159249306 682.26553907990456 939.28498157858849 86.155913144350052 868.14699521660805 363.46701203286648 2633.3044727891684 517.66540925204754 821.82898361980915 567.22803023457527 80.827202662825584 229.47924832999706 132.10354451835155 49.670038118958473 922.8971836566925 1117.0111847221851 224.74694755673409 202.89792041480541 48.636139884591103 398.66662955284119 671.54565557837486 87.221779316663742 231.29569609463215 705.66174311935902 89.66951659321785 1270.1721789985895 251.74324150383472 802.93230898678303 746.75630515813828
leaf_count=3223 5388 1211 3954 235 2210 16976 1470 2917 2679 1149 6422 8056 5744 603 7383 1792 2313 2042 6368 1258 7792 3075 4510 3682 1939 7956 3708 2044 1819 7264 3934 2798 468 5911 2824 4678 349 3498 1569 12259 2185 3488 2327 336 925 549 199 3877 4533 947 848 206 1597 2705 380 932 2976 360 5522 1111 3473 3079
internal_value=-1.28189e-05 -0.024958 0.032518 -0.0104118 0.0217623 -0.0408657 0.0145417 0.0540793 -0.0469103 -0.000108526 -0.0181153 -0.0306673 0.0321056 0.00446143 -0.0354661 -0.0136278 -0.00616966 0.00702609 -0.0263032 0.0211247 0.0380613 0.0194221 -0.0200719 0.0259902 0.00888028 0.0646824 -0.0105341 0.0471175 0.0299073 0.0487741 0.0215996 -0.0395618 -0.00698138 0.0122202 0.00237294 -0.0532259 0.0611778 0.0184943 -0.0186374 -0.0376419 -0.00828195 -0.00540731 -0.00188628 0.00241528 0.00864625 0.00418044 0.0335364 -0.00591699 0.0535142 -0.00873593 -0.014201 -0.0221073 0.0284905 0.0145817 -0.0208 0.0015936 -0.00331792 0.044163 -0.0179839 -0.0137733 -0.0111145 0.00662906
internal_weight=48581 27496.4 21084.6 14362.8 14067.3 13133.5 8284.16 7017.34 8246.02 6144.59 8218.24 4887.51 5783.15 3272.75 3363.92 5308.72 3669.95 2877.34 2909.52 5011.41 2929.83 4461.15 1523.59 2853.31 2474.64 2781.3 2433.03 4236.03 1936.89 3726.1 3687.87 3811.29 1807.5 1817.89 1147.66 4434.73 2016.34 2520.65 2740.55 3222.43 2568.17 1700.34 1059.45 1236.92 773.284 1156.09 1484.09 2050.51 1837.36 504.425 395.415 251.534 1167.22 1539.69 625.532 460.775 1628.56 1888.73 2688.31 1418.14 1166.4 1023.99
internal_count=208025 122648 85377 61151 56731 61497 33541 28646 39390 25621 35530 22107 23190 13407 15439 22740 15470 11750 12790 20134 11746 17924 6668 11444 10151 11528 10357 17118 7762 15074 14809 17736 7664 7381 4763 21654 8305 10137 11910 14938 10830 7196 4369 5113 3115 4777 5943 8645 7450 2158 1657 1054 4672 6203 2693 1857 6853 7624 11675 6153 5042 4228
cat_boundaries=0 2 4 6 8 10 11 12 13 14 15 16 18 20
cat_threshold=3892449347 1 3825360000 1 3912105984 1 99882836 1 4253204608 1 2573 1 1199680512 1383883930 1 28 101488911 1 4027449344 1
is_linear=0
shrinkage=0.05


Tree=10
num_leaves=63
num_cat=10
split_feature=50 16 16 16 16 50 16 15 15 16 32 15 15 16 32 32 15 16 15 15 2 15 32 15 16 32 15 15 50 16 15 1 15 10 32 15 14 7 15 10 44 10 10 28 11 16 11 10 15 32 11 52 16 28 52 14 16 10 10 2 15 10
split_gain=14323 2370.93 1804.83 393.395 392.7 316.396 223.388 168.453 159.07 114.23 93.2892 91.4123 80.2087 74.3481 60.5823 60.0944 57.0762 55.2681 48.0546 47.0372 42.0786 41.0613 42.2518 40.9854 37.8099 37.4199 36.1334 35.2442 32.9207 30.9265 30.1212 29.53 29.153 27.3297 27.2077 26.975 26.7799 25.1768 24.9401 23.9843 22.149 22.0396 21.9852 21.6762 21.651 21.4618 21.0747 21.3734 20.978 23.5554 20.1542 19.1578 19.1212 18.984 18.4925 18.1617 17.8793 17.4453 17.398 17.1981 17.1809 16.9732
threshold=3.5000000000000004 2.998226044309511 1.1785366391390579 2.4024201905583298 1.599336558775341 6.5000000000000009 0.89587973461402759 1.2946333325561217 1.011435595095721 3.8763952908575412 7.5000000000000009 1.5580892133149293 0.76519735254682386 1.9387157803292638 7.5000000000000009 7.5000000000000009 0.85418893014450203 3.5307615141790158 1.3986406674150766 1.3736354571277458 0 1.4230357494997927 7.5000000000000009 1.0471650770867933 1.011435595095721 7.5000000000000009 0.97438160901885995 0.85418893014450203 4.5000000000000009 0.71754226264466137 1.0471650770867933 29.500000000000004 1.0471650770867933 1 7.5000000000000009 1.1150072000796054 1.5789255615152133 5.7500000000000009 1.4701097818118665 2 3.5000000000000004 3 4 101.50000000000001 35.000000000000007 1.7664051342320239 25.000000000000004 5 0.85418893014450203 7.5000000000000009 25.000000000000004 14.750000000000002 3.5070566484845265 91.500000000000014 20.050000000000004 2.5610883344145821 1.3986406674150766 6 7 8 1.8945885877146502 9
decision_type=8 8 10 10 10 8 10 8 8 8 2 8 8 10 2 2 10 10 8 10 1 10 2 10 10 2 8 10 10 10 8 2 10 9 2 10 10 2 8 9 2 9 9 2 2 10 2 9 8 2 2 2 10 2 2 10 10 9 9 1 10 9
left_child=2 3 6 13 12 7 29 32 10 18 54 15 44 48 23 41 39 51 52 20 25 22 30 31 40 46 -24 36 43 -1 58 -14 -3 -32 35 -26 -17 -19 -11 -12 -8 -5 -18 -13 56 -27 47 -10 -2 -50 -31 -9 -7 -36 -6 -56 -4 -58 -15 -29 -30 -38
right_child=1 5 4 11 8 9 24 17 19 38 16 28 14 21 -16 27 42 37 -20 -21 -22 -23 26 -25 34 45 -28 59 60 50 33 -33 -34 -35 53 -37 61 -39 -40 -41 -42 -43 -44 -45 -46 -47 -48 -49 49 -51 -52 -53 -54 -55 55 -57 57 -59 -60 -61 -62 -63
leaf_value=0.071527522506046923 0.020747215824475161 -0.01668041493017124 0.038227300329328646 -0.013522020555127849 0.00695394218897156 -0.030659861779649362 0.0423398567672435 -0.057520083654879296 -0.0025217448867993287 -0.047205361996890731 0.0093348157183163871 -0.0097523559805653536 0.017903044733806796 0.025628988157034762 0.016774661362238017 -0.014552097985857396 -0.016839055734758315 -0.060082146718948931 -0.045851832956002953 -0.010371518477876212 -0.02839366150717923 -0.016396347472196707 -0.0002688757975053954 0.019371321528525293 0.047528044082369519 0.013142987184784898 -0.012627259300372902 -0.019120088985852116 -0.026348753950832901 0.054533518810478847 0.0083588402599867814 0.036601422700915397 -0.027301986426624 -0.0065968687883696114 0.041178022751249418 0.019726620078093001 -0.012969393530719485 -0.042226163037806651 -0.057294758185462216 0.021320184664524729 0.054491590706817694 -0.0018427113563213044 0.0062480079508352437 -0.036044735113221933 0.046165202202533985 -0.0067693302876714739 0.02005213089824022 0.01257675084983902 0.013475092304397199 -0.0036671960575816983 0.064570480118560036 -0.031780139327717782 -0.041306246414616214 0.028601571028529102 0.027968586411225585 0.044400919378896973 0.014570807158130947 0.033138717889592342 0.0070229630247411971 -0.043352050641470997 -0.040597952273732307 0.011331680814013388
leaf_weight=745.07960033416748 389.10772161185741 1475.5682738125324 1240.8512664288282 606.6838441491127 91.008631095290184 1063.962226614356 569.39053222537041 74.787474662065506 338.00158742070198 890.45114779472351 633.56819723546505 454.33386419713497 245.96421484649181 204.06902773678303 1381.8823418915272 605.81007580459118 107.88774518668652 229.79510353505611 2300.3572313934565 487.44848485291004 82.802655667066574 487.89345698058605 1439.1819844096899 666.54661862552166 1239.0173827409744 181.55077269673347 1004.1247358769178 2692.968462780118 1589.4356694072485 992.03163918852806 556.44477616250515 1491.8862201422453 1149.1122227162123 653.03520277142525 631.15020500123501 93.859979629516602 97.620243102312088 1400.8686765879393 1962.2382665723562 1636.0526265501976 1098.3174612224102 1203.4170777648687 842.91202789545059 94.736110121011734 476.07400999963284 531.41034492850304 545.31712906062603 762.8444439470768 507.00884312391281 331.37464500963688 1008.7140540331602 2163.4490933716297 698.7056987285614 572.00854384899139 1240.3472050875425 194.52142243087292 225.89493405818939 651.34519739449024 369.84494861960411 75.269063711166382 244.02437189221382 209.91253808140755
leaf_count=3196 1570 6550 4990 2606 367 4900 2322 361 1374 4352 2552 1978 986 834 5547 2581 441 1149 11077 2020 343 2074 5936 2675 5029 738 4244 11712 7079 4130 2318 5980 5245 2733 2546 376 413 6812 9908 6573 4495 5120 3426 414 1913 2205 2203 3088 2068 1362 4204 9986 3352 2306 4972 780 905 2610 1518 342 1107 889
internal_value=-0.000123492 -0.0240568 0.0308966 -0.0095207 0.0205912 -0.0390341 0.0517402 -0.031108 0.0129716 -0.0464764 0.0186263 -0.0168499 0.0297576 0.000191612 0.0251173 -0.0133014 0.0138012 -0.0377411 -0.0410919 0.00380943 0.00664018 -0.00266218 -0.00107683 0.0299121 0.0444952 0.00786983 -0.0053478 -0.0169689 -0.0250289 0.062832 0.00477453 0.033955 -0.0213306 0.000298364 0.0406498 0.0455703 -0.00845203 -0.0447424 -0.0541454 0.0181095 0.0503427 -0.0058421 0.00351692 -0.0142888 0.0365303 -0.00169879 0.012014 0.00803228 0.0111526 0.00669953 0.0595938 -0.0326402 -0.03488 0.0351989 0.02881 0.0301963 0.0343648 0.0289012 0.0142077 -0.019779 -0.0282453 0.00356453
internal_weight=48231.3 27225.6 21005.7 13816.3 14056.1 13409.3 6949.57 6493.58 7675.67 6915.71 4746.3 7874.21 6380.44 5942.09 3786.28 5491.68 3220.42 3868.9 4063.03 2929.38 2441.93 4714.59 4226.7 2404.4 4203.74 2359.12 2443.31 3681.58 2382.53 2745.83 1783.39 1737.85 2624.68 1209.48 2536.04 1332.88 913.343 1630.66 2852.69 2269.62 1667.71 1810.1 950.8 549.07 2594.17 712.961 1646.16 1100.85 1227.49 838.383 2000.75 2238.24 1762.67 1203.16 1525.88 1434.87 2118.09 877.24 573.914 2768.24 1833.46 307.533
internal_count=207882 122590 85292 58898 56688 63692 28604 30103 31082 33589 19111 34241 25606 24657 15188 23663 12992 18308 19329 11971 9951 19657 17583 9641 17074 9608 10180 15937 10578 11530 7403 6966 11795 5051 10257 5405 3883 7961 14260 9125 6817 7726 3867 2392 10418 2943 6665 4462 5000 3430 8334 10347 8252 4852 6119 5752 8505 3515 2352 12054 8186 1302
cat_boundaries=0 1 2 4 5 7 8 10 11 12 13
cat_threshold=1 20670277 3926071365 1 3900918402 3758194880 1 1414139908 3691119241 1 7457920 1 1006920448
is_linear=0
shrinkage=0.05


Tree=11
num_leaves=63
num_cat=5
split_feature=50 49 48 48 48 25 48 25 49 25 50 25 25 25 15 50 15 2 48 15 28 6 32 50 49 48 2 53 48 15 32 32 15 29 49 25 15 48 53 15 15 1 12 25 48 1 7 12 1 1 29 43 12 50 3 17 14 52 12 48 33 50
split_gain=13012.2 2209.52 1669.6 360.563 356.521 328.86 214.413 178.132 156.296 122.798 106.006 72.6479 70.2875 57.3363 42.4248 41.5827 40.8271 36.9822 36.3583 35.5845 35.4857 33.606 33.2329 33.0598 32.6078 30.6614 30.5881 29.792 29.759 29.1086 42.7905 28.0167 26.92 25.5379 24.9551 23.8406 23.3072 23.0451 22.0978 21.0534 20.6776 20.4147 20.3301 19.7608 19.1016 19.0902 18.6032 18.3621 17.9538 17.5658 17.5002 17.3926 16.938 16.927 21.568 16.9213 16.6505 16.4229 16.0109 15.8561 15.9923 15.4095
threshold=3.5000000000000004 19.050000000000004 0.4446640316205534 0.10256679991584264 0.25978407557354932 5.5000000000000009 0.69047619047619058 3.5000000000000004 37.45000000000001 4.5000000000000009 6.5000000000000009 4.5000000000000009 3.5000000000000004 4.5000000000000009 1.0816615128302691 5.5000000000000009 1.8945885877146502 0 0.16261237440507673 0.85418893014450203 101.50000000000001 3.4765000000000001 7.5000000000000009 2.5000000000000004 46.550000000000004 0.9545454545454547 1 36.850000000000001 0.10582306830907055 0.76519735254682386 7.5000000000000009 7.5000000000000009 1.4701097818118665 35.000000000000007 14.250000000000002 6.5000000000000009 1.7491620461964394 0.57189542483660138 33.150000000000013 1.3736354571277458 0.81068324164968719 23.500000000000004 25.000000000000004 2.5000000000000004 0.044543650793650802 23.500000000000004 5.7500000000000009 25.000000000000004 32.500000000000007 23.500000000000004 55.000000000000007 1.0000000180025095e-35 25.000000000000004 4.5000000000000009 2 3 2.5297127291328443 20.150000000000002 25.000000000000004 0.15038444142921756 4 4.5000000000000009
decision_type=8 8 10 10 10 8 10 8 8 8 8 8 10 10 10 10 10 1 10 10 2 2 2 10 8 10 1 2 10 8 2 2 8 2 10 10 10 10 2 10 10 2 2 10 10 2 2 2 2 2 2 2 2 8 1 1 10 2 2 10 1 10
left_child=2 3 4 9 7 10 19 23 21 15 14 18 20 26 61 42 17 34 45 22 29 35 52 40 -12 43 28 41 -9 47 48 38 -10 -29 51 -7 59 -24 -13 -33 56 -25 50 58 57 -5 -34 -6 -31 -14 -2 -11 -4 54 -47 -55 -1 -16 -8 60 -15 -3
right_child=1 5 6 11 12 8 25 13 32 16 24 31 49 36 44 -17 -18 -19 -20 -21 -22 -23 37 27 -26 -27 -28 33 -30 30 -32 39 46 -35 -36 -37 -38 -39 -40 -41 -42 -43 -44 -45 -46 53 -48 -49 -50 -51 -52 -53 -54 55 -56 -57 -58 -59 -60 -61 -62 -63
leaf_value=0.02614199838219626 -0.0078946310859818788 -0.0059043559809098889 0.044999597024800338 -0.022135214404876813 0.033525360660092665 -0.032250176315928594 0.053767420843707205 -0.0045274421010150197 -0.042779829552552849 -0.013552599449886791 -0.03292832042326576 -0.01553979299984844 -0.014885451158231758 -0.021524483323305092 -0.0447504817927405 -0.017747818552168393 -0.0392669888186035 -0.045195854076421391 0.013639253028401386 0.032742681212101284 0.021585552102328681 -0.047702328986332476 0.035439969084227141 -0.022819069623307233 -0.047587981023330617 0.069342764786868183 -0.026458919755952423 0.014858857240890137 0.011580731766617629 0.021039477482770977 0.01791393984861565 -0.0090890068399444197 -0.06069782156189079 0.025515273634803628 -0.023215684404173764 -0.041167716178779956 -0.03072586855981942 0.047061316997016808 0.0030578173858742392 -0.029474436172405777 0.017033456903129473 0.01021503377681255 0.0013949732704591298 0.034399494135863171 -0.017776906322009772 -0.005535458677626076 -0.051047074745116688 0.043330232509565136 0.035463013449319694 0.017255026628786401 -0.056058147438255428 -0.026169515146669705 0.055206764643303041 0.0099078668615977233 0.00885595022832175 -0.007266733124573467 0.0430083470686978 -0.028407385764546558 0.062982018552868127 0.0013877200749423026 -0.00047585543686957347 -0.018742566149175213
leaf_weight=759.32536716759205 1902.0285601913929 285.93040274083614 852.17848825454712 78.653070092201233 1345.4180842936039 2369.6818966120481 929.01097889244556 341.86439520120621 828.2973188906908 1842.4722928851843 1193.5092588812113 195.97670930624008 44.799573913216591 192.33346328139305 177.08859522640705 972.24590235948563 293.43060383200645 140.66105219721794 951.07565474510193 760.45656570792198 851.72054027020931 620.86653693020344 1087.7492256015539 49.293843969702721 556.05565509200096 730.49662125110626 62.679207369685173 1464.3782950788736 1777.704850718379 256.64702954888344 643.80080461502075 1028.3128049820662 616.24367807805538 912.57825516164303 1956.7187947332859 1096.2046504467726 90.471844866871834 701.81863956153393 863.4993040561676 144.44610910117626 528.67687137424946 913.09309978783131 737.22323767840862 89.510937422513962 373.28852169215679 324.19721646606922 2632.5273811966181 740.22000057995319 1353.9531200826168 832.26073338091373 19.049103990197182 320.6905711889267 777.0272054374218 180.17923992872238 1239.001490175724 584.51819607615471 181.25609016418457 1164.7365683019161 957.06493829190731 534.68930812180042 174.55818437039852 1280.344990119338
leaf_count=3041 8051 1230 3496 330 5414 11265 3918 1406 4157 8048 5608 834 181 811 837 4232 1343 658 3844 3071 3421 3065 4405 201 2732 3196 262 5883 7204 1029 2579 4343 3231 3657 8797 5274 381 2891 3624 621 2117 3672 3113 367 1671 1330 13475 2985 5433 3344 84 1398 3211 746 5084 2418 726 5390 4049 2206 735 5757
internal_value=-0.00012061 -0.0230807 0.0294544 -0.00907349 0.0195708 -0.0377031 0.0496252 0.0126266 -0.0438997 -0.0157589 -0.0276478 0.000715109 0.0287051 0.00343388 -0.0223482 -0.00889963 -0.0212273 -0.0199849 0.00536277 0.0425252 0.0309168 -0.0369897 0.0447012 0.0186951 -0.0375875 0.0605902 0.00796469 0.0159451 0.00898265 0.032748 0.0288094 -0.00627569 -0.0508262 0.0189501 -0.0191241 -0.0350707 -0.00653269 0.0399975 -0.000382278 -0.0115998 0.0249452 0.00852301 -0.00566349 0.0573539 -0.0277812 0.00209188 -0.0528777 0.0370052 0.0331646 0.0156133 -0.00837221 -0.0154231 0.0498678 0.00291045 0.00589251 -0.00318549 0.0293923 -0.0305643 0.0584432 -0.00410495 -0.0121097 -0.0163989
internal_weight=47906.2 26969.2 20937 13774.4 14051.7 13194.8 6885.31 7982.9 8163.82 8184.52 5030.95 5589.86 6068.82 3174.3 3281.39 3630.55 4553.97 4260.54 3357.62 4179.23 5191.76 4086.75 3418.77 4808.6 1749.56 2706.08 2182.25 3339.34 2119.57 4340.04 2254.4 2232.23 4077.07 2376.96 4119.88 3465.89 992.053 1789.57 1059.48 1172.76 1469.26 962.387 2658.3 1975.59 1715.11 2406.55 3248.77 2085.64 1610.6 877.06 1921.08 2163.16 1629.21 2327.9 1563.2 764.697 940.581 1341.83 1886.08 901.581 366.892 1566.28
internal_count=207882 122590 85292 58898 56688 63692 28604 32302 40467 35724 23225 23174 24386 13005 14885 15480 20244 18901 13752 17074 20861 19604 14003 19297 8340 11530 8872 13413 8610 17440 9041 9422 20863 9540 18243 16539 4133 7296 4458 4964 5884 3873 11248 8334 7898 9908 16706 8399 6462 3525 8135 9446 6707 9578 6414 3164 3767 6227 7967 3752 1546 6987
cat_boundaries=0 1 2 3 4 5
cat_threshold=1 1 132 642 3177
is_linear=0
shrinkage=0.05


Tree=12
num_leaves=63
num_cat=5
split_feature=50 16 16 48 16 25 16 25 25 16 25 50 15 25 50 32 25 5 2 11 32 32 15 16 14 15 32 15 5 25 2 16 48 15 16 50 16 14 16 19 50 15 14 25 53 50 7 16 17 2 53 18 3 32 15 53 50 53 50 53 15 52
split_gain=11823.9 2069.41 1550.98 443.69 357.104 240.983 175.51 160.755 108.27 106.576 101.699 75.2393 71.1225 51.822 47.3829 41.4911 40.8803 37.2375 32.4995 31.3599 30.6541 30.5747 33.2903 30.4851 30.4842 29.4611 29.0086 28.6363 28.2393 27.8648 27.6802 27.587 26.8101 26.3577 25.6257 24.4523 22.933 22.1802 19.671 20.2877 20.0889 19.4446 19.2972 18.8661 18.7384 18.4777 18.475 18.4258 17.9109 17.8568 17.5504 17.3071 17.0998 16.3248 23.5389 16.1116 15.8579 15.6247 16.5819 15.6228 15.6887 15.6148
threshold=3.5000000000000004 3.1419924481000066 1.1472764606483909 0.086581709145427302 1.5789255615152133 5.5000000000000009 0.89587973461402759 3.5000000000000004 4.5000000000000009 3.6493578504437103 4.5000000000000009 6.5000000000000009 0.81068324164968719 4.5000000000000009 4.5000000000000009 7.5000000000000009 3.5000000000000004 3.5485000000000002 0 25.000000000000004 7.5000000000000009 7.5000000000000009 1.2946333325561217 0.71754226264466137 2.1804014991111278 0.85418893014450203 7.5000000000000009 1.1150072000796054 3.5425000000000004 6.5000000000000009 1 2.1341489346727696 0.10582306830907055 1.4701097818118665 3.8617812361389854 4.5000000000000009 1.9387157803292638 3.3339870432574523 1.8794359129669858 2.5000000000000004 2.5000000000000004 2.2027494954295124 2.9575076874722881 1.5000000000000002 39.150000000000013 4.5000000000000009 5.7500000000000009 1.011435595095721 2 3 30.950000000000003 2.5000000000000004 4 7.5000000000000009 1.0471650770867933 38.95000000000001 6.5000000000000009 27.250000000000004 6.5000000000000009 35.250000000000007 0.71754226264466137 49.350000000000001
decision_type=8 8 10 10 10 8 10 8 8 8 8 8 8 10 10 2 10 2 1 2 2 2 10 10 10 10 2 10 2 10 1 10 10 8 8 10 10 10 10 2 10 10 8 10 2 10 2 10 1 1 2 2 1 2 10 2 10 2 10 2 10 2
left_child=2 3 6 10 12 11 23 19 14 28 35 16 20 30 36 27 24 29 21 38 -4 31 -23 -1 -3 26 44 49 41 42 32 -10 -9 -11 -13 -2 -5 -15 39 -6 -40 56 51 -25 -8 -44 -35 -28 -16 -14 -18 -12 -26 54 -38 -42 -7 -37 -59 -22 -61 -21
right_child=1 5 4 8 7 9 25 13 18 33 17 34 15 37 48 -17 50 -19 -20 61 59 22 -24 43 52 -27 47 -29 -30 -31 -32 -33 -34 46 -36 57 53 -39 40 -41 55 -43 45 -45 -46 -47 -48 -49 -50 -51 -52 -53 -54 -55 -56 -57 -58 58 -60 60 -62 -63
leaf_value=0.06733725121665339 -0.0046538411679945763 -0.021465752428381862 0.039620457617116911 0.014503058100268246 0.016111750991315132 -0.03123870247197116 0.041775491546315546 -0.0043043588280231668 0.0071260509361660259 -0.041466790131805369 -0.01549616315698007 -0.032720624148315523 0.03052292232324182 -0.0035360824709473417 -0.010993472153218914 0.014189100197000749 -0.04325939891342398 -0.05000525394397879 -0.03579811666030551 0.024174523829142286 0.018968601611912845 -0.0089494135236649792 -0.027208090428665923 0.057010630591764637 0.013657148641803181 0.031969264898536083 0.045098359345134724 0.016191358134225699 -0.056188476890538623 -0.030976839443275672 -0.025280146664448735 -0.0074634557746169495 0.010988188000790024 -0.059479351129984197 -0.046191469609065311 -0.036944156073754383 0.016917363345056308 -0.027026852189648721 0.02089040425650425 0.030016732590022095 0.002145529407249212 -0.054525073264870418 -0.014291795587741794 0.041386955186467914 0.053410132963167857 -0.026914167985236645 -0.04972087380589657 0.034206265415254858 0.00052342970904705897 0.0017822926223659788 -0.025994499899950469 -0.029484083280024526 -0.010592807588612677 0.00028178622598881616 0.0019957190898816043 0.013513013415124479 -0.038716633627369566 -0.011922744010838244 -0.024159841894534059 0.034440560244899242 0.024828825478475043 -0.030387532809614728
leaf_weight=715.03326284885406 887.09597201645374 462.85987113416195 1121.0165055841208 766.48667453229427 1314.456734135747 1356.8779969066381 571.20418734848499 341.60983201861382 500.91241134703159 812.2126309722662 1724.4949134141207 1003.9742318987846 1612.5909355133772 877.09036868810654 553.68645568192005 1030.5968200415373 162.10421279072762 126.38525980710983 106.51563540101051 1505.1366276741028 305.60957203805447 1360.9250037372112 305.72320455312729 1730.8966622054577 114.42300471663475 647.65110491216183 695.89918918907642 527.15467490255833 184.47118753194809 800.11879780888557 62.330782160162926 917.48525694012642 1779.8335131704807 597.89139752089977 544.51959393918514 74.411036223173141 492.42529539763927 113.48937550187111 401.13505300879478 327.72207315266132 602.31648853421211 135.61725059151649 361.4498700350523 217.50126402080059 878.05381408333778 1465.4807909727097 2569.2274906337261 878.36796790361404 847.35960045456886 55.918634295463562 1600.6248351335526 253.6631652712822 164.91606107354164 1132.8963247984648 570.50077964365482 646.05729518830776 1484.7294152230024 1949.6241517961025 322.6451268941164 1241.8412601053715 645.07437264919281 13.227990150451658
leaf_count=3196 3746 2100 4550 3092 5269 6559 2369 1406 2077 4157 7745 4802 6481 3649 2315 4135 777 611 473 6027 1230 5803 1333 7420 497 2626 2891 2114 953 3718 262 3953 7204 3231 2732 338 2013 484 1607 1313 2429 676 1608 914 3658 6722 13475 3574 3540 224 7433 1136 728 4666 2357 2599 7304 8468 1452 5014 2594 53
internal_value=-0.000118732 -0.0221448 0.028091 -0.0103261 0.0190869 -0.0385306 0.048736 0.0119914 -0.00164557 -0.0440576 -0.0185594 -0.0287935 0.0277497 0.00325807 0.00347362 0.0224654 -0.0234375 -0.02323 -0.00864429 0.0177548 0.0328948 -0.00770676 -0.0122987 0.0585071 -0.0135937 0.0416471 0.0437201 0.0263501 -0.0372049 -0.0224952 0.00756076 -0.00231112 0.00852567 -0.0495024 -0.0374576 -0.0117254 0.0070569 -0.00622739 0.0150129 0.0188867 0.0111563 -0.0360286 -0.0207117 0.0552665 0.0488245 -0.0244169 -0.0515631 0.0390211 -0.00410272 0.0295597 -0.0275822 -0.0172899 -0.000549829 0.00445771 0.00890852 0.00802842 -0.0351459 -0.0143986 -0.0136603 0.0294561 0.0311546 0.0236992
internal_weight=47573.6 26714.7 20858.8 15520.3 14524.2 11194.4 6334.61 7984.41 7554.92 7141.03 7965.37 4053.42 6539.8 3174.35 4363.36 3226.26 2504.93 4731.59 3191.56 4810.05 3313.54 3085.05 1666.65 2663.43 742.199 3671.18 3023.53 2195.66 3161.7 4605.21 2183.77 1418.4 2121.44 3979.33 1548.49 3233.78 2962.31 990.58 3291.69 1642.18 1649.51 2977.22 3805.09 1948.4 1449.26 1826.93 3167.12 1574.27 1401.05 1668.51 1762.73 1978.16 279.339 2195.82 1062.93 1248.37 2841.61 2346.68 2272.27 2192.53 1886.92 1518.36
internal_count=207882 122590 85292 67166 58644 55424 26648 32302 31622 36355 35544 19069 26342 13005 17983 12954 11535 21540 13639 19297 13388 13166 7136 11530 3325 15118 12492 8819 15492 20929 8872 6030 8610 20863 7534 14004 12128 4133 13217 6582 6635 14539 17211 8334 6027 8330 16706 6465 5855 6705 8210 8881 1225 9036 4370 5028 13863 10258 9920 8838 7608 6080
cat_boundaries=0 1 2 3 4 5
cat_threshold=1 1 3116 1 104
is_linear=0
shrinkage=0.05


Tree=13
num_leaves=63
num_cat=7
split_feature=50 16 16 48 16 25 16 25 16 25 25 25 50 50 25 25 1 5 10 16 28 48 32 15 25 14 10 5 10 10 15 7 53 16 32 11 14 16 32 1 32 15 10 50 48 12 15 15 53 10 11 15 50 25 10 15 19 8 25 14 8 16
split_gain=10746.9 1933.27 1440.99 404.632 324.691 231.75 169.716 140.363 104.321 97.9081 93.8007 72.9817 71.0207 42.7633 42.382 37.8896 35.8088 35.1255 32.206 30.4097 28.8226 28.4064 28.3857 28.6332 28.157 27.8702 27.5541 27.3706 27.075 26.9845 26.4213 25.9537 24.9194 24.6422 23.3015 22.1412 21.9047 21.3438 21.2276 21.2044 21.0859 22.2307 20.934 20.0411 21.9407 19.2846 18.8321 18.668 18.5908 18.5525 18.437 17.8271 17.5676 18.5301 18.8234 17.3209 17.2315 16.6499 16.3083 23.2713 16.1514 15.5775
threshold=3.5000000000000004 3.1419924481000066 1.1472764606483909 0.086581709145427302 1.599336558775341 5.5000000000000009 0.89587973461402759 3.5000000000000004 3.6493578504437103 4.5000000000000009 4.5000000000000009 3.5000000000000004 6.5000000000000009 4.5000000000000009 4.5000000000000009 3.5000000000000004 29.500000000000004 3.5485000000000002 0 0.71754226264466137 93.500000000000014 0.10811126694717159 6.5000000000000009 1.2088489500472754 3.5000000000000004 2.1804014991111278 1 3.5425000000000004 2 3 1.5580892133149293 5.7500000000000009 32.750000000000007 3.8617812361389854 7.5000000000000009 25.000000000000004 3.3339870432574523 1.4230357494997927 7.5000000000000009 28.500000000000004 7.5000000000000009 0.89587973461402759 4 2.5000000000000004 0.10582306830907055 1.0000000180025095e-35 1.5789255615152133 2.2027494954295124 26.650000000000002 5 25.000000000000004 1.4701097818118665 4.5000000000000009 6.5000000000000009 6 1.8945885877146502 1.5000000000000002 50.500000000000007 2.5000000000000004 2.1916379270371573 30.500000000000004 1.8164190316151558
decision_type=8 8 10 10 10 8 10 8 8 8 8 10 8 10 10 10 2 2 9 10 2 10 2 10 10 10 9 2 9 9 10 2 2 8 2 2 10 10 2 2 2 10 9 10 10 2 10 10 2 9 2 8 10 8 9 10 2 2 10 10 2 10
left_child=2 3 6 10 11 12 19 22 27 13 34 16 15 26 28 25 57 30 -11 -1 37 46 -6 29 35 49 60 47 -9 -24 52 -10 -31 -14 48 -8 -16 -18 61 -13 -34 -42 -15 -30 -45 -40 -20 -7 -2 -3 -21 -33 -12 54 -54 -17 -47 -4 59 -28 -5 -23
right_child=1 5 4 9 7 8 24 14 31 18 17 39 33 42 36 55 20 -19 21 50 -22 38 23 -25 -26 -27 58 -29 43 32 -32 51 40 -35 -36 -37 -38 -39 45 -41 41 -43 -44 44 -46 56 -48 -49 -50 -51 -52 -53 53 -55 -56 -57 -58 -59 -60 -61 -62 -63
leaf_value=0.065486485838322339 -0.033784527000469237 -0.00094992315414652603 0.011427993988426007 -0.035816343355798037 0.027943138000744355 -0.033912104452140573 0.037504754885554541 -0.017373225137539448 -0.057504474399121597 -0.023227303590662635 -0.01141526650357487 -0.0036309106264728742 -0.031514980709043502 0.0035000213393220139 -0.0031273205901545392 -0.024841541679503462 0.035708769893905173 -0.048541866452627688 -0.010166128433171655 0.048379170423559617 0.024727407413038607 0.023798401281053209 0.022447635651662044 -0.0075079046803492398 0.019385029359904042 -0.00051801983001665164 0.012311361946633056 -0.054892474006979886 0.018019726884468439 -0.001527593895931718 -0.029335156623957415 -0.03963389323254414 0.020930616252209044 -0.044847374123450606 -0.015187307826312356 0.045616485489686436 -0.026670147129673777 0.027278228961673756 0.0036884578306602533 0.016607889407658033 0.012578636967277118 -0.0164296038299825 -0.0088934838493441304 -0.0070532751958443385 0.0082970469516106954 -0.018760571557541461 -0.028991716171774585 -0.053132970086725753 -0.0055392977429980601 -0.025752524906846819 0.058179065077488018 -0.048445186003963935 -0.0040474519545596957 -0.024813884395600453 -0.019595837590354628 -0.041578591836401571 -0.0022128536450171602 0.02576897157799355 0.0056512423805140186 0.048796604818068579 -0.0011772898905742484 0.00092463436745163848
leaf_weight=698.88978451490402 60.68506121635437 107.19502711296082 414.31026147305965 35.993382930755615 494.30124907195568 2798.8602745085955 2063.1457042247057 101.87699909508228 631.50045523047447 314.9604906141758 546.49031905829906 153.59696491062641 990.6091255992651 567.8440517783165 852.84657408297062 1572.9457121193409 2034.8580096513033 123.75309407711029 947.78785616159439 954.75503684580326 1819.3723986446857 82.516313806176186 1190.9054898619652 133.58765305578709 160.37751972675323 279.23788224160671 923.66048158705235 179.51175314188004 406.66359570622444 260.36732579767704 879.10183104872704 744.54617813229561 886.50323602557182 533.0905185341835 1706.0754048973322 1420.3728189766407 111.74606797099113 1189.7012244015932 261.54049274325371 822.15187910199165 1569.676307156682 68.947550565004349 832.04814569652081 282.58308650553226 1320.9555639624596 405.80097725987434 154.49900412559509 132.29681167006493 1455.9798540771008 352.26907101273537 965.06053692102432 2506.6401818841696 254.35856087505817 1635.5875824093819 1253.3142236024141 171.42706866562366 256.92557856440544 395.68756385147572 1441.6234564781189 45.875066429376602 517.47899095714092 759.75077128410339
leaf_count=3196 275 490 1668 150 1983 13863 8539 426 3508 1379 2432 619 4802 2371 3553 7379 8251 611 4132 4130 7347 337 4774 537 646 1225 3750 953 1644 1049 4103 3880 3553 2732 7433 5933 480 4783 1108 3298 6297 277 3484 1164 5345 1720 686 676 6296 1610 4204 13475 1145 7588 5661 831 1088 1596 5909 187 2132 3189
internal_value=-0.000116605 -0.0212465 0.0268015 -0.00984838 0.0181502 -0.0372696 0.0468469 0.0110975 -0.0427629 -0.00156602 -0.0177467 0.0260819 -0.0276817 0.00329758 0.00282896 -0.0224671 0.0281921 -0.0222574 -0.00823334 0.0565563 0.0297592 -0.00648362 0.0166227 0.0152612 0.0398692 -0.0129759 0.00669852 -0.0359403 0.00679482 0.0160262 -0.0215454 -0.048229 0.0131529 -0.0361795 -0.0111787 0.0408122 -0.00585471 0.0325983 -0.00257604 0.013422 0.0147187 0.0113581 -0.00390478 0.00806596 0.00559194 -0.00780826 -0.0128048 -0.0347796 -0.00666945 -0.0205471 0.0533054 -0.0464273 -0.0196895 -0.021128 -0.0171295 -0.0264864 -0.0123454 0.0184336 0.0089862 0.0140377 -0.00336906 0.00316556
internal_weight=47237 26463.8 20773.2 15463.7 14510.6 11000.1 6262.6 7680.96 6993.36 7548.31 7915.35 6829.68 4006.77 4364.52 3076.67 2483.07 5853.93 4692.61 3183.78 2618.71 5043.93 2868.82 4604.29 4109.99 3643.9 738.702 2964.63 3110.67 2112.08 3976.4 4568.85 3882.69 2785.49 1523.7 3222.74 3483.52 964.593 3224.56 1766.53 975.749 2525.13 1638.62 1399.89 2010.2 1603.54 924.267 1102.29 2931.16 1516.66 459.464 1919.82 3251.19 3689.75 3143.26 1507.67 1744.37 662.727 809.998 2411.16 969.536 553.472 842.267
internal_count=207882 122590 85292 67166 58644 55424 26648 31082 36355 31622 35544 27562 19069 17983 12612 11535 23645 21540 13639 11530 20381 12260 18470 16487 15118 3325 12128 15492 8579 15950 20929 20863 11176 7534 14004 14472 4033 13034 7442 3917 10127 6574 5855 8153 6509 3916 4818 14539 6571 2100 8334 17355 16826 14394 6806 8210 2808 3264 9846 3937 2282 3526
cat_boundaries=0 2 4 6 7 8 9 10
