tree
version=v4
num_class=1
num_tree_per_iteration=1
label_index=0
max_feature_idx=54
objective=binary sigmoid:1
feature_names=advance_final_count_90d age bike_class car_no dow good_track_race_ave good_track_race_best good_track_rate2_180d good_track_run_count_180d good_track_trial_ave graduation_code handicap handicap_diff_min is_absent log_place_odds_max log_place_odds_min log_win_odds month order1_count_90d order2_count_90d order3_count_90d order_other_count_90d place_code place_odds_max place_odds_min place_odds_min_rank player_place_code player_place_name race_dev_num race_handicap_max race_handicap_min race_n_absent race_n_cars race_no rain_expect_code rank_class rank_num rate2 rate3 run_count_90d st_ave_90d sunny_expect_code this_year_advance_final this_year_win_count total_win_count wet_track_rate2_180d wet_track_run_count_180d win_count_90d win_implied_prob win_odds win_odds_rank win_rate1 win_rate2 win_rate3 year
feature_infos=[0:12] [18:79] -1:0:1 -1:2:3:5:1:0:4:6:7 -1:5:6:4:0:3:2:1 [0:3.8420000000000001] [0:3.8420000000000001] [0:100] [0:91] [0:3.7200000000000002] -1:23:22:19:21:20:18:25:17:28:27:26:24:13:16:15:14:29:8:30:7:31:11:9:10:32:3:12:6:2:0:4:1 [0:90] [0:90] none [0.69314718055994529:8.4703112055161078] [0.69314718055994529:5.7474803299219204] [0.69314718055994529:6.7951463345994831] -1:4:6:5:9:11:10:8:0:7:3:2:1 [0:10] [0:8] [0:7] [0:10] -1:0:3:1:4:2 [1:4770] [1:312.39999999999998] [1:8] -1:1:0:3:4:2 -1:0:2:4:1:3 [0:217] [0:90] [0:10] [0:2] [5:8] -1:5:4:3:2:6:7:1:0:8:10:9:11 none -1:0:1:2 [1:232] [0:100] [0:100] [0:62] [0:0.42999999999999999] none [0:30] [0:17] [0:220] [0:100] [0:27] [0:6] [0.0011204481792717086:1] [1:892.5] [1:8] [0:100] [0:100] [0:100] -1:4:3:2:1:0
tree_sizes=6892 6927 6962 6965 6980 6967 6979 6946 6971 6955 6981 6976 6975 6950 7005 7002 6969 6980 6943 6957 6950 6956 6959 6988 6954 6949 6906 6954 6945 6938 6959 6932 6894 6955 6953 6914 6936 6905 6871 6919 6898 6897 6912 6933 6977 6914 6967 6943 6955 6879 6883 6904 6915 6858 6862 6846 6924 6886 6925 6913 6901 6962 6932 6908 6905 6824 6920 6889 6913 6905 6857 6864 6868 6883 6893 6865 6888 6909 6838 6851 6883 6886 6856 6913 6826 6918 6864 6878 6932 6905 6879 6875 6855 6924 6835 6830 6889 6889 6912 6898 6837 6840 6827 6857 6950 6894 6854 6917 6853 6861 6840 6811 6844 6811 6781 6782 6809 6855 6890 6806 6798 6788 6835 6873 6906 6781 6806 6804 6774 6779 6836 6844 6914 6832 6769 6859 6819 6796 6829 6782 6859 6786 6830 6844 6804 6816 6838 6873 6821 6760 6800 6862 6773 6806 6850 6802 6735 6764 6744 6811 6760 6841 6844 6824 6747 6756 6804 6819 6782 6779 6818 6830 6797 6757 6858 6770 6772 6778 6775 6778 6823 6808 6786 6783 6801

Tree=0
num_leaves=63
num_cat=0
split_feature=50 48 16 25 16 16 16 16 25 16 25 25 50 25 25 50 25 16 16 50 25 25 11 16 16 50 1 50 25 16 16 25 53 16 25 14 16 50 5 24 24 24 53 16 48 5 1 1 44 25 8 32 53 53 53 25 32 1 16 24 53 1
split_gain=39013.3 5085.34 4810.39 915.383 836.945 684.56 627.649 322.178 267.607 263.338 231.729 225.414 165.554 164.286 105.181 100.343 87.3746 82.6536 73.391 70.1135 69.4376 65.7595 57.3965 56.116 54.3462 48.9827 46.5363 46.0499 49.387 42.889 42.6939 40.2138 44.319 39.8132 35.8785 34.9293 34.758 34.6539 32.6674 31.35 31.1796 30.6659 29.7318 29.5986 28.9595 28.3134 27.5517 27.5304 26.9363 26.2703 26.2242 25.8907 25.5239 24.4968 24.0638 23.134 22.2567 22.0646 22.0502 21.809 21.4768 21.0098
threshold=3.5000000000000004 0.063492703378214957 1.2668484069787163 3.5000000000000004 3.3928277196600067 0.93590108845079578 2.287458571408536 1.599336558775341 5.5000000000000009 1.8000241202036604 5.5000000000000009 4.5000000000000009 4.5000000000000009 3.5000000000000004 2.5000000000000004 2.5000000000000004 4.5000000000000009 0.76519735254682386 1.0816615128302691 5.5000000000000009 2.5000000000000004 5.5000000000000009 25.000000000000004 3.9189981260915085 1.9809776870881779 5.5000000000000009 29.500000000000004 6.5000000000000009 3.5000000000000004 1.9242220118926376 1.4701097818118665 6.5000000000000009 34.550000000000004 1.5580892133149293 3.5000000000000004 2.3272658077629083 1.9387157803292638 1.5000000000000002 3.5425000000000004 1.4500000000000002 1.2500000000000002 3.9500000000000006 31.650000000000002 2.5217125584596238 0.10811126694717159 3.5235000000000007 29.500000000000004 48.500000000000007 1.5000000000000002 3.5000000000000004 35.500000000000007 7.5000000000000009 35.150000000000013 36.050000000000004 30.550000000000004 5.5000000000000009 7.5000000000000009 33.500000000000007 3.0750027876182671 1.3500000000000003 34.650000000000013 25.500000000000004
decision_type=8 10 10 8 8 10 10 10 8 10 8 8 8 8 10 10 10 10 10 10 10 10 2 8 10 8 2 10 10 10 10 10 2 10 10 10 10 10 2 10 10 10 2 10 10 2 2 2 2 10 2 2 2 2 2 10 2 2 10 10 2 2
left_child=2 4 5 7 10 17 13 20 12 21 27 19 34 24 18 40 44 -1 48 43 30 26 36 45 -3 -14 50 28 35 -15 -4 32 -13 59 -6 -2 47 -20 41 -19 51 58 -31 -8 -11 -10 -26 -17 -7 -16 -5 54 -30 -38 -9 -44 -24 -45 -12 -28 -27 -46
right_child=1 6 3 9 8 14 11 15 23 16 38 31 25 29 49 22 -18 39 37 -21 -22 -23 56 -25 46 60 33 -29 52 42 -32 -33 -34 -35 -36 -37 53 -39 -40 -41 -42 -43 55 57 61 -47 -48 -49 -50 -51 -52 -53 -54 -55 -56 -57 -58 -59 -60 -61 -62 -63
leaf_value=-0.24932309081680848 -0.38503418272874801 -0.33409909294809825 -0.29700316956378237 -0.38108091849641518 -0.34394454584240614 -0.29209883657776176 -0.36136538869213952 -0.36179160671239952 -0.42142217398986925 -0.36230389241449895 -0.40094891307030989 -0.39679679842230525 -0.39900512120290244 -0.35188157747956422 -0.29891007580873497 -0.33425400335744115 -0.37183718781915148 -0.26423921710982384 -0.29848652841416717 -0.38445762133824979 -0.31784887416930552 -0.35955754337922974 -0.31386223378446565 -0.4322102622822625 -0.3716914889102565 -0.42357826350725641 -0.31213232252081541 -0.40276592561903518 -0.40317263939620551 -0.38716225381449559 -0.31010564349232383 -0.40039824671003726 -0.38270553675387847 -0.33477604323146881 -0.38486365276655382 -0.36249569316181607 -0.35276851445663654 -0.28601578017527829 -0.42881227131329758 -0.29032496943405517 -0.32394456162285806 -0.41695564440088068 -0.36285795831523249 -0.38637440085781039 -0.37308400521047597 -0.43402978481563914 -0.34856152975933491 -0.31764193097027221 -0.27615529909090192 -0.31796319345190888 -0.34175430486763858 -0.3132051456206052 -0.39049815677754945 -0.33622738209949032 -0.28926412217530417 -0.37688962026952882 -0.32872421508265842 -0.36899230558923468 -0.40938658397071043 -0.32771837172418838 -0.41316597838349756 -0.3442092293429766
leaf_weight=1192.0669436454773 890.17671644687653 731.60566687583923 1820.5409049987793 51.32375955581665 89.090299606323242 318.11047196388245 1360.8059078454971 12.104660272598265 3082.8148782253265 370.88679075241089 1372.6684749126434 717.32216775417328 503.31177413463593 570.12949883937836 471.83965742588043 726.279616355896 702.79657542705536 2055.6134074926376 1103.7029236555099 685.60795783996582 845.87365984916687 210.37899553775787 573.76089692115784 3382.7683597803116 146.46638929843903 693.83912682533264 458.52453112602234 782.92942643165588 535.99435687065125 173.82292151451111 944.16350126266479 555.60390651226044 2512.2011929750443 868.38832795619965 134.36172902584076 213.04202079772949 320.28931081295013 1124.7650325298309 195.61131000518799 122.01497554779053 485.63897013664246 750.48893690109253 1528.5764992237091 218.85225772857666 67.301911115646362 520.50039172172546 1064.2417311668396 379.84423935413361 1584.2579364776611 293.41696500778198 243.54576468467712 631.86326622962952 1534.1446429491043 743.22614073753357 207.23178386688232 363.62399458885193 449.08289611339569 1101.2819916009903 1776.2378484010696 439.64126110076904 1730.2401393651962 985.07725298404694
leaf_count=4924 3677 3022 7520 212 368 1314 5621 50 12734 1532 5670 2963 2079 2355 1949 3000 2903 8491 4559 2832 3494 869 2370 13973 605 2866 1894 3234 2214 718 3900 2295 10377 3587 555 880 1323 4646 808 504 2006 3100 6314 904 278 2150 4396 1569 6544 1212 1006 2610 6337 3070 856 1502 1855 4549 7337 1816 7147 4069
internal_value=-0.35945 -0.396016 -0.306863 -0.326385 -0.412571 -0.277252 -0.370347 -0.316454 -0.422129 -0.344765 -0.400536 -0.379601 -0.410033 -0.355892 -0.289189 -0.325336 -0.357413 -0.259907 -0.286035 -0.370189 -0.305313 -0.332929 -0.330152 -0.427585 -0.344858 -0.413199 -0.330211 -0.391906 -0.389226 -0.364022 -0.301478 -0.387973 -0.385835 -0.327142 -0.368549 -0.380682 -0.334755 -0.292192 -0.408873 -0.265701 -0.313835 -0.407873 -0.367372 -0.36654 -0.35029 -0.423243 -0.35136 -0.328549 -0.278821 -0.306215 -0.348599 -0.308067 -0.39378 -0.341209 -0.293267 -0.365554 -0.320387 -0.371874 -0.405708 -0.319762 -0.416146 -0.346056
internal_weight=50721.9 29918.4 20803.6 12537.8 18188.2 8265.79 11730.1 8139.9 10136.9 4397.87 8051.29 7151.68 3150.84 4578.47 4896.09 4529.32 2126.06 3369.7 4130.84 3366.55 3610.58 2271.8 3192.48 6986.08 1942.31 2927.39 2061.42 3956.29 3173.36 2636.15 2764.7 3785.13 3229.52 1766.55 223.452 1103.22 2169.64 2228.47 4095.01 2177.63 1336.84 3899.4 2066.02 2680.94 1423.27 3603.32 1210.71 1106.12 1902.37 765.257 294.87 851.2 2070.14 1063.52 219.336 1892.2 1022.84 1320.13 3148.91 898.166 2424.08 1052.38
internal_count=209514 123582 85932 51789 75129 34143 48453 33623 41872 18166 33257 29541 13015 18912 20224 18709 8782 13919 17063 13906 14914 9384 13187 28857 8023 12092 8515 16342 13108 10889 11420 15635 13340 7297 923 4557 8962 9205 16915 8995 5522 16107 8534 11074 5879 14884 5001 4569 7858 3161 1218 3516 8551 4393 906 7816 4225 5453 13007 3710 10013 4347
is_linear=0
shrinkage=1


Tree=1
num_leaves=63
num_cat=6
split_feature=50 16 16 16 25 16 16 25 25 25 16 16 25 50 25 16 50 50 25 16 16 5 25 53 50 29 25 2 2 2 25 25 16 48 53 25 15 50 25 14 14 2 50 32 1 15 16 15 53 1 48 52 32 2 50 15 15 54 44 25 32 16
split_gain=35130 4685.23 4235.22 859.896 679.754 669.899 656.745 253.848 250.683 179.416 174.733 160.398 158.139 152.763 148.214 96.659 90.717 79.0758 78.8727 64.1075 60.9023 53.5981 50.4171 49.1437 45.5753 44.5046 43.228 47.367 40.4771 39.4663 36.5501 35.0005 34.9529 34.7347 33.6981 32.4969 31.8195 31.6346 31.7293 31.5011 31.4074 31.264 30.8841 30.182 29.9818 28.525 27.3621 27.3171 27.1518 26.3808 26.0425 25.181 24.7234 23.739 23.3039 23.2915 22.8038 22.4131 22.3941 22.0021 21.7636 21.6367
threshold=3.5000000000000004 2.8819995850723745 1.3736354571277458 0.97438160901885995 3.5000000000000004 2.287458571408536 3.3928277196600067 4.5000000000000009 5.5000000000000009 5.5000000000000009 1.8000241202036604 1.6581827230727291 2.5000000000000004 4.5000000000000009 4.5000000000000009 0.76519735254682386 2.5000000000000004 5.5000000000000009 4.5000000000000009 1.9670879050346399 1.1785366391390579 3.5055000000000001 5.5000000000000009 34.650000000000013 5.5000000000000009 35.000000000000007 6.5000000000000009 0 1 2 1.5000000000000002 3.5000000000000004 2.8003208578683441 0.020512842091089646 16.450000000000003 3.5000000000000004 0.76519735254682386 6.5000000000000009 3.5000000000000004 2.4203582520096725 1.8325494627242667 3 4.5000000000000009 7.5000000000000009 23.500000000000004 1.8945885877146502 1.9242220118926376 0.71754226264466137 34.550000000000004 27.500000000000004 0.10811126694717159 16.650000000000002 7.5000000000000009 4 1.5000000000000002 0.85418893014450203 0.85418893014450203 5 1.0000000180025095e-35 3.5000000000000004 7.5000000000000009 1.599336558775341
decision_type=8 8 10 10 8 10 8 8 8 8 10 10 10 8 8 10 10 10 10 10 10 2 10 2 8 2 10 1 1 1 10 10 10 10 2 10 10 10 10 10 10 1 10 2 2 10 10 10 2 2 10 2 2 1 10 8 8 9 2 10 2 10
left_child=2 5 3 15 11 14 9 17 13 34 22 30 20 35 19 -1 47 29 50 -2 43 33 28 44 -15 -25 27 32 57 42 -4 -14 48 -10 -3 -8 52 38 39 -36 46 54 59 56 -18 51 -16 -13 -9 -21 -12 -11 -17 -52 -22 -56 -5 -6 -32 -7 -60 -59
right_child=1 6 4 12 10 7 8 26 21 45 18 16 31 24 40 36 23 -19 -20 49 41 -23 -24 25 -26 -27 -28 -29 -30 -31 58 -33 -34 -35 37 -37 -38 -39 -40 -41 -42 -43 -44 -45 -46 -47 -48 -49 -50 -51 53 -53 -54 -55 55 -57 -58 61 60 -61 -62 -63
leaf_value=0.10289606433237884 0.021189028061836215 -0.070338636970654206 0.05238406652437793 0.079992624273907673 0.017265692377451687 0.0042505927170521278 0.014739755119217685 -0.03284342642509052 -0.06732733110002094 -0.069474082216117658 -0.002661958711754142 0.053594820764929732 0.051759051287709537 -0.037812779738884306 0.01033378790127254 0.093660569221705195 -0.027628848463565333 -0.024728502422231551 -0.011744068771188712 -0.013659446934966272 0.05128091077622296 -0.072587401453828873 -0.0016533966724850706 0.023884735039851071 -0.054413217404651326 0.037786837009624492 -0.040638834504475335 -0.056756118760364883 -0.012587341009407831 -0.039312530339299767 0.020684537847710353 0.034092017490371461 -0.03692388457397968 -0.058921776131909867 -0.025738470358188839 -0.024207963651387512 0.074628743151367014 -0.040837505995438707 -0.032921576159352067 -0.0014633916555720462 -0.018249265568849354 0.026750075227697852 -0.011370936743852391 0.064561652051355653 0.015953987126893061 -0.061480435715447236 -0.0074813533458371675 0.037287714544689758 -0.020993368639268272 0.0070830679228744003 0.014068875864781555 -0.0457607131779664 0.083236381435032328 -0.029729398656269553 0.066971044359814366 0.053531092162242888 0.066564946695876037 0.038143257158213068 0.048083900677644259 -0.0083657777607128864 0.035575973527461752 0.024306778416797195
leaf_weight=1212.0660887360573 946.67568166553974 56.715139150619507 1388.3765969127417 912.85652837157249 526.80535568296909 848.48817184567451 89.331908226013184 607.52137960493565 2279.5072795152664 116.03636440634727 370.70139986276627 407.96351197361946 694.13661913573742 499.60005658864975 275.38702416419983 1148.4087606668472 43.214428037405014 813.15057082474232 701.23089280724525 168.64194925129414 550.36355848610401 1947.6759881079197 189.79923892021179 1441.991230994463 2397.9145988970995 958.23941785097122 651.40410943329334 126.25677697360516 67.055740639567375 92.000862404704094 122.20212185382843 470.26826383173466 570.70947167277336 2667.0713480114937 750.41719222068787 133.73631589114666 505.45009772479534 711.50273901224136 1742.8368770033121 162.59972620010376 515.3501146286726 72.400308430194855 1379.7258391976357 1213.47669044137 454.30344195663929 356.70875802636147 991.63553567230701 693.16813918948174 2365.811281144619 1683.5091957896948 1022.9381931424141 3179.5635330975056 1127.0114722847939 31.902599930763245 1151.6949601471424 447.66149951517582 483.74353803694248 582.80605211853981 852.04277557134628 583.02047568559647 587.6268944144249 548.39855289459229
leaf_count=4924 3897 236 5685 3726 2166 3509 368 2527 9550 485 1532 1671 2842 2079 1136 4676 178 3375 2903 698 2251 8158 784 5928 10013 3935 2712 525 277 381 501 1931 2374 11149 3114 555 2061 2963 7245 672 2132 296 5709 4954 1870 1490 4102 2843 9814 6947 4215 13255 4589 132 4706 1831 1975 2393 3492 2412 2409 2256
internal_value=3.86395e-05 -0.0349394 0.0495715 0.0731352 0.0281544 -0.0118321 -0.0520007 -0.0205291 -0.0602395 -0.0403407 0.0118495 0.0376374 0.0611647 -0.0484814 0.00342754 0.0911126 0.0311127 -0.0109473 0.00198472 0.0106044 0.0651505 -0.0655616 0.022806 0.0264703 -0.0515509 0.0294348 -0.0287688 -0.0266622 0.0254971 -0.0070874 0.0464813 0.0446239 -0.0255901 -0.0627953 -0.0321181 -0.00861061 0.0859767 -0.0314744 -0.028966 -0.0214153 -0.00784221 0.059067 -0.0060328 0.0703298 0.0121684 -0.0480494 -0.00360924 0.0433294 -0.0234146 0.00519442 0.00873798 -0.0465956 0.0884975 0.0127442 0.0601554 0.0632092 0.0753416 0.0270374 0.0412343 -0.000887764 0.0429786 0.03116
internal_weight=50690.8 29710.5 20980.3 9989.54 10990.8 12619.3 17091.2 8038.09 10014.8 7076.38 4041.64 6949.13 5996.6 3120.58 4581.2 3992.94 3998.88 3716.39 2126.77 2798.83 4832.2 6894.25 1914.86 2897.75 2897.51 2400.23 4321.7 3670.3 1725.07 2903.24 2950.25 1164.4 3544.04 4946.58 3424.07 223.068 2780.87 3367.36 2655.85 913.017 1782.37 2222.12 2811.23 2610.08 497.518 3652.31 1267.02 1101.13 2973.33 1852.15 1425.54 3295.6 2275.42 1054.84 2149.72 1599.36 1396.6 1658.01 1561.87 1431.51 1439.67 1131.2
internal_count=209514 123582 85932 40762 45170 52250 71332 33338 41872 29460 16658 28512 24512 13015 18912 16250 16425 15386 8782 11542 19739 28857 7876 11911 12092 9863 17952 15240 7092 12011 12087 4773 14715 20699 14230 923 11326 13994 11031 3786 7370 9084 11630 10655 2048 15230 5238 4514 12341 7645 5879 13740 9265 4347 8788 6537 5701 6815 6402 5921 5901 4649
cat_boundaries=0 1 2 3 4 5 6
cat_threshold=1 1 1 1 1 12
is_linear=0
shrinkage=0.05


Tree=2
num_leaves=63
num_cat=9
split_feature=50 49 48 25 49 48 48 48 48 50 25 25 25 25 25 25 50 15 50 48 15 10 48 25 2 48 32 2 25 10 53 10 2 48 15 32 49 48 53 5 32 15 50 25 10 14 50 14 50 15 29 15 32 15 48 10 25 15 53 2 52 28
split_gain=31687.4 4324.81 3763.32 736.13 615.609 608.15 467.03 277.374 239.668 237.92 232.024 166.536 137.31 111.632 97.2969 88.5763 85.6371 82.4935 71.9922 65.8042 54.7297 52.9689 52.2668 50.8813 48.0264 43.9428 41.6766 40.0773 42.7987 39.3699 39.2234 38.6965 34.0432 33.1209 32.2023 35.3633 32.1455 31.9645 31.3432 30.7589 30.3727 30.1489 29.2128 29.1533 28.939 28.8871 28.6132 27.4265 27.3395 27.0632 26.8733 26.736 26.6675 26.5685 26.1879 25.9885 25.4505 25.024 24.9257 23.8403 23.6406 23.1782
threshold=3.5000000000000004 16.850000000000005 0.40833333333333338 3.5000000000000004 28.750000000000004 0.11299795709908071 0.64583333333333337 0.2817460317460318 0.22474747474747478 5.5000000000000009 4.5000000000000009 5.5000000000000009 3.5000000000000004 6.5000000000000009 3.5000000000000004 4.5000000000000009 2.5000000000000004 0.85418893014450203 5.5000000000000009 0.9545454545454547 0.85418893014450203 0 0.1941930618401207 2.5000000000000004 1 0.16001024065540195 7.5000000000000009 2 6.5000000000000009 3 34.650000000000013 4 5 0.13423423423423425 0.81068324164968719 7.5000000000000009 15.450000000000001 0.024968827930174565 16.450000000000003 3.5205000000000006 7.5000000000000009 1.1472764606483909 6.5000000000000009 3.5000000000000004 6 2.3174615720687197 4.5000000000000009 3.3339870432574523 4.5000000000000009 1.1785366391390579 35.000000000000007 1.8945885877146502 7.5000000000000009 1.0816615128302691 0.1438923395445135 7 5.5000000000000009 1.1472764606483909 34.550000000000004 8 16.650000000000002 96.500000000000014
decision_type=8 8 10 8 8 10 10 10 10 8 8 8 8 8 8 10 10 10 10 10 10 9 10 10 1 10 2 1 10 9 2 9 1 10 10 2 10 10 2 2 2 10 10 10 9 10 10 10 10 8 2 10 2 10 10 9 10 10 2 1 2 2
left_child=2 5 3 7 11 10 17 16 15 14 18 38 25 37 48 21 32 24 29 41 -10 -5 30 59 26 -7 -4 28 36 -2 -18 -14 34 -33 35 -1 58 57 -3 -15 53 -8 43 45 -27 -40 -31 -17 -6 -16 -32 60 -24 -19 -23 -22 61 -11 -12 -9 -13 -35
right_child=1 4 6 8 9 12 19 23 20 13 27 51 31 39 49 47 22 40 -20 -21 55 54 52 -25 -26 44 -28 -29 -30 46 50 33 -34 56 -36 -37 -38 -39 42 -41 -42 -43 -44 -45 -46 -47 -48 -49 -50 -51 -52 -53 -54 -55 -56 -57 -58 -59 -60 -61 -62 -63
leaf_value=0.061985890890340047 -0.023255828527026748 -0.067858970022515397 0.073750576634577167 -0.0033872900615528109 0.013967485644964332 0.0074586021867867093 0.084288721451693804 0.054809941474040995 0.037061500626542142 -0.051195111183466181 -0.031416161332758617 -0.067061320904510294 -0.021379172360034119 -0.063757391784664399 -0.030288327804919347 -0.0056725005025840113 0.0075180897398753645 0.059875735935746056 -0.023609410194761756 0.10017719884944754 0.0016165031216735172 0.0074998605562437044 0.041308788931597423 0.038573884418743959 0.039750847581362686 0.0091392605624581198 0.062768003443128897 -0.052574809500731526 -0.038711176188085859 0.00050789189565066345 0.020454672952495406 -0.009241844830208075 0.0050127652021964546 0.010399858939368269 0.03313504696448346 0.041882972962571957 -0.03535080942894455 -0.048861558912496772 -0.024873788631000929 -0.073269311447388463 0.032256582159036325 0.018999751291165556 -0.039135948905627875 -0.031489846664366328 0.030599079187943096 -0.0025474040517689516 -0.010010238798609078 -0.032173558431459325 -0.021652460411746597 -0.049071827902246914 0.033130279494541441 -0.059224310696185195 0.027961024710929316 0.037442840270630044 0.022080508891487709 0.023311190693760159 -0.012391927292627607 -0.062178255660343462 -0.020027260363398754 0.027081556270697763 -0.043907756162004069 -0.0050069404744406618
leaf_weight=298.08223746716976 312.24310377240181 55.869607642292976 1621.1337138265371 499.12115965783596 89.551697492599487 1213.4821183383465 2632.8691831231117 2409.4056175649166 831.49174647033215 809.54833994805813 603.47020356357098 114.24596285820007 281.5885783880949 3812.4664278924465 263.23001490533352 734.68412166833878 364.40273122489452 559.50664627552032 809.21153873205185 804.43037517368793 176.83337940275669 530.03463371098042 750.96381735801697 690.04338657855988 158.46295285224915 281.76252166926861 1849.1357456743717 153.57978305220604 617.11805112659931 1316.0722722858191 1038.2082178145647 951.85308445990086 64.014502912759781 823.25696815550327 634.57809732854366 822.12133018672466 566.41097332537174 1527.5203785002232 728.34152546525002 1093.7413163632154 192.32673460245132 17.801551848649979 705.47076186537743 1731.2721067219973 455.43433597683907 180.85437923669815 1271.0717402845621 112.59223572909832 135.19753704965115 706.32073371112347 700.11565397679806 351.90476045012474 745.85852481424809 172.73728907108307 734.98918323218822 886.96769548952579 229.10268524289131 1443.0822038650513 2356.190444290638 80.094796568155289 3148.8454307317734 347.01314540207386
leaf_count=1211 1297 236 6556 2056 368 5001 10612 9780 3394 3423 2527 485 1166 16187 1104 3043 1498 2268 3375 3235 727 2185 3065 2811 642 1155 7489 646 2591 5444 4253 3941 261 3399 2589 3347 2374 6461 3038 4660 783 72 2963 7245 1867 748 5270 467 567 2983 2859 1490 3047 703 3018 3635 950 6119 9814 326 13255 1433
internal_value=2.66578e-05 -0.0334549 0.0467868 0.0302846 -0.0499831 -0.0112698 0.0737903 0.0388643 0.0139164 -0.0580256 -0.0195854 -0.0386582 0.00325378 -0.0609025 -0.0371011 0.0040934 0.0319848 0.0632722 -0.0104229 0.0876516 0.027451 0.0104751 0.0275166 0.0505878 0.0666693 0.0133078 0.0678985 -0.0274936 -0.0265639 -0.00674258 0.0224332 -0.00419534 0.0408278 -0.00203776 0.0421343 0.0472323 -0.0244379 -0.054445 -0.0307176 -0.0658779 0.0499393 0.0838502 -0.0300974 -0.0276825 0.022936 -0.0204327 -0.00464176 -0.00919415 -0.00745964 -0.0439722 0.0255598 -0.0461305 0.0346577 0.0545838 0.0158461 0.0199393 0.00284789 -0.0582311 -0.0223494 0.0539178 -0.0447184 0.00583137
internal_weight=50599.3 29486.3 21113 13104.6 16897.5 12588.9 8008.4 8597.89 4506.71 9880.66 8005.37 7016.8 4583.49 8686.36 1194.3 2611.42 5418.35 4553.3 3708.6 3455.1 1895.29 1764.14 3599.55 3179.54 3628.73 1950.68 3470.27 4296.77 4143.19 2899.39 2102.73 2632.81 1818.8 2351.23 1754.78 1120.2 3526.07 3780.15 3401.81 4906.21 924.571 2650.67 3345.94 2640.47 737.197 909.196 2587.14 847.276 224.749 969.551 1738.32 3615 1496.82 732.244 1265.02 1063.8 1399.37 2252.63 2959.66 2489.5 3263.09 1170.27
internal_count=209514 123582 85932 53572 71332 52250 32360 35047 18525 41872 33338 29460 18912 36850 5022 10769 22130 18441 15386 13919 7756 7259 14722 12917 14687 8023 14045 17952 17306 12011 8610 10889 7408 9723 7147 4558 14715 16003 14230 20847 3754 10684 13994 11031 3022 3786 10714 3510 935 4087 7112 15230 6112 2971 5203 4362 5782 9542 12341 10106 13740 4832
cat_boundaries=0 2 3 4 6 8 9 11 13 14
cat_threshold=4228009984 1 1 1 3892314240 1 4026531840 1 1 3397953152 1 4026532736 1 1
is_linear=0
shrinkage=0.05


Tree=3
num_leaves=63
num_cat=9
split_feature=50 16 16 16 16 25 16 25 25 50 25 16 16 15 16 15 16 50 15 32 25 25 50 50 16 15 11 16 25 2 2 25 10 15 1 16 1 10 32 16 53 10 32 5 16 15 10 16 10 53 51 14 53 15 10 45 10 16 53 16 48 53
split_gain=28623.2 4002.06 3371.17 692.37 621.782 543.062 509.127 197.823 196.798 168.408 160.536 141.452 127.101 113.78 103.738 86.382 83.7666 72.6091 70.1821 64.5918 61.161 50.4455 46.5971 45.9178 43.8111 40.2813 40.213 37.9837 35.8108 32.2914 32.1607 33.9829 31.2206 30.5055 30.2955 30.0869 29.3317 28.1712 27.6137 26.6698 26.1747 24.7406 24.7318 24.6746 23.0307 22.8467 22.6044 23.9555 22.3501 21.6785 23.4446 21.5442 21.3321 20.8829 20.2758 20.3924 19.8495 20.6275 19.8491 19.508 19.4964 19.0725
threshold=3.5000000000000004 2.9258425522898488 1.3736354571277458 1.011435595095721 2.4379801953848275 3.5000000000000004 3.5849059018974727 5.5000000000000009 4.5000000000000009 5.5000000000000009 4.5000000000000009 1.9530024665512917 1.6581827230727291 0.85418893014450203 0.85418893014450203 1.0816615128302691 2.1341489346727696 2.5000000000000004 1.5789255615152133 7.5000000000000009 4.5000000000000009 3.5000000000000004 4.5000000000000009 5.5000000000000009 2.1341489346727696 1.3479888099339705 25.000000000000004 3.2523087303165323 3.5000000000000004 0 1 6.5000000000000009 2 0.76519735254682386 29.500000000000004 0.71754226264466137 23.500000000000004 3 7.5000000000000009 2.8003208578683441 31.750000000000004 4 7.5000000000000009 3.5205000000000006 1.1472764606483909 0.71754226264466137 5 1.6581827230727291 6 32.350000000000001 12.850000000000003 2.2772541355929321 34.650000000000013 1.0816615128302691 7 39.550000000000004 8 1.9670879050346399 32.850000000000001 2.0081915103761951 0.015444024653195186 35.750000000000007
decision_type=8 8 10 10 10 8 8 8 8 8 8 10 10 8 10 8 10 10 8 2 10 10 10 10 10 10 2 10 10 1 1 10 9 10 2 10 2 9 2 10 2 9 2 2 10 10 9 10 9 2 2 10 2 10 9 2 9 10 2 10 10 2
left_child=2 4 3 14 8 12 7 23 16 15 22 20 33 19 35 -8 40 45 -11 -5 32 44 41 28 42 37 36 -9 51 -21 31 39 -7 -4 -18 -1 -19 -13 58 61 -2 -6 48 60 -15 -14 -22 -48 -10 -24 -51 -3 -25 -16 55 -28 -42 -58 -35 -38 -20 -12
right_child=1 6 5 13 10 11 9 27 24 18 30 25 17 21 53 -17 34 26 43 29 46 -23 49 52 -26 -27 54 -29 -30 -31 -32 -33 -34 38 -36 -37 59 -39 -40 -41 56 -43 -44 -45 -46 -47 47 -49 -50 50 -52 -53 -54 -55 -56 -57 57 -59 -60 -61 -62 -63
leaf_value=0.094696549064456945 -0.0064186271576470002 -0.021743759738427272 0.046525525424982173 0.066746238577965078 -0.021503563135836932 0.028254405519770057 -0.012470388662554227 -0.042764703175289694 -0.0059573461090318101 -0.054704089251114918 -0.030711163287064594 -0.019233750748475664 0.047991303618676227 0.05633564991552055 0.072606104217090864 -0.047937588678554896 -0.017637216180696576 -0.011136356211731098 -0.068220623867275273 0.054275880344526295 -0.017208986699208978 0.027656253335138922 -0.0324323172169639 -0.045382849005158751 -0.016109434035412939 -0.019013863681160589 0.01738717848081784 -0.051802112421627237 -0.030940448514113664 0.023274382450053793 -0.052979199111202226 -0.039360520109176692 0.014373204505480387 0.021110174660373231 0.0018346922894818458 0.082719328324008731 0.025408673335373767 0.0048663241882637735 0.026334362537540991 -0.033541405617965418 0.0095194177040706183 -0.0010726314787559389 -0.010547857846164046 -0.07178183130240999 0.043249564710803927 0.033165957549564674 0.019583057980287484 -0.00017514416762588655 0.014598229356482981 -0.0084028910176446505 -0.020540500879795316 9.1406811203458802e-05 -0.034022784307615704 0.039368610274887632 0.033867250440503358 -0.052605624531741682 0.028219296510428329 0.013523546771473625 0.043352357843073119 0.015257172090010859 -0.059753682460185725 -0.020293476160211214
leaf_weight=808.31764705479145 138.53634661436081 362.79529893398285 1475.4215209037066 1414.3697583377361 171.43818244338036 1057.9308568239212 255.26712661981583 2246.3622440695763 248.15698789060116 2733.1403122246265 608.20945550501347 126.31058958172798 413.17144468426704 499.72353710234165 2249.6939414292574 524.25644767284393 225.59340927004814 74.523177444934845 1059.6197198480368 2100.8953694999218 88.854819118976593 403.64170794188976 231.08449885249138 535.90299253165722 1622.7785236984491 271.32724928855896 40.563641250133514 2409.9865280091763 1041.7882936447859 87.49468021094799 136.10730572044849 576.36089631915092 789.74166761338711 112.44577939808369 1744.1902726590633 1492.4145234674215 1051.0007756799459 1102.5565978437662 468.45909741520882 868.15269643068314 729.3719479739666 831.37471437454224 531.20120690762997 1027.6138810366392 1027.6314810961485 700.37937308847904 280.37456710636616 338.76933641731739 265.63813190162182 625.69152557849884 1092.5478982031345 164.05136916041374 1805.5822407454252 48.271828949451447 879.35029110312462 13.997435197234152 498.19814065098763 458.57213674485683 929.07373596727848 860.90690971910954 1897.2457698881626 1582.403208643198
leaf_count=3235 570 1521 5968 5691 713 4316 1070 9566 1027 11746 2559 523 1671 2013 9031 2237 937 306 4582 8467 367 1643 966 2274 6779 1125 165 10329 4393 354 580 2443 3231 456 7208 5981 4287 4548 1901 3672 2995 3444 2200 4459 4152 2843 1148 1400 1098 2611 4561 680 7640 195 3576 57 2037 1888 3762 3520 8179 6618
internal_value=1.66374e-05 -0.0320503 0.0442429 0.0650846 -0.0116364 0.0251753 -0.0488068 -0.0404795 -0.000561488 -0.058322 -0.0222812 0.0106098 0.0335915 0.0531697 0.0794221 -0.0363233 0.00675477 0.0278034 -0.0608747 0.0584186 0.0177639 0.0433766 -0.0135487 -0.0321879 -0.0109676 -0.00157758 0.0236611 -0.0474422 -0.025568 0.0530364 -0.029117 -0.0282236 0.0225519 0.0414124 -0.000395367 0.0869273 0.019638 0.00227225 0.0364163 -0.026125 0.0144735 -0.00479058 -0.00298292 -0.0651075 0.0475311 0.0386667 0.00526847 0.00863278 0.00483831 -0.0180543 -0.0161206 -0.0149446 -0.0366228 0.0719079 0.032218 -0.000481041 0.01619 0.0209567 0.040951 0.0208376 -0.0627879 -0.0231859
internal_weight=50456.8 29249.2 21207.6 10132.5 13185.6 11075.2 16063.6 8566.47 6462.24 7497.14 6723.37 4055.87 7019.29 5533.76 4598.7 779.524 3794.46 4033.89 6717.62 3602.76 2555.67 1931 2952.14 3910.12 2667.77 1500.19 2920.34 4656.35 1568.63 2188.39 3771.23 3635.13 1847.67 2985.4 1969.78 2300.73 1986.43 1228.87 1509.98 3058.77 1824.68 1002.81 1045 3984.48 1527.36 1113.55 707.999 619.144 513.795 1949.32 1718.24 526.847 2341.49 2297.97 933.911 54.5611 1686.14 956.77 1041.52 1911.91 2956.87 2190.61
internal_count=209514 123582 85932 40762 54906 45170 68676 36403 26739 32273 28167 16658 28512 22320 18442 3307 15635 16425 28966 14512 10462 7808 12295 16508 11104 6196 11911 19895 6594 8821 15872 15292 7547 12087 8145 9216 8113 5071 6119 12849 7490 4157 4325 17220 6165 4514 2915 2548 2125 8138 7172 2201 9914 9226 3798 222 6920 3925 4218 7807 12761 9177
cat_boundaries=0 1 2 3 5 7 9 11 12 13
cat_threshold=1 1 66659328 3758227456 1 3355590720 1 1879048448 1 4039747848 1 3758101896 2861221395
is_linear=0
shrinkage=0.05


Tree=4
num_leaves=63
num_cat=8
split_feature=50 16 16 25 16 16 16 16 25 16 25 25 50 25 15 16 25 50 16 16 10 15 15 50 16 16 16 50 10 53 50 15 44 2 29 1 53 10 25 14 5 16 50 10 53 51 29 16 10 25 25 10 37 50 10 7 53 14 25 14 40 51
split_gain=25886.7 3707.73 3039.38 587.198 565.798 482.594 385.807 222.775 217.504 196.7 177.815 147.214 128.368 125.262 76.8382 75.3809 73.6363 68.3752 57.6943 49.4596 45.9054 45.8855 43.4845 42.3174 42.0728 39.821 38.5969 36.2795 34.5065 33.9701 31.2583 30.491 28.9741 28.2901 28.0863 27.4333 26.531 26.466 24.7318 24.5734 24.4192 24.2123 24.0392 23.9316 23.54 23.4442 22.6119 22.5915 22.5852 22.5482 21.945 21.8142 21.8618 20.4419 27.3261 20.3301 20.167 19.919 19.597 21.592 19.4355 19.4201
threshold=3.5000000000000004 2.9258425522898488 1.2382692000587421 3.5000000000000004 2.4379801953848275 3.3928277196600067 0.89587973461402759 1.5150668501356619 5.5000000000000009 1.6955735229043272 4.5000000000000009 4.5000000000000009 4.5000000000000009 5.5000000000000009 0.89587973461402759 2.1341489346727696 4.5000000000000009 2.5000000000000004 1.0816615128302691 3.9189981260915085 0 0.85418893014450203 0.76519735254682386 4.5000000000000009 1.8164190316151558 2.1341489346727696 0.71754226264466137 5.5000000000000009 1 34.650000000000013 1.5000000000000002 1.8945885877146502 2.5000000000000004 2 35.000000000000007 29.500000000000004 16.450000000000003 3 3.5000000000000004 3.3339870432574523 3.5235000000000007 2.8003208578683441 6.5000000000000009 4 31.750000000000004 7.1500000000000012 35.000000000000007 1.9670879050346399 5 6.5000000000000009 2.5000000000000004 6 31.650000000000002 6.5000000000000009 7 32.150000000000013 34.650000000000013 1.8325494627242667 3.5000000000000004 2.4466760667407619 0.14500000000000005 9.3500000000000032
decision_type=8 8 10 8 10 8 10 10 8 10 8 8 8 8 10 10 10 10 10 8 9 10 10 10 10 10 10 8 9 2 10 10 2 1 2 2 2 9 10 10 2 10 10 9 2 2 2 10 9 10 10 9 2 10 9 2 2 10 10 10 2 2
left_child=2 4 6 7 10 13 26 22 12 21 15 23 38 36 18 44 20 28 32 40 -11 -5 -4 48 37 43 -1 -14 -9 -26 -20 33 -8 41 -30 -17 -3 -19 -7 -18 -10 -13 58 -12 -2 -15 -31 -22 -6 -47 -28 -23 60 54 -25 -24 -29 -45 59 -38 -53 -46
right_child=1 5 3 9 11 8 14 17 19 16 25 31 27 45 -16 35 39 24 30 -21 47 51 55 53 29 -27 50 56 34 46 -32 -33 -34 -35 -36 -37 42 -39 -40 -41 -42 -43 -44 57 61 49 -48 -49 -50 -51 -52 52 -54 -55 -56 -57 -58 -59 -60 -61 -62 -63
leaf_value=0.089964756981595589 -0.0061044112070815608 -0.065073920262020205 0.050556112467377803 0.033479050211446558 -0.020573196877659315 0.014038086715951021 0.055916528743340001 0.019995226453644679 -0.053236231919169187 -0.005430553665448745 -0.023794174489015583 -0.023150942118474207 -0.033449302805350196 -0.06746786987754376 0.042243197698694751 -0.016814933946498797 -0.0052093712050751851 0.03934761706783875 0.048031249266375094 -0.063646998961198006 0.020777148225447985 0.0016119439504217138 0.043395891451786135 -0.024356815143346644 0.0062043141436047338 -0.015356998322446629 0.078159127663972233 -0.055852071840594888 0.034506816613843298 0.018285859941271122 0.060581619985465879 -0.045053222269701793 0.068383937343511517 -0.050708758326920414 0.048510367062929965 0.0017423724757012499 -0.023348138549168243 0.024233121953556022 -0.020051157806342514 -0.030385937406720166 -0.065337813950840859 -0.032498948057043439 -0.036758166349054128 0.0043337410423610568 0.041526609380000995 -0.039618600950528354 0.029872844908970894 0.0078796168331569817 -0.0010198440111910784 -0.048993904008846567 0.05238907775086471 0.016762086585468829 0.011684819519793058 -0.032800060284645077 -0.010773103174587344 0.031253237339413646 -0.045499438383729919 -0.012129874898378003 -0.02918261555583437 -0.0017996864337274259 0.036123436439360938 0.014247787217392791
leaf_weight=808.2756120711565 138.38783809542656 49.765149191021919 1734.713364481926 838.26299811899662 170.70274187624454 89.528416931629181 618.47843870520592 343.05310666561127 2916.0328881889582 403.07236674427986 110.45225232839584 2415.0345112085342 488.17493233084679 95.170782178640366 680.83952349424362 224.81437328457832 733.36225642263889 632.48740689456463 1058.5017952620983 3169.2712260186672 629.36097641289234 186.67188307642937 926.81760960817337 587.65248262882233 365.83870883285999 1617.3165621459484 1999.3322256207466 658.17057451605797 895.63106471300125 1044.3070204705 933.80788269639015 241.12836787104607 1890.3687631040812 118.27761439979076 596.55841143429279 1744.7605902701616 647.32445235550404 876.96934998035431 131.14409622550011 111.67903232574463 486.387161642313 971.27462260425091 649.99740758538246 682.51879024505615 67.977893337607384 2259.1364436745644 705.50447392463684 737.26050052046776 831.20936362445354 895.56324581801891 86.172900095582008 228.87474565207958 355.38290935754776 189.91218456625938 1164.3948085904121 548.83405581116676 1649.0081352442503 251.38948677480221 1527.1214834302664 141.70009896159172 298.88455186784267 1622.2604072242975
leaf_count=3235 570 216 6972 3394 713 368 2478 1386 12734 1661 460 10190 2079 416 2740 937 3043 2560 4249 13973 2567 766 3734 2464 1498 6779 7998 2866 3615 4253 3745 1027 7570 511 2407 7208 2730 3552 555 467 2150 4144 2779 2821 278 9727 2859 3031 3444 3864 345 932 1447 801 4873 2211 7147 1044 6485 587 1217 6642
internal_value=8.52272e-06 -0.030717 0.0419061 0.0271185 -0.0110874 -0.0469985 0.0660648 0.0347368 -0.0540508 0.0125134 -0.000533003 -0.0212794 -0.0429343 -0.0362074 0.0578981 0.00641133 0.00360595 0.0285915 0.060266 -0.0591526 0.00940414 0.0247197 0.045189 -0.0129127 0.0246105 -0.0104425 0.0806892 -0.0458326 0.0364551 0.0200606 0.0539137 -0.027855 0.0653105 -0.0266717 0.0398383 -0.000375825 -0.0288687 0.0309876 -0.00622091 -0.00853666 -0.0549662 -0.0258322 -0.0282613 -0.0028319 0.0137216 -0.0430177 0.0229576 0.0137188 -0.0045668 -0.0422801 0.0770943 0.0178562 0.0210333 -0.0172186 -0.0155297 0.0388797 -0.0484527 -9.68985e-05 -0.0258767 -0.0194783 0.0277269 0.0153449
internal_weight=50272.3 29003 21269.3 13193.5 13149.5 15853.5 8075.78 8670.71 9587.72 4522.81 6459.88 6689.59 3016.03 6265.78 5182 3798.2 2614.74 5460.35 4501.16 6571.69 1769.69 1908.08 3210.37 2943.87 3625.11 2661.68 2893.78 2795.35 1835.24 2115.65 1992.31 3745.72 2508.85 3504.59 1492.19 1969.57 3015.91 1509.46 220.673 845.041 3402.42 3386.31 2966.14 1044.36 1828.63 3249.87 1749.81 1366.62 1001.91 3154.7 2085.51 1069.81 883.142 1941.96 1752.05 1475.65 2307.18 933.908 2316.15 789.025 527.759 1690.24
internal_count=209514 123582 85932 53572 54906 68676 32360 35047 41872 18525 26739 28167 13015 26804 20782 15635 10769 22130 18042 28857 7259 7756 12917 12295 14722 11104 11578 12092 7408 8610 7994 15872 10048 14845 6022 8145 12797 6112 923 3510 14884 14334 12581 4325 7490 14007 7112 5598 4157 13591 8343 4362 3596 8138 7337 5945 10013 3865 9802 3317 2149 6920
cat_boundaries=0 2 4 5 6 8 10 12 13
cat_threshold=4093792256 1 3892446293 1 1 53864448 4026531840 1 3355590720 1 4026534784 1 4186046592
is_linear=0
shrinkage=0.05


Tree=5
num_leaves=63
num_cat=10
split_feature=50 16 16 16 25 16 16 25 50 16 16 25 25 16 15 25 15 25 50 50 32 11 10 10 53 32 32 16 10 6 10 50 25 53 16 53 15 32 25 15 10 16 50 16 53 2 10 10 25 10 16 50 15 32 16 16 25 25 15 15 2 11
split_gain=23540.3 3428.56 2790.52 506.072 484.529 480.263 469.386 201.296 183.439 155.077 147.49 146.482 119.304 97.2828 82.2149 75.9809 71.7434 62.8979 60.894 55.1462 55.0995 45.7387 38.892 35.0377 33.7672 33.1661 32.1758 31.934 31.7481 31.6458 31.5667 33.9734 30.3372 28.676 28.8793 27.9115 27.7967 26.8168 26.7251 26.6893 26.4436 28.1177 26.0985 25.7775 25.0536 24.6089 24.193 23.4133 23.3648 25.5887 22.5021 22.447 22.1928 21.9354 20.2079 19.7855 19.6438 19.2659 18.9992 18.8491 18.5955 18.5634
threshold=3.5000000000000004 2.9258425522898488 1.3216669431912595 2.2137389487888997 3.5000000000000004 1.011435595095721 3.5070566484845265 4.5000000000000009 5.5000000000000009 1.9530024665512917 1.6581827230727291 5.5000000000000009 3.5000000000000004 0.81068324164968719 1.0816615128302691 6.5000000000000009 0.81068324164968719 5.5000000000000009 4.5000000000000009 4.5000000000000009 7.5000000000000009 25.000000000000004 0 1 33.150000000000013 6.5000000000000009 7.5000000000000009 2.6844345112494912 2 3.4765000000000001 3 2.5000000000000004 2.5000000000000004 16.450000000000003 3.1289487232602951 35.45000000000001 1.1150072000796054 7.5000000000000009 5.5000000000000009 0.71754226264466137 4 2.5217125584596238 5.5000000000000009 2.0081915103761951 28.850000000000005 5 6 7 6.5000000000000009 8 3.9189981260915085 2.5000000000000004 1.0816615128302691 6.5000000000000009 4.0064232668739788 1.4701097818118665 4.5000000000000009 2.5000000000000004 0.85418893014450203 1.011435595095721 9 25.000000000000004
decision_type=8 8 10 10 8 10 8 8 8 10 10 8 8 10 8 8 8 10 10 10 2 2 9 9 2 2 2 10 9 2 9 10 10 2 10 2 10 2 10 8 9 10 10 10 2 1 9 9 10 9 8 10 10 2 8 10 10 10 8 10 1 2
left_child=2 3 5 12 10 13 11 18 14 17 32 33 -2 -1 47 52 20 25 28 35 -7 30 -11 -14 -21 -6 36 -26 -5 42 -12 -32 44 -3 -35 -9 -18 59 51 -15 -20 -42 -13 -33 -4 58 -39 -8 49 61 -17 -24 -10 -46 -54 -55 -25 -30 -27 -23 -22 -37
right_child=1 6 4 7 9 16 8 19 15 22 21 29 23 39 -16 50 26 -19 40 24 60 37 38 56 27 45 -28 -29 57 -31 31 43 -34 34 -36 48 -38 46 -40 -41 41 -43 -44 -45 53 -47 -48 -49 -50 -51 -52 -53 54 55 -56 -57 -58 -59 -60 -61 -62 -63
leaf_value=0.080839582322070447 0.015043511658007745 -0.065247486294951348 0.012346614054305342 -0.013522891170179414 0.034816949727258253 0.062308173912950127 0.0065177248190309072 -0.026723715632201758 -0.04382818700334401 -0.013614953340239912 0.0090005422363568371 -0.032971718474305384 -0.0098170065936081657 0.069705890975866783 -0.042826750529678777 -0.056456076375408948 0.048477260995858008 -0.0052458919761654201 -0.022883950843784501 -0.038078282053913011 0.049391886045924774 0.044449787367303602 0.028283406960400471 0.0085562313395026717 -0.020134948852989942 0.037906131281913176 0.030191595216265778 -0.030262304425346588 0.010703943176593324 -0.053509022143846542 0.033395628701130824 0.025588885137792724 0.030668886245298139 -0.022911045148795148 -0.032169838065790247 -0.0066445805998556528 0.029098892317078406 0.036492377423997274 -0.018219847415062742 0.059785939338665654 -0.0029592751923472075 -0.015527446162843793 -0.043410975168768101 0.013008043636871792 0.055588479707525819 -0.0095137572001180986 0.014297578227294076 -0.021790264735880811 -0.033656811382711982 -0.017519807709589979 -0.063906686922457601 0.0033702484599519716 -0.049136039006171459 0.045076728293331765 -0.059059225239342976 0.035949774389814053 -0.0050712196906343848 -0.0021599932390530254 0.017418050453777895 0.026001539336024723 0.023788668756789751 0.014404082202272496
leaf_weight=1761.4862686246634 1635.5879736691713 53.611050814390182 73.329153284430504 445.08317729830742 319.44134528934956 1156.8345736861229 121.00668475031853 360.15812051296234 911.96299590170383 521.37097872793674 497.27618269622326 773.93186266720295 980.43073999881744 1773.932618111372 611.79632928967476 1755.8021760433912 1097.0779587030411 279.38613469898701 640.02482417225838 565.03633823990822 1745.4685442000628 490.10337647795677 102.71013391017914 666.31638231873512 1690.2802065312862 120.13093003630638 488.8317359238863 1442.8460538685322 416.15966610610485 598.68987794220448 641.11907179653645 888.10488870739937 919.91740274429321 1420.7638309746981 2068.2065424919128 333.59167648851871 222.60262796282768 246.01493605971336 127.03673616051674 1097.5585261285305 700.64007504284382 1219.7503914386034 2644.4261941164732 751.84355235099792 266.10540664196014 80.834982290863991 332.73449569940567 168.85263890028 96.698665529489517 363.29433752596378 2396.6946733444929 755.29153946042061 1268.5161401927471 1171.451112806797 861.46870814263821 1204.1715196967125 438.46033857762814 968.24162957072258 1948.5127096027136 192.97635363042355 73.921899646520615 152.69528146088123
leaf_count=7068 6688 237 295 1853 1297 4629 512 1534 4013 2160 2019 3375 4064 7100 2677 7831 4397 1152 2689 2425 6989 1976 423 2744 7151 487 1966 6173 1719 2637 2580 3600 3705 6064 8877 1408 897 993 530 4393 2915 5130 11571 3060 1068 334 1344 713 414 1535 10797 3112 5615 4697 3842 4842 1823 4008 7924 779 297 644
internal_value=-1.31715e-05 -0.0295302 0.0397682 -0.0106722 0.0237064 0.0601144 -0.0453282 -0.0168533 -0.053694 0.0101726 0.0312089 -0.0363686 0.00493431 0.0715889 -0.0324344 -0.0563584 0.0490038 0.0172398 -0.00903871 -0.0237081 0.0537764 0.0246345 -0.00272082 -0.00299512 -0.0268277 0.0197843 0.0411495 -0.0247987 -0.00207211 -0.0429047 0.0210492 0.0235332 0.0385162 -0.0289571 -0.0283995 -0.0148775 0.0452085 0.0325286 0.00315156 0.0659142 -0.0140165 -0.0108854 -0.0410475 0.0198211 0.0411751 0.0175503 0.0246097 -0.0104995 -0.0103688 -0.00771814 -0.0607563 0.00635257 -0.050355 0.0419753 -0.0531495 0.0404504 0.00311957 0.00169474 0.0186078 0.039238 0.0483516 -3.45393e-05
internal_weight=50118.6 28771 21347.6 13115.3 11929.9 9417.71 15655.7 9394.5 8096.1 4254.72 7675.15 7559.63 3720.8 4632.98 901.656 7194.44 4784.74 2748.31 4389.9 5004.6 2976.23 4040.17 1506.41 2085.21 3698.16 2468.92 1808.51 3133.13 1829.48 4017.05 2778.34 2281.07 3634.97 3542.58 3488.97 1306.44 1319.68 1261.83 985.038 2871.49 2560.42 1920.39 3418.36 1639.95 2715.06 2149.48 578.749 289.859 946.28 849.581 4152.5 858.002 3041.95 2641.73 2129.98 2375.62 1104.78 1384.4 2068.64 683.08 1819.39 486.287
internal_count=209791 123678 86113 54917 48377 37736 68761 39598 36000 17419 30958 32761 15319 18561 3902 32098 19175 11194 18314 21284 11915 16351 6225 8631 15749 10042 7260 13324 7580 17583 11259 9240 14607 15178 14941 5535 5294 5092 4065 11493 10734 8045 14946 6660 10902 8745 2337 1225 4001 3587 18628 3535 13470 10607 9457 9539 4567 5727 8411 2755 7286 2052
cat_boundaries=0 2 4 6 8 10 11 12 13 14 15
cat_threshold=4169285632 1 4182411264 1 3892971648 1 3892449346 1 3783393920 1 1 87892480 326124928 100277828 1
is_linear=0
shrinkage=0.05


Tree=6
num_leaves=63
num_cat=8
split_feature=50 16 16 48 16 16 16 15 50 15 15 15 32 15 32 15 15 15 32 50 2 50 16 15 15 32 15 32 50 15 16 32 10 10 32 50 10 50 15 53 14 6 15 53 16 53 52 10 50 16 11 2 6 53 10 32 6 16 10 44 15 16
split_gain=21330.9 3183.45 2544.51 459.929 453.135 448.214 328.017 182.769 153.567 149.103 123.724 116.939 110.561 96.4139 77.8159 67.7237 66.6249 66.4574 65.9045 65.1884 61.142 59.5214 53.5243 51.9309 50.1994 49.7859 49.5228 49.4223 46.3603 45.2533 41.7031 40.2609 34.8788 33.5772 32.6559 32.1789 30.6504 29.201 27.7065 27.0569 27.033 25.6989 25.457 24.6152 23.657 23.467 23.1808 22.8042 22.7639 22.3896 22.2882 21.7684 21.7653 21.6756 21.6705 20.5113 20.4463 20.3932 20.3209 20.0958 20.0698 19.9565
threshold=3.5000000000000004 2.9258425522898488 1.2382692000587421 0.10811126694717159 1.6581827230727291 3.5849059018974727 0.93590108845079578 1.011435595095721 5.5000000000000009 1.2088489500472754 1.4230357494997927 0.81068324164968719 7.5000000000000009 0.89587973461402759 7.5000000000000009 1.0816615128302691 0.81068324164968719 1.5789255615152133 7.5000000000000009 4.5000000000000009 0 5.5000000000000009 0.71754226264466137 0.85418893014450203 1.3986406674150766 7.5000000000000009 1.2088489500472754 7.5000000000000009 4.5000000000000009 1.1472764606483909 1.9387157803292638 7.5000000000000009 1 2 7.5000000000000009 5.5000000000000009 3 2.5000000000000004 1.9387157803292638 32.45000000000001 1.6193392260821904 3.5150000000000001 0.89587973461402759 30.950000000000003 2.3369748506914587 34.750000000000007 21.250000000000004 4 6.5000000000000009 3.2047748432861245 25.000000000000004 5 3.5185000000000004 39.850000000000001 6 6.5000000000000009 3.4145000000000008 4.2158241874322906 7 1.0000000180025095e-35 1.1785366391390579 2.7245741281253104
decision_type=8 8 10 10 10 8 10 8 8 8 8 8 2 8 2 8 10 8 2 10 1 10 10 8 10 2 8 2 10 10 10 2 9 9 2 10 9 10 10 2 10 2 10 2 10 2 2 9 8 10 2 1 2 2 9 2 2 8 9 2 10 10
left_child=2 3 6 10 11 9 22 12 15 35 19 25 45 30 24 58 36 48 26 34 23 46 -1 31 33 59 -15 29 -12 -13 -5 -8 51 50 -2 -3 -14 -38 41 -28 -16 -23 -24 -20 -18 -6 -11 -36 -10 -37 -9 -21 61 -49 -41 -25 -34 -19 -7 -4 -45 -30
right_child=1 5 4 13 7 8 20 14 17 21 28 27 16 18 40 -17 44 57 43 32 -22 38 42 55 -26 -27 39 -29 52 -31 -32 -33 56 -35 47 49 37 -39 -40 54 -42 -43 -44 60 -46 -47 -48 53 -50 -51 -52 -53 -54 -55 -56 -57 -58 -59 -60 -61 -62 -63
leaf_value=0.082712059086922918 0.0037364456487175568 -0.019834925245686062 0.028092824026593355 0.023519891881312639 0.020945380277394347 0.0065370059831661616 0.062499055689803566 -0.0019902726004235502 -0.041455956179042484 -0.044876141528744154 -0.015478500658587732 0.03537519908410313 0.0069613741967411288 0.013832260359595207 0.00023686290673697168 -0.042147117135517276 0.010839339411367919 -0.056914383150500236 -0.042056436539193547 -0.021146933820951529 0.025868105998483739 -0.041781607219638826 0.06912737012961559 0.057224196809121552 -0.006046857750370116 0.03661587919957137 -0.01965049909480571 0.019001505628584242 -0.024797844604522105 0.017527836061388465 0.0062816625602401151 0.051006514539035999 -0.019244850195530534 0.019993763696554919 -0.01902542877294126 -0.024819408705086771 0.036142194860819953 0.020831026310852888 -0.056650609107961214 0.010898274941515955 -0.018759308008376038 -0.063472051678650582 0.04665156296370785 -0.006797295492038064 -0.006448555396379731 0.037236718377208732 -0.029042530363743407 -0.015580874137226558 -0.052097179430765354 -0.035539179403580666 0.019796267618298377 -0.045740708187590094 -0.062974294156656438 0.0044750618885405248 -0.0043136162292829669 0.040962746816805083 -0.0086660800022650801 -0.064565034318028514 -0.02169694238960302 0.052748087195942372 -0.021502911606034101 -0.034928870925164328
leaf_weight=806.02452975511551 657.83858552575111 1042.9346754252911 91.318802490830421 501.65856085717678 280.33726772665977 106.00425338745117 1327.3849486559629 395.39735549688339 682.06469762325287 288.87467801570892 736.8183030039072 1774.5078648477793 294.57913506031036 662.72652621567249 407.28446599841118 505.49959820508957 900.15395326912403 2389.7557082176208 62.723529517650604 1500.5736024230719 228.20124994218349 3332.8205395787954 2541.1488916575909 237.83528013527393 370.59023360908031 2048.7229363769293 204.3547465801239 1142.0669402629137 1090.9649066776037 444.05367647111416 1167.098730430007 1789.3451868146658 701.30729541182518 976.13666920363903 436.83938430249691 888.02966636419296 456.65756540000439 978.99446307122707 394.642961114645 321.17848627269268 346.71844543516636 142.39252965152264 132.55617043375969 1059.3933720439672 253.64674399793148 1045.158768415451 1156.9518322944641 227.44533857703209 1909.8479506224394 1078.8764329403639 166.96268849074841 95.712702423334122 49.220221385359764 330.44216747581959 788.89640416204929 1050.1245155334473 1309.8524148464203 1370.5625428110361 144.27617794275284 870.28530775010586 297.07816599309444 876.72398948669434
leaf_count=3263 2734 4467 366 2039 1137 448 5315 1616 3066 1270 3134 7127 1193 2716 1672 2242 3666 10911 264 6374 914 14763 10214 952 1533 8211 853 4615 4657 1797 4794 7160 2972 3972 1834 3846 1833 3963 1765 1331 1442 644 531 4398 1040 4211 5051 951 8625 4735 680 414 216 1379 3274 4206 5544 6316 612 3484 1247 3792
internal_value=-1.89509e-05 -0.0283203 0.0377658 -0.0101714 0.0242579 -0.0437002 0.059817 0.0153531 -0.0529219 -0.0358271 -0.0176257 0.0338638 0.0218385 0.00162243 0.00510168 -0.0316155 0.0163451 -0.0554569 -0.00321301 -0.0131305 0.0511036 -0.0408621 0.0714179 0.0524111 0.0104731 0.0410212 0.00268794 0.0274526 -0.0262121 0.031803 0.0114638 0.0559011 -0.0168979 0.0144523 -0.00490654 -0.0269347 0.0225509 0.0255235 -0.044096 -0.00293095 -0.00849828 -0.0426703 0.0680131 -0.0114339 0.00703884 0.0337912 -0.0322061 -0.0106224 -0.0492969 -0.0306994 0.00439983 -0.0224807 -0.0301333 -0.00363637 0.000146965 0.0439656 -0.0122939 -0.0597029 -0.0103444 0.0504067 -0.0100179 -0.0293118
internal_weight=49868.6 28512.4 21356.2 13078.8 13243.6 15433.5 8112.62 6872.62 7108.01 8325.52 8013.74 6370.96 4209.53 5065.11 2663.09 755.78 2884.03 6352.23 3396.35 5260.01 4632.89 5315.68 3479.73 4404.69 1909.09 3010.33 1977.16 3360.63 2753.73 2218.56 1668.76 3116.73 3607.45 1538.5 1652.57 3009.84 1730.23 1435.65 3869.86 1314.43 754.003 3475.21 2673.71 1419.2 1153.8 1325.5 1445.83 994.727 2591.91 1966.91 562.36 1596.29 2016.91 557.888 1110.07 1287.96 2011.16 3760.32 250.28 961.604 1356.47 1967.69
internal_count=209791 123678 86113 54917 53558 68761 32555 27958 32220 36541 34001 25600 17043 20916 10915 3302 11695 28918 14083 22202 18547 23493 14008 17633 7801 12061 8174 13539 11799 8924 6833 12475 15304 6268 6898 13048 6989 5796 17172 5458 3114 15407 10745 5909 4706 5348 6321 4164 11691 8581 2296 6788 8665 2330 4605 5158 8516 17227 1060 3850 5645 8449
cat_boundaries=0 1 3 5 7 9 10 12 13
cat_threshold=1 4253221504 1 3561181840 1 3892451329 1 4197090368 1 1 154148293 1 309608832
is_linear=0
shrinkage=0.05


Tree=7
num_leaves=63
num_cat=11
split_feature=50 16 16 25 16 25 16 16 16 25 16 50 25 16 25 25 15 25 16 16 53 11 16 16 50 53 25 5 53 5 50 10 14 10 25 28 10 2 1 5 16 10 50 2 15 10 10 53 15 15 53 10 51 10 15 15 14 50 42 16 10 25
split_gain=19341.9 2958.9 2328.59 464.672 433.021 422.785 268.409 208.547 197.991 155.679 124.013 123.927 117.595 87.2988 68.8732 66.8394 54.4695 51.4088 50.4552 44.2981 43.6403 38.8901 38.3335 37.2867 37.0179 36.8123 34.996 34.9284 34.2151 33.4137 32.8183 31.464 29.3969 29.2104 29.0052 28.6837 27.0672 25.7012 24.8707 24.7893 24.4554 24.4546 23.8048 23.0202 22.9855 22.391 21.4384 21.1649 20.998 20.6291 19.6151 19.2833 19.1917 19.6304 18.4223 18.2473 18.1051 17.7966 17.6839 17.516 17.2965 17.2756
threshold=3.5000000000000004 2.9365093959507509 1.2088489500472754 2.5000000000000004 2.4379801953848275 5.5000000000000009 0.89587973461402759 3.5070566484845265 1.8640500836336089 3.5000000000000004 1.5580892133149293 5.5000000000000009 5.5000000000000009 3.5189793199236452 4.5000000000000009 5.5000000000000009 0.89587973461402759 3.5000000000000004 1.9095150692894911 2.1341489346727696 34.95000000000001 25.000000000000004 0.71754226264466137 1.5368094061055313 2.5000000000000004 35.350000000000001 3.5000000000000004 3.5205000000000006 33.550000000000004 3.5425000000000004 5.5000000000000009 0 2.2027494954295124 1 2.5000000000000004 101.50000000000001 2 3 30.500000000000004 3.5315000000000007 3.9049978834167329 4 5.5000000000000009 5 1.8164190316151558 6 7 33.850000000000001 2.0979991079743008 1.4468497739944199 30.950000000000003 8 21.650000000000002 9 1.9387157803292638 1.7833559100698646 2.5297127291328443 2.5000000000000004 12.500000000000002 1.011435595095721 10 3.5000000000000004
decision_type=8 8 10 8 10 8 10 8 10 8 10 8 8 8 10 10 10 10 10 10 2 2 10 10 10 2 8 2 2 2 10 9 10 9 10 2 9 1 2 2 8 9 10 1 10 9 9 2 10 10 2 9 2 9 10 10 10 10 2 10 9 10
left_child=2 4 6 10 9 11 22 29 14 19 37 17 20 -13 23 25 21 32 60 51 43 38 -1 52 50 -10 -27 40 -20 42 33 -28 -3 -22 -24 -25 -21 47 -8 49 -9 -26 -7 61 45 -30 -37 -4 -19 -14 -12 -2 -5 58 -44 -16 -52 -33 -54 -40 -11 -6
right_child=1 5 3 8 12 7 16 27 15 18 24 13 39 -15 55 -17 -18 48 28 36 30 -23 34 35 41 26 31 -29 44 -31 -32 57 -34 -35 -36 46 -38 -39 59 -41 -42 -43 54 -45 -46 -47 -48 -49 -50 -51 56 -53 53 -55 -56 -57 -58 -59 -60 -61 -62 -63
leaf_value=0.079444127959892863 0.0076522437214577889 -0.018589974856498322 0.028791234408011474 0.031444903221240737 -0.012446540632496993 -0.03135592828227645 0.038770968931752775 -0.049132343162587258 -0.0037599140680569295 -0.0013695034658595671 0.0015096507522769831 -0.029815451665611101 -0.023380687113485402 -0.044961012298223774 0.0091111091435850371 -0.02005104474144195 0.036637232894797513 -0.025737503846617146 -0.021093570207960401 0.0085644556539833157 -0.014373453797449701 0.058724962548515371 0.067784408621138895 0.02236852169466165 0.027583943588518869 0.018415634813162912 -0.0048122929483352967 -0.063152063704553563 -0.013792226659345937 -0.059916325389066875 -0.018581781547833628 0.030775019775666681 0.0031096651818613968 -0.0027608712859467674 0.03833897652773547 0.020490522120528206 -0.006069517370509963 0.01601382425112656 0.057719125736823744 -0.048065820022308935 -0.056667875458514073 0.015787191765749661 -0.039787632660211944 -0.048964330325247711 -0.028812654411120176 -0.0033925727553477053 -0.004117720406295839 0.042658231678379163 -0.054891558353793626 -0.034198985779170368 0.031885792862816821 0.020419670145565311 0.0051257632605660264 0.027144686682175158 -0.053707604234615784 -0.02698030676912689 0.048206917819766902 0.0084591064997288894 -0.058677450535157195 0.047908243755466769 0.016792412510635128 -0.027259475201380497
leaf_weight=797.43361666798592 545.38737447559834 394.43971101939678 305.55444012582302 1571.8788334578276 351.81958524882793 810.40059749782085 491.58343280851841 1997.998686671257 599.36688430607319 272.57650256156921 45.746171921491623 2025.2129601687193 1953.7933886796236 1794.4540249556303 660.29088120162487 247.24815572798252 596.6495216190815 1240.8988752961159 512.55649214982986 717.31141991913319 904.72569507360458 1659.5767016708851 1985.628584086895 1613.0489821583033 1117.8348218351603 808.81060333549976 489.40963007509708 1104.9319244027138 697.10486796498299 199.74024273455143 936.71862506866455 103.83585339784622 258.27196432650089 1367.551391929388 87.311019062995911 144.75945073366165 550.14333963394165 104.06822888553143 697.52147787809372 131.77870805561543 2334.9129400402308 924.60066117346287 2574.4484172463417 79.391349837183952 116.40575581789017 2020.4419982433319 204.22129875421524 2766.501714810729 64.996722087264061 568.9901181012392 917.35897441208363 768.60243353247643 75.392574727535248 122.12003740668297 261.86415411531925 36.982785105705261 208.54669173061848 639.9683049172163 12.687717840075491 1308.1743431091309 246.37566587328911 446.796695291996
leaf_count=3263 2220 1689 1223 6312 1481 3606 1971 9187 2458 1124 184 8882 8436 8165 2697 1037 2389 5394 2165 2957 3820 6661 8034 6510 4504 3264 2019 5215 2921 920 4005 425 1086 5752 351 585 2278 417 2805 583 10937 3730 11560 346 491 8443 825 11071 285 2485 3676 3124 303 491 1196 152 836 2629 51 5240 1013 1912
internal_value=-2.34926e-05 -0.0271643 0.0359 0.0235892 -0.00987127 -0.0423056 0.0580549 -0.0489142 0.0149978 -0.000606556 0.0334443 -0.0316873 -0.0187311 -0.0369307 0.0216249 0.00480829 0.0507646 -0.0214616 -0.00695607 0.00890121 -0.013409 0.0527924 0.070128 0.0243119 0.0265201 0.00713525 0.0103332 -0.0552167 -0.00920559 -0.0400041 -0.0107064 0.00503222 -0.0100036 -0.00745992 0.0665442 0.0195565 0.00223221 0.0404512 0.0488499 -0.026925 -0.0531931 0.022456 -0.0389134 -0.0232865 -0.00705549 -0.00612353 0.0065591 0.041279 -0.0271886 -0.0258207 0.0336048 0.015334 0.0295475 0.0153583 -0.0410728 0.00719685 0.0349089 0.0114209 -0.00365046 0.0513202 0.00755017 -0.0207338
internal_weight=49595.2 28251 21344.1 13720.2 13188.5 15062.6 7623.88 9284.3 7330.02 6446.91 6390.21 5778.27 6741.57 3819.67 4441.38 2888.64 4753.51 1958.61 3865.46 2581.44 4087 4156.86 2870.37 3744.11 3214.09 2641.39 2042.02 5437.84 3346.51 3846.45 3209 1233.21 652.712 2272.28 2072.94 1962.03 1267.45 3176.12 2497.28 2654.56 4332.91 2042.44 3646.71 878.008 2833.95 2717.55 348.981 3072.06 1305.9 2522.78 1171.65 1313.99 1782.08 210.2 2836.31 697.274 1125.91 743.804 88.0803 2005.7 518.952 798.616
internal_count=209791 123678 86113 55399 55556 68122 30714 42621 29758 26736 25641 25501 28820 17047 17926 11832 19066 8454 16157 10579 17316 16677 11648 15077 12930 10795 8337 25339 14020 17282 13577 5073 2775 9572 8385 7920 5235 12711 10016 11504 20124 8234 16362 3739 11855 11364 1410 12294 5679 10921 4696 5344 7157 845 12756 2849 4512 3054 354 8045 2137 3393
cat_boundaries=0 2 3 4 5 6 7 8 9 11 12 14
cat_threshold=4001514628 1 3096117633 49923521 1 97906176 1 4047536128 1937891328 2793975443 1 1217200640 4163823616 1
is_linear=0
shrinkage=0.05


Tree=8
num_leaves=63
num_cat=9
split_feature=50 16 16 50 16 25 25 16 16 25 15 50 25 25 16 48 16 16 32 16 10 25 16 16 53 15 32 50 6 2 10 25 15 10 32 25 50 53 10 18 10 11 28 11 28 11 16 14 15 14 32 40 11 1 2 15 26 50 10 14 42 5
split_gain=17549.5 2759.75 2139.13 499.489 458.247 341.458 247.616 219.784 157.409 145.586 126.817 104.818 94.9172 71.7936 63.9635 61.4283 61.1243 57.0342 49.3863 49.186 44.8037 42.2558 41.6505 37.1501 36.0359 36.0325 34.5344 33.9173 32.4748 31.0534 28.6389 28.4118 27.8941 27.392 27.1972 26.9302 26.1629 25.3289 24.7478 24.2887 24.1175 23.9408 23.1246 22.9974 22.8027 22.7221 21.9321 21.6031 21.5834 22.2993 21.1729 20.2549 18.92 18.6901 18.5938 18.3893 18.2164 21.0591 23.1829 18.1933 18.0761 17.9132
threshold=3.5000000000000004 3.037351072839019 1.1785366391390579 4.5000000000000009 1.5580892133149293 5.5000000000000009 3.5000000000000004 0.89587973461402759 3.6493578504437103 3.5000000000000004 1.4230357494997927 5.5000000000000009 2.5000000000000004 5.5000000000000009 3.5737481633217896 0.078432578740157494 2.1341489346727696 2.0346842880759621 6.5000000000000009 2.7245741281253104 0 3.5000000000000004 2.2137389487888997 0.71754226264466137 35.45000000000001 0.89587973461402759 7.5000000000000009 2.5000000000000004 3.4765000000000001 1 2 6.5000000000000009 1.4701097818118665 3 6.5000000000000009 2.5000000000000004 5.5000000000000009 24.150000000000002 4 3.5000000000000004 5 35.000000000000007 105.50000000000001 25.000000000000004 93.500000000000014 25.000000000000004 2.0081915103761951 2.1916379270371573 0.71754226264466137 2.5297127291328443 6.5000000000000009 0.16500000000000004 25.000000000000004 29.500000000000004 6 1.5789255615152133 7 6.5000000000000009 8 2.841993923664011 5.5000000000000009 3.4905000000000004
decision_type=8 8 10 10 10 8 8 10 8 8 8 8 8 10 8 10 10 10 2 10 9 10 10 10 2 10 2 10 2 1 9 10 8 9 2 10 10 2 9 2 9 2 2 2 2 2 10 10 10 10 2 2 2 2 1 10 1 10 9 10 2 2
left_child=2 3 7 9 12 11 18 23 28 22 15 21 29 17 -13 37 39 33 -6 -12 -20 47 -2 -1 55 26 43 48 36 50 -24 38 -10 -8 -14 -25 -7 -5 52 42 -19 44 -11 -9 -17 46 -29 -3 49 -22 -4 53 -26 -36 -28 -18 57 58 -39 -15 -48 -49
right_child=1 5 4 10 6 8 13 25 32 16 19 14 34 59 -16 41 24 40 20 -21 27 -23 30 35 31 -27 54 45 -30 -31 -32 -33 -34 -35 51 -37 -38 56 -40 -41 -42 -43 -44 -45 -46 -47 60 61 -50 -51 -52 -53 -54 -55 -56 -57 -58 -59 -60 -61 -62 -63
leaf_value=0.076519041699810678 0.015187653383781511 -0.018698976531325191 0.051436992615186576 -0.053572592409667788 0.03639120154327271 -0.030070544864248629 0.0004427197302503701 0.050645121662258152 -0.047091040924008835 0.0069310300411796382 -0.020942016296282624 -0.030455668574399464 0.039880490901901815 -0.0097208146736865089 -0.044137850536279506 -0.0067176500394054072 -0.017895610862874761 -0.0096084763354806063 0.0049706127452505532 -0.033870101978847343 0.032831361801923135 -0.026980991878028927 -0.0072304847866011494 0.064946775527709319 -0.0050644333209182157 0.036940164530262269 0.047413469979061679 0.02036222735247166 -0.051726685944123142 0.01359438873683436 0.0086353030478620845 -0.03220076024428397 -0.056987588205861799 0.015885753959710737 0.0080015658036149268 0.036529923994702215 -0.04147029937031424 0.00053808941248727183 -0.012046393698379877 -0.023852593875425283 0.0053127024764912231 0.0048739747962250005 -0.015241553765004738 0.061769316658443985 -0.017013049924693026 0.025757261885179912 0.006709492370371827 0.0083289352953345094 0.023876637152886362 0.062968382543006365 0.038437991287105344 0.032177413517383707 0.010561644213576693 0.02325695513938978 0.024166742536210019 -0.042497260990998771 -0.023340568352928012 -0.027701542484642738 -0.015807843097352971 -0.036245909839695632 0.033482741546183241 -0.028593757563679052
leaf_weight=786.78762546181679 1331.9655645340681 282.65356047451496 349.42131407558918 53.592374503612518 558.76996077597141 612.81855283677578 368.26487451791763 986.92637139558792 892.05018827319145 1030.6079832613468 1500.599445477128 1827.4644381552935 302.1405436694622 318.59538178145885 1603.9166193306446 1457.087408721447 544.39083859324455 497.60267782211304 437.82870101928711 1443.3926300257444 425.34710767865181 1041.9442683160305 469.49249966442585 1969.1752251684666 602.37537027895451 514.67576126754284 1816.9562494158745 1154.6841330230236 636.98152068257332 117.11778055131435 691.51607447862625 109.2956969588995 3527.7797717899084 1460.5664219558239 238.79328811168671 87.059461340308189 2816.5512035787106 294.37313625216484 829.6474729180336 81.387901857495308 571.66166473925114 283.67125791311264 132.73832687735558 877.86458471417427 852.48011308908463 894.71822087466717 657.44935458898544 189.99688817560673 788.43992617726326 71.731921657919884 3026.6879017949104 532.76575411856174 285.53787136077881 1260.9986051470041 90.29149167239666 88.275475457310677 1290.6602082401514 255.2712590098381 887.2761052697897 81.101382434368134 69.730512529611588 39.715870320796967
leaf_count=3263 5415 1216 1400 239 2247 2764 1506 3976 4216 4260 6442 8123 1211 1328 7426 6126 2330 2061 1765 6413 1702 4571 1954 8034 2539 2061 7306 4646 2972 469 2861 476 16894 5925 962 351 12929 1266 3512 337 2350 1190 551 3543 3591 3592 2661 798 3160 287 12118 2139 1200 5063 362 382 5581 1117 3819 343 282 168
internal_value=-2.63278e-05 -0.0260593 0.0341575 -0.0109335 0.0229273 -0.042357 0.0154222 0.0564995 -0.0484584 -0.000187785 -0.0189391 -0.0319717 0.0336887 0.00476222 -0.0368511 -0.0143699 -0.00647472 0.00750197 0.0223715 -0.0272805 0.0206306 -0.0211999 0.00915383 0.0672791 -0.0110439 0.0493503 0.0510436 0.0222515 -0.0413589 0.0389053 0.00223154 -0.00748229 -0.0549902 0.0128653 0.0258835 0.0637436 -0.0394332 -0.0195316 -0.00590935 0.00255374 -0.00167133 -0.00883408 0.00440113 0.0558819 -0.0105178 0.0191975 0.0160787 -0.00944341 0.0290209 0.0371803 0.0397834 0.0238029 -3.8913e-05 0.020828 0.0463129 -0.0213283 -0.0188628 -0.0145769 -0.011865 -0.0151029 0.00927682 0.00194524
internal_weight=49301.7 27987.5 21314.2 14515.6 14184.4 13471.9 8356.49 7129.74 8486.18 6197.23 8318.4 4985.69 5827.93 3297.79 3431.38 5374.41 3704.26 2898.1 5058.7 2943.99 4499.93 1554.31 2492.97 2843.02 2459.52 4286.71 3772.04 4062.1 4066.35 3493.23 1161.01 1826.86 4419.83 1828.83 2334.7 2056.23 3429.37 2781.17 1717.56 1244.73 1069.26 2593.24 1163.35 1864.79 2309.57 2776.58 1881.86 512.366 1285.52 497.079 3376.11 2032.56 887.913 1499.79 1907.25 632.666 2727.58 1436.92 1181.65 399.697 727.18 229.713
internal_count=209791 123678 86113 61601 57217 62077 33855 28896 39775 25817 35784 22302 23362 13513 15549 22929 15587 11842 20342 12855 18095 6753 10230 11648 10439 17248 15187 16330 18665 13987 4815 7727 21110 7431 9375 8385 15693 12022 7251 5148 4411 10907 4811 7519 9717 11181 7589 2182 5149 1989 13518 8164 3739 6025 7668 2712 11783 6202 5085 1671 2943 966
cat_boundaries=0 2 3 5 7 9 11 12 13 15
cat_threshold=2684485632 1 1 3912105984 1 3825360004 1 99882836 1 4253204608 1 1 28 101226759 1
is_linear=0
shrinkage=0.05


Tree=9
num_leaves=63
num_cat=12
split_feature=50 16 16 16 16 25 25 16 48 25 25 50 15 25 16 16 16 32 53 10 32 25 16 32 16 14 50 10 15 6 50 50 5 5 25 10 44 50 2 2 15 10 10 5 2 14 16 15 14 10 14 53 10 17 3 15 15 50 15 50 15 18
split_gain=15931.2 2571.86 1969.73 460.418 414.622 326.452 223.005 209.76 153.213 133.677 127.488 98.1343 87.9359 64.8877 60.8001 59.8155 51.411 44.3751 42.6715 40.326 39.3283 38.8374 36.2755 35.2266 34.5504 33.4776 33.2818 33.2716 31.942 30.7318 30.6923 29.7133 28.3209 26.3127 25.1548 24.8809 24.5718 23.3724 23.0111 22.6105 22.2434 21.8343 21.0972 20.4316 19.8567 19.6348 19.5556 19.5406 20.1737 19.1663 20.0695 18.0249 17.9472 17.7336 18.8626 17.6521 17.5694 17.5132 17.5069 17.4966 17.3437 17.3291
threshold=3.5000000000000004 3.037351072839019 1.1785366391390579 2.4379801953848275 1.5580892133149293 5.5000000000000009 3.5000000000000004 0.89587973461402759 0.02743489387325004 4.5000000000000009 5.5000000000000009 5.5000000000000009 0.81068324164968719 5.5000000000000009 3.5737481633217896 2.1341489346727696 2.0346842880759621 6.5000000000000009 32.95000000000001 0 7.5000000000000009 3.5000000000000004 0.71754226264466137 7.5000000000000009 1.011435595095721 1.8325494627242667 4.5000000000000009 1 1.1150072000796054 3.4765000000000001 2.5000000000000004 1.5000000000000002 3.5205000000000006 3.5335000000000005 2.5000000000000004 2 3.5000000000000004 5.5000000000000009 3 4 1.5368094061055313 5 6 3.5045000000000006 7 2.1916379270371573 1.8000241202036604 0.71754226264466137 2.5297127291328443 8 2.8819995850723745 38.250000000000007 9 10 11 1.9387157803292638 0.89587973461402759 4.5000000000000009 1.4701097818118665 6.5000000000000009 2.0856528016791152 2.5000000000000004
decision_type=8 8 10 10 10 8 8 10 10 8 8 8 8 10 8 10 10 2 2 9 2 10 10 2 10 10 10 9 10 2 10 10 2 2 10 9 2 10 1 1 10 9 9 2 1 10 10 10 10 9 10 2 9 1 1 10 10 10 8 10 10 2
left_child=2 3 7 9 12 11 17 22 32 15 18 21 20 16 -13 -2 35 -6 44 -19 -4 45 -1 28 36 27 52 43 38 37 47 39 58 40 -24 -8 -9 -10 -14 -26 57 -18 -17 -11 -5 -3 -32 48 -21 -15 -51 53 -20 54 -48 -39 -33 -12 -7 61 -23 -28
right_child=1 5 4 10 6 8 13 24 29 25 33 14 23 49 -16 42 41 19 26 30 -22 60 34 -25 31 -27 59 -29 -30 -31 46 56 -34 -35 -36 -37 -38 55 -40 -41 -42 -43 -44 -45 -46 -47 51 -49 -50 50 -52 -53 -54 -55 -56 -57 -58 -59 -60 -61 -62 -63
leaf_value=0.07388213627343497 0.012019080549344592 -0.017855478257017065 0.046183092763823826 -0.021779444558106997 0.034507482927963976 -0.044840589139431695 0.0015196298117857113 0.044282210865856375 -0.02874356165715158 -0.010332299854653544 -0.014075627105315271 -0.02922540190299034 0.034285228469310168 0.00075277597527019676 -0.042655152944578605 0.0042372545175139815 -0.0091539095067654959 0.0047257686455257665 0.0036824616140098301 0.031185633035584356 0.033968247636378075 -0.024310955878010566 0.062340729259350774 0.017738992074466397 0.041241112829661072 -0.017468246858323388 -0.011336606109218427 0.00055149747101803628 0.018013729493040163 -0.050079425619951129 0.023747914462499919 0.055078253319615779 -0.060892153157815036 -0.046384876458585134 0.034825582640174102 0.015410268517796278 0.056938164367304422 -0.038354327170802172 -0.00024781936229423783 0.014088762461265118 -0.033809087971160411 0.0050472805163601104 -0.0061256090901097397 -0.035792939944394475 -0.047206649121827496 0.0018462909761615028 -0.014795799313808353 0.022664122074963794 0.059857741234826879 -0.016229173953804191 -0.051801324440395716 0.018936141299599269 -0.0089287048370778454 0.014371433109606938 0.012720661294045116 -0.051893170385300724 0.031851348663135874 -0.024971159138066037 -0.053128667976043667 -0.024714115446828219 -0.053155786031762159 -0.023843829713012375
leaf_weight=774.43639494478703 1839.5544779002666 281.24267560243607 992.62172284722328 531.77360872924328 559.78061501681805 834.33663164079189 434.26704302430153 583.33929951488972 593.43185286223888 682.94592712819576 449.73381200432777 1809.6353127509356 1444.0742740035057 145.69321739673615 1577.3684531152248 1057.0413615554571 496.71685795485973 438.0007247030735 436.65866054594517 425.40140557289124 1960.4961178153753 978.43870846927166 1949.4165167510509 922.86001032590866 1768.0451647490263 823.07633440196514 2289.2832882404327 1046.1083147674799 456.05299426615238 594.45912334322929 1014.1822317838669 624.33432818949223 950.78742310404778 151.92698173224926 86.761652007699013 1397.1214610785246 1119.615233540535 2388.4665601849556 49.907142952084541 80.147278800606728 589.34679815173149 572.15050891041756 900.18061602115631 89.072818994522095 89.737124219536781 229.78194622695446 131.34787730872631 789.07224225997925 71.687205195426941 203.42911595106125 49.250975996255875 1106.4315764904022 773.91178423166275 426.07247751951218 101.97698356211185 267.74228325486183 93.626521736383438 2049.8000563681126 2695.9163406044245 352.84122174978256 55.044820740818977 315.05955612659454
leaf_count=3263 7484 1216 3986 2295 2247 4010 1773 2363 2703 2877 1953 8123 5782 611 7426 4366 2061 1765 1828 1702 7855 4323 8034 3707 7119 3494 9835 4393 1832 2826 4067 2520 4721 695 351 5658 4550 11098 200 321 2644 2350 3743 379 402 966 530 3160 287 850 210 4452 3258 1720 412 1269 375 9058 13148 1544 248 1353
internal_value=-2.98229e-05 -0.0250022 0.0325234 -0.0104251 0.0217749 -0.0409114 0.0146408 0.0540645 -0.0469503 -0.000463526 -0.0184115 -0.0307168 0.0320152 0.00452416 -0.0354798 0.00554567 0.00712319 0.0212307 -0.0132291 0.0195806 0.038074 -0.020272 0.0646715 0.0257872 0.0470813 -0.00910185 -0.0114065 -0.00531434 0.029596 -0.0396268 0.0211172 0.043417 -0.0532327 -0.0260702 0.0611683 0.0122089 0.0526029 -0.0377147 0.0331316 0.0400636 -0.025071 -0.00159062 -0.000538562 -0.0131002 -0.0254508 -0.00899659 0.0182144 0.0275557 0.0353206 -0.0143974 -0.0222809 0.0150363 -0.00442313 0.00849268 -0.00274092 -0.039719 0.0520493 -0.0230108 -0.0511699 -0.0142653 -0.0258473 -0.0128497
internal_weight=48993 27724.7 21268.3 14468.1 14188.6 13256.7 8362.58 7079.72 8325.14 6437.98 8030.07 4931.51 5826.01 3298.63 3387 3796.78 2900.26 5063.95 4789.27 4504.17 2953.12 1544.51 2810.61 2872.89 4269.11 2641.2 4167.75 1818.13 1950.03 3844.1 4066.17 2566.15 4481.04 3240.81 2036.18 1831.39 1702.95 3249.64 1493.98 1848.19 3088.88 1068.87 1957.22 772.019 621.511 511.025 2780.01 1286.16 497.089 398.373 252.68 1765.83 1210.57 659.397 233.325 2656.21 717.961 2499.53 3530.25 2957.18 1033.48 2604.34
internal_count=209791 123678 86113 61601 57217 62077 33855 28896 39775 26736 34865 22302 23362 13513 15549 15593 11842 20342 20515 18095 11841 6753 11648 11521 17248 11143 17818 7649 7814 17896 16330 10335 21879 14350 8385 7431 6913 15070 5982 7440 13655 4411 8109 3256 2697 2182 11181 5149 1989 1671 1060 7114 5086 2662 942 12367 2895 11011 17158 12732 4571 11188
cat_boundaries=0 2 4 6 7 8 10 11 12 13 14 15 16
cat_threshold=2684485632 1 4199587848 1 3825393284 1 1 1 4253204608 1 49890655 1 1199680512 1146366748 720 92
is_linear=0
shrinkage=0.05


Tree=10
num_leaves=63
num_cat=12
split_feature=50 16 16 16 16 50 16 15 15 16 32 50 15 15 32 16 15 32 16 15 15 2 15 32 32 15 15 15 32 1 16 15 15 32 16 10 14 52 15 10 10 33 16 10 10 15 15 10 16 44 10 11 16 14 28 10 10 15 32 11 10 14
split_gain=14495.3 2394.92 1813.47 429.285 395.078 316.97 192.438 172.481 163.108 114.047 96.263 92.7607 89.2943 81.8829 64.7493 60.6362 57.2614 55.3724 49.3418 43.5218 42.1152 42.0097 40.8998 39.7799 39.0125 36.8141 35.9343 32.545 34.5414 31.3715 31.1066 30.5805 30.2023 29.3309 28.5503 27.789 26.1313 25.9662 25.3179 23.1444 22.9601 28.7395 22.4789 22.2465 21.7676 21.5773 21.5239 21.0957 21.0836 20.6424 20.3561 20.3358 20.0801 20.2321 19.6871 19.5849 19.1372 19.0904 19.5337 18.9824 24.5075 18.5679
threshold=3.5000000000000004 2.998226044309511 1.1472764606483909 1.599336558775341 2.4379801953848275 6.5000000000000009 0.89587973461402759 1.2382692000587421 1.011435595095721 3.6283320724249073 7.5000000000000009 4.5000000000000009 0.81068324164968719 1.5580892133149293 7.5000000000000009 3.6493578504437103 0.85418893014450203 7.5000000000000009 1.9387157803292638 1.3736354571277458 1.5150668501356619 0 1.3986406674150766 7.5000000000000009 7.5000000000000009 1.0471650770867933 1.6770528870641528 0.85418893014450203 7.5000000000000009 29.500000000000004 0.71754226264466137 1.0471650770867933 0.89587973461402759 7.5000000000000009 2.7376037666723927 1 2.8124057073926041 21.050000000000004 1.011435595095721 2 3 4 1.7664051342320239 5 6 1.0471650770867933 0.85418893014450203 7 1.011435595095721 3.5000000000000004 8 25.000000000000004 2.8931418480839728 1.8325494627242667 91.500000000000014 9 10 2.2027494954295124 7.5000000000000009 25.000000000000004 11 1.6581827230727291
decision_type=8 8 10 10 10 8 10 8 8 8 2 10 8 8 2 10 10 2 10 10 10 1 8 2 2 10 8 10 2 2 10 8 10 2 10 9 10 2 8 9 9 1 10 9 9 10 8 9 10 2 9 2 10 10 2 9 9 10 2 2 9 10
left_child=2 4 6 12 11 7 30 36 10 22 59 18 33 14 47 37 40 25 46 21 23 24 -7 31 44 29 -11 28 49 -14 -1 -20 43 -4 -15 -13 45 -9 -25 -38 41 -12 -26 -16 -10 50 -2 -6 -30 -8 -3 -32 53 -45 -50 -18 -33 58 -39 60 -5 -37
right_child=1 5 3 8 13 9 27 15 19 26 16 35 17 34 32 -17 55 -19 20 -21 -22 -23 -24 38 42 -27 -28 -29 48 -31 51 56 -34 -35 -36 61 39 57 -40 -41 -42 -43 -44 52 -46 -47 -48 -49 54 -51 -52 -53 -54 -55 -56 -57 -58 -59 -60 -61 -62 -63
leaf_value=0.071504518338260145 0.022896702812717006 -0.0072560110834212835 0.042286325340849196 0.0052734385838388142 -0.013770902723480777 -0.032443764861467231 0.045813976402259329 -0.043013200531636736 0.022151676168330133 -0.046695116304041398 0.026381245324542758 -0.016003305473541674 0.016074512282773974 -0.019475795726220466 -0.025105642082741259 -0.046067189981772505 -0.015886653669225367 0.015268263253971541 0.019364500485943043 -0.0097153860399314743 -0.020210560869464191 -0.028208495797743007 -0.044420511811724656 0.0011996714290293759 0.013230461106149158 0.019328427517423908 -0.056076656513654635 0.035379918246902176 0.04894933720566063 0.035884902312611267 0.054560101564696012 -0.0064030733844856989 -0.0210858140933971 0.032595545579675311 -0.030653538122723395 -0.00026919742671626518 -0.0028400219714864931 -0.026482916743823082 -0.012450365964303675 -0.021765964501044288 0.019890828981082128 -0.0088482447434687726 -0.0071059519051681428 -0.0091549735876716686 0.008553446282558233 -0.030915945148727853 0.0080809187150141723 -0.001950199171165177 0.044432921112965353 0.057854302956248577 -0.023512167736517414 0.064595321474564468 -0.024702813503612947 0.0091777807178421138 0.029538239507470622 0.0061704076999606061 0.0086430136228899425 -0.051152765918978688 -0.036786162212807776 0.036250607045898456 0.028199259296701598 -0.012751871831049097
leaf_weight=755.79043260216713 361.37442381680012 291.80862610042095 1178.6365894079208 158.16674795746803 560.06529150903225 1337.5794102996588 587.56811106204987 539.20047713816166 399.51857300102711 1868.9325180351734 76.987678483128548 825.86717475950718 233.50934338569641 1110.0672064125538 225.71123453974724 1354.9057680815458 104.56905969977379 1101.1760076582432 439.99573568999767 492.01165316998959 225.00060512125492 83.852668687701225 1526.1435642540455 1056.5721372961998 182.11840453743935 703.2382956892252 2248.9649223685265 657.31357909739017 711.60563792288303 1386.1148317605257 1002.5733022093773 322.26363286375999 2320.2748751044273 2313.3310889899731 1176.9772705435753 914.93643413484097 349.71099019050598 1454.3942354172468 500.67983439564705 310.50690998136997 2050.6105110943317 164.36443337798119 535.23973040282726 597.62688475847244 1260.8201892077923 661.36438459157944 762.12701743841171 1151.431882828474 470.15675492584705 903.15938939154148 813.08278658986092 1016.8600832521915 146.03367666900158 201.15034906566143 420.06275708973408 855.85067196190357 577.73524326086044 109.46474784612656 672.8336076438427 577.51269644498825 807.81938517093658 441.74895212054253
leaf_count=3242 1458 1302 4751 636 2410 6190 2393 2542 1613 9122 310 3484 936 4861 972 6644 427 4422 1799 2041 954 347 7259 4350 740 2822 11322 2647 2908 5555 4173 1345 10147 9283 5309 3820 1564 6691 2114 1394 8239 663 2218 2534 5109 3008 3120 4906 1898 3697 3621 4237 635 848 1695 3479 2402 516 3139 2312 3243 1865
internal_value=-0.000125637 -0.0241031 0.0309419 0.0211853 -0.00953843 -0.0390753 0.0528705 -0.0311811 0.0131039 -0.0464896 0.0187965 -0.000445529 0.0302406 -0.0173431 -0.0138767 -0.0373963 0.0139165 0.0245031 0.00386082 0.00386046 0.000627464 0.00657398 -0.0388264 0.00224575 0.00780063 0.028881 -0.0518188 0.0454835 0.047631 0.0330287 0.0628516 0.00856167 -0.0177825 0.0358665 -0.0252282 -0.00882273 -0.0206006 -0.033164 -0.00318902 -0.0121138 0.0182112 0.00299191 -0.00194307 -0.0112345 0.0120104 -0.0237729 0.0128464 -0.00591023 0.0425333 0.0531086 -0.0194973 0.0596132 -0.00757489 -0.00453837 0.0374047 0.0036677 0.00328033 -0.0307897 -0.0297418 0.0290793 0.024792 -0.00430196
internal_weight=48647.1 27456.5 21190.5 14665.4 13917.6 13538.9 6525.09 6557.27 7749.44 6981.62 4795.88 6428.3 6916.01 7489.34 5202.29 4130.8 3252.38 3424.04 4245.75 2953.56 3122.25 2461.55 2863.72 2897.25 2377.7 2322.86 4117.9 3749.87 3092.55 1619.62 2775.22 1339.99 3490.8 3491.97 2287.04 2182.55 2426.47 2775.89 1557.25 660.218 2291.96 241.352 717.358 1170.52 1660.34 1766.26 1123.5 1711.5 1601.83 1490.73 1104.89 2019.43 944.811 798.777 890.22 960.42 899.999 2236.69 2127.23 1543.5 965.986 1356.69
internal_count=209683 123647 86036 59146 59333 64314 26890 30421 31377 33893 19309 26711 27769 32622 22452 19532 13118 13735 17542 12068 12964 10027 13449 12010 9680 9313 20444 15238 12591 6491 11652 5546 15136 14034 10170 9169 10889 12888 6464 2958 9212 973 2958 4989 6722 7931 4578 7316 6501 6090 4923 8410 4017 3382 3593 3906 3747 10346 9830 6191 3879 5685
cat_boundaries=0 1 3 4 6 7 9 10 11 12 13 15 17
cat_threshold=1 4232100352 1 1920736328 2818578437 1 3584 4160884736 1 34876488 3900917890 19936779 3758194880 1984170124 1 2617250304 1
is_linear=0
shrinkage=0.05


Tree=11
num_leaves=63
num_cat=5
split_feature=50 49 48 48 50 25 48 25 49 25 50 48 25 25 15 48 25 1 6 12 49 14 25 28 48 2 1 48 7 2 48 18 53 25 12 15 50 53 48 25 1 51 32 18 14 26 50 12 15 17 48 33 48 12 6 15 50 51 32 53 14 53
split_gain=13170.2 2231.86 1679.07 389.109 363.356 331.632 185.056 175.214 156.725 108.579 105.344 94.1872 86.8386 54.095 54.0563 46.2483 43.5787 37.1954 34.2469 33.2915 33.0815 32.7841 31.7933 31.2213 30.8522 28.9947 28.4478 27.2136 26.7057 25.3073 25.0241 25.0064 24.8336 24.6874 24.5573 23.8807 23.4405 22.4025 22.1549 21.6872 21.452 21.0308 20.9105 21.274 20.7965 19.6375 26.4742 19.5161 19.4985 19.2995 19.1627 18.8988 18.5016 18.4141 18.1278 17.7852 17.7188 17.4924 18.3038 17.2311 16.8858 16.5002
threshold=3.5000000000000004 19.050000000000004 0.46536796536796537 0.25320512820512825 4.5000000000000009 5.5000000000000009 0.69047619047619058 3.5000000000000004 37.45000000000001 3.5000000000000004 6.5000000000000009 0.086581709145427302 3.5000000000000004 4.5000000000000009 1.5580892133149293 0.10929288103201149 3.5000000000000004 29.500000000000004 3.4765000000000001 25.000000000000004 46.550000000000004 2.2027494954295124 3.5000000000000004 93.500000000000014 0.9545454545454547 0 40.500000000000007 0.10582306830907055 5.7500000000000009 1 0.16807909604519775 2.5000000000000004 35.45000000000001 4.5000000000000009 25.000000000000004 1.8000241202036604 6.5000000000000009 30.950000000000003 0.31754032258064518 2.5000000000000004 28.500000000000004 6.9500000000000011 7.5000000000000009 1.0000000180025095e-35 1.8484238118815568 2 6.5000000000000009 25.000000000000004 0.93590108845079578 3 0.21507863089731735 4 0.044543650793650802 25.000000000000004 3.4945000000000008 1.4701097818118665 2.5000000000000004 13.550000000000002 6.5000000000000009 28.850000000000005 1.7491620461964394 59.850000000000001
decision_type=8 8 10 10 10 8 10 8 8 8 8 10 10 10 8 10 10 2 2 2 8 10 10 2 10 1 2 10 2 1 10 2 2 8 2 10 10 2 10 10 2 2 2 2 10 1 10 2 10 1 10 1 10 2 2 8 10 2 2 2 10 2
left_child=2 4 3 7 9 10 22 19 18 30 16 14 17 25 31 32 21 -5 36 26 -12 -3 34 38 48 27 51 -9 -10 44 42 41 -11 49 -4 -15 -7 -18 -19 56 -14 -6 43 -2 50 46 -43 -29 53 -13 -17 -1 -39 -8 -16 -30 60 58 -34 -35 -28 -21
right_child=1 5 6 12 11 8 24 13 28 15 20 33 40 35 54 29 37 23 -20 61 -22 -23 -24 -25 -26 -27 39 47 55 -31 -32 -33 57 59 -36 -37 -38 52 -40 -41 -42 45 -44 -45 -46 -47 -48 -49 -50 -51 -52 -53 -54 -55 -56 -57 -58 -59 -60 -61 -62 -63
leaf_value=-0.0023398628729451444 0.020616456423719176 -0.020175980850783037 0.041019959816832131 0.021183182341754203 -0.050605798220673084 -0.03114332553182049 0.053347781125387253 -0.0041360503948575404 -0.059888601720776424 -0.021900306065546535 -0.032887281944127891 -0.011541455042941125 -0.002137437382539025 -0.0042681154387443155 -0.026746668721189155 0.0028480640403019931 -0.042022519673532481 0.030180062136152586 -0.047797203544250308 0.025455650493945395 -0.047587361587724468 -0.0011875382324369596 0.021850286274622696 0.027426971661069628 0.069320147736050428 -0.026357536527715743 0.023438942757169727 0.0079566802309915668 -0.042422652000320145 -0.030384507558066012 0.017312702073645936 -0.028688652187197114 0.021612862802983402 -0.037685598403585277 0.049462797417445248 -0.034034423811340753 -0.039333984257067113 -0.027351828146826102 0.038719237485252522 0.012508564993236588 0.018185634504903431 -0.0078487125824620221 7.9857591356715947e-05 0.005054238158959585 -0.0067727678285399023 -0.019211085320839472 -0.026358598147147111 0.019799039240243375 0.030609301354916199 0.00036818312286586604 0.028066464303031752 0.012953163797043716 -0.016279732966960649 0.063120507954431165 -0.048322615726688209 -0.050998249939243803 0.018634559363875414 -0.012804943900648373 -0.0048355340541246248 -0.012442035263838148 0.043078141971919184 -0.020904422955218091
leaf_weight=282.97825181484222 339.36750741302967 684.59271012246609 2108.3240749388933 822.30175288021564 41.552826672792435 1800.227714702487 954.10254037380219 342.67559024691582 680.22502441704273 431.49011886119843 1202.972170189023 557.92421516776085 153.98852440714836 905.93252332508564 1461.1742493063211 1202.8114504516125 205.59566850960255 1202.1583282351494 628.20229732990265 1441.2035361081362 561.30201914906502 340.31081140041351 162.44049848616123 1836.6996227949858 741.00113573670387 60.609800547361374 300.22345207631588 1234.0484528243542 782.84275703132153 67.327596917748451 567.26489433646202 395.80133904516697 77.423619523644447 71.009407863020897 1456.1256854385138 72.79534175992012 1696.8773575127125 1588.8607812225819 2063.266846626997 827.18753276765347 828.20692682266235 1275.3662390708923 947.36353340744972 622.30834360420704 612.18899969756603 1354.8357559740543 227.65981522202492 484.48949156701565 65.814497798681259 855.2409380376339 80.361907109618187 711.59049588441849 494.8002051115036 974.15550248324871 104.30117684602737 2655.4560317546129 897.02157859504223 752.4580442160368 421.78542965650558 1408.3614695221186 172.24309176206589 19.451947718858719
leaf_count=1139 1397 3068 8608 3303 192 8517 4021 1412 3548 1888 5646 2329 622 3770 6594 4997 966 4819 3101 5773 2749 1475 652 7385 3242 253 1202 5003 3915 286 2285 1736 332 315 5978 308 8173 7324 8314 3324 3326 5547 3902 2558 2560 5936 1016 1963 270 3569 329 2861 2213 4119 487 13619 3601 3220 1804 6054 690 78
internal_value=-0.000123858 -0.0231277 0.0294983 0.0201383 -0.009093 -0.0377451 0.0507316 0.0124494 -0.0439368 1.24892e-05 -0.0276942 -0.0162829 0.0287689 0.00324211 -0.0205342 -0.00547525 -0.0224399 0.0310517 -0.0370485 0.0185861 -0.0375641 -0.013871 0.0434831 0.0326422 0.0606087 0.00772756 0.0157245 0.00872982 -0.0508366 -0.00026024 0.00809206 -0.0168998 -0.0115564 -0.00913905 0.044469 -0.00648206 -0.0351176 -0.0262763 0.0355756 0.018901 0.0149994 -0.0152905 0.00535217 0.010546 0.000809842 -0.014777 -0.010582 0.0112953 0.0573715 -0.00441286 0.00442743 0.00870865 -0.0247226 0.058285 -0.0281842 -0.0490457 0.0227621 -0.00799046 -0.000733584 -0.0136537 0.0305986 0.0248383
internal_weight=48318.7 27197.6 21121 14659.1 13875.4 13322.3 6461.96 7752.45 8243.83 6122.15 5078.43 7753.23 6906.62 3100.55 4860.69 3645.85 3314.16 5924.43 4125.31 4651.9 1764.27 1024.9 3726.89 5102.12 2735.07 2121.82 3191.24 2061.21 4118.52 1962.69 2476.3 3295.22 1683.16 2892.54 3564.45 978.728 3497.11 2289.26 3265.43 2196.68 982.195 2899.41 1909.04 961.676 1895.36 2857.86 1503.03 1718.54 1994.07 1413.17 1283.17 994.569 2083.66 1928.26 1565.48 3438.3 1369.49 1251.67 499.209 1479.37 472.467 1460.66
internal_count=209683 123647 86036 59146 59333 64314 26890 31377 40873 25558 23441 33775 27769 12709 21508 15416 15046 23821 19791 18668 8395 4543 15238 20518 11652 8631 12817 8378 21082 8172 10142 14427 7244 12267 14586 4078 16690 10503 13133 8817 3948 12691 7857 3955 7886 12499 6563 6966 8410 5898 5326 4000 9537 8140 7081 17534 5493 5356 2136 6369 1892 5851
cat_boundaries=0 1 2 3 4 5
cat_threshold=1 1 28 3116 54
is_linear=0
shrinkage=0.05


Tree=12
num_leaves=63
num_cat=4
split_feature=50 16 16 48 16 25 16 25 25 16 25 50 25 25 50 15 5 2 32 15 50 16 15 32 5 16 15 2 53 32 7 16 11 50 48 16 32 15 52 48 16 14 15 15 18 52 25 15 15 53 17 15 53 32 15 18 20 52 14 25 15 2
split_gain=11967.9 2085.46 1557.55 445.34 353.725 245.354 178.698 163.524 109.649 106.363 104.563 74.8554 73.077 53.934 48.5203 40.6153 37.5082 32.9463 33.649 33.6993 32.4237 30.6889 29.9808 32.4699 28.7998 28.7536 28.2355 27.7859 26.5158 27.5347 26.3671 26.3063 26.2532 26.1794 26.0139 24.0365 23.08 21.4359 20.7205 20.682 20.0985 20.022 19.8982 19.7888 19.3443 19.1556 19.0868 19.0574 18.6878 17.6239 17.5056 17.3956 17.1876 17.04 22.1055 16.7027 17.3058 16.5056 16.5014 21.6321 16.4115 16.1853
threshold=3.5000000000000004 3.1419924481000066 1.1472764606483909 0.086581709145427302 1.5789255615152133 5.5000000000000009 0.89587973461402759 3.5000000000000004 4.5000000000000009 3.6493578504437103 4.5000000000000009 6.5000000000000009 2.5000000000000004 4.5000000000000009 4.5000000000000009 1.0816615128302691 3.5485000000000002 0 7.5000000000000009 1.2946333325561217 2.5000000000000004 0.71754226264466137 0.85418893014450203 7.5000000000000009 3.5425000000000004 2.1101948345363803 1.8945885877146502 1 36.850000000000001 7.5000000000000009 5.7500000000000009 3.8617812361389854 25.000000000000004 5.5000000000000009 0.10582306830907055 1.9387157803292638 6.5000000000000009 1.7137573449897647 7.9500000000000011 0.064309346567411094 1.011435595095721 1.8945885877146502 0.81068324164968719 2.2027494954295124 1.5000000000000002 20.850000000000005 1.5000000000000002 0.89587973461402759 1.2088489500472754 39.150000000000013 2 1.4701097818118665 34.350000000000001 7.5000000000000009 1.0471650770867933 2.5000000000000004 1.0000000180025095e-35 20.150000000000002 2.2565274485401434 3.5000000000000004 1.011435595095721 3
decision_type=8 8 10 10 10 8 10 8 8 8 8 8 8 10 10 10 2 1 2 10 10 10 10 2 2 10 10 1 2 2 2 8 2 10 10 10 2 10 2 10 10 10 10 10 2 2 10 10 8 2 1 8 2 2 10 2 2 2 10 10 10 1
left_child=2 3 6 10 12 11 21 20 14 24 33 15 32 27 35 58 26 18 25 -20 42 -1 23 49 43 -10 39 34 44 60 -11 -13 61 38 -9 -5 -14 -15 -2 48 -25 -38 -6 -7 -22 -27 -23 -31 -12 -8 -16 -32 -34 54 -37 56 -40 -17 -3 -60 -30 -4
right_child=1 5 4 8 7 9 22 13 17 30 16 31 36 37 50 57 -18 -19 19 -21 28 46 -24 40 -26 45 -28 -29 29 47 51 -33 52 -35 -36 53 41 -39 55 -41 -42 -43 -44 -45 -46 -47 -48 -49 -50 -51 -52 -53 -54 -55 -56 -57 -58 -59 59 -61 -62 -63
leaf_value=0.06731486952368633 -0.066985420582498803 -0.02179883737552972 0.029866341053063791 0.014654744846575899 0.028407465427748364 -0.035214883572451949 0.042226114185597609 -0.0039320889398389161 0.0082576946826298618 -0.058646806255648443 -0.017019296208722567 -0.032597584743977448 0.033381082796137135 -0.0038735830678349919 -0.011000305406840537 -0.04338024331699275 -0.050060752935152233 -0.035983505162228868 -0.0092212695246242492 -0.027543190055911423 0.013157819268900223 0.057024608950219768 0.031868723666274017 0.04503144852662911 -0.056356391386274234 -0.026911026375856625 -0.036687692976450879 -0.024940559217121721 0.028189737695263985 0.014477558000232083 -0.041108201975137898 -0.046184133960076507 0.015628841644505141 -0.01775561475448743 0.01110896890245083 0.016652697816299352 0.021645487535000091 -0.028579201392190248 -0.015009435943442177 -0.017486730524327209 0.033688138805814755 0.0093759003812995071 0.016344732712777345 -0.054588932364362956 -0.0018539908198007529 -0.0045097862996206573 0.041358315491547913 -0.014202236889641607 -0.027022653597008076 0.053448036504900265 0.00034996065265771755 -0.049676644044732168 0.038810357139030117 0.00014157597568946996 0.0022697143403695671 -0.020119169771200485 -0.0036327491632529617 -0.027141540524689547 0.0032148689037406414 -0.018036730300297444 0.015077738324516613 0.011143725810050607
leaf_weight=725.31975445151329 14.973816454410551 652.53760628402233 2391.2948035299778 770.66147673130035 948.606909096241 2867.3815062344074 576.53106260299683 342.43430790305138 454.05365036427975 660.40151381492615 625.85783433914185 1012.3613595962524 343.83389611542225 905.09606605768204 556.62801730632782 180.10741955041885 127.36655606329441 107.11345478892326 1369.7185866236687 307.26742336153984 653.22661784291267 1747.9300813227892 652.73443567752838 700.67364810407162 186.45632115006447 107.29848419129848 328.52932253479958 63.220909789204597 730.94782599806786 1259.5425206720829 767.8659593462944 549.73525410890579 84.990649029612541 1147.9468398243189 1790.8795720040798 496.791375041008 1893.4963767379522 97.231312409043312 437.83683796226978 1850.3185001313686 882.14077265560627 403.32007926702499 534.50223852694035 138.15096639096737 319.59171105921268 862.87936593592167 218.75072921812534 60.715320572257042 1838.020456135273 889.92591220140457 855.30328568816185 2591.4356976300478 1350.7660416066647 1139.2100303471088 577.89933116734028 248.9166743606329 1413.1805582493544 1193.0346881300211 196.2812508046627 307.08755657076836 354.32799856364727 121.28737823665142
leaf_count=3242 69 2974 9655 3110 3803 13985 2387 1412 1884 3548 2836 4837 1380 3766 2329 863 617 475 5834 1337 2627 7491 2647 2908 962 469 1536 265 2927 5053 3915 2749 343 5081 7248 2027 7594 413 1879 8186 3593 1619 2140 692 1286 3704 919 244 8544 3703 3569 13619 5464 4692 2388 1068 6048 5574 847 1400 1421 486
internal_value=-0.000121961 -0.0221911 0.0281319 -0.0103641 0.019145 -0.038554 0.0487219 0.0121203 -0.00169208 -0.0441025 -0.018574 -0.0287733 0.0277383 0.00334082 0.00343671 -0.023458 -0.023292 -0.00872026 -0.00777861 -0.0125783 0.0178973 0.0585241 0.041594 0.0436758 -0.0372884 -0.0021271 -0.0225576 0.00772652 0.0151917 0.0180087 -0.0495136 -0.037379 0.0320446 -0.0116766 0.00869462 0.00704951 0.0212996 -0.00627017 -0.00837693 -0.0214816 0.0387095 0.019491 0.0240601 -0.0361054 0.00822612 -0.00698729 0.0552821 0.0131586 -0.0244817 0.0490362 -0.0042001 -0.0477181 0.0374381 0.00440213 0.00891846 -0.00795902 -0.00632377 -0.0292715 -0.0165519 -0.00974998 0.0239088 0.0289626
internal_weight=47983.9 26940.6 21043.3 15637.8 14649.3 11302.8 6394.01 8060.32 7604.82 7211.69 8032.95 4091.15 6588.99 3198.86 4396.49 2529.05 4770.09 3208.33 3101.22 1676.99 4861.46 2692 3702.01 3049.27 3191.99 1424.23 4642.73 2196.53 3378.35 2405.53 4019.7 1562.1 3948.34 3262.85 2133.31 2984.56 2640.65 1002.33 2114.91 4314.2 1582.81 2296.82 1483.11 3005.53 972.818 970.178 1966.68 1320.26 2463.88 1466.46 1411.93 3359.3 1435.76 2213.9 1074.69 2099.93 1851.02 1373.14 1155.91 503.369 1085.28 2512.58
internal_count=209683 123647 86036 67682 59146 55965 26890 32605 31818 36721 35864 19244 26541 13104 18115 11658 21719 13703 13228 7171 19501 11652 15238 12591 15639 6057 21102 8925 13558 9645 21082 7586 15948 14145 8660 12217 10593 4179 9064 19566 6501 9213 5943 14677 3913 4173 8410 5297 11380 6090 5898 17534 5807 9107 4415 8995 7927 6437 5221 2247 4348 10141
cat_boundaries=0 1 2 3 4
cat_threshold=1 1 3116 1
is_linear=0
shrinkage=0.05


Tree=13
num_leaves=63
num_cat=12
split_feature=50 16 16 48 16 25 16 25 16 25 25 15 50 32 25 50 25 5 10 10 16 10 11 48 25 5 25 32 7 1 16 14 10 50 32 11 14 10 16 15 10 8 15 10 3 14 53 11 15 15 16 7 53 10 28 50 15 50 10 3 10 48
split_gain=10877.8 1948.34 1447.17 406.16 321.508 235.935 172.8 142.668 104.171 99.1613 96.4619 75.0992 70.6209 46.959 43.9014 43.7913 38.6001 35.3916 32.4951 31.0996 30.6225 30.3672 29.3624 29.0644 28.7915 27.915 26.9364 26.7385 26.0968 25.3478 25.2743 25.211 24.5461 23.9354 23.8458 22.5796 22.2705 21.7526 21.3272 21.311 20.899 20.8145 19.0249 18.9884 18.6205 18.6031 18.5547 18.5284 18.2439 18.1404 17.6467 17.6323 17.5067 18.9098 18.6482 17.4017 17.0374 16.8851 16.7845 16.6496 16.7095 16.6224
threshold=3.5000000000000004 3.1419924481000066 1.1472764606483909 0.086581709145427302 1.599336558775341 5.5000000000000009 0.89587973461402759 3.5000000000000004 3.6493578504437103 4.5000000000000009 4.5000000000000009 0.81068324164968719 6.5000000000000009 7.5000000000000009 4.5000000000000009 4.5000000000000009 3.5000000000000004 3.5485000000000002 0 1 0.71754226264466137 2 25.000000000000004 0.10811126694717159 3.5000000000000004 3.5425000000000004 6.5000000000000009 7.5000000000000009 5.7500000000000009 40.500000000000007 3.8617812361389854 2.1804014991111278 3 5.5000000000000009 7.5000000000000009 25.000000000000004 3.3339870432574523 4 1.8794359129669858 1.0471650770867933 5 40.500000000000007 2.2027494954295124 6 7 2.9575076874722881 31.750000000000004 25.000000000000004 1.8945885877146502 1.5789255615152133 1.8164190316151558 8.6500000000000004 35.250000000000007 8 93.500000000000014 2.5000000000000004 1.4701097818118665 4.5000000000000009 9 10 11 0.10582306830907055
decision_type=8 8 10 10 10 8 10 8 8 8 8 8 8 2 10 8 10 2 9 9 10 9 2 10 10 2 10 2 2 2 8 10 9 10 2 2 10 9 10 10 9 2 10 9 1 8 2 2 10 10 10 2 2 9 2 10 8 10 9 1 9 10
left_child=2 3 6 10 11 12 20 22 25 15 33 27 16 19 32 21 31 26 -11 41 -1 -5 29 49 35 42 45 -4 -10 -6 -14 43 -9 37 50 -8 -16 51 58 -21 -17 -13 -7 -3 -36 -12 -23 -22 -18 -20 -25 -2 53 -29 -54 -34 -30 -47 -31 60 -33 -57
right_child=1 5 4 9 7 8 24 14 28 18 17 13 30 -15 36 40 48 -19 23 39 47 46 -24 34 -26 -27 -28 52 56 38 -32 59 55 -35 44 -37 -38 -39 -40 -41 -42 -43 -44 -45 -46 57 -48 -49 -50 -51 -52 -53 54 -55 -56 61 -58 -59 -60 -61 -62 -63
leaf_value=0.065464232224826946 -0.05441815545870117 -0.00037533680932753222 0.037431419885739836 -0.0013023611975834209 0.0074548452586047009 -0.033978033304820042 0.037441341338665016 -0.0091354214917122294 -0.057470898700514299 -0.023306393468149143 -0.016498712814200994 0.0025030887732206131 -0.031393754053768333 0.012320090975724087 -0.003108338272284141 0.0035024462674489647 -0.024835145000635623 -0.048602116558522451 -0.010342836348313282 0.034308324932378897 0.048410791870407067 -0.01097557353697903 0.022632495727625025 0.025447103901717158 0.019201363997276816 -0.055058148506827789 -0.02993442852562694 0.02776240380543827 -0.039837551987830941 0.028145574787583106 -0.044833892265126934 0.0056314438759813203 0.018188620227554377 -0.016963925073114932 -0.00080265097275917521 0.0455992940883653 -0.026575050959337321 -0.0052468843935898164 0.012364115246804324 0.02043317600144429 -0.0088769093755251254 0.021111514077690387 -0.053209580232654485 -0.025424215675378604 -0.014996596579630889 -0.013848745674241675 0.010948914167906151 0.058189042857120378 -0.041900308359883918 -0.028765079005329847 0.0010972926605250712 -0.015396171103476713 0.033733739316206955 0.0027609181780132745 0.023754140115836722 -0.0049071677034765475 -0.048405149847734023 -0.025899549760567766 0.014186463529254996 0.012490493585750747 -0.025310171981455121 0.0087580414938057023
leaf_weight=708.94918891787529 31.139302209019661 106.37342469394207 1165.1476319432259 855.55731680989265 995.49118681252003 2824.283766195178 2081.02945291996 208.17104594409466 640.71940304338932 317.53483901917934 1982.0958644747734 185.03197801113129 998.96898533403873 1102.3450982421637 861.53590461611748 560.38498881459236 1589.8161247968674 124.69800758361816 952.48460821807384 938.49704873561859 965.01909650862217 101.31795942783356 1460.4736421555281 82.452266305685043 161.91046771407127 181.4382648319006 801.93051831424236 174.3767049908638 753.11928308010101 573.96388922631741 538.2711174339056 78.285156518220901 388.68782916665077 1141.6096302717924 460.99732978641987 1431.7496980279684 114.5452842861414 1667.5801815539598 1148.608467400074 392.46435950696468 850.34011377394199 800.00562310218811 134.73298826813698 352.5607440918684 469.01000800728798 363.01444405317307 2029.9904949218035 972.83774791657925 173.7310491502285 155.43646232783794 762.53563046455383 411.53214937448502 1215.7266487926245 146.48308031260967 761.22123502194881 270.39227306842804 2528.1517588347197 1458.7295021414757 475.47337114810944 118.95910233259201 87.15540312230587 1257.36363697052
leaf_count=3242 141 487 4751 3513 4000 13985 8608 861 3548 1390 8953 744 4837 4422 3587 2339 7469 617 4149 3780 4173 416 5851 338 652 962 3769 704 3915 2299 2749 343 1570 5081 1951 5978 491 7133 4613 1573 3559 3216 692 1617 1983 1622 8288 4237 843 689 3203 1790 4915 590 3074 1115 13619 6758 1905 515 384 5085
internal_value=-0.000119753 -0.0212914 0.0268399 -0.00988487 0.018205 -0.0372926 0.0468321 0.0112241 -0.0428071 -0.00161033 -0.017761 0.0260718 -0.0276622 0.0208145 0.00291541 0.00326258 -0.0224882 -0.0223182 -0.00830597 0.0248575 0.0565726 0.0066916 0.0167598 -0.00655021 0.0398162 -0.036021 -0.0216066 0.0312615 -0.048241 0.014074 -0.0360999 -0.0129317 0.00694799 -0.0111317 -0.00260658 0.0407664 -0.00586221 -0.0079766 0.0170718 0.0299916 -0.00399753 0.017439 -0.0348537 -0.0201805 -0.00813065 -0.0198509 0.00986041 0.0533196 -0.0265163 -0.0129274 0.0034733 -0.0177404 0.0281329 0.0172997 0.0298911 0.00869731 -0.0464387 -0.0234982 0.0222244 -0.00123447 -0.0111824 0.00633948
internal_weight=47644.4 26686.9 20957.5 15580.4 14636 11106.6 6321.5 7754.71 7062.45 7598.04 7982.33 6881.3 4044.12 3418.34 3100.7 4397.59 2506.88 4730.47 3200.45 2316 2646.81 2986.87 4654.01 2882.92 3674.69 3140.46 4605.77 3462.96 3921.99 3193.54 1537.24 743.334 2124.61 3251.86 1775 3512.78 976.081 2110.25 2198.05 1330.96 1410.73 985.038 2959.02 458.934 930.007 3803.84 2131.31 1937.86 1763.55 1107.92 844.988 442.671 2297.81 320.86 1976.95 1916.44 3281.27 1821.74 1049.44 284.4 165.441 1527.76
internal_count=209683 123647 86036 67682 59146 55965 26890 31377 36721 31818 35864 27769 19244 13735 12709 18115 11658 21719 13703 9313 11652 12217 18668 12313 15238 15639 21102 14034 21082 12817 7586 3346 8631 14145 7475 14586 4078 9064 8817 5353 5898 3960 14677 2104 3934 17333 8704 8410 8312 4838 3541 1931 9283 1294 7989 7770 17534 8380 4204 1242 727 6200
cat_boundaries=0 2 4 6 8 10 11 12 13 14 15 16 17
